svm_type nu_svr
kernel_type linear
nr_class 2
total_sv 381
rho -3.06443
SV
-1 1:1.0296194 2:7.7996958e-005 3:0.40569375 4:3.8510863 5:15.771701 6:11.312815 7:12.95454 8:13.052269 9:13.115747 10:13.172574 11:13.241456 12:13.336137 13:13.456028 14:13.590035 15:13.726308 16:10.199359 17:4.4420328 20:1.1002569 21:0.65329867 22:0.78865916 23:0.82156502 24:0.83424258 25:0.85225384 26:0.85362097 27:1.1642945 28:1.0519842 29:1.0315255 30:1.0254475 31:1.016964 32:1.0164611 33:8.9936365 34:5.7202871 35:5.268208 36:5.0767077 37:4.9282163 38:4.7688425 39:3.6160404 40:2.6132612 41:2.4269722 42:2.3446634 43:2.2833385 44:2.2120084 45:11.154552 46:11.25228 47:11.315757 48:11.372584 49:11.441465 50:11.536145 51:11.656035 52:11.790041 53:11.926314 54:1.5133278 55:0.75510987 56:3.9468133 57:0.98735073 58:0.58301124 59:0.50280001 60:0.33527356 61:0.4352694 
-1 1:1.0296194 2:3.99992e-005 3:0.11571423 4:3.8383885 5:15.803484 6:11.557382 7:13.305708 8:13.383048 9:13.433713 10:13.480351 11:13.539861 12:13.619672 13:13.711252 14:13.805575 15:13.894562 16:9.4240282 17:4.3475211 20:0.55715562 21:0.65538976 22:0.64489977 23:0.64220488 24:0.63855635 25:0.63967045 26:0.63721366 27:1.1326082 28:1.1344224 29:1.136579 30:1.1394087 31:1.138617 32:1.1406927 33:8.8358548 34:6.152761 35:5.9639594 36:5.8985389 37:5.8214675 38:5.6984699 39:3.6023208 40:2.7647674 41:2.6755712 42:2.6435744 43:2.6084497 44:2.550078 45:11.505716 46:11.583055 47:11.63372 48:11.680358 49:11.739868 50:11.819679 51:11.911257 52:12.00558 53:12.094567 54:1.2843973 55:0.72015388 56:3.0429299 57:0.83487349 58:0.51492019 59:0.51699114 60:0.39781561 61:0.38890678 
-1 1:0.29545379 2:0.00017098538 3:0.87665637 4:3.3093547 5:14.508471 6:10.127071 7:11.514275 8:11.645317 9:11.742916 10:11.836826 11:11.936814 12:12.048793 13:12.170655 14:12.295728 15:12.417838 16:10.409083 17:4.1112734 20:0.36347716 21:0.32724696 22:0.39288295 23:0.43497601 24:0.46125863 25:0.48115621 26:0.49062883 27:1.7490771 28:1.5252834 29:1.4248014 30:1.3726477 31:1.3258092 32:1.3077418 33:7.6630976 34:4.0715871 35:3.4423995 36:3.173079 37:2.9180659 38:2.718285 39:2.5882937 40:1.5867769 41:1.3974175 42:1.3218974 43:1.2533605 44:1.1891179 45:11.170543 46:11.301584 47:11.399183 48:11.493093 49:11.59308 50:11.705059 51:11.826921 52:11.951994 53:12.074104 54:1.4719575 55:0.65626387 56:4.4910888 57:1.1367203 58:0.79552128 59:0.61122828 60:0.21725093 61:0.29367856 
-1 1:0.5812017 2:0.0001859827 3:0.66974139 4:3.3705594 5:14.933865 6:10.595434 7:11.82548 8:11.949413 9:12.042075 10:12.124485 11:12.215366 12:12.325242 13:12.449044 14:12.578135 15:12.700956 16:10.4443 17:3.7969965 20:0.6312755 21:0.40281694 22:0.53519311 23:0.58750607 24:0.61242399 25:0.62896646 26:0.62341975 27:1.506922 28:1.2570552 29:1.1940491 30:1.1667173 31:1.1491657 32:1.1540177 33:8.0176995 34:4.2518942 35:3.6680482 36:3.4545076 37:3.2944296 38:3.1321407 39:2.8806062 40:1.8222623 41:1.6235037 42:1.5523358 43:1.4971121 44:1.4294918 45:11.037303 46:11.161234 47:11.253896 48:11.336306 49:11.427186 50:11.537061 51:11.660862 52:11.789954 53:11.912774 54:1.5309906 55:0.68538388 56:4.54789 57:1.0256106 58:0.73547027 59:0.54462514 60:0.23913627 61:0.35950349 
-1 1:0.65501324 2:0.00018198344 3:0.56619864 4:3.3931501 5:14.887922 6:10.580327 7:12.247723 8:12.347757 9:12.42001 10:12.492029 11:12.573644 12:12.673073 13:12.784593 14:12.900159 15:13.012329 16:10.376919 17:3.9136306 20:0.67569019 21:0.39686692 22:0.4689731 23:0.51108919 24:0.55850145 25:0.5997317 26:0.61359519 27:1.5151595 28:1.3575829 29:1.2967202 30:1.226333 31:1.1768438 32:1.1631864 33:7.8821223 34:4.9109793 35:4.3505223 36:4.0310328 37:3.7593875 38:3.5232205 39:2.9280899 40:2.0488786 41:1.8465099 42:1.7524091 43:1.6701787 44:1.5812845 45:11.322562 46:11.422596 47:11.494848 48:11.566867 49:11.648481 50:11.74791 51:11.859429 52:11.974994 53:12.087164 54:1.428343 55:0.73676148 56:3.877085 57:1.1865485 58:0.71881425 59:0.58589824 60:0.24216477 61:0.32478761 
-1 1:0.30649524 2:0.00051486743 3:1.2201887 4:2.6939704 5:13.646816 6:9.0047911 7:9.3257773 8:9.5329421 9:9.6864336 10:9.8533708 11:10.05931 12:10.289666 13:10.516813 14:10.724881 15:10.909321 16:10.583679 17:4.6416254 20:0.29532951 21:0.38378716 22:0.4907023 23:0.48458431 24:0.48696276 25:0.55847743 26:0.67909034 27:1.679038 28:1.3909012 29:1.3905219 30:1.3866288 31:1.2485467 32:1.1199034 33:7.0235928 34:2.6981667 35:1.5065969 36:0.96856283 37:0.5303235 38:0.26212962 39:2.1895766 40:1.1155071 41:0.72026758 42:0.54803297 43:0.42131746 44:0.3203973 45:8.9671608 46:9.1743183 47:9.3278054 48:9.4947385 49:9.7006739 50:9.9310253 51:10.15817 52:10.366235 53:10.550674 54:1.7182069 55:0.5828703 56:5.7416463 57:1.5662931 58:0.81345242 59:0.66265811 60:0.22932229 61:0.28795719 
1 1:0.56526949 2:0.0019500973 3:0.5532119 4:2.6145535 5:12.977861 6:8.7872203 7:8.5297247 8:8.6235343 9:8.7117231 10:8.8055919 11:8.9239268 12:9.0830165 13:9.2727973 14:9.4791487 15:9.6611924 16:10.133123 17:4.1264668 20:0.58726986 21:0.81454722 22:0.96790054 23:0.93711676 24:0.9084283 25:0.89430644 26:0.9046209 27:1.1329609 28:0.97868057 29:0.98982665 30:0.99831965 31:1.0014598 32:0.9975739 33:6.8296558 34:2.964597 35:1.9933082 36:1.497573 37:1.0402746 38:0.55595882 39:2.3446427 40:1.4388496 41:1.0528472 42:0.87176606 43:0.70234277 44:0.50051465 45:7.7700274 46:7.8638169 47:7.9519885 48:8.0458404 49:8.1641564 50:8.3232238 51:8.5129823 52:8.7193137 53:8.9013429 54:1.6429052 55:0.75862282 56:5.1999286 57:1.6687169 58:0.57567309 59:0.48598679 60:0.40771954 61:0.48136485 
-1 1:0.68221666 2:0.00041291474 3:0.27061017 4:3.6230591 5:15.543218 6:11.297304 7:12.670743 8:12.703937 9:12.739116 10:12.780653 11:12.838624 12:12.92931 13:13.052139 14:13.192434 15:13.332324 16:9.9661734 17:4.6507213 20:1.2477418 21:0.49033308 22:0.60038695 23:0.66602826 24:0.74834534 25:0.87200776 26:0.92104422 27:1.3303611 28:1.2166972 29:1.1748076 30:1.095369 31:1.0121862 32:0.99206663 33:8.296527 34:4.9857736 35:4.3102743 36:3.8173385 37:3.4437049 38:3.284902 39:3.2078588 40:2.1286447 41:1.8838499 42:1.7309224 43:1.6387751 44:1.5873158 45:11.69249 46:11.725684 47:11.760863 48:11.8024 49:11.860371 50:11.951056 51:12.073885 52:12.214179 53:12.354069 54:1.6460393 55:0.74820558 56:4.3858725 57:1.3212398 58:0.67387735 59:0.57355748 60:0.24398512 61:0.35447018 
1 1:0.44648484 2:0.00067477229 3:0.76001206 4:2.7789083 5:14.079104 6:9.7939517 7:10.648892 8:10.947996 9:11.0999 10:11.199196 11:11.284959 12:11.388408 13:11.512727 14:11.648472 15:11.777169 16:10.206006 17:4.4208446 20:0.90119821 21:0.3912749 22:0.68231775 23:0.82583897 24:0.9046209 25:0.97797982 26:0.97347415 27:1.6882472 28:1.1636095 29:1.0575569 30:1.0177644 31:0.97468378 32:0.97577287 33:7.4848868 34:3.6978055 35:3.1172996 36:2.7870356 37:2.4013614 38:2.0255623 39:2.3696025 40:1.6192777 41:1.470288 42:1.3633962 43:1.2421049 44:1.094984 45:10.086101 46:10.3852 47:10.537102 48:10.636398 49:10.722159 50:10.825607 51:10.949926 52:11.08567 53:11.214366 54:1.3081196 55:0.72669067 56:4.7802438 57:1.3463475 58:0.95381102 59:0.53445199 60:0.17540586 61:0.41162125 
1 1:0.25338406 2:0.00029995501 3:0.63905735 4:3.2671518 5:15.113759 6:10.75786 7:11.815912 8:11.917907 9:12.012701 10:12.110376 11:12.22965 12:12.378373 13:12.544316 14:12.709643 15:12.861833 16:10.446504 17:4.704064 20:0.59087245 21:0.34143632 22:0.38533451 23:0.44350371 24:0.51070342 25:0.57031492 26:0.59559554 27:1.6704028 28:1.5352287 29:1.4032105 30:1.2887604 31:1.2067029 32:1.1810549 33:8.1483309 34:4.6334787 35:3.6345585 36:3.055296 37:2.5327223 38:2.0221532 39:2.9403252 40:1.8141899 41:1.4792643 42:1.3155639 43:1.166327 44:0.9907906 45:11.527536 46:11.629531 47:11.724325 48:11.821999 49:11.941274 50:12.089996 51:12.255939 52:12.421266 53:12.573456 54:1.8046293 55:0.81076663 56:4.912877 57:1.8938116 58:0.78939648 59:0.63996379 60:0.21293049 61:0.2922951 
1 1:0.25309994 2:0.00032294785 3:0.75458512 4:3.3777804 5:14.920997 6:10.52479 7:11.838915 8:11.947634 9:12.060156 10:12.159393 11:12.257919 12:12.376442 13:12.515715 14:12.663498 15:12.805223 16:10.442992 17:4.8659593 20:0.6691695 21:0.32648539 22:0.39460097 23:0.47174399 24:0.55100223 25:0.65083136 26:0.68173986 27:1.7293046 28:1.5176612 29:1.3771769 30:1.2681444 31:1.1363438 32:1.1108906 33:8.0830521 34:4.5711571 35:3.724503 36:3.2171818 37:2.5022347 38:2.0120916 39:2.847653 40:1.7787244 41:1.5055623 42:1.3629871 43:1.1880617 44:1.0215455 45:11.550906 46:11.659624 47:11.772146 48:11.871383 49:11.969909 50:12.088431 51:12.227704 52:12.375487 53:12.517212 54:1.7091961 55:0.80007553 56:4.8461395 57:1.9058624 58:0.85722332 59:0.6531163 60:0.19133279 61:0.29733448 
1 1:0.37547589 2:0.00065078819 3:0.81832018 4:2.7117837 5:14.370382 6:10.012297 7:11.095784 8:11.266571 9:11.385477 10:11.477368 11:11.566583 12:11.685043 13:11.840531 14:12.020757 15:12.203561 16:10.566536 17:4.6579159 20:0.78942008 21:0.34573492 22:0.51990924 23:0.64947321 24:0.76026269 25:0.87745759 26:0.89061594 27:1.7015255 28:1.2997193 29:1.1677297 30:1.0895312 31:1.0096707 32:1.00312 33:7.7191618 34:4.1147941 35:3.252601 36:2.7116966 37:2.2081103 38:1.7321535 39:2.6231338 40:1.6916441 41:1.4498509 42:1.2926557 43:1.1465853 44:0.96848196 45:10.640108 46:10.810895 47:10.9298 48:11.02169 49:11.110905 50:11.229364 51:11.384852 52:11.565076 53:11.74788 54:1.5652783 55:0.78143603 56:4.9087611 57:1.748022 58:0.92639756 59:0.58139156 60:0.16951693 61:0.35400994 
1 1:0.43979053 2:0.00017698434 3:0.17725792 4:3.6068441 5:15.723798 6:11.317762 7:12.183941 8:12.247742 9:12.320124 10:12.409474 11:12.523972 12:12.680157 13:12.87091 14:13.070511 15:13.250421 16:9.9502774 17:4.8488554 20:0.82641329 21:0.42931509 22:0.53545306 23:0.64061997 24:0.72746358 25:0.78183182 26:0.7646233 27:1.4283859 28:1.2686113 29:1.1557677 30:1.0867246 31:1.049686 32:1.0582975 33:8.7018195 34:4.602182 35:3.5376387 36:2.991973 37:2.5630332 38:2.1504522 39:3.3178967 40:1.9402072 41:1.5822735 42:1.4069481 43:1.262455 44:1.0997516 45:11.631562 46:11.695364 47:11.767745 48:11.857096 49:11.971592 50:12.127778 51:12.31853 52:12.518131 53:12.69804 54:2.0496604 55:0.82659117 56:5.4802653 57:1.7481932 58:0.71970557 59:0.55510847 60:0.23167215 61:0.37111737 
1 1:0.37795481 2:0.0010404585 3:0.64267986 4:3.0892779 5:14.335452 6:10.001793 7:10.652834 8:10.803391 9:10.901877 10:10.984962 11:11.075291 12:11.196925 13:11.355081 14:11.530559 15:11.690907 16:10.505584 17:4.9215529 20:0.8531997 21:0.3779041 22:0.66244207 23:0.84232724 24:0.96238928 25:1.0317022 26:1.057303 27:1.6717674 28:1.1894111 29:1.040311 30:0.98884132 31:0.9607611 32:0.95392711 33:7.66424 34:3.568918 35:2.9376641 36:2.6815089 37:2.4449029 38:2.2276102 39:2.4634417 40:1.5550001 41:1.4124549 42:1.3433174 43:1.2676049 44:1.1870391 45:10.19355 46:10.344105 47:10.442591 48:10.525675 49:10.616003 50:10.737636 51:10.895791 52:11.071268 53:11.231615 54:1.3687336 55:0.65883874 56:4.9828259 57:1.1187535 58:0.95005546 59:0.53900968 60:0.159817 61:0.40128043 
1 1:0.47193177 2:0.00034094187 3:0.53008634 4:3.7704104 5:15.62111 6:11.246313 7:12.496942 8:12.556347 9:12.60783 10:12.671784 11:12.768537 12:12.911781 13:13.082513 14:13.256012 15:13.416474 16:10.342501 17:4.9628377 20:0.88236366 21:0.39997406 22:0.46898436 23:0.57852838 24:0.63952908 25:0.74102407 26:0.86417436 27:1.4893165 28:1.3632204 29:1.2470834 30:1.1907456 31:1.0857698 32:1.016106 33:8.421337 34:5.3026497 35:4.3051124 36:3.829078 37:3.1073093 38:2.5463603 39:3.2604519 40:2.1670478 41:1.7936081 42:1.6405229 43:1.4381543 44:1.270851 45:11.893857 46:11.953262 47:12.004745 48:12.068699 49:12.165451 50:12.308695 51:12.479427 52:12.652926 53:12.813387 54:1.8286063 55:0.88003536 56:4.5340662 57:2.034438 58:0.74796878 59:0.62724329 60:0.20964871 61:0.30424668 
1 1:0.31641456 2:0.00053085907 3:0.86437156 4:3.131279 5:15.046017 6:10.7109 7:11.98011 8:12.088682 9:12.116513 10:12.128365 11:12.170007 12:12.298345 13:12.506049 14:12.734589 15:12.950025 16:10.556203 17:5.0253345 20:0.80167821 21:0.35229989 22:0.47386741 23:0.61726294 24:0.77205263 25:0.8901997 26:0.98026297 27:1.6480675 28:1.3625005 29:1.1867092 30:1.06657 31:1.0053476 32:0.97448454 33:8.0207346 34:4.6781538 35:3.6624351 36:3.0129564 37:2.6128929 38:2.2958985 39:2.8835752 40:1.8764801 41:1.5857926 42:1.4208337 43:1.3065813 44:1.2014799 45:11.607914 46:11.716485 47:11.744316 48:11.756169 49:11.79781 50:11.926148 51:12.133852 52:12.362392 53:12.577827 54:1.6387041 55:0.76380807 56:4.7141075 57:1.6942271 58:0.88938833 59:0.60550849 60:0.16592141 61:0.322683 
1 1:0.50834415 2:0.00025396775 3:0.46618196 4:3.6896605 5:15.715308 6:11.408254 7:12.942212 8:12.942436 9:12.96461 10:13.003195 11:13.067997 12:13.177234 13:13.324092 14:13.484898 15:13.640132 16:10.1762 17:5.0131516 20:0.63547675 21:0.40966693 22:0.42921809 23:0.44287392 24:0.48398235 25:0.564195 26:0.66260189 27:1.4695453 28:1.4458678 29:1.440618 30:1.3746167 31:1.2231597 32:1.1256826 33:8.3519668 34:5.5235359 35:4.6555514 36:4.0435711 37:3.2538535 38:2.6453485 39:3.2847012 40:2.225875 41:1.8717937 42:1.6483801 43:1.4331231 44:1.2511674 45:12.279678 46:12.279902 47:12.302076 48:12.340661 49:12.405463 50:12.5147 51:12.661558 52:12.822363 53:12.977598 54:1.8333091 55:0.92158032 56:4.2411915 57:2.1647187 58:0.66848418 59:0.6722904 60:0.25043548 61:0.27673317 
-1 1:0.77360349 2:0.00036093486 3:0.79390522 4:3.3317295 5:14.097502 6:9.4276268 7:10.112987 8:10.326939 9:10.45933 10:10.559403 11:10.664533 12:10.787663 13:10.923579 14:11.065507 15:11.195931 16:10.386208 17:5.2397431 19:0.16435275 20:0.78446486 21:0.62687542 22:0.78759608 23:0.77741618 24:0.76558179 25:0.74844612 26:0.73273946 27:1.3295076 28:1.0452776 29:1.0503337 30:1.0566275 31:1.0657936 32:1.0746532 33:7.8790368 34:4.6607788 35:4.1624372 36:3.6280408 37:3.0492213 38:2.0479529 39:2.6590582 40:2.1418123 41:1.9071347 42:1.6738485 43:1.437717 44:1.0350646 45:8.9455142 46:9.159448 47:9.2918309 48:9.3918975 49:9.4970219 50:9.6201456 51:9.7560559 52:9.8979791 53:10.028398 54:1.3730471 55:1.0460473 56:4.4108221 57:2.1097272 58:0.6721282 59:0.49388437 60:0.34442625 61:0.44291095 
-1 1:0.6902876 2:0.00054685045 3:0.34155857 4:3.6281348 5:15.15604 6:10.970936 7:11.640689 8:11.79094 9:11.921374 10:12.031758 11:12.148423 12:12.281891 13:12.422056 14:12.56026 15:12.686612 16:10.13791 17:5.0275596 20:0.73422098 21:0.62277193 22:0.85136302 23:0.85831452 24:0.85597454 25:0.83420046 26:0.81492843 27:1.2112464 28:1.0194078 29:1.0149379 30:1.0159283 31:1.0245024 32:1.0327958 33:8.1307955 34:4.8345589 35:4.2517908 36:3.6737858 37:3.0683712 38:2.0589633 39:3.0758281 40:2.2328066 41:1.9721145 42:1.7219282 43:1.4711809 44:1.0602442 45:10.646415 46:10.796664 47:10.927097 48:11.037479 49:11.154143 50:11.28761 51:11.427774 52:11.565977 53:11.692329 54:1.6770952 55:1.0801114 56:4.5565875 57:2.2046779 58:0.61262491 59:0.48857629 60:0.31903421 61:0.46563826 
-1 1:0.85625873 2:0.00065278689 3:0.59613671 4:3.5094496 5:13.115788 6:8.8257068 7:9.5134812 8:9.6972359 9:9.8400524 10:9.9607699 11:10.086745 12:10.225331 13:10.366829 14:10.504435 15:10.627146 16:10.048715 17:4.8335721 20:1.1824423 21:0.73666298 22:0.83577935 23:0.82507854 24:0.81818782 25:0.80211772 26:0.78028451 27:1.1859517 28:1.0235 29:1.0279745 30:1.031186 31:1.0385657 32:1.0491881 33:6.9122256 34:5.1885362 35:4.6863169 36:4.1203295 37:3.5217104 38:2.4739033 39:2.6013542 40:2.395409 41:2.1512836 42:1.8990593 43:1.6469316 44:1.2082995 45:8.1593574 46:8.3430765 47:8.4858695 48:8.6065696 49:8.7325288 50:8.8710988 51:9.0125838 52:9.1501775 53:9.2728802 54:1.1716819 55:1.1148319 56:2.9778387 57:2.195545 58:0.58992153 59:0.48924754 60:0.39813224 61:0.45908133 
-1 1:0.90169554 2:0.00036593304 3:0.44989275 4:3.6544366 5:14.989915 6:10.656624 7:11.477084 8:11.624585 9:11.748646 10:11.866492 11:11.997531 12:12.15093 13:12.313154 14:12.47094 15:12.614441 16:10.120847 17:4.9365751 20:0.71229028 21:0.55473992 22:0.79935324 23:0.8140427 24:0.80809509 25:0.79513727 26:0.77496631 27:1.2998635 28:1.0402361 29:1.033056 30:1.0358918 31:1.0419132 32:1.0517184 33:8.0585916 34:5.151234 35:4.560679 36:3.9964219 37:3.3980089 38:2.3749629 39:3.0357134 40:2.3656934 41:2.0943039 42:1.8443964 43:1.594837 44:1.1703582 45:10.013341 46:10.160837 47:10.284895 48:10.402738 49:10.533775 50:10.687171 51:10.849392 52:11.007176 53:11.150675 54:1.5462669 55:1.1047427 56:4.1728343 57:2.2089911 58:0.6620724 59:0.4927564 60:0.29014965 61:0.45039367 
-1 1:0.71967859 2:0.00049987504 3:0.51375852 4:3.6135427 5:14.769466 6:10.43673 7:11.255626 8:11.415825 9:11.561879 10:11.696608 11:11.840384 12:12.000162 13:12.163822 14:12.320635 15:12.462248 16:10.131563 17:4.7333883 20:0.923316 21:0.56769733 22:0.79859084 23:0.8215382 24:0.81303688 25:0.8023522 26:0.78166663 27:1.293245 28:1.0414636 29:1.029818 30:1.0335399 31:1.0386496 32:1.0483886 33:7.9546396 34:5.0842339 35:4.476012 36:3.9034385 37:3.2980217 38:2.2699915 39:2.967027 40:2.3334977 41:2.0590831 42:1.8060548 43:1.5553249 44:1.1310643 45:10.201877 46:10.362073 47:10.508124 48:10.642851 49:10.786625 50:10.946401 51:11.110059 52:11.26687 53:11.408482 54:1.5183277 55:1.1035513 56:4.150567 57:2.2317292 58:0.65893556 59:0.4929051 60:0.29636806 61:0.45106658 
-1 1:0.36892629 2:1.1999928e-005 3:0.16216562 4:3.4163427 5:15.817744 6:11.640254 7:11.564951 8:11.623762 9:11.691929 10:11.784936 11:11.959375 12:12.235916 13:12.548862 14:12.838871 15:13.077717 16:9.39395 17:3.3814935 20:0.097885951 21:0.51779687 22:0.51253556 23:0.50935234 24:0.49924199 25:0.46586884 26:0.45340539 27:1.2772326 28:1.2775108 29:1.2808433 30:1.2948557 31:1.3486338 32:1.3724512 33:8.5710911 34:4.6563449 35:3.0951861 36:2.2982388 37:1.7178965 38:0.96584137 39:3.4371555 40:1.9176901 41:1.3069424 42:1.0279527 43:0.81384552 44:0.54500906 45:11.118776 46:11.177587 47:11.245753 48:11.338759 49:11.513198 50:11.789737 51:12.102683 52:12.392691 53:12.631538 54:2.4617445 55:0.98378708 56:5.6210556 57:2.6543539 58:0.51828527 59:0.51726778 60:0.35183395 61:0.34289049 
1 2:9.99995e-006 3:0.19450125 4:3.4816506 5:15.503777 6:11.458965 7:12.026862 8:12.135366 9:12.257265 10:12.395782 11:12.569047 12:12.770163 13:12.971885 14:13.157021 15:13.321987 16:9.1342021 17:4.1098445 18:1.7226364 21:0.60595124 22:0.61581085 23:0.62627741 24:0.64758062 25:0.67541234 26:0.70217134 27:1.1768719 28:1.1619269 29:1.1505369 30:1.1326655 31:1.1118562 32:1.0933924 33:8.0904552 34:5.6524502 35:4.5901354 36:3.8172221 37:3.0449571 38:2.1096711 39:3.3962554 40:2.4924744 41:2.0129689 42:1.7018218 43:1.4071822 44:1.0590333 45:12.026862 46:12.135366 47:12.257265 48:12.395782 49:12.569047 50:12.770163 51:12.971885 52:13.157021 53:13.321987 54:1.8982275 55:1.1568864 56:4.0079819 57:2.6756633 58:0.55082297 59:0.53768052 60:0.35435908 61:0.3685614 
-1 1:0.38370813 2:0.00035093841 3:0.12319945 4:3.419242 5:15.793123 6:11.672626 7:11.588563 8:11.672951 9:11.746394 10:11.837855 11:12.0057 12:12.273487 13:12.58262 14:12.871817 15:13.108108 16:9.7168842 17:4.2408027 20:0.28076017 21:0.52861269 22:0.58330106 23:0.59885408 24:0.62343959 25:0.6461258 26:0.70650901 27:1.2580302 28:1.1913826 29:1.1756866 30:1.1530124 31:1.1340859 32:1.092622 33:8.3034203 34:4.4043519 35:2.7042851 36:1.9144126 37:1.421432 38:0.87288499 39:3.3078197 40:1.8618991 41:1.221106 42:0.95994315 43:0.79337932 44:0.60161834 45:11.120852 46:11.205239 47:11.278682 48:11.370142 49:11.537987 50:11.805773 51:12.114905 52:12.404102 53:12.640393 54:2.3603726 55:0.89965329 56:5.6219218 57:2.470427 58:0.59581196 59:0.55297323 60:0.30725289 61:0.34893957 
1 1:0.36924086 2:9.3995582e-005 3:0.24340568 4:3.8411459 5:15.853607 6:11.7419 7:13.448599 8:13.502868 9:13.557517 10:13.622181 11:13.711804 12:13.826676 13:13.948521 14:14.064454 15:14.1708 16:9.7572626 17:4.7169039 20:0.32398748 21:0.56889376 22:0.59055284 23:0.58953403 24:0.59668198 25:0.59644023 26:0.60097378 27:1.2117145 28:1.1843636 29:1.1852642 30:1.1776471 31:1.1773692 32:1.1724893 33:8.394873 34:6.3708806 35:5.8753732 36:5.552495 37:5.1925129 38:4.5484614 39:3.5284554 40:2.8280358 41:2.5990025 42:2.4566476 43:2.2918901 44:2.0012393 45:13.001964 46:13.056233 47:13.110882 48:13.175546 49:13.265169 50:13.380041 51:13.501885 52:13.617819 53:13.724165 54:1.4459018 55:0.96293338 56:3.0514668 57:1.5340302 58:0.54652472 59:0.53011103 60:0.351897 61:0.36747639 
1 2:4.9999875e-006 3:0.2607468 4:3.2604716 5:14.927605 6:10.929475 7:11.986937 8:12.086821 9:12.167824 10:12.252959 11:12.360036 12:12.490133 13:12.627891 14:12.763249 15:12.889173 16:9.2868279 17:4.2339465 18:2.355958 21:0.5563304 22:0.54955737 23:0.53866236 24:0.54026053 25:0.55926373 26:0.59087578 27:1.225084 28:1.2298765 29:1.2414729 30:1.2383403 31:1.2156863 32:1.1827264 33:7.7320504 34:5.1797285 35:4.5142373 36:4.0817706 37:3.6017789 38:2.9278506 39:3.1212262 40:2.2442289 41:1.9473293 42:1.7657412 43:1.5774485 44:1.3228752 45:11.986937 46:12.086821 47:12.167824 48:12.252959 49:12.360036 50:12.490133 51:12.627891 52:12.763249 53:12.889173 54:1.6319584 55:0.9323134 56:3.7489977 57:1.7625929 58:0.5416841 59:0.55585384 60:0.3515368 61:0.33875685 
-1 1:0.34881715 2:8.5996302e-005 3:0.14737118 4:3.5707454 5:15.697366 6:11.619427 7:12.627535 8:12.681726 9:12.731578 10:12.789755 11:12.876521 12:13.001971 13:13.15193 14:13.306362 15:13.450228 16:9.623018 17:4.2223422 20:0.38188391 21:0.55780443 22:0.52512845 23:0.49354375 24:0.4843878 25:0.48376846 26:0.48518592 27:1.2256974 28:1.2637032 29:1.3044748 30:1.3169183 31:1.3177055 32:1.3144557 33:8.37582 34:5.2587199 35:4.5408977 36:4.1830043 37:3.8550264 38:3.4500852 39:3.3847755 40:2.2597943 41:1.9256112 42:1.7669234 43:1.629199 44:1.4663333 45:12.210147 46:12.264338 47:12.31419 48:12.372366 49:12.459133 50:12.584582 51:12.734541 52:12.888973 53:13.032839 54:1.8082398 55:0.85424723 56:4.2069887 57:1.4190151 58:0.50126884 59:0.54113486 60:0.37641818 61:0.3337182 
-1 1:0.27222015 2:7.999968e-006 3:0.16038776 4:3.9314864 5:16.260373 6:12.038216 7:13.566767 8:13.635844 9:13.719891 10:13.814288 11:13.939239 12:14.094854 13:14.254939 14:14.401198 15:14.531127 16:9.4559217 17:4.0126131 20:0.16258133 21:0.54474984 22:0.56206251 23:0.56751593 24:0.58007422 25:0.59293285 26:0.61084705 27:1.2362619 28:1.2142175 29:1.2077303 30:1.1940697 31:1.1803683 32:1.1632067 33:8.7371619 34:6.8264599 35:6.0579926 36:5.5054412 37:4.9038313 38:3.9552948 39:3.7137183 40:3.0169331 41:2.65538 42:2.4136462 43:2.1546412 44:1.7450315 45:13.253892 46:13.322969 47:13.407015 48:13.501412 49:13.626363 50:13.781979 51:13.942064 52:14.088323 53:14.218252 54:1.6364655 55:1.1640896 56:3.2846302 57:2.2263325 58:0.55937517 59:0.54473239 60:0.33651073 61:0.35247888 
0.5037979895764425 1:0.26241042 2:8.2996556e-005 3:0.23477959 4:3.751489 5:15.847419 6:11.725323 7:13.653024 8:13.692392 9:13.727182 10:13.769495 11:13.835865 12:13.930334 13:14.037401 14:14.142766 15:14.240723 16:9.6515474 17:4.6213 20:0.31128922 21:0.50918528 22:0.53543433 23:0.54341091 24:0.55150873 25:0.55492767 26:0.55944663 27:1.2828218 28:1.2443707 29:1.2339901 30:1.2246165 31:1.2201241 32:1.214673 33:8.3078943 34:6.3373743 35:5.9352256 36:5.6917554 37:5.4238491 38:5.0028918 39:3.4248436 40:2.7731183 41:2.5952132 42:2.4896 43:2.3696479 44:2.1810099 45:13.352964 46:13.392332 47:13.427122 48:13.469436 49:13.535805 50:13.630275 51:13.737342 52:13.842706 53:13.940663 54:1.3122735 55:0.85848774 56:2.8172994 57:1.2402896 58:0.56955003 59:0.54201596 60:0.32348873 61:0.34745627 
-1 1:0.27987014 2:0.0018912105 3:0.48090277 4:1.8410148 5:13.116357 6:9.2342522 7:8.3352393 8:8.5860774 9:8.8223349 10:8.9497324 11:9.0273015 12:9.1180666 13:9.2463364 14:9.4021732 15:9.5515715 16:8.4201487 17:4.1314665 20:0.22426692 21:0.53225223 22:0.63005934 23:0.72239574 24:0.86053317 25:0.92024411 26:1.0111226 27:1.3786893 28:1.2478518 29:1.1488018 30:1.0235033 31:0.99636285 32:0.96784507 33:6.5978973 34:1.7645607 35:0.7483179 36:0.3363408 37:0.18999124 38:0.11384016 39:1.9602245 40:0.86458809 41:0.51813941 42:0.38038317 43:0.29727615 44:0.23966708 45:8.0123727 46:8.2631906 47:8.4994331 48:8.6268239 49:8.7043892 50:8.7951504 51:8.9234152 52:9.0792467 53:9.2286406 54:1.6264755 55:0.44661471 56:5.9675727 57:0.9017343 58:0.71712926 59:0.57211778 60:0.24986846 61:0.36298194 
1 1:0.52177862 2:0.0026325318 3:0.41884125 4:2.11915 5:13.789594 6:9.8234698 7:9.4640453 8:9.4088227 9:9.315039 10:9.2135492 11:9.1330838 12:9.1455586 13:9.3886324 14:9.7608761 15:10.069012 16:8.559532 17:3.9771096 20:0.27234506 21:0.60840214 22:0.83721765 23:0.93594276 24:0.99448731 25:1.0660461 26:1.0990459 27:1.2717386 28:1.0698571 29:1.0037751 30:0.97649399 31:0.95211684 32:0.94472618 33:6.8538285 34:1.0112143 35:0.39743428 36:0.2659716 37:0.12660534 38:0.10301767 39:2.2591326 40:0.63271329 41:0.40529776 42:0.33490887 43:0.25847286 44:0.23328713 45:8.7790997 46:8.7238813 47:8.6301056 48:8.5286252 49:8.4481681 50:8.4606416 51:8.7036927 52:9.0759108 53:9.3840318 54:1.9692734 55:0.34419678 56:6.5257763 57:0.47228163 58:0.67787674 59:0.51262537 60:0.2609377 61:0.4309139 
1 1:0.24188836 2:0.002482915 3:0.42983962 4:1.9752458 5:13.753743 6:9.8018977 7:9.3800226 8:9.3999219 9:9.4683082 10:9.5773485 11:9.7441392 12:9.9808533 13:10.245765 14:10.496135 15:10.705698 16:8.4584519 17:4.0176819 20:0.36604075 21:0.34313783 22:0.57657966 23:0.7902866 24:0.88090353 25:0.93752293 26:0.9933051 27:1.7454616 28:1.2515173 29:1.0592961 30:1.0087831 31:0.98726314 32:0.97047698 33:6.6617985 34:2.1510423 35:1.4509255 36:1.2000289 37:1.0021205 38:0.70016252 39:1.9997394 40:0.98386975 41:0.83516223 42:0.76671125 43:0.69721539 44:0.57741585 45:9.1063972 46:9.126296 47:9.1946805 48:9.3037183 49:9.4705057 50:9.7072159 51:9.9721243 52:10.222492 53:10.432053 54:1.4209954 55:0.54316331 56:5.4498582 57:1.0473602 58:0.99012281 59:0.55356295 60:0.15341377 61:0.37732159 
1 1:0.30630901 2:0.0016735988 3:0.51585316 4:1.9774912 5:13.48289 6:9.5250051 7:9.2038967 8:9.3558101 9:9.5049577 10:9.6525122 11:9.8384301 12:10.0643 13:10.2982 14:10.512611 15:10.694761 16:8.8256892 17:3.9427613 20:0.39124582 21:0.35941279 22:0.54103683 23:0.70247157 24:0.77318127 25:0.76547203 26:0.7887455 27:1.6517579 28:1.2849582 29:1.1085398 30:1.0559894 31:1.0578243 32:1.0470239 33:6.5209209 34:2.5433746 35:1.7329156 36:1.2865961 37:0.91010444 38:0.50179961 39:2.0262016 40:1.1168221 41:0.9131803 42:0.77582104 43:0.63313546 44:0.45979987 45:8.845538 46:8.9974453 47:9.1465878 48:9.2941379 49:9.4800511 50:9.7059159 51:9.9398122 52:10.154221 53:10.336368 54:1.4598611 55:0.63365548 56:5.1676705 57:1.411124 58:0.88270436 59:0.55216167 60:0.18670022 61:0.37874868 
1 1:0.19792584 2:0.0015308277 3:0.45124949 4:1.9107382 5:13.315811 6:9.344609 7:9.6750069 8:9.8484791 9:9.9587174 10:10.079883 11:10.223578 12:10.389412 13:10.560189 14:10.721965 15:10.862537 16:8.1510796 17:3.9290643 20:0.55522961 21:0.31967408 22:0.47303403 23:0.63635141 24:0.76593936 25:0.82679963 26:0.88242573 27:1.8030281 28:1.3830486 29:1.1831893 30:1.0772664 31:1.0375057 32:1.0096936 33:6.3597245 34:2.4225764 35:1.8741648 36:1.6265282 37:1.4643705 38:1.2660337 39:1.9084962 40:1.0280907 41:0.93205069 42:0.89236109 43:0.85199282 44:0.79074701 45:9.4561503 46:9.6296201 47:9.739857 48:9.861021 49:10.004715 50:10.170547 51:10.341323 52:10.503098 53:10.643669 54:1.2312875 55:0.52705482 56:4.723362 57:0.96902923 58:0.98956335 59:0.59922704 60:0.15805683 61:0.34123609 
1 1:0.30915243 2:0.00071474451 3:0.41101501 4:2.3156804 5:14.023425 6:10.041204 7:10.251595 8:10.364416 9:10.456504 10:10.552971 11:10.676325 12:10.83982 13:11.021058 14:11.197912 15:11.353575 16:8.1943518 17:4.0976741 20:0.66339288 21:0.43602276 22:0.71051646 23:0.86502481 24:0.93740348 25:0.97624576 26:0.98037965 27:1.508953 28:1.106476 29:1.0153789 30:0.98697769 31:0.97512703 32:0.97384958 33:6.8937893 34:3.0322963 35:2.4534162 36:2.1812119 37:1.9425964 38:1.5616375 39:2.2447205 40:1.4025559 41:1.2367129 42:1.149416 43:1.0646004 44:0.91782675 45:9.8893404 46:10.002159 47:10.094246 48:10.190713 49:10.314065 50:10.477559 51:10.658796 52:10.835648 53:10.99131 54:1.3513243 55:0.67045147 56:4.7719545 57:1.1995296 58:0.8319356 59:0.51405248 60:0.19523893 61:0.42325069 
1 1:0.23107442 2:0.0011693161 3:0.48597294 4:1.8208219 5:13.681058 6:9.6863882 7:9.5030878 8:9.5435998 9:9.6014759 10:9.7278601 11:9.9117323 12:10.149078 13:10.406304 14:10.646012 15:10.848885 16:8.5875976 17:4.7136026 20:0.3285855 21:0.28526616 22:0.42805405 23:0.63797691 24:0.68919739 25:0.83616252 26:0.94742693 27:1.9479488 28:1.5766663 29:1.3205559 30:1.2165239 31:1.0589015 32:0.98540104 33:6.6527015 34:2.2142457 35:1.2577687 36:0.89381769 37:0.56851153 38:0.41745758 39:1.9452637 40:0.828008 41:0.62287492 42:0.55365118 43:0.48601968 44:0.44144403 45:9.243157 46:9.2836681 47:9.341543 48:9.4679248 49:9.651794 50:9.8891364 51:10.14636 52:10.386066 53:10.588938 54:1.5021326 55:0.44832447 56:5.6010371 57:1.1382912 58:1.0586639 59:0.69907389 60:0.13660068 61:0.30838766 
1 1:0.29008568 2:0.00076670601 3:0.37623744 4:2.0165876 5:14.037791 6:10.001249 7:10.513901 8:10.581228 9:10.693634 10:10.829144 11:10.978625 12:11.147834 13:11.322604 14:11.490783 15:11.63934 16:8.3283808 17:3.9485276 20:0.27739535 21:0.33572124 22:0.39026348 23:0.39712509 24:0.40441856 25:0.40991187 26:0.4434652 27:1.7402772 28:1.5649107 29:1.5381 30:1.4873229 31:1.4719359 32:1.4010775 33:6.8836409 34:2.8234246 35:1.9409144 36:1.4823854 37:1.1628555 38:0.77942029 39:2.1777368 40:1.0962101 41:0.81106132 42:0.68321805 43:0.58854749 44:0.47782298 45:10.17737 46:10.244696 47:10.357101 48:10.49261 49:10.64209 50:10.811298 51:10.986067 52:11.154245 53:11.302802 54:1.6185808 55:0.5760488 56:5.2752415 57:1.4212108 58:0.7375929 59:0.62901512 60:0.23234438 61:0.27466918 
1 1:0.36986349 2:0.0011753091 3:0.47729449 4:2.2365387 5:13.955196 6:9.9645356 7:10.126348 8:10.194181 9:10.252893 10:10.313366 11:10.39919 12:10.530716 13:10.69521 14:10.86918 15:11.027853 16:8.5479256 17:3.9912865 20:0.47506144 21:0.4438778 22:0.66460932 23:0.76631167 24:0.80024578 25:0.8247906 26:0.85578375 27:1.4865231 28:1.1490427 29:1.0597346 30:1.0406946 31:1.0294623 32:1.0163105 33:6.8644166 34:2.7993046 35:2.208071 36:1.9065781 37:1.6239521 38:1.1582224 39:2.1787891 40:1.2876402 41:1.1191189 42:1.0176358 43:0.91647991 44:0.74337774 45:9.6788336 46:9.7466649 47:9.805376 48:9.8658472 49:9.9516701 50:10.083194 51:10.247686 52:10.421654 53:10.580326 54:1.4056003 55:0.66550984 56:5.0358818 57:1.285679 58:0.79056397 59:0.5271717 60:0.22163009 61:0.39811493 
-1 1:0.15727636 2:0.0015767563 3:0.49100652 4:1.8201451 5:13.187339 6:9.287394 7:8.8941394 8:8.9667208 9:9.0434172 10:9.1426151 11:9.2714103 12:9.4277974 13:9.6126014 14:9.810402 15:9.9990592 16:8.2595169 17:4.0992511 20:0.34919947 21:0.37373912 22:0.59439037 23:0.74390398 24:0.78103946 25:0.82219366 26:0.78428823 27:1.6601152 28:1.2679567 29:1.1142113 30:1.0684537 31:1.033219 32:1.0483767 33:6.4832322 34:1.6753977 35:1.1817619 36:1.0464077 37:0.88817599 38:0.69821631 39:1.8433014 40:0.79784318 41:0.70383734 42:0.6783609 43:0.63345609 44:0.55212552 45:8.7238459 46:8.7964255 47:8.8731201 48:8.972316 49:9.1011087 50:9.2574934 51:9.4422948 52:9.6400932 53:9.8287486 54:1.3422087 55:0.46353632 56:5.4779408 57:0.80139468 58:0.89031622 59:0.54766105 60:0.19188017 61:0.40497758 
1 1:0.27651217 2:0.003557664 3:0.53854273 4:1.8825103 5:12.980637 6:9.0805733 7:8.8697735 8:8.9586195 9:9.0362735 10:9.1240593 11:9.2451016 12:9.4087343 13:9.5931688 14:9.7757669 15:9.9363457 16:8.8965755 17:3.8012483 20:0.45298907 21:0.4254468 22:0.74037947 23:0.89720781 24:0.9565509 25:0.98332451 26:0.97893684 27:1.5664717 28:1.0984809 29:1.0061654 30:0.98186684 31:0.97355838 32:0.97405121 33:6.2205084 34:1.7959346 35:1.4237669 36:1.3317753 37:1.2943583 38:1.2471811 39:1.8411804 40:0.93882687 41:0.85273946 42:0.82942393 43:0.81839694 44:0.80051259 45:8.5513033 46:8.6401447 47:8.7177951 48:8.8055772 49:8.9266149 50:9.090242 51:9.2746714 52:9.4572652 53:9.6178408 54:1.1969524 55:0.47824069 56:4.8546423 57:0.68203055 58:0.87572319 59:0.51016889 60:0.18831948 61:0.43643132 
1 1:0.23797463 2:0.00051886537 3:0.48098932 4:1.9999069 5:13.977422 6:9.9513249 7:10.444029 8:10.524184 9:10.619759 10:10.74993 11:10.902796 12:11.077053 13:11.257945 14:11.429367 15:11.5812 16:8.1948325 17:3.912482 20:0.35745134 21:0.28434626 22:0.35265347 23:0.42419592 24:0.47149252 25:0.52217201 26:0.58604905 27:1.9355322 28:1.6445309 29:1.4646586 30:1.3778322 31:1.2990561 32:1.1947288 33:6.7366091 34:2.8468641 35:2.1701773 36:1.8822375 37:1.5887196 38:1.2258952 39:2.0605 40:1.0658914 41:0.91211643 42:0.8535162 43:0.78553263 44:0.70171834 45:10.175361 46:10.255516 47:10.35109 48:10.48126 49:10.634125 50:10.808381 51:10.989272 52:11.160693 53:11.312526 54:1.3971929 55:0.5512831 56:4.8888719 57:1.2398288 58:0.94103467 59:0.6903473 60:0.17895136 61:0.2712099 
1 1:0.19029882 2:0.00037293045 3:0.50671338 4:2.1571251 5:14.32525 6:10.246261 7:10.545592 8:10.633774 9:10.69949 10:10.780338 11:10.898956 12:11.066293 13:11.268291 14:11.476518 15:11.661299 16:7.9588845 17:3.6903323 20:0.3472638 21:0.30217652 22:0.40581705 23:0.49205312 24:0.53569422 25:0.58557478 26:0.69820139 27:1.8588639 28:1.5103309 29:1.3553732 30:1.2824982 31:1.2279022 32:1.1027607 33:7.0153474 34:2.9261306 35:2.2009801 36:1.8919109 37:1.682314 38:1.3966379 39:2.1834014 40:1.1513897 41:0.97423355 42:0.90113405 43:0.85021759 44:0.80092253 45:10.335987 46:10.424169 47:10.489884 48:10.570732 49:10.68935 50:10.856686 51:11.058683 52:11.266909 53:11.45169 54:1.4415595 55:0.55521226 56:5.0771997 57:1.1657223 58:0.94665227 59:0.66692431 60:0.1758367 61:0.28400741 
1 1:0.36164209 2:0.0016236811 3:0.38427211 4:2.3690589 5:13.626424 6:9.6268114 7:10.051142 8:10.135318 9:10.207201 10:10.288677 11:10.395545 12:10.534631 13:10.688832 14:10.842965 15:10.982728 16:8.7267163 17:4.0559704 20:0.81430009 21:0.45414035 22:0.76921847 23:0.9229207 24:0.98998013 25:1.0167408 26:1.0245821 27:1.4984912 28:1.0812986 29:1.0024424 30:0.97220971 31:0.96433738 32:0.96196099 33:6.7332583 34:2.8534454 35:2.5078195 36:2.3778848 37:2.3400693 38:2.3435733 39:2.1264048 40:1.3513902 41:1.2670434 42:1.2352787 43:1.2251515 44:1.2278896 45:9.6154804 46:9.6996545 47:9.7715364 48:9.853011 49:9.9598764 50:10.098961 51:10.253159 52:10.407291 53:10.547052 54:1.1366993 55:0.56024744 56:4.2983816 57:0.75271896 58:0.83229219 59:0.50864902 60:0.19569876 61:0.43831356 
1 1:0.25480577 2:0.0010764205 3:0.50115824 4:2.0536632 5:13.824491 6:9.8429942 7:10.035429 8:10.15101 9:10.270372 10:10.419186 11:10.594149 12:10.789452 13:10.986311 14:11.167639 15:11.323177 16:8.7499563 17:3.9771867 20:0.47534683 21:0.31312538 22:0.43163825 23:0.55791091 24:0.63711795 25:0.72366087 26:0.82845269 27:1.820823 28:1.463232 29:1.2390169 30:1.1578662 31:1.0885239 32:1.0295073 33:6.5952616 34:2.7599782 35:2.0724678 36:1.8522029 37:1.6489765 38:1.4740238 39:2.0001329 40:1.1133672 41:0.97902175 42:0.93870211 43:0.89812839 44:0.86101393 45:9.7452326 46:9.8608121 47:9.9801727 48:10.128985 49:10.303946 50:10.499247 51:10.696105 52:10.877433 53:11.03297 54:1.2621965 55:0.53648869 56:4.7160708 57:1.0271351 58:0.97397542 59:0.63460262 60:0.16498437 61:0.3028591 
-1 1:0.20187824 2:5.3998542e-005 3:1.5222181 4:1.3701782 5:13.182202 6:8.5249629 7:9.0758875 8:9.1916588 9:9.2541974 10:9.3298471 11:9.4735921 12:9.7105366 13:9.9784418 14:10.234231 15:10.439531 16:10.587058 17:3.475535 20:0.1138705 21:0.21556128 22:0.23066003 23:0.25152574 24:0.25174578 25:0.26543263 26:0.33155589 27:2.4352648 28:2.3099958 29:2.1632966 30:2.1405652 31:2.0413516 32:1.7280046 33:6.52152 34:2.1879343 35:1.1425635 36:0.69684533 37:0.38192282 38:0.15322568 39:1.7453479 40:0.63597453 41:0.41466004 42:0.3097241 43:0.22990147 44:0.16931568 45:8.8522172 46:8.9679854 47:9.0305224 48:9.1061703 49:9.2499124 50:9.4868528 51:9.7547544 52:10.010541 53:10.215839 54:1.5072807 55:0.35574105 56:5.5981898 57:1.2446532 58:0.89594617 59:0.86532744 60:0.1652758 61:0.18548295 
-1 1:0.37637472 2:0.00098551422 3:1.2244819 4:2.4622254 5:13.494782 6:8.6765872 7:9.3377994 8:9.4071093 9:9.3938491 10:9.3555641 11:9.3441488 12:9.4439791 13:9.7211412 14:10.062897 15:10.326116 16:10.586275 17:5.4041628 20:0.23643325 21:0.23603135 22:0.2978695 23:0.38891829 24:0.45356106 25:0.600557 26:0.94709303 27:2.2889669 28:2.0374169 29:1.7040049 30:1.5104864 31:1.2353438 32:0.99613059 33:7.064399 34:1.610658 35:0.68229198 36:0.41547682 37:0.18549236 38:0.10044335 39:2.0128525 40:0.53954194 41:0.37020125 42:0.30931758 43:0.25443057 44:0.22156551 45:8.8808574 46:8.9501639 47:8.9369043 48:8.8986212 49:8.8872065 50:8.9870319 51:9.264183 52:9.605929 53:9.8691418 54:1.7578689 55:0.31017756 56:6.4964738 57:0.82837449 58:1.1689219 59:0.94857573 60:0.12117447 61:0.19491609 
-1 1:0.13100809 2:1.1999928e-005 3:1.7202386 4:2.2919179 5:12.858954 6:8.0820933 7:8.5183597 8:8.7795733 9:8.9380761 10:9.1332424 11:9.3881794 12:9.6563527 13:9.9071387 14:10.130943 15:10.321424 16:10.594214 17:4.0830406 19:4.4011269 20:0.044132668 21:0.17475047 22:0.18027112 23:0.19533814 24:0.20160935 25:0.20497958 26:0.23155607 27:2.9602074 28:2.9095753 29:2.7526215 30:2.6714917 31:2.5547943 32:2.289577 33:6.0878387 34:2.3555864 35:1.2293648 36:0.69820586 37:0.31167517 38:0.11548796 39:1.4111323 40:0.51961905 41:0.32150942 42:0.23423304 43:0.1574592 44:0.107042 45:8.3784127 46:8.6396194 47:8.7981189 48:8.9932816 49:9.248215 50:9.5163853 51:9.7671692 52:9.9909718 53:10.181452 54:1.2509601 55:0.28954902 56:5.087962 57:1.3790387 58:0.89685358 59:0.89724993 60:0.14341001 61:0.15818168 
-1 1:0.1893071 2:0.00076570677 3:1.1176185 4:3.7784556 5:14.41856 6:10.042902 7:10.213236 8:10.321144 9:10.425277 10:10.540983 11:10.690403 12:10.87976 13:11.092117 14:11.30707 15:11.496546 16:10.531741 17:5.1491252 20:0.50180869 21:0.33505623 22:0.48133976 23:0.66829696 24:0.80791724 25:0.90793189 26:0.96131534 27:1.7086693 28:1.3440876 29:1.1354879 30:1.041016 31:0.99796804 32:0.97950325 33:7.8280881 34:3.1654732 35:2.2764065 36:1.854301 37:1.5002242 38:1.0304087 39:2.5373853 40:1.3174048 41:1.100898 42:0.99540464 43:0.8827567 44:0.70839632 45:10.004832 46:10.11274 47:10.216872 48:10.332577 49:10.481997 50:10.671353 51:10.883709 52:11.098661 53:11.288136 54:1.7337209 55:0.67707808 56:5.8931439 57:1.5252735 58:0.94113801 59:0.5862318 60:0.15683479 61:0.34377642 
-1 1:0.29173858 2:0.00048288339 3:0.79054246 4:3.5047643 5:14.72219 6:10.389211 7:11.015365 8:11.125134 9:11.226058 10:11.335722 11:11.468276 12:11.643 13:11.848584 14:12.056248 15:12.245309 16:10.498984 17:5.346716 20:0.52225209 21:0.39128437 22:0.55922428 23:0.66468803 24:0.72929153 25:0.77117524 26:0.77767535 27:1.5407841 28:1.2366844 29:1.1244415 30:1.0790006 31:1.0550132 32:1.0510185 33:7.9318266 34:3.9015858 35:2.9494326 36:2.4812669 37:2.1169185 38:1.5409933 39:2.7571039 40:1.6421306 41:1.3649142 42:1.2132407 43:1.0873983 44:0.86824857 45:10.676618 46:10.786387 47:10.88731 48:10.996974 49:11.129527 50:11.304251 51:11.509834 52:11.717497 53:11.906558 54:1.7460717 55:0.78728082 56:5.3380971 57:1.7124268 58:0.80385219 59:0.54729152 60:0.20726051 61:0.37248077 
-1 1:0.10682095 2:0.0007697037 3:1.225831 4:3.2478984 5:13.695032 6:9.1271761 7:9.0485095 8:9.2143995 9:9.3373925 10:9.4588328 11:9.5987958 12:9.7725103 13:9.9769361 14:10.198979 15:10.386256 16:10.578646 17:5.3560395 19:3.1324846 20:0.23397983 21:0.28010217 22:0.4509839 23:0.6231345 24:0.69232034 25:0.72450243 26:0.72692909 27:2.0003076 28:1.4331713 29:1.1804752 30:1.1098318 31:1.0843176 32:1.0798905 33:7.5696421 34:1.9657289 35:1.297818 36:1.0619977 37:0.80896161 38:0.51927285 39:2.0449327 40:0.84678973 41:0.72807794 42:0.67123587 43:0.58362524 44:0.46256478 45:8.9357885 46:9.1016764 47:9.224668 48:9.3461071 49:9.4860688 50:9.6597821 51:9.8642067 52:10.086248 53:10.273525 54:1.549916 55:0.50299134 56:6.5293237 57:1.020941 58:1.1077895 59:0.5885986 60:0.15183985 61:0.35246156 
-1 1:0.27676014 2:0.0008466415 3:1.1934751 4:3.5337674 5:14.063766 6:9.6645956 7:10.050099 8:10.22991 9:10.367649 10:10.496159 11:10.639811 12:10.807588 13:10.986374 14:11.160633 15:11.319031 16:10.557853 17:4.97249 20:0.42404346 21:0.35735901 22:0.48264588 23:0.52494744 24:0.4985844 25:0.5110532 26:0.49384588 27:1.7065218 28:1.3734576 29:1.2934666 30:1.3206205 31:1.2930647 32:1.3059489 33:7.5288066 34:3.251587 35:2.2690867 36:1.7997159 37:1.3393995 38:0.88911438 39:2.3739475 40:1.3227031 41:1.0133706 42:0.84450769 43:0.70290591 44:0.54473476 45:9.7312656 46:9.9110738 47:10.048811 48:10.177319 49:10.32097 50:10.488746 51:10.66753 52:10.841788 53:11.000185 54:1.6844269 55:0.6901169 56:5.6022854 57:1.6583453 58:0.7942395 59:0.55614573 60:0.23171135 61:0.33673281 
-1 1:0.1312528 2:0.0010364627 3:1.5971627 4:2.1856554 5:12.582893 6:7.9269635 7:9.1788487 8:9.5348964 9:9.7140749 10:9.8614995 11:10.006501 12:10.158852 13:10.311154 14:10.454303 15:10.601985 16:10.595566 17:5.3458214 19:4.1678596 20:0.38686248 21:0.20900893 22:0.27936659 23:0.34457787 24:0.42248937 25:0.56421889 26:0.71235748 27:2.5718673 28:1.9839458 29:1.6972207 30:1.4967217 31:1.245661 32:1.0949687 33:5.4427933 34:2.744356 35:1.9729098 36:1.5216003 37:1.0485505 38:0.74618308 39:1.4511617 40:0.9075107 41:0.76622569 42:0.6908325 43:0.61871723 44:0.55584411 45:9.0386082 46:9.3946513 47:9.573828 48:9.7212513 49:9.8662513 50:10.018602 51:10.170903 52:10.314052 53:10.461733 54:0.99014299 55:0.49631796 56:3.8850197 57:1.4118087 58:1.3773338 59:0.87314812 60:0.12329099 61:0.22105415 
-1 1:0.22287391 2:0.00081666644 3:1.2247541 4:3.2020639 5:14.004555 6:9.5503065 7:10.390256 8:10.555858 9:10.688828 10:10.808077 11:10.938895 12:11.090003 13:11.255365 14:11.419125 15:11.575142 16:10.578218 17:4.6098956 20:0.44075567 21:0.31903538 22:0.43434925 23:0.4764354 24:0.50941363 25:0.55944377 26:0.55666974 27:1.8216295 28:1.460338 29:1.3904104 30:1.3483645 31:1.2258019 32:1.2226053 33:7.1194029 34:3.5056045 35:2.6056026 36:2.1001307 37:1.5255079 38:1.0362258 39:2.3070625 40:1.3958449 41:1.1110674 42:0.94648001 43:0.79577191 44:0.62353394 45:10.140602 46:10.306202 47:10.439172 48:10.55842 49:10.689237 50:10.840344 51:11.005706 52:11.169465 53:11.325482 54:1.5567116 55:0.72003525 56:4.9441981 57:1.7803784 58:0.88432889 59:0.61659529 60:0.20041696 61:0.31333661 
1 1:0.35427847 2:0.00056683932 3:0.97104971 4:3.3738914 5:14.897555 6:10.452591 7:10.813901 8:10.931798 9:11.05834 10:11.19116 11:11.346581 12:11.541241 13:11.770559 14:12.001298 15:12.204409 16:10.513221 17:4.4073611 20:0.35833996 21:0.38855697 22:0.46879039 23:0.45715519 24:0.45299352 25:0.47596085 26:0.49872774 27:1.5429705 28:1.3886523 29:1.4362691 30:1.439147 31:1.3437138 32:1.3014582 33:8.2159367 34:3.565847 35:2.3619666 36:1.7784238 37:1.1859774 38:0.73557764 39:2.8817297 40:1.4555968 41:1.0068745 42:0.79885179 43:0.63416122 44:0.48879901 45:10.388759 46:10.506655 47:10.633197 48:10.766015 49:10.921435 50:11.116095 51:11.345411 52:11.576149 53:11.77926 54:2.1556476 55:0.73893395 56:6.1458607 57:1.9644798 58:0.66803687 59:0.60672694 60:0.25728897 61:0.30626354 
-1 1:0.2529664 2:0.0012971583 3:1.2740158 4:2.6312113 5:13.393636 6:8.8344826 7:8.8376893 8:9.0444742 9:9.2049867 10:9.355226 11:9.5412332 12:9.7656784 13:10.002184 14:10.228591 15:10.416131 16:10.585281 17:5.10955 20:0.42496704 21:0.35781779 22:0.5965344 23:0.72141048 24:0.76731776 25:0.84071682 26:0.92862199 27:1.7484584 28:1.2151724 29:1.0926147 30:1.0607218 31:1.0237961 32:0.99144644 33:6.8923827 34:2.3626368 35:1.7017084 36:1.3084101 37:0.99250816 38:0.55462335 39:2.0209963 40:1.0854497 41:0.90594783 42:0.77663824 43:0.67502852 44:0.50235162 45:8.5498977 46:8.7566736 47:8.9171802 48:9.0674148 49:9.2534172 50:9.4778575 51:9.7143588 52:9.9407631 53:10.128301 54:1.4435649 55:0.61145293 56:5.5913204 57:1.2964124 58:0.98011342 59:0.55641671 60:0.17087673 61:0.35710818 
-1 1:0.1105167 2:0.00024796925 3:1.119809 4:3.1184965 5:13.62108 6:9.2126377 7:9.8464625 8:10.001717 9:10.080597 10:10.151124 11:10.232254 12:10.341986 13:10.473777 14:10.620246 15:10.763252 16:10.547395 17:4.5302069 20:0.23474321 21:0.32420805 22:0.46851502 23:0.54383826 24:0.56741614 25:0.60383498 26:0.62313718 27:1.7974965 28:1.394983 29:1.2582806 30:1.2175825 31:1.1716381 32:1.1532921 33:7.2280331 34:2.5048743 35:1.9885345 36:1.786101 37:1.5422811 38:1.2943452 39:2.1047853 40:1.0517205 41:0.94070428 42:0.88975331 43:0.8244868 44:0.74289498 45:9.7296141 46:9.884868 47:9.9637474 48:10.034274 49:10.115403 50:10.225135 51:10.356926 52:10.503394 53:10.6464 54:1.4128923 55:0.54823971 56:5.508986 57:1.0276173 58:0.91664384 59:0.58870728 60:0.1932238 61:0.32969047 
-1 1:0.51710308 2:0.00080067937 3:1.1209698 4:3.0194394 5:13.977419 6:9.3759396 7:9.7392589 8:9.9121583 9:10.052469 10:10.189096 11:10.333787 12:10.49429 13:10.672027 14:10.859139 15:11.030144 16:10.573701 17:4.5789746 20:0.40330878 21:0.4795046 22:0.46611295 23:0.51011397 24:0.59186777 25:0.66572151 26:0.67674032 27:1.385802 28:1.3882003 29:1.3006496 30:1.1965321 31:1.124448 32:1.1157994 33:7.6477815 34:2.8109258 35:1.8238612 36:1.5037767 37:1.1705741 38:0.70693815 39:2.5796959 40:1.1715511 41:0.85825688 42:0.79524653 43:0.70703825 44:0.52971313 45:9.062154 46:9.2350443 47:9.3753483 48:9.5119699 49:9.6566567 50:9.8171545 51:9.9948878 52:10.181996 53:10.352997 54:1.926895 55:0.61949579 56:6.0743832 57:1.4521985 58:0.6485861 59:0.60134786 60:0.28573554 61:0.32410652 
1 1:0.18242322 2:0.00032894589 3:0.89569815 4:3.2984835 5:15.157909 6:10.888763 7:11.552585 8:11.668441 9:11.732109 10:11.787139 11:11.852786 12:11.97063 13:12.16546 14:12.401018 15:12.62079 16:10.492616 17:4.4917337 20:0.37118348 21:0.35382228 22:0.39151627 23:0.42305352 24:0.46402203 25:0.48506341 26:0.49060312 27:1.61799 28:1.5147619 29:1.4547928 30:1.3713784 31:1.3323378 32:1.3123566 33:8.2518002 34:3.9769307 35:2.9026853 36:2.2117359 37:1.8046112 38:1.4027416 39:2.9285493 40:1.5188215 41:1.1599184 42:0.96841742 43:0.848223 44:0.71929532 45:11.352465 46:11.468321 47:11.531988 48:11.587019 49:11.652665 50:11.770509 51:11.965339 52:12.200896 53:12.420669 54:2.0493814 55:0.72395358 56:5.699116 57:1.8065942 58:0.70770034 59:0.61270478 60:0.23607975 61:0.2925879 
-0.9660120706147872 1:0.098741559 2:0.0011363541 3:1.5514727 4:2.5073715 5:12.809924 6:8.2779203 7:9.0169309 8:9.2594233 9:9.3847251 10:9.5202002 11:9.6937247 12:9.8886366 13:10.095239 14:10.283973 15:10.457871 16:10.595304 17:4.4022372 19:3.9912774 20:0.3095913 21:0.21038166 22:0.2656136 23:0.35303432 24:0.44053105 25:0.56228422 26:0.73116765 27:2.5155384 28:2.0847464 29:1.7200219 30:1.4794408 31:1.2603975 32:1.0879321 33:5.626507 34:2.2278402 35:1.2897782 36:0.84680517 37:0.55914368 38:0.38363659 39:1.50011 40:0.71145703 41:0.55245363 42:0.48208844 43:0.43395732 44:0.39609266 45:8.9131632 46:9.1556527 47:9.2809533 48:9.4164272 49:9.5899504 50:9.7848612 51:9.9914622 52:10.180195 53:10.354093 54:1.1514031 55:0.40156115 56:4.5830713 57:1.1673026 58:1.314462 59:0.90734748 60:0.12272537 61:0.21912239 
-1 1:0.23825283 2:0.00060381767 3:0.96019775 4:3.8859062 5:14.976036 6:10.583271 7:11.550351 8:11.648693 9:11.712538 10:11.765823 11:11.840181 12:11.951202 13:12.097779 14:12.263558 15:12.429767 16:10.529129 17:5.2109697 20:0.64425574 21:0.40976917 22:0.61686315 23:0.746157 24:0.81156157 25:0.91969413 26:0.96911693 27:1.5172737 28:1.2171861 29:1.1063159 30:1.0656365 31:0.99513112 32:0.9767271 33:8.3640817 34:3.8599662 35:3.1612653 36:2.9227502 37:2.5882378 38:2.4728187 39:2.8651873 40:1.613253 41:1.4364412 42:1.3747995 43:1.3033882 44:1.2700633 45:11.281324 46:11.379666 47:11.44351 48:11.496795 49:11.571154 50:11.682174 51:11.82875 52:11.99453 53:12.160739 54:1.6595854 55:0.64336645 56:5.4344572 57:1.1271347 58:0.81462855 59:0.56183948 60:0.1908879 61:0.37011163 
1 1:0.18890898 2:0.00076770524 3:1.2103015 4:2.8542362 5:14.074604 6:9.6731305 7:10.43048 8:10.58126 9:10.672716 10:10.758669 11:10.869785 12:11.015597 13:11.188244 14:11.367533 15:11.537472 16:10.581283 17:4.9158135 20:0.52075081 21:0.31786811 22:0.43736421 23:0.55945177 24:0.67292304 25:0.78740453 26:0.86145686 27:1.7836996 28:1.4193826 29:1.233297 30:1.1218267 31:1.0484229 32:1.0145435 33:7.1898281 34:3.3872856 35:2.4863128 36:2.0301553 37:1.7646962 38:1.5686386 39:2.36607 40:1.3401939 41:1.1226087 42:1.0216668 43:0.96062106 44:0.90346848 45:10.222555 46:10.373334 47:10.46479 48:10.550743 49:10.661859 50:10.80767 51:10.980316 52:11.159604 53:11.329543 54:1.5010251 55:0.60925918 56:4.9679523 57:1.2972401 58:0.96141762 59:0.62071406 60:0.16288323 61:0.31121102 
1 1:0.30119659 2:0.00036893194 3:0.68668183 4:3.6532564 5:15.715689 6:11.355488 7:12.11978 8:12.221242 9:12.295228 10:12.380751 11:12.514063 12:12.706654 13:12.941403 14:13.177809 15:13.389779 16:10.426748 17:4.7559704 20:0.70061473 21:0.40028304 22:0.48066967 23:0.58904088 24:0.66548817 25:0.778794 26:0.88002252 27:1.4909106 28:1.3539331 29:1.2261825 30:1.1588403 31:1.0705725 32:1.0125761 33:8.6279749 34:4.4816712 35:3.4172709 36:2.9951199 37:2.4861263 38:2.0397871 39:3.2250638 40:1.8034014 41:1.4643923 42:1.3431619 43:1.2089006 44:1.0779142 45:11.768308 46:11.869769 47:11.943755 48:12.029278 49:12.162589 50:12.35518 51:12.589929 52:12.826335 53:13.038305 54:2.0266286 55:0.76779225 56:5.5093412 57:1.7536024 58:0.75540844 59:0.6164114 60:0.20629717 61:0.31295367 
-1 1:0.77590389 2:6.9999755e-006 3:0.38278723 4:3.4115559 5:16.020164 6:11.567878 7:11.824989 8:11.972476 9:12.058745 10:12.139047 11:12.28763 12:12.532587 13:12.820123 14:13.090142 15:13.311793 16:9.7233 17:3.2260118 20:0.27530099 21:0.4682114 22:0.44344467 23:0.44679641 24:0.44567379 25:0.43758245 26:0.42224356 27:1.3535663 28:1.3877341 29:1.3835992 30:1.3829244 31:1.3987228 32:1.4371443 33:8.8635999 34:4.9516317 35:3.524954 36:2.7481724 37:2.2024959 38:1.619846 39:3.5649209 40:1.9885946 41:1.4286654 42:1.1519432 43:0.95900188 44:0.74153107 45:10.65245 46:10.799935 47:10.886203 48:10.966504 49:11.115085 50:11.36004 51:11.647574 52:11.917591 53:12.139242 54:2.4604395 55:0.94710616 56:5.5521206 57:2.3701959 58:0.52997142 59:0.53923283 60:0.32738054 61:0.31173134 
1 1:1.0296194 2:5.999982e-006 3:0.40822662 4:3.4975685 5:16.168186 6:11.802246 7:12.117677 8:12.148112 9:12.148067 10:12.133608 11:12.156839 12:12.300886 13:12.591301 14:12.911343 15:13.176919 16:9.5335091 17:4.6300617 20:0.14790522 21:0.48864259 22:0.50506728 23:0.52150203 24:0.5242657 25:0.56772057 26:0.7476311 27:1.3173595 28:1.2909945 29:1.2683562 30:1.2663745 31:1.2169951 32:1.0796931 33:8.8560519 34:4.5300629 35:2.5462549 36:1.9206517 37:0.96029116 38:0.26478595 39:3.5790399 40:1.8293946 41:1.1175816 42:0.86623036 43:0.55609703 44:0.31847046 45:10.317704 46:10.348139 47:10.348094 48:10.333635 49:10.356865 50:10.500909 51:10.791318 52:11.111355 53:11.376929 54:2.7561642 55:0.99722975 56:6.1485483 57:3.1040096 58:0.61227165 59:0.62011096 60:0.28570171 61:0.28582701 
-0.06697083460481708 1:1.0296194 2:2.9999955e-006 3:0.12675071 4:3.6885606 5:16.187823 6:11.878242 7:12.509493 8:12.637122 9:12.787181 10:12.955722 11:13.159066 12:13.387113 13:13.610223 14:13.810576 15:13.983452 16:9.4767516 17:4.8100453 18:0.01015625 20:0.43487892 21:0.5322628 22:0.50933311 23:0.52183144 24:0.53946731 25:0.580818 26:0.61248199 27:1.2538264 28:1.2810994 29:1.2621694 30:1.2391522 31:1.1935506 32:1.1625134 33:8.7386858 34:6.0238208 35:4.8491235 36:3.9949963 37:3.2134056 38:2.2803822 39:3.6615401 40:2.5783556 41:2.0538002 42:1.7113577 43:1.4297862 44:1.0894932 45:10.709512 46:10.837139 47:10.987195 48:11.155734 49:11.359076 50:11.587121 51:11.810229 52:12.010581 53:12.183457 54:2.0949449 55:1.1769018 56:4.340221 57:2.8181015 58:0.56008821 59:0.57254236 60:0.33292693 61:0.32673443 
-1 1:0.61571361 2:0.0003939224 3:0.73664048 4:3.8713441 5:15.776537 6:11.364228 7:11.641463 8:11.776338 9:11.926767 10:12.105581 11:12.335496 12:12.598502 13:12.855056 14:13.082514 15:13.273687 16:10.403159 17:5.0162408 20:0.5169546 21:0.43675057 22:0.46430429 23:0.5425667 24:0.62765994 25:0.73239674 26:0.81335527 27:1.401146 28:1.353379 29:1.2489351 30:1.161767 31:1.0815831 32:1.0351466 33:8.5945432 34:5.1047915 35:3.8134151 36:2.9568048 37:2.2185268 38:1.4851245 39:3.3717197 40:2.1030511 41:1.6142559 42:1.3357474 43:1.1067944 44:0.86083553 45:10.790497 46:10.925372 47:11.075799 48:11.254611 49:11.484525 50:11.74753 51:12.004082 52:12.23154 53:12.422712 54:2.1549241 55:0.99167797 56:5.1337265 57:2.6588308 58:0.68737005 59:0.61178485 60:0.23824384 61:0.30884805 
-1 1:0.93679429 2:2.3999712e-005 3:0.38118813 4:3.3746028 5:16.036013 6:11.645181 7:11.326942 8:11.388515 9:11.46937 10:11.573435 11:11.752864 12:12.03336 13:12.364845 14:12.678187 15:12.925257 16:9.7824608 17:4.1329983 20:0.30405972 21:0.50455963 22:0.57356039 23:0.61185198 24:0.64042761 25:0.65840459 26:0.67987905 27:1.2888218 28:1.2043533 29:1.1642658 30:1.1388981 31:1.125399 32:1.1111938 33:8.8396923 34:3.9229727 35:2.2192595 36:1.4708464 37:1.062566 38:0.70845639 39:3.4370096 40:1.6296015 41:1.0408744 42:0.80392798 43:0.66562027 44:0.5310805 45:9.7751989 46:9.8367696 47:9.9176208 48:10.021682 49:10.201105 50:10.481594 51:10.813073 52:11.12641 53:11.373478 54:2.619361 55:0.78510023 56:6.6012467 57:2.1696337 58:0.61230297 59:0.54201574 60:0.29431127 61:0.36233686 
-1 1:1.0296194 2:1.999998e-006 3:0.1773802 4:3.6876286 5:16.291868 6:11.903872 7:12.262463 8:12.392681 9:12.534587 10:12.695958 11:12.901035 12:13.141338 13:13.384759 14:13.608237 15:13.798886 16:9.4645787 17:4.5930893 18:0.11663037 20:0.30368632 21:0.53159896 22:0.55248183 23:0.59930178 24:0.61791219 25:0.64802376 26:0.65531083 27:1.2521691 28:1.2280278 29:1.1796468 30:1.1610909 31:1.1342323 32:1.1277619 33:8.9292669 34:5.4766671 35:4.1641028 36:3.3526045 37:2.6088983 38:1.7522176 39:3.664725 40:2.3377867 41:1.7944247 42:1.4889177 43:1.226458 44:0.91317508 45:10.462486 46:10.592701 47:10.734605 48:10.895973 49:11.101048 50:11.341348 51:11.584766 52:11.808243 53:11.998891 54:2.2928894 55:1.107863 56:5.1049106 57:2.760328 58:0.58170232 59:0.54581717 60:0.31737106 61:0.35884872 
1 1:0.87333229 2:0.00010499449 3:0.42918945 4:3.76436 5:16.203458 6:11.76962 7:12.762454 8:12.877765 9:13.002691 10:13.145506 11:13.322166 12:13.521793 13:13.719772 14:13.899682 15:14.055739 16:10.154969 17:4.6816184 20:0.43103408 21:0.49015362 22:0.46193617 23:0.45860769 24:0.4682546 25:0.49289645 26:0.54459091 27:1.3119659 28:1.354605 29:1.3612639 30:1.3439441 31:1.3040909 32:1.2343648 33:8.9661709 34:6.076858 35:5.094213 36:4.3839129 37:3.7570311 38:2.8316737 39:3.6826515 40:2.5615482 41:2.1115308 42:1.822012 43:1.5894625 44:1.2568099 45:11.367585 46:11.482895 47:11.60782 48:11.750634 49:11.927293 50:12.126919 51:12.324898 52:12.504807 53:12.660863 54:2.039562 55:1.1030746 56:4.3864793 57:2.4484811 58:0.55819863 59:0.59979966 60:0.32246273 61:0.2990088 
1 1:1.0296194 2:3.899924e-005 3:0.33431491 4:3.9930686 5:16.378629 6:11.844723 7:13.295521 8:13.391061 9:13.496123 10:13.617393 11:13.769017 12:13.942853 13:14.11713 14:14.277594 15:14.419635 16:10.192633 17:5.0799931 20:0.40496165 21:0.48994289 22:0.44910361 23:0.42920247 24:0.42910937 25:0.43159279 26:0.43039834 27:1.3140341 28:1.3807188 29:1.4223271 30:1.4203924 31:1.413269 32:1.413641 33:9.2089824 34:6.6012829 35:5.7516366 36:5.1668237 37:4.587423 38:3.7232939 39:3.834202 40:2.8025045 41:2.3873229 42:2.1294551 43:1.8805609 44:1.5146454 45:11.495529 46:11.591069 47:11.69613 48:11.817399 49:11.969023 50:12.142858 51:12.317134 52:12.477597 53:12.619638 54:1.94326 55:1.1338122 56:4.0003095 57:2.1942174 58:0.50884471 59:0.56100284 60:0.3437322 61:0.30317267 
1 1:0.63019886 2:7.6997036e-005 3:0.41148959 4:4.0090581 5:16.254831 6:11.814599 7:13.444884 8:13.530177 9:13.62311 10:13.728002 11:13.85999 12:14.012007 13:14.163929 14:14.304626 15:14.430559 16:10.232446 17:5.019273 20:0.42468129 21:0.50952358 22:0.49716636 23:0.48573856 24:0.49321893 25:0.50960528 26:0.52265834 27:1.2814948 28:1.2982626 29:1.3175424 30:1.3039961 31:1.2789446 32:1.2599755 33:8.9663212 34:6.458095 35:5.7829045 36:5.3486361 37:4.9058753 38:4.1802053 39:3.7422099 40:2.7892 41:2.4683661 42:2.2821409 43:2.0995161 44:1.7903291 45:12.566902 46:12.652194 47:12.745128 48:12.85002 49:12.982008 50:13.134024 51:13.285946 52:13.426643 53:13.552576 54:1.7418301 55:1.0129812 56:3.7118799 57:1.7894386 58:0.54430075 59:0.56357877 60:0.3358777 61:0.32295925 
-1 1:1.0296194 2:9.999995e-007 3:0.9429942 4:3.8064619 5:16.248882 6:11.725315 7:12.22466 8:12.344195 9:12.442796 10:12.548698 11:12.698545 12:12.902986 13:13.134308 14:13.361612 15:13.560499 16:10.26346 17:4.5328504 19:2.6464395 20:0.69557224 21:0.42897588 22:0.41566623 23:0.44968867 24:0.47156491 25:0.50341181 26:0.52404901 27:1.4220782 28:1.4459898 29:1.3818701 30:1.3389189 31:1.2866643 32:1.2579034 33:9.1408771 34:5.2792237 35:3.9676359 36:3.2168602 37:2.5745618 38:1.8018151 39:3.6011143 40:2.1159279 41:1.5982585 42:1.3467117 43:1.1388383 44:0.87178655 45:10.424685 46:10.544217 47:10.642816 48:10.748716 49:10.89856 50:11.102999 51:11.334317 52:11.56162 53:11.760505 54:2.3585667 55:0.99129739 56:5.4833145 57:2.5400231 58:0.61318563 59:0.60369893 60:0.28310799 61:0.2974329 
1 1:1.0296194 2:4.9999875e-006 3:0.19597953 4:4.067949 5:16.43031 6:11.953011 7:13.180988 8:13.289488 9:13.41347 10:13.552382 11:13.719051 12:13.905767 13:14.090526 14:14.258838 15:14.406067 16:10.002059 17:4.9177763 20:0.52166229 21:0.53020404 22:0.49920011 23:0.48535396 24:0.48545366 25:0.49048372 26:0.48671201 27:1.2571536 28:1.2947025 29:1.3156245 30:1.3147495 31:1.3060183 32:1.3120459 33:9.2234648 34:6.5178596 35:5.6249308 36:5.0033316 37:4.4681554 38:3.7002814 39:3.8643587 40:2.8050583 41:2.3760057 42:2.0967716 43:1.8818794 44:1.558715 45:11.380998 46:11.489497 47:11.613478 48:11.752388 49:11.919056 50:12.105771 51:12.29053 52:12.458841 53:12.606069 54:1.9629593 55:1.0981541 56:4.1097786 57:2.1200386 58:0.51805143 59:0.54609834 60:0.35702474 61:0.32843187 
-1 1:1.0296194 2:2.9999955e-006 3:0.36474311 4:3.9129182 5:16.428823 6:11.961948 7:12.832728 8:12.93697 9:13.059392 10:13.20363 11:13.385255 12:13.59471 13:13.804707 14:13.997422 15:14.164367 16:9.9251826 17:4.4923997 20:0.53693713 21:0.52444506 22:0.51100881 23:0.5326738 24:0.55561867 25:0.59981789 26:0.6692033 27:1.2631607 28:1.2768288 29:1.2487747 30:1.2213044 31:1.1757653 32:1.118244 33:9.1323331 34:6.0594808 35:4.9618302 36:4.277211 37:3.6354494 38:2.7808076 39:3.7887098 40:2.5992618 41:2.1149737 42:1.8461908 43:1.6120264 44:1.2988938 45:11.032742 46:11.136983 47:11.259403 48:11.403639 49:11.585262 50:11.794717 51:12.004712 52:12.197426 53:12.36437 54:2.108657 55:1.0933658 56:4.6076443 57:2.4415656 58:0.57787551 59:0.58383965 60:0.31778396 61:0.31903435 
1 1:1.012132 2:6.9999755e-006 3:0.37375426 4:4.0638471 5:16.459905 6:11.899262 7:13.62773 8:13.740564 9:13.840477 10:13.954221 11:14.094271 12:14.250225 13:14.403709 14:14.544062 15:14.669462 16:10.172067 17:4.9508418 19:0.3362172 20:0.55214106 21:0.47248866 22:0.44283539 23:0.43687979 24:0.44120734 25:0.45730205 26:0.46676339 27:1.3433973 28:1.3916512 29:1.4034462 30:1.3940701 31:1.3620396 32:1.3448579 33:9.2683768 34:6.7913589 35:6.0948882 36:5.6300448 37:5.1451444 38:4.3678051 39:3.8354866 40:2.8853569 41:2.5559634 42:2.3516563 43:2.1534887 44:1.8200882 45:11.876274 46:11.989109 47:12.08902 48:12.202764 49:12.342814 50:12.498767 51:12.652251 52:12.792603 53:12.918003 54:1.7680727 55:1.050663 56:3.7227532 57:1.8934284 58:0.54353083 59:0.57853715 60:0.32419185 61:0.30087315 
1 1:1.0296194 2:1.899982e-005 3:0.17835453 4:3.9747681 5:16.350517 6:11.964396 7:13.321021 8:13.403489 9:13.486515 10:13.583366 11:13.710396 12:13.862967 13:14.022306 14:14.174805 15:14.313352 16:9.9879769 17:4.8509522 20:0.40446928 21:0.54155306 22:0.51639867 23:0.50477093 24:0.50285494 25:0.51506662 26:0.52482438 27:1.2431599 28:1.2726457 29:1.2888538 30:1.2907442 31:1.272597 32:1.2583499 33:9.0488644 34:6.285913 35:5.5139749 36:5.0329031 37:4.5711712 38:3.8737787 39:3.7894773 40:2.7241827 41:2.3616592 42:2.1474026 43:1.9562514 44:1.6640619 45:11.52103 46:11.603497 47:11.686522 48:11.783372 49:11.910401 50:12.062972 51:12.22231 52:12.374809 53:12.513356 54:1.875499 55:1.0205612 56:4.0332315 57:1.849496 58:0.52637177 59:0.55333269 60:0.35655932 61:0.33176093 
1 1:1.0296194 2:9.7995198e-005 3:0.26990347 4:3.8147599 5:16.410997 6:11.959865 7:13.192121 8:13.298218 9:13.402309 10:13.517183 11:13.660551 12:13.828389 13:14.001299 14:14.164794 15:14.311637 16:10.13425 17:4.7168886 20:0.66034037 21:0.51302121 22:0.4784801 23:0.47149876 24:0.47375845 25:0.49367682 26:0.53611435 27:1.2805974 28:1.3278071 29:1.3379068 30:1.3347924 31:1.3028345 32:1.2445456 33:9.0729293 34:6.1735868 35:5.3118452 36:4.7495029 37:4.2135855 38:3.380107 39:3.7597882 40:2.6331407 41:2.2352751 42:1.9941536 43:1.7831352 44:1.4657816 45:11.392131 46:11.498227 47:11.602317 48:11.71719 49:11.860557 50:12.028394 51:12.201303 52:12.364798 53:12.51164 54:1.9777599 55:1.057637 56:4.2753976 57:2.1203849 58:0.54127199 59:0.58596037 60:0.33880782 61:0.30736587 
1 1:1.0296194 2:1.4999888e-005 3:0.27237019 4:3.8261365 5:16.251687 6:11.851296 7:13.151102 8:13.250169 9:13.349472 10:13.458265 11:13.587828 12:13.7363 13:13.888949 14:14.035215 15:14.168304 16:10.07811 17:5.0287242 20:0.44738794 21:0.5082846 22:0.48284335 23:0.47531388 24:0.4809819 25:0.50103889 26:0.51417301 27:1.2854478 28:1.3190201 29:1.3310583 30:1.3212133 31:1.2905516 32:1.2721529 33:8.9693385 34:5.9107727 35:5.150242 36:4.7116776 37:4.3230471 38:3.8621698 39:3.670571 40:2.5159229 41:2.1708047 42:1.9870085 43:1.8388571 44:1.6564501 45:11.351112 46:11.450178 47:11.54948 48:11.658273 49:11.787834 50:11.936306 51:12.088954 52:12.235219 53:12.368308 54:1.8715387 55:0.90250218 56:4.2405299 57:1.5697984 58:0.54071909 59:0.56766896 60:0.33782398 61:0.31724717 
1 1:1.0296194 2:4.1999118e-005 3:0.23883578 4:4.0054247 5:16.286162 6:11.858938 7:13.335797 8:13.419224 9:13.503644 10:13.599611 11:13.723569 12:13.87359 13:14.02972 14:14.177525 15:14.310846 16:10.078176 17:4.8439723 20:0.64201914 21:0.52404605 22:0.5094635 23:0.50383182 24:0.51361314 25:0.53009458 26:0.55924029 27:1.2635831 28:1.280287 29:1.2883411 30:1.274454 31:1.2523366 32:1.2170023 33:9.049857 34:6.2869539 35:5.5745395 36:5.0605423 37:4.6271334 38:3.8671701 39:3.7596536 40:2.7125869 41:2.3762949 42:2.1465152 43:1.9710176 44:1.6714568 45:11.535805 46:11.619231 47:11.703651 48:11.799617 49:11.923575 50:12.073595 51:12.229724 52:12.377528 53:12.510849 54:1.8465575 55:1.0171688 56:4.0146847 57:1.8760461 58:0.5482222 59:0.56672038 60:0.33834308 61:0.32527418 
1 1:0.62636294 2:4.099916e-005 3:0.38796555 4:4.0560679 5:16.516164 6:11.97404 7:13.408572 8:13.508336 9:13.609685 10:13.728544 11:13.878212 12:14.05012 13:14.223354 14:14.383627 15:14.525196 16:10.170759 17:4.9940545 19:0.11523134 20:0.40318117 21:0.49131247 22:0.46452301 23:0.44579226 24:0.43566189 25:0.43761279 26:0.43511064 27:1.3108464 28:1.3516649 29:1.3849815 30:1.4048548 31:1.3999497 32:1.404122 33:9.2394449 34:6.4480561 35:5.6232244 36:5.1587061 37:4.7157965 38:4.0738495 39:3.8342783 40:2.7456658 41:2.3483774 42:2.1345008 43:1.9445808 44:1.6667382 45:12.53778 46:12.637543 47:12.738893 48:12.857751 49:13.007419 50:13.179327 51:13.352561 52:13.512834 53:13.654403 54:1.9136654 55:1.0188372 56:4.0712468 57:1.8017988 58:0.51373878 59:0.55160891 60:0.34244728 61:0.31021489 
1 1:0.41669515 2:0.0031819323 3:0.86558169 4:2.1543639 5:13.928386 6:10.034516 7:10.677782 8:10.443933 9:10.215441 10:10.006344 11:9.8439723 12:9.8158715 13:10.10179 14:10.565563 15:10.919159 16:7.8314849 17:2.678248 20:0.2584968 21:0.53484113 22:0.78601985 23:0.90377959 24:0.97935417 25:1.0764076 26:1.0935656 27:1.3545384 28:1.1239648 29:1.0522088 30:0.98984747 31:0.94979088 32:0.94575594 33:6.3417487 34:1.0731399 35:0.64959751 36:0.3168 37:0.12081311 38:0.099535785 39:2.2624546 40:0.63317581 41:0.43015447 42:0.33327141 43:0.25330411 44:0.22940232 45:10.160857 46:9.9270128 47:9.6985254 48:9.489434 49:9.3270682 50:9.2989685 51:9.5848781 52:10.048641 53:10.402231 54:1.9716867 55:0.34949369 56:5.9573908 57:0.56303517 58:0.7270461 59:0.53106611 60:0.22700684 61:0.42156215 
1 1:0.18331856 2:0.00043290628 3:0.94408721 4:2.5886096 5:14.935078 6:10.915634 7:12.365066 8:12.352576 9:12.352313 10:12.312214 11:12.259994 12:12.282746 13:12.42694 14:12.652962 15:12.917682 16:7.5153868 17:2.6430809 20:0.29998014 21:0.34328257 22:0.37207446 23:0.40186263 24:0.44983919 25:0.49991067 26:0.54823643 27:1.6611757 28:1.566946 29:1.4933296 30:1.3813341 31:1.2932864 32:1.228588 33:7.2661766 34:4.7228238 35:3.4384648 36:2.2564965 37:1.5132957 38:0.95890798 39:2.6554527 40:1.6928689 41:1.2798038 42:0.96092408 43:0.76434675 44:0.59197787 45:12.16387 46:12.15138 47:12.151117 48:12.111018 49:12.058798 50:12.08155 51:12.225744 52:12.451766 53:12.716485 54:1.7975836 55:0.85628885 56:4.2346464 57:2.7555855 58:0.75026307 59:0.66356143 60:0.22350071 61:0.27184919 
-1 1:0.43775545 2:0.0025218175 3:0.74557501 4:2.4615095 5:14.765148 6:10.759858 7:11.094845 8:11.147367 9:11.19268 10:11.248204 11:11.36253 12:11.594579 13:11.892067 14:12.178748 15:12.426405 16:8.055107 17:3.1365901 20:0.3096412 21:0.44786474 22:0.56830309 23:0.55224469 24:0.61745549 25:0.6896571 26:0.80525771 27:1.4375322 28:1.2245454 29:1.2372931 30:1.1624549 31:1.1045003 32:1.0414619 33:6.9652435 34:3.0839233 35:1.7130614 36:0.97690895 37:0.58199269 38:0.34465084 39:2.5768187 40:1.3331994 41:0.83314084 42:0.61700668 43:0.48362543 44:0.38531818 45:10.545631 46:10.598152 47:10.643464 48:10.698988 49:10.813313 50:11.04536 51:11.342846 52:11.629526 53:11.877182 54:1.9870844 55:0.66631928 56:5.4243063 57:1.780053 58:0.71913153 59:0.58767106 60:0.24475299 61:0.31794515 
1 1:0.13076156 2:0.00083465158 3:0.91141004 4:2.3432371 5:14.224498 6:10.347885 7:12.246952 8:12.202233 9:12.145836 10:12.062036 11:11.962705 12:11.903203 13:11.939765 14:12.082816 15:12.316467 16:8.1483886 17:2.8337657 20:0.36816192 21:0.30138895 22:0.3225363 23:0.34389533 24:0.39092795 25:0.47572784 26:0.67763854 27:1.8321971 28:1.7345584 29:1.6655082 30:1.5302388 31:1.3560941 32:1.1297314 33:6.6190771 34:4.6424064 35:3.7755283 36:2.429191 37:1.4999819 38:0.86024469 39:2.2879938 40:1.5221448 41:1.2357633 42:0.91869903 43:0.72989561 44:0.58324805 45:12.107257 46:12.062538 47:12.006141 48:11.922341 49:11.82301 50:11.763509 51:11.80007 52:11.943121 53:12.176772 54:1.5223591 55:0.78865158 56:3.5740658 57:2.8815867 58:0.84101753 59:0.81024587 60:0.1861179 61:0.21389638 
1 1:0.13973846 2:0.00034394085 3:1.0261204 4:2.4930194 5:14.527351 6:10.565789 7:12.803219 8:12.751583 9:12.700733 10:12.633131 11:12.568316 12:12.544522 13:12.587567 14:12.697656 15:12.87494 16:7.5997268 17:2.1805951 20:0.38294475 21:0.28647209 22:0.30199244 23:0.31526027 24:0.33798894 25:0.36118715 26:0.40588169 27:1.9039144 28:1.8221395 29:1.7639013 30:1.6772836 31:1.5981691 32:1.480207 33:6.8721769 34:5.2360248 35:4.3015056 36:3.1366245 37:2.3367386 38:1.6421645 39:2.4017084 40:1.7338941 41:1.4447524 42:1.1238738 43:0.92708348 44:0.73636949 45:12.653247 46:12.601611 47:12.55076 48:12.483158 49:12.418343 50:12.39455 51:12.437594 52:12.547684 53:12.724968 54:1.4740496 55:0.86607915 56:3.2356911 57:2.7138108 58:0.76339858 59:0.71397487 60:0.20661461 61:0.23106862 
-0.6546916837610195 1:0.17718422 2:0.00062480477 3:1.0025319 4:2.5572868 5:14.236191 6:10.33835 7:12.619072 8:12.579694 9:12.530721 10:12.455841 11:12.371034 12:12.312501 13:12.307707 14:12.367301 15:12.502026 16:7.5008413 17:2.3896863 20:0.48366982 21:0.33388747 22:0.37799524 23:0.40131451 24:0.45226027 25:0.52213938 26:0.64082019 27:1.7013523 28:1.5575371 29:1.5097891 30:1.3938867 31:1.2779536 32:1.1491695 33:6.6900737 34:5.094741 35:4.5526444 36:3.4017958 37:2.5945063 38:1.9492244 39:2.391347 40:1.7858754 41:1.6005275 42:1.3270161 43:1.148008 44:0.97184956 45:12.425222 46:12.385844 47:12.336871 48:12.261991 49:12.177184 50:12.118651 51:12.113857 52:12.173451 53:12.308176 54:1.3337777 55:0.83699001 56:3.0205605 57:2.4499834 58:0.79510217 59:0.70380061 60:0.20680494 61:0.25555167 
-1 1:0.18449004 2:0.00079168653 3:0.96661724 4:2.2595061 5:13.613456 6:9.6574591 7:10.823409 8:10.788161 9:10.818463 10:10.842042 11:10.869642 12:10.94325 13:11.095591 14:11.307043 15:11.518079 16:7.7059049 17:1.7246511 20:0.41695485 21:0.36159263 22:0.43086836 23:0.50999448 24:0.63253906 25:0.77934598 26:0.87876787 27:1.60736 28:1.4463009 29:1.3396646 30:1.171473 31:1.0567446 32:1.0078805 33:6.5535772 34:3.6964077 35:2.7198518 36:1.858968 37:1.3074213 38:1.0954185 39:2.3093818 40:1.3296296 41:1.0558189 42:0.87605398 43:0.78694804 44:0.72696728 45:10.620808 46:10.58556 47:10.615863 48:10.639441 49:10.667041 50:10.740649 51:10.89299 52:11.104441 53:11.315476 54:1.5507693 55:0.62933465 56:4.2943345 57:1.8163316 58:0.81985664 59:0.65642526 60:0.18750134 61:0.29201228 
-1 1:0.28291925 2:0.0010074923 3:0.9973006 4:2.6261412 5:14.689731 6:10.734939 7:11.685048 8:11.652496 9:11.682986 10:11.703978 11:11.729942 12:11.83358 13:12.050087 14:12.31955 15:12.591971 16:7.7447476 17:2.3969953 20:0.68767121 21:0.35803522 22:0.57206709 23:0.78537808 24:0.88936301 25:0.96106943 26:0.98621224 27:1.6399805 28:1.2521851 29:1.0699 30:1.0087718 31:0.97971426 32:0.97193923 33:6.894073 34:4.0712215 35:2.9418333 36:2.5186628 37:2.2454283 38:1.883269 39:2.4685803 40:1.6029004 41:1.3601606 42:1.2612052 43:1.1777312 44:1.0414107 45:11.358053 46:11.325501 47:11.355992 48:11.376983 49:11.402947 50:11.506585 51:11.723091 52:11.992554 53:12.264974 54:1.4362259 55:0.70664738 56:4.1541444 57:1.5322865 58:0.91008471 59:0.55364153 60:0.1608399 61:0.38353802 
-1 1:0.19152161 2:0.00043790411 3:0.99753333 4:2.3747617 5:14.429781 6:10.509169 7:12.561522 8:12.437763 9:12.301907 10:12.145083 11:11.980423 12:11.8561 13:11.848777 14:11.98443 15:12.232315 16:7.5890056 17:2.0787829 20:0.39348497 21:0.33880808 22:0.44788582 23:0.52667456 24:0.55286045 25:0.62554745 26:0.68446157 27:1.7009009 28:1.4694103 29:1.3709007 30:1.3228478 31:1.185074 32:1.109355 33:6.7360901 34:4.5059963 35:3.5537255 36:2.475557 37:1.4230866 38:0.95297168 39:2.3271021 40:1.4241329 41:1.1221836 42:0.92918248 43:0.75822962 44:0.62936198 45:12.350431 46:12.226673 47:12.090817 48:11.933994 49:11.769334 50:11.645011 51:11.637687 52:11.773341 53:12.021225 54:1.5715298 55:0.71860675 56:3.8133528 57:2.6573625 58:0.83542188 59:0.65880318 60:0.19723981 61:0.30847488 
0.8244394716070781 1:0.11775637 2:0.00017498469 3:1.0176188 4:2.5978193 5:14.944026 6:10.860882 7:13.291939 8:13.168105 9:13.096375 10:13.016371 11:12.930027 12:12.872556 13:12.88147 14:12.977812 15:13.169808 16:7.4496575 17:2.1837891 20:0.32237114 21:0.29381448 22:0.30440275 23:0.31078147 24:0.32954688 25:0.35895544 26:0.41189506 27:1.8690894 28:1.8096267 29:1.7877446 30:1.7156222 31:1.6109064 32:1.4660259 33:7.3309481 34:5.3537623 35:4.5629708 36:3.3015101 37:2.3649265 38:1.6719937 39:2.5924643 40:1.7691431 41:1.4796394 42:1.1455283 43:0.92900319 44:0.74943063 45:13.166969 46:13.043136 47:12.971406 48:12.891402 49:12.805058 50:12.747587 51:12.756501 52:12.852842 53:13.044838 54:1.6201643 55:0.87963602 56:3.5356949 57:2.8343446 58:0.74052641 59:0.73063044 60:0.21181897 61:0.22747957 
1 1:0.13545966 2:0.00025196825 3:0.92881517 4:2.8958369 5:15.472935 6:11.288806 7:13.718312 8:13.564743 9:13.486988 10:13.425623 11:13.366127 12:13.339408 13:13.377743 14:13.497799 15:13.699213 16:7.9930564 17:2.3444433 20:0.33774072 21:0.30631784 22:0.31492898 23:0.32962312 24:0.36874372 25:0.44282062 26:0.6156558 27:1.8048703 28:1.7632895 29:1.7157472 30:1.5868953 31:1.4088039 32:1.1769871 33:7.7992032 34:5.619039 35:4.8316389 36:3.4932957 37:2.5931445 38:1.795949 39:2.8426527 40:1.9516577 41:1.6423851 42:1.2876201 43:1.0853018 44:0.90522453 45:13.573249 46:13.41968 47:13.341925 48:13.28056 49:13.221064 50:13.194345 51:13.23268 52:13.352737 53:13.554151 54:1.7061395 55:0.91456592 56:3.7463975 57:2.9649579 58:0.79677789 59:0.81602334 60:0.19701592 61:0.21367039 
-1 1:0.38870612 2:0.0007816944 3:0.61747275 4:2.8423499 5:15.175891 6:11.060384 7:13.317823 8:13.202327 9:13.15508 10:13.107634 11:13.041773 12:12.985281 13:12.97673 14:13.060776 15:13.253733 16:7.4712318 17:2.6788207 20:0.84919919 21:0.36303349 22:0.46343145 23:0.55021748 24:0.67439852 25:0.81005739 26:0.92869863 27:1.6159147 28:1.3907479 29:1.2816436 30:1.1352576 31:1.0416863 32:0.9918927 33:7.4865775 34:5.2030709 35:4.413549 36:3.3590855 37:2.8196548 38:2.5320762 39:2.7593669 40:1.953793 41:1.7248646 42:1.4868444 43:1.3659621 44:1.2830194 45:12.842753 46:12.727257 47:12.680011 48:12.632564 49:12.566703 50:12.510211 51:12.501661 52:12.585706 53:12.778663 54:1.4675473 55:0.77876178 56:3.7036193 57:1.9572455 58:0.84361225 59:0.63497783 60:0.18089038 61:0.2993976 
-1 1:0.26686642 2:6.099814e-005 3:0.59478324 4:2.0686389 5:14.091901 6:10.090465 7:9.9560478 8:9.9862105 9:9.9566021 10:9.9362872 11:10.014656 12:10.227889 13:10.515164 14:10.806677 15:11.052053 16:7.8562683 17:4.5182359 20:0.13938709 21:0.3363858 22:0.34185487 23:0.35738629 24:0.38755569 25:0.46924209 26:0.6620816 27:1.7493567 28:1.7181513 29:1.6314051 30:1.5317455 31:1.3627706 32:1.136086 33:7.1120129 34:2.3525436 35:1.1464077 36:0.61574332 37:0.27655312 38:0.10649287 39:2.3013502 40:0.8412624 41:0.53439761 42:0.38890948 43:0.27806725 44:0.20488345 45:9.6501987 46:9.6803609 47:9.6507531 48:9.6304385 49:9.7088064 50:9.922036 51:10.209308 52:10.500818 53:10.746192 54:1.9641809 55:0.4540846 56:6.135122 57:1.3566602 58:0.78838764 59:0.79821163 60:0.21035085 61:0.22009345 
-1 1:0.41528672 2:0.0014539425 3:0.35024341 4:2.6344288 5:14.932054 6:10.763589 7:10.7058 8:10.782994 9:10.853359 10:10.940078 11:11.096624 12:11.346495 13:11.643087 14:11.927061 15:12.160224 16:8.678457 17:4.3797246 20:0.30950692 21:0.44314939 22:0.54620107 23:0.51804411 24:0.55869994 25:0.59037609 26:0.67670474 27:1.4348943 28:1.2378463 29:1.2699737 30:1.2205007 31:1.1858329 32:1.1169475 33:7.6815477 34:3.5157411 35:1.9213482 36:1.2451069 37:0.86305619 38:0.52106205 39:2.7957064 40:1.483891 41:0.90217923 42:0.69629024 43:0.57139359 44:0.45077175 45:10.19101 46:10.268203 47:10.338567 48:10.425285 49:10.581829 50:10.831698 51:11.128288 52:11.412261 53:11.645423 54:2.1120005 55:0.72249661 56:5.792349 57:1.9854832 58:0.68734358 59:0.58293815 60:0.26300905 61:0.31913839 
-1 1:0.36960854 2:0.00025596724 3:0.49309801 4:2.9744863 5:15.050826 6:10.817275 7:12.1932 8:12.292133 9:12.387575 10:12.490955 11:12.613899 12:12.761608 13:12.916464 14:13.062413 15:13.194992 16:8.5636192 17:4.8343355 20:0.47708661 21:0.35197924 22:0.36550108 23:0.3933021 24:0.42333515 25:0.45986554 26:0.52458592 27:1.630261 28:1.5846832 29:1.5051604 30:1.433349 31:1.3601016 32:1.2621658 33:7.7938048 34:5.3692886 35:4.5450299 36:3.9419576 37:3.2765278 38:2.345398 39:2.9186697 40:2.1216591 41:1.8052165 42:1.5985072 43:1.371416 44:1.0603024 45:11.746035 46:11.844967 47:11.940409 48:12.043789 49:12.166733 50:12.314442 51:12.469297 52:12.615246 53:12.747825 54:1.613365 55:0.98292259 56:3.8341069 57:2.3195165 58:0.7125356 59:0.66950737 60:0.23413708 61:0.26308079 
-1 1:0.35425813 2:0.0010464523 3:0.7290031 4:2.3854716 5:13.443738 6:9.5755389 7:10.713365 8:10.829231 9:10.921086 10:11.008497 11:11.106088 12:11.220532 13:11.342211 14:11.462618 15:11.574381 16:8.2986534 17:4.8585319 20:0.55422931 21:0.42005614 22:0.45362015 23:0.45538035 24:0.47733482 25:0.50525433 26:0.57388155 27:1.4716678 28:1.3859213 29:1.3810823 30:1.3425718 31:1.2977011 32:1.2092018 33:6.4224569 34:3.8180117 35:3.2705462 36:2.8969507 37:2.5064917 38:1.9463536 39:2.299534 40:1.5719107 41:1.3607796 42:1.235915 43:1.1103458 44:0.94679317 45:10.288254 46:10.404119 47:10.495973 48:10.583383 49:10.680973 50:10.795416 51:10.917095 52:11.0375 53:11.149263 54:1.3386211 55:0.73504592 56:3.6570981 57:1.5054767 58:0.65755966 59:0.61819419 60:0.26918057 61:0.29327451 
-1 1:0.32994455 2:0.00022797401 3:0.48873644 4:2.8421951 5:14.630717 6:10.489857 7:12.002542 8:12.076781 9:12.131024 10:12.186351 11:12.26051 12:12.360871 13:12.478605 14:12.599578 15:12.713935 16:8.3918437 17:4.7099901 20:0.39964554 21:0.38363455 22:0.40207069 23:0.4091895 24:0.42764334 25:0.44607076 26:0.46655456 27:1.5407703 28:1.4828721 29:1.4663324 30:1.4243276 31:1.3872859 32:1.3461229 33:7.5427484 34:4.6970987 35:4.1743638 36:3.8321211 37:3.5070444 38:3.1128712 39:2.7726265 40:1.8862411 41:1.6774034 42:1.5583294 43:1.4468597 44:1.3163734 45:11.611653 46:11.685892 47:11.740135 48:11.795463 49:11.869621 50:11.969982 51:12.087716 52:12.208689 53:12.323045 54:1.4692319 55:0.75888072 56:3.803337 57:1.3300125 58:0.64680582 59:0.60931033 60:0.26227721 61:0.28418665 
-1 1:0.3692934 2:0.00040391841 3:0.47275858 4:3.2020425 5:15.164573 6:10.950631 7:12.40939 8:12.489629 9:12.577904 10:12.674317 11:12.799646 12:12.952602 13:13.109658 14:13.256281 15:13.38828 16:8.7241683 17:4.8129919 20:0.62629238 21:0.39221167 22:0.43522777 23:0.47473803 24:0.52884313 25:0.58486574 26:0.67538842 27:1.5176296 28:1.4139579 29:1.3403871 30:1.2617193 31:1.1944602 32:1.1152767 33:7.8018343 34:5.6806598 35:4.9043489 36:4.3478125 37:3.7743925 38:2.9973137 39:3.0550064 40:2.3597628 41:2.0556472 42:1.8643438 43:1.6631428 44:1.3872487 45:11.962681 46:12.042919 47:12.131194 48:12.227607 49:12.352935 50:12.505891 51:12.662947 52:12.80957 53:12.941569 54:1.5053742 55:0.96752973 56:3.4683605 57:2.054183 58:0.72100365 59:0.6325149 60:0.23499027 61:0.29005526 
0.296074058591658 1:0.056132666 2:0.00022397492 3:1.8421358 4:0.43661229 5:9.5854147 6:5.9610053 7:5.053114 8:4.9870582 9:5.2336429 10:5.3581996 11:5.475216 12:5.6408234 13:5.8852809 14:6.1324203 15:6.3449144 16:7.3140012 17:0.5704359 18:4.422331 20:0.040204844 21:0.41536329 22:0.5622392 23:0.66839895 24:0.70566352 25:0.77668148 26:0.80575418 27:1.9172561 28:1.4411369 29:1.1921834 30:1.1371058 31:1.060639 32:1.037584 33:4.1321195 34:0.2168204 35:0.059322127 36:0.036624076 37:0.019613394 38:0.012853045 39:0.54369486 40:0.21821462 41:0.14374097 42:0.12050643 43:0.096296965 44:0.080726166 45:4.9957557 46:4.9297258 47:5.1762219 48:5.3007415 49:5.4177269 50:5.5832964 51:5.8277081 52:6.0748113 53:6.2872807 54:0.49754801 55:0.13516898 56:4.0827172 57:0.085201548 58:1.0545028 59:0.6118085 60:0.21861091 61:0.36197045 
1 1:0.33172168 2:0.0003789282 3:0.52786797 4:3.108472 5:14.689449 6:10.761874 7:11.949897 8:11.953339 9:11.992773 10:12.049315 11:12.12708 12:12.248592 13:12.39814 14:12.551484 15:12.698159 16:9.0787521 17:2.9650364 20:0.30800736 21:0.41305821 22:0.39791199 23:0.41251089 24:0.46070427 25:0.51309545 26:0.55552285 27:1.4805014 28:1.5159924 29:1.4871302 30:1.3946818 31:1.2898465 32:1.2214695 33:7.2361363 34:5.5171347 35:4.5788014 36:3.68498 37:2.8239051 38:1.9260814 39:2.8368541 40:2.1726507 41:1.7900672 42:1.4735414 43:1.2146632 44:0.93139331 45:11.556535 46:11.559977 47:11.599411 48:11.655953 49:11.733718 50:11.855229 51:12.004777 52:12.158121 53:12.304795 54:1.596286 55:1.0377234 56:3.2880546 57:2.7431321 58:0.64132364 59:0.65848829 60:0.26952426 61:0.28024858 
1 1:0.37485537 2:0.00062880226 3:0.46336351 4:2.982844 5:15.204178 6:11.096925 7:11.258519 8:11.331946 9:11.434246 10:11.560294 11:11.728809 12:11.949804 13:12.191044 14:12.419753 15:12.627085 16:8.1648293 17:2.4976815 20:0.38812361 21:0.41645252 22:0.48376846 23:0.56559786 24:0.61883788 25:0.635947 26:0.64031744 27:1.4736523 28:1.3730381 29:1.25231 30:1.1683796 31:1.1444078 32:1.1384921 33:7.7542028 34:4.5184537 35:3.1517057 36:2.338769 37:1.7532513 38:1.0963648 39:2.930876 40:1.8007448 41:1.3465655 42:1.102991 43:0.90817388 44:0.6690266 45:10.803746 46:10.877172 47:10.979471 48:11.105519 49:11.274032 50:11.495027 51:11.736266 52:11.964974 53:12.172306 54:1.9626918 55:0.89962338 56:4.8767325 57:2.4531411 58:0.70505461 59:0.57941115 60:0.24749328 61:0.34518092 
-1 1:0.32964613 2:0.0037937945 3:0.4234648 4:2.3901258 5:14.165986 6:10.341646 7:10.016828 8:10.017791 9:10.027941 10:10.038139 11:10.057458 12:10.109081 13:10.199529 14:10.33105 15:10.471502 16:8.2555908 17:2.9322603 20:0.49526803 21:0.50966896 22:0.74715277 23:0.91410675 24:1.0057573 25:1.0479833 26:1.0351693 27:1.3436483 28:1.0948352 29:1.0004591 30:0.96876515 31:0.95626193 32:0.95945903 33:7.1553189 34:1.9029238 35:1.47751 36:1.2929426 37:1.1273598 38:0.91860166 39:2.3428443 40:0.97412068 41:0.87319741 42:0.81919023 43:0.76047166 44:0.67530393 45:9.6263728 46:9.6273366 47:9.6374862 48:9.6476835 49:9.6670026 50:9.718624 51:9.8090705 52:9.94059 53:10.08104 54:1.676973 55:0.52690675 56:5.9101631 57:0.86653652 58:0.72258929 59:0.50991172 60:0.22144497 61:0.43808967 
-1 1:0.67039326 2:0.00075271664 3:0.46752306 4:3.5298855 5:15.495539 6:11.294682 7:12.876297 8:12.87632 9:12.902291 10:12.93639 11:12.986649 12:13.073174 13:13.191951 14:13.323948 15:13.455179 16:8.2420471 17:3.1674308 20:1.1749657 21:0.51738387 22:0.60041767 23:0.65266523 24:0.73561214 25:0.83628126 26:0.90999334 27:1.3158899 28:1.2154298 29:1.170374 30:1.0987056 31:1.0271908 32:0.99574976 33:8.1731509 34:5.8542218 35:5.1525205 36:4.5954594 37:4.097895 38:3.6904319 39:3.294637 40:2.5407306 41:2.2623776 42:2.0674364 43:1.9058114 44:1.7531354 45:11.921295 46:11.921319 47:11.947289 48:11.981387 49:12.031646 50:12.118172 51:12.236948 52:12.368944 53:12.500175 54:1.4954824 55:0.8861885 56:3.5468782 57:1.6531763 58:0.66273286 59:0.57367005 60:0.26229951 61:0.34813272 
-1 1:0.35774227 2:0.0016945634 3:0.54981477 4:2.6957665 5:14.533206 6:10.555474 7:10.886751 8:10.91539 9:10.942197 10:10.971035 11:11.020947 12:11.105363 13:11.220864 14:11.357787 15:11.494682 16:8.2995909 17:1.9137223 20:0.63170679 21:0.58564214 22:0.85568133 23:0.89543761 24:0.9112002 25:0.92017199 26:0.91601309 27:1.265774 28:1.0204669 29:1.0011615 30:0.99524682 31:0.99206959 32:0.99343842 33:7.458717 34:2.9783692 35:2.6371433 36:2.5457084 37:2.4822893 38:2.42811 39:2.6009161 40:1.4370129 41:1.3200279 42:1.28779 43:1.2647635 44:1.2428812 45:10.456664 46:10.485302 47:10.512109 48:10.540947 49:10.590859 50:10.675274 51:10.790775 52:10.927696 53:11.06459 54:1.49154 55:0.58893965 56:4.9035318 57:0.78775723 58:0.66194058 59:0.49384027 60:0.27895303 61:0.45742624 
-1 1:0.57480049 2:0.00059882067 3:0.48793809 4:3.5388212 5:15.506324 6:11.352299 7:12.778597 8:12.77923 9:12.798626 10:12.831661 11:12.88559 12:12.979659 13:13.107727 14:13.249408 15:13.391086 16:8.184642 17:2.1195405 20:1.1403126 21:0.46749737 22:0.55590778 23:0.65296873 24:0.7934155 25:0.88795792 26:0.93126683 27:1.3785875 28:1.2696041 29:1.1754391 30:1.0574156 31:1.0058177 32:0.98842086 33:8.0589899 34:6.0101798 35:5.0726601 36:4.2638067 37:3.8478032 38:3.4290503 39:3.2260602 40:2.5065383 41:2.1879833 42:1.948805 43:1.8121619 44:1.647072 45:12.001825 46:12.002457 47:12.021853 48:12.054888 49:12.108817 50:12.202886 51:12.330953 52:12.472634 53:12.614312 54:1.506595 55:0.90023436 56:3.4743877 57:1.874894 58:0.70589597 59:0.57811075 60:0.22978671 61:0.35359983 
-1 1:0.408959 2:0.00074871964 3:0.62541476 4:3.2715209 5:15.033749 6:11.018564 7:12.581539 8:12.530926 9:12.50103 10:12.491313 11:12.509998 12:12.577561 13:12.687665 14:12.81733 15:12.94771 16:8.89841 17:4.2547002 20:0.78439366 21:0.46132672 22:0.48453319 23:0.51947451 24:0.60060801 25:0.71385479 26:0.81141987 27:1.3880249 28:1.3605195 29:1.3111564 30:1.2089084 31:1.1077425 32:1.041117 33:7.6285763 34:5.4615443 35:4.8201757 36:3.9636849 37:3.3686978 38:2.9079708 39:3.0025939 40:2.2256644 41:1.9643797 42:1.6967335 43:1.5316882 44:1.3976754 45:12.076292 46:12.025678 47:11.995782 48:11.986066 49:12.004751 50:12.072313 51:12.182417 52:12.312082 53:12.442461 54:1.5237216 55:0.87071504 56:3.4953052 57:1.9409642 58:0.66794408 59:0.63202493 60:0.25459158 61:0.30159183 
-1 1:0.14176949 2:0.00010699428 3:0.57158558 4:3.3160825 5:15.15034 6:11.084141 7:13.103383 8:13.110361 9:13.121491 10:13.132952 11:13.160069 12:13.217968 13:13.30196 14:13.400596 15:13.503404 16:7.5067049 17:2.2872266 20:0.26488416 21:0.38616064 22:0.38128648 23:0.37250174 24:0.37888976 25:0.38780678 26:0.38280633 27:1.5382965 28:1.5613403 29:1.5860737 30:1.5696385 31:1.5448019 32:1.5589083 33:7.6016901 34:6.0994707 35:5.6286103 36:5.0347516 37:4.5205287 38:4.1202623 39:2.9840538 40:2.4026538 41:2.1815101 42:1.9220838 43:1.720562 44:1.5550831 45:12.951072 46:12.95805 47:12.96918 48:12.980642 49:13.007758 50:13.065658 51:13.149649 52:13.248285 53:13.351093 54:1.3681478 55:0.91464473 56:2.6507356 57:1.5932594 58:0.56909625 59:0.58574164 60:0.2790278 61:0.27413203 
-1 1:0.37581932 2:0.00011299362 3:0.9101314 4:2.5871721 5:14.538422 6:10.091708 7:10.381984 8:10.484966 9:10.570785 10:10.675534 11:10.83219 12:11.046548 13:11.282599 14:11.510602 15:11.700996 16:10.203527 17:3.2215053 20:0.19115162 21:0.34290649 22:0.34673369 23:0.34399317 24:0.33895273 25:0.31072357 26:0.29764602 27:1.7070946 28:1.6659508 29:1.6739023 30:1.7057002 31:1.8105552 32:1.8755611 33:7.7668225 34:3.4393962 35:2.2574324 36:1.6288348 37:1.2122216 38:0.84141588 39:2.5754496 40:1.2305635 41:0.83782744 42:0.65106137 43:0.51648637 44:0.38626258 45:9.9258181 46:10.028799 47:10.114616 48:10.219363 49:10.376018 50:10.590373 51:10.826422 52:11.054424 53:11.244817 54:1.9990578 55:0.64461364 56:5.7805191 57:1.7698319 58:0.55781612 59:0.53004606 60:0.26085015 61:0.25905667 
-1 1:0.1859209 2:0.00039192319 3:1.1693901 4:3.5413429 5:14.309677 6:9.9211801 7:10.254373 8:10.382994 9:10.515037 10:10.664152 11:10.845058 12:11.050804 13:11.258923 14:11.451984 15:11.621675 16:10.52731 17:5.0963902 19:0.69270458 20:0.19880905 21:0.26158011 22:0.27496227 23:0.30506486 24:0.32597447 25:0.34374714 26:0.39481257 27:2.1101988 28:2.0722092 29:1.887209 30:1.7775596 31:1.6603916 32:1.5037402 33:7.6461207 34:3.6311891 35:2.4377333 36:1.7945944 37:1.177095 38:0.66128441 39:2.3151938 40:1.1248812 41:0.82374289 42:0.67421357 43:0.53955593 44:0.41156248 45:10.050054 46:10.178674 47:10.310716 48:10.459831 49:10.640735 50:10.846481 51:11.054598 52:11.247659 53:11.41735 54:1.7654159 55:0.60667951 56:5.5361143 57:2.0830308 58:0.84448749 59:0.79166858 60:0.19038496 61:0.22107823 
-1 1:0.29608988 2:0.00037692895 3:0.74980961 4:3.458829 5:14.86516 6:10.456136 7:10.351421 8:10.509224 9:10.664386 10:10.832982 11:11.034292 12:11.263843 13:11.50012 14:11.726211 15:11.917471 16:10.4482 17:4.5293533 20:0.40524642 21:0.34367197 22:0.46217494 23:0.60452578 24:0.66253745 25:0.68255175 26:0.69851226 27:1.6779209 28:1.4281796 29:1.2265701 30:1.1453763 31:1.1090793 32:1.0971599 33:8.013077 34:3.4617567 35:2.3762513 36:1.772659 37:1.2646997 38:0.74050966 39:2.6501158 40:1.3494374 41:1.062255 42:0.89888574 43:0.74463276 44:0.54838091 45:10.006843 46:10.164644 47:10.319805 48:10.488399 49:10.689707 50:10.919257 51:11.155533 52:11.381623 53:11.572883 54:1.912858 55:0.72085077 56:5.9928057 57:1.9066207 58:0.85587697 59:0.59562547 60:0.19336886 61:0.34701319 
1 1:0.30889253 2:0.0004429019 3:0.86557369 4:3.348666 5:14.985436 6:10.49836 7:10.989484 8:11.114492 9:11.224279 10:11.357952 11:11.53249 12:11.74911 13:11.985017 14:12.211068 15:12.403153 16:10.504371 17:5.0426719 20:0.42589434 21:0.30188079 22:0.36105822 23:0.44241915 24:0.4828236 25:0.49384588 26:0.50089286 27:1.8430894 28:1.6371848 29:1.442392 30:1.3510179 31:1.3117788 32:1.300469 33:7.975018 34:3.9990329 35:2.906796 36:2.3927666 37:1.969766 38:1.4853439 39:2.7364757 40:1.4723055 41:1.1703539 42:1.0406321 43:0.91638913 44:0.75260877 45:10.627576 46:10.752583 47:10.862368 48:10.996042 49:11.170578 50:11.387197 51:11.623103 52:11.849154 53:12.041239 54:1.8554187 55:0.71778423 56:5.3709013 57:1.7787167 58:0.8521 59:0.63212715 60:0.19833442 61:0.29338176 
1 1:0.36406864 2:0.00056384101 3:0.85495433 4:3.5813103 5:14.941466 6:10.419987 7:10.874632 8:11.016944 9:11.135531 10:11.257477 11:11.412452 12:11.607934 13:11.826602 14:12.044913 15:12.23355 16:10.499198 17:4.5745366 20:0.48168946 21:0.36373159 22:0.50831708 23:0.55847228 24:0.5784325 25:0.59157836 26:0.59795864 27:1.6513124 28:1.3271219 29:1.2414613 30:1.2168577 31:1.1933411 32:1.1813247 33:8.1060711 34:3.9442836 35:2.9141286 36:2.3309317 37:1.9040002 38:1.3824793 39:2.8027736 40:1.6142559 41:1.2723157 42:1.0797447 43:0.94209063 44:0.76042164 45:10.435469 46:10.57778 47:10.696366 48:10.818312 49:10.973286 50:11.168766 51:11.387433 52:11.605744 53:11.794379 54:1.8670162 55:0.77962519 56:5.5542501 57:1.8264609 58:0.8115115 59:0.56527351 60:0.21982907 61:0.34538114 
-1 1:0.48161471 2:0.00056484045 3:0.61569416 4:3.1499489 5:14.005304 6:9.7770736 7:9.78586 8:9.8565363 9:9.9393825 10:10.017364 11:10.120406 12:10.257826 13:10.427771 14:10.618188 15:10.789221 16:10.31462 17:4.3715807 18:0.032941424 20:0.78449634 21:0.65798725 22:0.99131583 23:1.0326869 24:1.0330329 25:1.037928 26:1.0213312 27:1.2649733 28:0.97193658 29:0.95983325 30:0.95956744 31:0.95846209 32:0.96265204 33:7.3682165 34:3.1742509 35:2.6079005 36:2.2482189 37:1.9200322 38:1.4809161 39:2.4560241 40:1.5455243 41:1.3233663 42:1.185681 43:1.0632659 44:0.8931875 45:9.1672222 46:9.2378952 47:9.3207378 48:9.3987159 49:9.5017545 50:9.6391704 51:9.8091102 52:9.9995225 53:10.170552 54:1.503285 55:0.73540666 56:5.1849146 57:1.3428312 58:0.67864645 59:0.48115015 60:0.28878039 61:0.49620359 
-1 1:0.29386144 2:0.00033994221 3:0.96515137 4:3.7801752 5:14.931502 6:10.446015 7:10.57023 8:10.717703 9:10.852333 10:10.988425 11:11.156207 12:11.359012 13:11.573044 14:11.781213 15:11.954787 16:10.492602 17:5.1427493 20:0.26831651 21:0.35352178 22:0.41619731 23:0.48831311 24:0.52031109 25:0.55871595 26:0.64354351 27:1.6441632 28:1.4646768 29:1.3184528 30:1.2648409 31:1.2177562 32:1.142906 33:8.2089196 34:3.4560052 35:2.5458903 36:2.0255633 37:1.5598251 38:0.85143515 39:2.7026602 40:1.3673475 41:1.1033252 42:0.94574079 43:0.80628344 44:0.57282586 45:10.228643 46:10.376114 47:10.510743 48:10.646834 49:10.814615 50:11.017419 51:11.23145 52:11.439618 53:11.613191 54:1.9327569 55:0.73864197 56:6.0983359 57:1.8919034 58:0.7946818 59:0.62904931 60:0.21437756 61:0.29152766 
1 1:0.48682572 2:0.00040991597 3:0.77638202 4:3.5696125 5:15.110108 6:10.642707 7:11.431145 8:11.533557 9:11.648652 10:11.779699 11:11.934149 12:12.114975 13:12.308826 14:12.498929 15:12.665267 16:10.476275 17:4.3251695 20:0.63575109 21:0.33385739 22:0.4188202 23:0.50853961 24:0.56773644 25:0.61092251 26:0.66083419 27:1.7162853 28:1.5061142 29:1.3533426 30:1.2518328 31:1.1808913 32:1.1282976 33:8.1194212 34:4.4081223 35:3.6308449 36:3.247864 37:2.9879985 38:2.6931944 39:2.8705225 40:1.7109947 41:1.492807 42:1.4090404 43:1.3537526 44:1.2684184 45:10.804012 46:10.906422 47:11.021516 48:11.152563 49:11.307011 50:11.487837 51:11.681687 52:11.871789 53:12.038127 54:1.6369968 55:0.68350536 56:4.7927626 57:1.3166642 58:0.84496392 59:0.64219999 60:0.19732935 61:0.30757971 
1 1:0.50473592 2:0.00059782127 3:0.82063541 4:3.4403601 5:15.115496 6:10.569597 7:10.681101 8:10.799643 9:10.919994 10:11.057858 11:11.241837 12:11.474111 13:11.731173 14:11.983877 15:12.194189 16:10.478065 17:4.1381944 20:0.41162013 21:0.33421397 22:0.33915364 23:0.35128907 24:0.39190762 25:0.45912277 26:0.54207659 27:1.7206848 28:1.7121118 29:1.6669284 30:1.5441159 31:1.3888084 32:1.2445715 33:8.1859574 34:3.7052574 35:2.4361702 36:1.7262541 37:1.2405143 38:0.78893634 39:2.8026941 40:1.339007 41:0.9199305 42:0.74477095 43:0.64029689 44:0.52423136 45:10.024574 46:10.143114 47:10.263462 48:10.401324 49:10.585301 50:10.817573 51:11.074632 52:11.327334 53:11.537645 54:2.1105891 55:0.6608653 56:6.0194753 57:2.0139826 58:0.7412103 59:0.75068008 60:0.22210121 61:0.24244566 
1 1:0.43053944 2:0.00041091556 3:0.70352168 4:3.2824332 5:15.32283 6:10.851393 7:11.26094 8:11.398786 9:11.518061 10:11.65476 11:11.831464 12:12.040912 13:12.262856 14:12.477105 15:12.661386 16:10.44926 17:4.7408176 20:0.55387247 21:0.32763257 22:0.34765307 23:0.4252344 24:0.50449986 25:0.57149467 26:0.66020293 27:1.7148862 28:1.6738001 29:1.5125825 30:1.3282854 31:1.2204307 32:1.12991 33:8.3075393 34:4.1868093 35:3.1344633 36:2.5238406 37:2.1484563 38:1.7068196 39:2.9414438 40:1.5242873 41:1.2069766 42:1.0976538 43:1.0191909 44:0.89914457 45:10.722862 46:10.860707 47:10.979981 48:11.116679 49:11.293383 50:11.502829 51:11.724772 52:11.939021 53:12.123301 54:1.9600482 55:0.68668223 56:5.5088822 57:1.7579974 58:0.80606688 59:0.71915696 60:0.19864537 61:0.26737378 
1 1:0.57848633 2:0.00034194153 3:0.65226841 4:3.403857 5:15.29393 6:10.844393 7:11.355701 8:11.469751 9:11.584206 10:11.719522 11:11.891416 12:12.095086 13:12.310432 14:12.517873 15:12.693715 16:10.38948 17:4.1905812 20:0.74731855 21:0.36369614 22:0.44949092 23:0.54542587 24:0.62002365 25:0.68890419 26:0.82210224 27:1.5918394 28:1.3981851 29:1.2551641 30:1.1670348 31:1.1071464 32:1.0326904 33:8.2651612 34:4.181686 35:3.2980026 36:2.8150351 37:2.473606 38:2.0307713 39:2.9361058 40:1.6879439 41:1.4241307 42:1.2906658 43:1.1944644 44:1.0648431 45:10.572378 46:10.686427 47:10.80088 48:10.936194 49:11.108087 50:11.311755 51:11.5271 52:11.73454 53:11.910382 54:1.8049163 55:0.73112102 56:5.32814 57:1.5772604 58:0.81121648 59:0.62691167 60:0.19558146 61:0.29667805 
1 1:0.33096137 2:0.00045189788 3:0.82496986 4:3.7543548 5:15.087498 6:10.607476 7:11.35992 8:11.459619 9:11.571419 10:11.699098 11:11.858746 12:12.050978 13:12.258076 14:12.461003 15:12.637997 16:10.493193 17:4.298602 20:0.67467715 21:0.29180133 22:0.33195778 23:0.41776844 24:0.47396266 25:0.5445561 26:0.65342146 27:1.880702 28:1.7306235 29:1.4906834 30:1.3509335 31:1.2421393 32:1.1356325 33:8.053569 34:4.3264976 35:3.4116059 36:2.975318 37:2.609342 38:2.1740946 39:2.7482755 40:1.5744449 41:1.3475769 42:1.2616505 43:1.1792514 44:1.0685956 45:10.96762 46:11.067318 47:11.179118 48:11.306796 49:11.466444 50:11.658674 51:11.865772 52:12.068699 53:12.245692 54:1.6703218 55:0.68513689 56:4.9785045 57:1.5774984 58:0.91190739 59:0.73080573 60:0.17779622 61:0.25593297 
-0.2687243389598986 1:0.18724193 2:6.2998016e-005 3:1.2303537 4:1.9976026 5:13.521027 6:9.2801462 7:9.1632924 8:9.2384652 9:9.2974289 10:9.3727124 11:9.5122164 12:9.7394964 13:10.014515 14:10.285442 15:10.507522 16:10.512843 17:3.5122734 20:0.10435281 21:0.29372055 22:0.31869588 23:0.33875463 24:0.33488383 25:0.34103823 26:0.41154857 27:1.8834514 28:1.7625177 29:1.6982272 30:1.7065438 31:1.6747722 32:1.4943576 33:6.8129061 34:2.2001713 35:1.143997 36:0.68951911 37:0.38944819 38:0.17111483 39:2.0314095 40:0.79869388 41:0.51335283 42:0.38098251 43:0.28339389 44:0.2045143 45:8.9573973 46:9.0325684 47:9.0915309 48:9.1668128 49:9.3063143 50:9.5335909 51:9.8086061 52:10.079531 53:10.30161 54:1.7177123 55:0.43636358 56:5.8794309 57:1.2387302 58:0.7496304 59:0.70188584 60:0.21112182 61:0.23284538 
-1 1:0.39359494 2:0.00080867294 3:0.77624767 4:3.0057331 5:14.20164 6:9.7656612 7:10.091973 8:10.098084 9:10.036652 10:9.9530575 11:9.8852442 12:9.911598 13:10.144887 14:10.496534 15:10.77761 16:10.379595 17:4.7112845 20:0.23795177 21:0.28568558 22:0.34342586 23:0.43982467 24:0.52816581 25:0.67816298 26:0.99127612 27:1.9452742 28:1.7882885 29:1.5488466 30:1.356384 31:1.14429 32:0.97603855 33:7.6610622 34:1.5120224 35:0.68423509 36:0.4271144 37:0.17103814 38:0.10467888 39:2.3573059 40:0.58302367 41:0.39642773 42:0.32477119 43:0.26059038 44:0.22951998 45:9.609699 46:9.6158099 47:9.5543789 48:9.470787 49:9.4029757 50:9.4293287 51:9.6626112 52:10.014251 53:10.295323 54:2.0744277 55:0.32885876 56:7.1249812 57:0.77897811 58:0.99082742 59:0.82910093 60:0.14147631 61:0.21820364 
0.5675109996848627 2:1.899982e-005 3:1.8492776 4:0.099591004 5:10.635705 6:6.2841342 7:6.9937598 8:7.3432906 9:7.4454278 10:7.5121821 11:7.6232491 12:7.7689548 13:7.9278906 14:8.0815742 15:8.240323 16:10.596519 17:1.9921789 19:4.61166 21:0.12913349 22:0.12973971 23:0.13214869 24:0.13476164 25:0.1332311 26:0.13618075 27:4.0256394 28:4.0361853 29:3.9458934 30:3.8717074 31:3.8925903 32:3.8099992 33:3.2595212 34:0.93263523 35:0.37617841 36:0.17159422 37:0.079882695 38:0.037066471 39:0.38303066 40:0.12781785 41:0.077681152 42:0.053311357 43:0.035426988 44:0.024837968 45:6.9937598 46:7.3432906 47:7.4454278 48:7.5121821 49:7.6232491 50:7.7689548 51:7.9278906 52:8.0815742 53:8.240323 54:0.36744934 55:0.07241124 56:3.0068499 57:0.43594949 58:0.76091876 59:0.74911702 60:0.11378902 61:0.11654956 
-1 1:0.25599092 2:0.0013650679 3:0.72921823 4:3.7393177 5:14.353275 6:9.9694157 7:9.7700192 8:9.8326134 9:9.9075816 10:10.012675 11:10.195509 12:10.459627 13:10.756335 14:11.038072 15:11.270111 16:10.3684 17:4.8072929 20:0.63936395 21:0.37305073 22:0.64486094 23:0.86243669 24:0.94071404 25:0.99481758 26:1.0123733 27:1.6610732 28:1.2016567 29:1.02528 30:0.98749486 31:0.96974846 32:0.9651209 33:7.8498716 34:2.8323782 35:2.0701655 36:1.8020236 37:1.5327968 38:1.0892772 39:2.4496687 40:1.2410246 41:1.08212 42:1.0040301 43:0.90917628 44:0.7368712 45:9.4782975 46:9.5408906 47:9.6158575 48:9.7209491 49:9.9037803 50:10.167896 51:10.464601 52:10.746336 53:10.978374 54:1.6559811 55:0.64812063 56:6.0706436 57:1.2970389 58:0.9382244 59:0.53537788 60:0.16214396 61:0.4076694 
1 1:0.40730608 2:0.0027053373 3:1.132727 4:2.3758492 5:12.443262 6:7.9655456 7:7.5142622 8:7.7280446 9:7.8372837 10:7.8932361 11:7.9921696 12:8.162942 13:8.4065823 14:8.690903 15:8.9174868 16:10.589813 17:4.2282304 20:0.37159804 21:0.64841756 22:0.86314984 23:0.94504921 24:0.96704886 25:0.98117282 26:0.97616929 27:1.3013618 28:1.0148737 29:0.98832 30:0.97791626 31:0.97378915 32:0.97675383 33:6.126281 34:1.7950211 35:1.1947031 36:0.63751448 37:0.38599479 38:0.25330955 39:1.8943589 40:0.97437736 41:0.74722524 42:0.54646223 43:0.42706416 44:0.34764177 45:7.0118543 46:7.2255682 47:7.3347776 48:7.3907159 49:7.4896265 50:7.6603642 51:7.9039642 52:8.1882488 53:8.4148104 54:1.4591409 55:0.53648046 56:5.3270658 57:0.98782587 58:0.69357961 59:0.49203513 60:0.30009255 61:0.46238457 
-1 1:0.48641448 2:0.00047588675 3:0.37744485 4:3.051745 5:14.697835 6:10.202184 7:10.831082 8:11.001188 9:11.132582 10:11.277488 11:11.451625 12:11.657672 13:11.868218 14:12.066617 15:12.238363 16:10.052215 17:4.4373276 20:0.61018777 21:0.366673 22:0.48941157 23:0.62924046 24:0.74655192 25:0.80826845 26:0.82849723 27:1.6319056 28:1.3438836 29:1.1641494 30:1.0734305 31:1.0374356 32:1.0274191 33:8.1737462 34:3.9259134 35:2.9088619 36:2.3677969 37:1.9411185 38:1.3700163 39:2.761502 40:1.6114902 41:1.325516 42:1.1712892 43:1.0307267 44:0.81532366 45:10.204625 46:10.374728 47:10.506121 48:10.651025 49:10.82516 50:11.031206 51:11.24175 52:11.440148 53:11.611893 54:1.7873625 55:0.78624729 56:5.627454 57:1.8329062 58:0.86436602 59:0.58000945 60:0.18911624 61:0.35175441 
1 1:0.13730066 2:0.00022997355 3:0.60259919 4:3.7120251 5:14.621988 6:10.147845 7:10.865744 8:11.010767 9:11.114764 10:11.227303 11:11.368611 12:11.54249 13:11.740786 14:11.943351 15:12.129061 16:10.346592 17:4.9387592 19:2.138869 20:0.33249505 21:0.29619697 22:0.39501873 23:0.51769915 24:0.59206749 25:0.67276282 26:0.72825078 27:1.8897245 28:1.5569232 29:1.3423064 30:1.2425487 31:1.135796 32:1.0814888 33:8.0627782 34:3.7346596 35:2.7045726 36:2.2114079 37:1.5916682 38:1.0923158 39:2.6071654 40:1.3717296 41:1.1091417 42:0.99562119 43:0.84495111 44:0.69234736 45:10.718574 46:10.863596 47:10.967593 48:11.080132 49:11.22144 50:11.395318 51:11.593614 52:11.796179 53:11.981889 54:1.7957139 55:0.69405893 56:5.7288911 57:1.8881362 58:0.98124205 59:0.6653785 60:0.16657455 61:0.30277444 
-0.01949768938249314 1:0.24432092 2:0.0013980223 3:0.95503518 4:3.1588264 5:13.861374 6:9.6095191 7:9.5368131 8:9.7033466 9:9.8310753 10:9.9477102 11:10.09724 12:10.288999 13:10.50158 14:10.716188 15:10.902494 16:10.433621 17:4.8192537 20:0.42363961 21:0.4339003 22:0.66519771 23:0.74916875 24:0.76968591 25:0.8130289 26:0.8911686 27:1.5312089 28:1.1384815 29:1.0696578 30:1.0570973 31:1.0347711 32:1.003572 33:7.177112 34:2.8444638 35:2.1792666 36:1.7505263 37:1.3664294 38:0.77132507 39:2.267275 40:1.3117807 41:1.0957171 42:0.94338748 43:0.8129158 44:0.59082538 45:9.2600821 46:9.426612 47:9.5543385 48:9.6709714 49:9.8204993 50:10.012256 51:10.224835 52:10.439442 53:10.625746 54:1.5458884 55:0.71406626 56:5.4676445 57:1.5402603 58:0.82436412 59:0.53549217 60:0.21386807 61:0.377597 
