svm_type nu_svc
kernel_type rbf
gamma 0.05
nr_class 2
total_sv 365
rho -0.883247
label 1 -1
probA -4.83426
probB 0.80188
nr_sv 323 42
SV
0.117053107864884 1:20.441618 2:321.42942 3:1.914 4:17.395585 5:33.240767 6:26.713923 7:518.23064 8:1.669 9:20.597798 10:37.861355 11:26.859265 12:514.00099 13:2.28 14:24.977925 15:44.376525 16:18.448756 17:266.32314 18:1.542 19:13.289631 20:26.413303 
0.1164334200999906 1:33.563298 2:738.40334 3:2.425 4:31.71686 5:52.991445 6:30.435048 7:566.93368 8:2.224 9:26.937872 10:44.791757 11:37.403445 12:851.65326 13:2.101 14:32.580915 15:52.798528 16:32.919388 17:648.881 18:2.139 19:29.263294 20:45.629406 
0.1161721435889704 1:14.077485 2:201.34521 3:1.586 4:11.614008 5:23.681642 6:15.406499 7:230.57953 8:1.283 9:9.6238177 10:21.49395 11:18.348186 12:316.47833 13:1.929 14:16.276651 15:35.045105 16:12.081614 17:147.4772 18:1.012 19:5.2683082 20:12.735285 
0.1162116695195909 1:32.996421 2:1075.6363 3:1.823 4:29.296306 5:61.354741 6:29.476057 7:738.12809 8:2.091 9:27.345916 10:53.202462 11:44.821041 12:3027.2037 13:0.949 14:18.998241 15:56.501849 16:31.381234 17:884.51976 18:1.689 19:25.848846 20:51.774686 
0.1167990087376575 1:14.971604 2:160.44324 3:1.754 4:11.921715 5:21.740865 6:18.389424 7:230.93703 8:1.78 9:14.531671 10:26.287718 11:19.557119 12:247.98826 13:2.217 14:17.668048 15:29.66595 16:15.149563 17:152.82973 18:2.082 19:13.242598 20:22.946333 
0.117015410966024 1:36.901538 2:1070.1344 3:1.791 4:30.18285 5:58.600963 6:34.981036 7:984.41492 8:1.819 9:29.033657 10:57.087728 11:34.967094 12:898.83941 13:1.97 14:30.048854 15:55.716278 16:35.329242 17:960.80686 18:1.763 19:28.679265 20:54.264593 
0.1172171749364347 1:28.394301 2:700.58421 3:1.826 4:24.235641 5:48.791241 6:33.372836 7:859.00325 8:2.119 9:30.173936 10:57.150793 11:33.22026 12:812.68528 13:2.641 14:33.341194 15:58.428137 16:27.9581 17:597.31631 18:1.967 19:24.364147 20:45.559966 
0.117289749764827 1:23.393842 2:574.8061 3:1.473 4:17.234042 5:39.833739 6:24.219761 7:658.42106 8:1.448 9:17.809831 10:42.560989 11:23.577152 12:697.58736 13:1.298 14:15.848647 15:39.929701 16:25.128123 17:827.22679 18:1.157 19:14.416425 20:38.872867 
0.1173087820427715 1:28.247452 2:638.93818 3:1.848 4:23.560081 5:46.648175 6:32.654586 7:797.87229 8:1.838 9:27.103221 10:50.438512 11:30.205294 12:672.00625 13:1.613 14:22.846257 15:41.935999 16:23.94818 17:435.88745 18:1.64 19:18.148998 20:35.058552 
0.1174786187580961 1:11.360129 2:170.48026 3:1.292 4:7.6433447 5:19.980246 6:14.183113 7:253.01586 8:1.483 9:10.898222 10:27.820065 11:26.168472 12:1150.5294 13:1.15 14:15.921402 15:47.720312 16:15.558524 17:314.80301 18:1.534 19:12.552942 20:31.85484 
0.1171467313976334 1:18.916318 2:488.4091 3:1.052 4:9.5935075 5:25.813283 6:15.776932 7:220.51114 8:1.753 9:13.095062 10:26.795221 11:18.71311 12:384.43262 13:1.248 14:11.600499 15:27.58039 16:14.03085 17:170.88254 18:2.091 19:13.098643 20:25.657755 
0.1166348138640838 1:35.543319 2:873.44134 3:2.046 4:31.046459 5:54.845892 6:26.192822 7:518.86019 8:1.629 9:19.675629 10:38.085564 11:17.027865 12:222.14364 13:1.759 14:13.723535 15:26.136416 16:20.996549 17:349.4137 18:1.766 19:17.034491 20:33.256407 
0.1162004992340246 1:37.736178 2:2026.1716 3:0.879 4:13.311463 5:39.551589 6:21.015165 7:383.97689 8:1.562 9:15.717931 10:32.706746 11:26.280427 12:904.68699 13:0.87 14:8.9795401 15:25.129995 16:22.457929 17:458.74194 18:1.414 19:15.356074 20:33.194681 
0.1173087820427184 1:35.736805 2:1321.1828 3:1.249 4:22.037874 5:50.221619 6:25.347979 7:465.63351 8:1.839 9:20.793395 10:38.471921 11:26.442398 12:574.58549 13:1.569 14:19.684498 15:39.498861 16:29.964263 17:882.36566 18:1.223 19:17.675779 20:39.73001 
0.1171805287047715 1:34.585749 2:1402.078 3:1.259 4:21.716685 5:54.960741 6:20.720856 7:402.01671 8:1.578 9:15.774399 10:34.525003 11:19.534909 12:556.08201 13:0.841 14:6.3063023 15:18.832313 16:20.377291 17:366.376 18:1.66 19:16.228916 20:33.294532 
0.117103082290868 1:26.529526 2:752.3916 3:1.179 4:15.050629 5:36.00767 6:18.939452 7:283.93267 8:1.86 9:16.070563 10:30.691862 11:21.095166 12:599.94649 13:0.842 14:6.7204341 15:19.244747 16:17.900534 17:321.99493 18:1.123 19:9.2472981 20:22.006603 
0.1172915466329341 1:9.5273356 2:68.584402 3:1.801 4:7.7941718 5:14.676593 6:9.5571265 7:61.338192 8:1.802 9:7.5845366 10:13.614382 11:6.6108243 12:32.892751 13:1.755 14:5.3051483 15:10.004072 16:6.9292411 17:40.236916 18:1.592 19:5.219829 20:10.667199 
0.1165754881242151 1:33.815213 2:1667.5469 3:0.926 4:13.425521 5:40.027451 6:18.947792 7:344.61582 8:1.1 9:9.4707651 10:21.700353 11:14.623665 12:523.49288 13:0.651 14:2.5104659 15:10.697725 16:15.516678 17:277.32167 18:1.228 19:9.2474433 20:24.038567 
0.1171212082758168 1:17.64833 2:464.56237 3:1.209 4:11.309332 5:31.144808 6:13.642179 7:275.09355 8:1.028 9:6.7778845 10:19.007397 11:14.481784 12:415.3178 13:0.761 14:3.9301316 15:13.578359 16:14.840232 17:346.69263 18:1.012 19:7.1962996 20:21.383996 
0.1170656769799419 1:20.502365 2:622.0427 3:1.01 4:9.8755959 5:27.771557 6:21.260833 7:681.24936 8:0.903 9:8.1815947 10:24.105071 11:23.796651 12:758.73894 13:1.166 14:14.099164 15:37.164778 16:16.632862 17:446.06483 18:0.763 19:4.3302353 20:13.506642 
0.1170605811955351 1:47.91308 2:2347.7348 3:1.877 4:43.847981 5:92.561625 6:33.688272 7:1271.9058 8:1.252 9:21.019286 10:50.647324 11:33.212845 12:1340.2626 13:1.263 14:21.544216 15:52.924109 16:33.678062 17:1440.1471 18:1.128 19:18.493703 20:49.082454 
0.1165748755696089 1:40.643934 2:1757.9506 3:1.584 4:32.283719 5:73.726436 6:33.822462 7:1313.4407 8:1.323 9:22.483072 10:55.743323 11:33.71008 12:1291.768 13:1.432 14:24.456584 15:59.518342 16:37.140182 17:1527.5886 18:1.426 19:26.744531 20:63.868727 
0.1171806059502986 1:28.019565 2:1386.3987 3:1.082 4:16.060936 5:47.450144 6:23.06716 7:830.10915 8:1.078 9:12.408763 10:36.788575 11:21.949525 12:584.93656 13:1.402 14:16.370453 15:38.411415 16:23.567171 17:706.48327 18:1.098 19:12.849052 20:32.009976 
0.1162028923680639 1:27.92902 2:541.76536 3:2.371 4:26.273458 5:45.977422 6:25.375265 7:559.19046 8:1.959 9:22.744688 10:45.135239 11:25.135796 12:527.28492 13:1.854 14:21.439441 15:42.399842 16:26.870037 17:505.88094 18:2.032 19:23.384001 20:41.848106 
0.1161955249389729 1:24.517876 2:453.6751 3:2.693 4:24.941156 5:44.152611 6:27.099936 7:655.7866 8:2.233 9:26.596395 10:51.571722 11:24.153267 12:510.62813 13:2.383 14:23.821891 15:47.402806 16:24.07222 17:428.43092 18:2.57 19:23.723674 20:42.53233 
0.1162047715605813 1:36.627897 2:901.14435 3:2.249 4:33.325347 5:57.816239 6:42.148685 7:1213.6939 8:2.133 9:37.646202 10:65.550376 11:36.248674 12:948.97633 13:1.734 14:28.848103 15:52.338278 16:25.935222 17:451.87418 18:2.018 19:22.396245 20:38.836372 
0.1162109136156895 1:22.523653 2:436.69942 3:1.311 4:14.258352 5:29.101276 6:31.791521 7:633.96458 8:2.321 9:29.120133 10:47.976505 11:47.58608 12:1904.1815 13:1.901 14:40.455741 15:83.608977 16:24.551434 17:366.29509 18:2.281 19:22.224382 20:35.899309 
0.1160671304690269 1:23.811007 2:412.76378 3:1.846 4:19.577954 5:36.448436 6:21.383574 7:313.80849 8:2.321 9:19.719797 10:34.935426 11:33.996669 12:907.08846 13:1.826 14:28.042715 15:54.904021 16:27.377007 17:434.24521 18:2.111 19:23.431624 20:37.639332 
0.1160671304681574 1:28.563699 2:609.9727 3:1.858 4:23.587735 5:44.875214 6:35.388703 7:1137.2624 8:1.175 9:19.106391 10:43.017399 11:47.970735 12:2802.7783 13:1.22 14:28.88288 15:76.154129 16:29.232592 17:650.92902 18:1.629 19:22.269848 20:42.176094 
0.1158151877847328 1:27.775525 2:850.20201 3:1.363 4:19.219866 5:45.13259 6:27.231085 7:832.39487 8:1.198 9:16.151929 10:38.760177 11:23.696428 12:578.82784 13:1.35 14:15.967519 15:36.465666 16:22.717886 17:583.19829 18:1.247 19:14.364443 20:33.756551 
0.1157520396242993 1:12.065431 2:123.61826 3:1.703 4:9.7568277 5:19.435482 6:9.2121635 7:60.173434 8:1.992 9:7.9711445 10:14.274172 11:12.637125 12:118.60419 13:2.075 14:11.345464 15:20.570788 16:15.777282 17:208.09853 18:1.599 19:11.868982 20:24.458068 
0.1157170820516534 1:12.306385 2:107.16946 3:1.898 4:10.242722 5:18.720737 6:9.3303251 7:54.72157 8:2.247 9:8.3609758 10:14.029559 11:11.410576 12:115.55402 13:1.322 14:7.1602025 15:15.563805 16:12.675321 17:144.50332 18:1.217 19:7.2394153 20:15.799106 
0.1163334235304298 1:11.399599 2:126.3298 3:1.866 4:10.233771 5:21.205329 6:8.7012211 7:67.85158 8:1.52 9:6.4154448 10:13.487931 11:15.155045 12:357.70727 13:1.101 14:8.4202242 15:24.82057 16:9.933128 17:96.045364 18:1.636 19:7.9492159 20:17.32272 
0.1168755803587992 1:8.5123692 2:49.787829 3:1.965 4:7.2604343 5:12.806141 6:10.41258 7:72.251308 8:1.811 9:8.3636912 10:14.63148 11:15.146539 12:157.43313 13:1.829 14:12.481838 15:21.632517 16:9.5442469 17:67.42622 18:1.559 19:6.9763471 20:13.007923 
0.1158546437031779 1:7.8902205 2:37.679007 3:2.51 4:7.4073789 5:11.904552 6:9.1228132 7:55.658709 8:2.217 9:8.1716974 10:14.400159 11:14.599005 12:134.46873 13:2.36 14:13.572743 15:22.120184 16:9.5088469 17:56.761182 18:1.891 19:7.740495 20:13.165448 
0.1161738422236584 1:23.136811 2:408.33029 3:1.511 4:16.444639 5:31.577279 6:28.066012 7:483.21679 8:2.304 9:25.679118 10:41.23493 11:58.861383 12:2206.8726 13:2.288 14:53.759689 15:89.433864 16:26.895111 17:467.68775 18:2.078 19:23.281439 20:39.961968 
0.1164155818032685 1:26.148662 2:508.75975 3:2.339 4:25.117632 5:44.485985 6:32.215326 7:772.29056 8:2.007 9:28.200245 10:52.0484 11:54.868282 12:2174.5858 13:2.462 14:53.080092 15:93.723803 16:29.953043 17:646.38046 18:2.165 19:27.232537 20:48.847549 
0.116676140933371 1:22.646138 2:371.78392 3:1.828 4:18.546554 5:34.226409 6:24.26514 7:390.52731 8:1.926 9:20.15536 10:35.421694 11:24.260281 12:377.00968 13:2.125 14:21.078847 15:36.367892 16:21.928181 17:300.45861 18:2.004 19:18.59742 20:31.031619 
0.1166433519678842 1:23.01719 2:481.11929 3:2.061 4:20.390839 5:46.075157 6:14.266709 7:135.70353 8:1.974 9:11.771583 10:21.587291 11:12.993874 12:109.90998 13:2.707 14:12.666741 15:21.243142 16:16.175002 17:186.02221 18:2.574 19:15.872467 20:27.705757 
0.1171212082758168 1:15.870136 2:296.69565 3:1.582 4:12.998967 5:30.634921 6:16.781337 7:347.96254 8:1.535 9:13.530324 10:32.722567 11:32.41849 12:1252.3684 13:2.535 14:36.260183 15:78.522156 16:16.871902 17:331.01724 18:2.045 19:16.570949 20:37.79366 
0.1169628775336158 1:28.346936 2:592.79637 3:1.757 4:22.793484 5:42.064465 6:33.702155 7:715.27044 8:2.499 9:31.882314 10:52.322371 11:48.451669 12:1567.0756 13:2.265 14:44.459287 15:75.794764 16:28.798836 17:501.08355 18:2.426 19:26.774133 20:42.807061 
0.1169937472051869 1:19.955773 2:326.98917 3:1.395 4:13.011312 5:27.37054 6:21.553654 7:327.29687 8:1.824 9:17.506052 10:31.884122 11:48.073628 12:1306.525 13:2.571 14:44.915988 15:69.449924 16:24.958669 17:444.6307 18:2 19:21.592109 20:39.066248 
0.1173087820427715 1:17.115397 2:291.51364 3:1.317 4:11.155465 5:24.834269 6:17.93041 7:255.81008 8:1.73 9:14.46868 10:27.818053 11:22.761919 12:433.57244 13:1.745 14:18.345034 15:37.560515 16:20.283877 17:334.53307 18:1.778 19:16.696573 20:32.709018 
0.1173052070684536 1:24.905032 2:409.85813 3:1.998 4:21.167991 5:36.874494 6:26.850651 7:493.13466 8:1.883 9:22.248955 10:39.379463 11:29.26548 12:532.51486 13:2.219 14:26.105497 15:43.232022 16:25.838603 17:445.50595 18:1.794 19:20.705425 20:36.020584 
0.1174597601179286 1:16.9697 2:255.62086 3:1.809 4:14.595607 5:29.103286 6:18.196213 7:271.84259 8:1.586 9:13.692645 10:27.303301 11:24.079776 12:493.61093 13:1.489 14:17.31349 15:35.143086 16:19.512623 17:324.21951 18:1.72 19:15.723359 20:32.043884 
0.1173226413336436 1:19.252267 2:491.53046 3:0.823 4:5.7243832 5:16.671678 6:19.453617 7:337.24663 8:1.589 9:14.870126 10:31.151899 11:21.233763 12:413.2142 13:1.466 14:15.385124 15:32.004531 16:21.887203 17:577.68532 18:1.096 19:11.544585 20:28.987464 
0.1169993483588627 1:25.725785 2:483.59774 3:1.833 4:21.281492 5:38.802874 6:30.526207 7:616.81544 8:1.847 9:24.56084 10:43.754208 11:47.830657 12:1572.0168 13:2.17 14:42.525527 15:76.469578 16:27.759259 17:483.53973 18:2.3 19:25.203839 20:41.897719 
0.1169928749616964 1:25.66587 2:438.64585 3:1.965 4:21.85195 5:37.543589 6:18.216659 7:222.00184 8:2.171 9:16.351116 10:28.095413 11:17.203757 12:249.06931 13:1.399 14:11.467961 15:23.732389 16:20.936008 17:400.80392 18:1.157 19:11.331528 20:24.447458 
0.116825872054681 1:16.847087 2:190.38055 3:2.1 4:15.050763 5:25.360446 6:16.996834 7:195.66525 8:2.027 9:14.775132 10:25.573079 11:15.84997 12:177.60716 13:1.812 14:12.865404 15:23.317413 16:15.636586 17:167.70184 18:1.722 19:12.134117 20:21.837848 
0.1167692217599813 1:32.673954 2:681.79968 3:1.957 4:27.667192 5:45.995785 6:15.528479 7:158.40021 8:2.623 9:15.088894 10:25.218916 11:17.741703 12:287.52087 13:1.487 14:12.571906 15:28.087607 16:20.155884 17:344.98377 18:1.644 19:15.881899 20:31.599371 
0.1170930251421854 1:37.194055 2:1543.1652 3:1.99 4:35.759998 5:79.715821 6:19.478564 7:653.33838 8:0.883 9:7.366151 10:23.291114 11:17.804223 12:712.96107 13:0.728 14:4.4564675 15:16.014862 16:25.335904 17:836.5711 18:1.118 19:14.438716 20:35.468353 
0.1171467313976334 1:25.885212 2:486.71461 3:1.684 4:20.068106 5:36.984803 6:27.334323 7:591.188 8:1.676 9:21.335947 10:41.720648 11:34.883903 12:1051.7496 13:1.579 14:26.359316 15:54.417996 16:32.106844 17:871.34522 18:1.488 19:22.850226 20:46.906119 
0.1169795490431815 1:26.547703 2:531.38762 3:1.754 4:21.438723 5:39.952304 6:30.517532 7:554.7244 8:2.034 9:25.958774 10:41.809682 11:36.387089 12:830.06364 13:2.044 14:31.55073 15:51.559815 16:28.51871 17:675.22025 18:1.128 19:14.539363 20:30.040535 
0.1173234483853991 1:24.015269 2:525.82533 3:1.393 4:16.120491 5:35.144205 6:21.769664 7:383.49061 8:1.645 9:16.617455 10:33.740506 11:20.761812 12:425.39967 13:1.118 14:10.721665 15:24.725098 16:19.148099 17:227.22984 18:2.331 19:17.457045 20:28.80167 
0.117378484136961 1:28.09798 2:562.18541 3:1.946 4:24.008508 5:43.128199 6:37.133485 7:1018.3905 8:1.995 9:31.665956 10:60.647009 11:53.924435 12:2044.8047 13:2.035 14:47.061242 15:84.207357 16:40.424556 17:1053.9894 18:2.204 19:36.155504 20:61.310963 
0.1170521519908854 1:59.442846 2:1939.9723 3:2.925 4:59.160735 5:84.856417 6:31.965257 7:859.02634 8:1.642 9:24.308265 10:51.338843 11:24.604877 12:488.56209 13:1.856 14:20.953947 15:40.189907 16:26.119149 17:533.94191 18:1.531 19:18.996157 20:36.559675 
0.1165632944942368 1:23.731512 2:376.91159 3:2.043 4:20.604763 5:35.666406 6:21.568482 7:303.3498 8:2.257 9:19.757353 10:32.985848 11:26.110056 12:554.50291 13:1.533 14:18.977004 15:38.087602 16:24.468412 17:385.77323 18:2.016 19:20.729856 20:35.912507 
0.5928940764744737 1:3.2361543 2:6.1431736 3:2.322 4:2.9108695 5:4.6708561 6:1.5419255 7:1.3875075 8:2.737 9:1.481722 10:2.3253153 11:4.3351334 12:7.9294643 13:3.296 14:4.1652911 15:5.2587759 16:1.5919829 17:1.4288087 18:2.472 19:1.4672145 20:2.2668455 
0.115822439422043 1:41.050311 2:1299.9434 3:1.714 4:32.60568 5:62.086387 6:31.980526 7:648.22966 8:2.221 9:28.552198 10:48.14879 11:36.583507 12:1396.7849 13:1.335 14:24.097653 15:56.630999 16:32.353739 17:751.75 18:1.756 19:25.431779 20:47.910728 
0.1157170820516534 1:28.542699 2:758.01724 3:1.503 4:20.587592 5:45.835381 6:34.816377 7:918.00391 8:1.824 9:29.14515 10:53.514918 11:33.714871 12:865.58886 13:1.759 14:27.040183 15:51.705249 16:25.437653 17:573.25387 18:1.524 19:19.021427 20:38.535233 
0.1172897496560877 1:33.689426 2:744.65841 3:2.552 4:32.260275 5:54.513237 6:38.506869 7:1473.197 8:1.315 9:24.477795 10:57.106068 11:22.876536 12:427.62598 13:1.929 14:20.095858 15:38.476122 16:20.981426 17:283.22705 18:2.588 19:20.334587 20:33.189212 
0.1170029366262149 1:27.249921 2:688.9227 3:2.148 4:25.942206 5:53.436906 6:24.668367 7:454.8039 8:1.737 9:19.523147 10:37.168531 11:25.287978 12:538.1189 13:2.232 14:23.547233 15:47.921581 16:20.223525 17:319.57092 18:1.76 19:16.177107 20:31.810691 
0.1168258720840656 1:34.691239 2:703.60275 3:2.393 4:32.084426 5:49.723039 6:24.102211 7:369.95059 8:2.338 9:22.258905 10:36.777424 11:38.367613 12:847.67868 13:2.431 14:35.21354 15:55.295402 16:46.098911 17:1168.017 18:2.608 19:43.425183 20:65.053298 
0.1174528000093035 1:20.493799 2:349.41009 3:1.676 4:16.22044 5:32.38832 6:13.815507 7:123.39663 8:2.081 9:12.063934 10:20.347435 11:13.266193 12:148.09904 13:1.564 14:10.00284 15:19.871619 16:14.495298 17:152.60478 18:2.171 19:13.006964 20:24.135395 
0.117146741979453 1:20.275225 2:208.08193 3:3.032 4:19.052952 5:28.868383 6:11.755053 7:116.34744 8:1.253 9:6.8959146 10:14.447366 11:20.564595 12:428.13783 13:1.353 14:13.55736 15:31.815015 16:14.144804 17:136.25876 18:1.715 19:10.943198 20:19.578071 
1.54542658888209 1:3.5327114 2:9.1313997 3:1.738 4:2.7545721 5:5.2885485 6:3.2189288 7:7.1332928 8:1.922 9:2.6405541 10:4.9063939 11:5.3372168 12:22.141461 13:1.859 14:4.4689039 15:8.588162 16:4.0625005 17:9.9644602 18:2.903 19:3.993476 20:6.3956117 
0.1172006179559749 1:6.4103341 2:37.091288 3:1.808 4:5.5001096 5:11.183773 6:7.2174871 7:45.85926 8:2.642 9:7.3365128 10:14.856885 11:5.4361211 12:24.01878 13:1.584 14:4.0443356 15:8.1809716 16:5.0431566 17:28.615879 18:0.974 19:2.0851235 20:5.4131528 
1.315484697397547 1:3.5101985 2:4.8774009 3:2.815 4:3.2134132 5:3.907117 6:1.9176791 7:2.0729569 8:2.433 9:1.7558648 10:2.7167358 11:3.0865407 12:5.1703541 13:2.657 14:2.9151822 15:4.3438226 16:3.7740308 17:6.7696882 18:2.892 19:3.5605722 20:4.9249122 
0.1170029366262149 1:6.3100585 2:32.595989 3:1.781 4:5.2440231 5:10.152632 6:7.4658615 7:42.843019 8:2.166 9:6.7910859 10:12.941879 11:9.2686739 12:88.512632 13:1.136 14:5.0384899 15:11.390212 16:5.64605 17:33.964107 18:1.224 19:3.3485196 20:8.0605243 
0.1164145486275146 1:3.8077365 2:15.633218 3:1.682 4:3.2001239 5:7.2568364 6:4.3991737 7:19.236016 8:2.136 9:4.1767539 10:9.199153 11:3.5420307 12:9.73226 13:1.724 14:2.8343791 15:5.3873487 16:2.857641 17:9.9950355 18:0.942 19:1.1391098 20:3.0388465 
0.1173793685886178 1:10.888068 2:167.91262 3:0.884 4:3.9725555 5:11.195374 6:11.866159 7:164.74087 8:1.087 9:6.1218086 10:15.241088 11:22.901123 12:629.96721 13:1.022 14:10.509777 15:27.880327 16:12.531584 17:174.94497 18:1.235 19:7.6532904 20:18.516162 
0.1173828904361418 1:10.416845 2:60.248566 3:2.832 4:10.061068 5:15.191275 6:9.5633768 7:48.176049 8:2.939 9:9.2654975 10:13.497743 11:10.852872 12:69.777315 13:2.668 14:10.367969 15:16.431324 16:10.790685 17:64.940438 18:2.913 19:10.455314 20:16.003586 
0.1160604925019306 1:11.874934 2:75.776402 3:2.657 4:11.210906 5:16.576075 6:10.799142 7:63.963912 8:2.479 9:9.8986444 10:15.092036 11:12.079177 12:79.51467 13:2.777 14:11.591937 15:17.237942 16:11.155226 17:69.941306 18:2.552 19:10.443908 20:15.935564 
0.1171077147269038 1:13.437 2:192.97232 3:0.843 4:4.1448932 5:10.206085 6:11.285779 7:100.07098 8:1.237 9:6.4975353 10:12.812151 11:12.907312 12:140.763 13:1.134 14:6.6819939 15:13.792818 16:13.312848 17:106.06162 18:1.88 19:10.772543 20:17.609317 
0.1155043521125088 1:27.833612 2:311.76995 3:8.98 4:29.69024 5:33.321954 6:8.3166512 7:48.028473 8:2.215 9:7.6344526 10:13.228314 11:8.1945798 12:46.10609 13:2.458 14:7.9236027 15:13.341773 16:15.181483 17:123.31782 18:3.827 19:15.773495 20:22.497046 
0.1169795501076814 1:25.569932 2:486.57141 3:1.94 4:21.816251 5:40.784147 6:26.838266 7:453.11318 8:2.188 9:23.491026 10:40.400281 11:31.935665 12:667.08428 13:2.106 14:27.958588 15:47.999777 16:28.125967 17:522.22076 18:1.996 19:23.66743 20:41.990813 
0.1173550034232743 1:21.156403 2:535.98048 3:1.382 4:15.08428 5:37.149014 6:17.921788 7:305.71906 8:2.335 9:18.165017 10:36.359829 11:25.181757 12:692.41336 13:1.615 14:20.954637 15:46.193788 16:20.811726 17:460.21046 18:2.01 19:19.8804 20:43.337041 
0.1166906173569601 1:7.196112 2:56.264337 3:1.146 4:3.938935 5:9.5202586 6:6.0064987 7:29.215451 8:1.369 9:3.8996183 10:7.8554956 11:7.8039913 12:46.740581 13:2.439 14:7.6974527 15:13.747659 16:6.8272215 17:39.178338 18:1.463 19:4.7281527 20:9.8920853 
0.1172824952451068 1:9.4022674 2:70.474057 3:1.299 4:5.6194358 5:11.723425 6:6.0621411 7:27.153343 8:1.769 9:4.8122139 10:9.221738 11:3.7764123 12:11.733047 13:1.813 14:3.1695246 15:6.20747 16:4.5372925 17:18.817333 18:1.204 19:2.5744751 20:5.6194251 
0.1170500776765518 1:14.519881 2:425.33007 3:0.744 4:3.6351472 5:13.38857 6:7.4443945 7:101.1633 8:0.754 9:1.9303667 10:6.4141182 11:8.2033702 12:71.228312 13:1.182 14:4.5676183 15:11.318104 16:11.236277 17:192.00465 18:1.009 19:5.3001819 20:15.946603 
0.116875540374163 1:9.1542829 2:67.983179 3:1.693 4:7.3146693 5:14.167919 6:10.830059 7:94.509724 8:1.731 9:8.7054074 10:17.077181 11:18.897547 12:265.63179 13:1.849 14:15.318889 15:29.969263 16:14.020158 17:162.0158 18:1.825 19:11.756056 20:23.273401 
0.1170060901645791 1:16.624754 2:348.61468 3:1.109 4:8.817658 5:23.925723 6:19.185229 7:338.48276 8:1.396 9:12.890067 10:28.420622 11:42.730663 12:1956.6854 13:1.54 14:33.385306 15:75.637564 16:19.237824 17:310.57592 18:1.591 19:14.621339 20:29.351911 
0.1174507157075974 1:10.118945 2:70.922873 3:2.07 4:8.9637604 5:15.646227 6:13.357098 7:116.01754 8:1.946 9:11.047801 10:19.407808 11:20.652881 12:401.3093 13:1.564 14:15.707816 15:34.099573 16:10.343965 17:70.767919 18:2.351 19:9.8154565 20:16.002515 
0.1174570882437107 1:7.7763148 2:61.016697 3:1.127 4:4.063527 5:9.5441836 6:10.379131 7:86.456702 8:1.5 9:7.447479 10:14.528541 11:22.626573 12:369.87933 13:1.655 14:17.084719 15:32.192031 16:12.333066 17:128.54868 18:1.586 19:9.320388 20:18.960801 
0.1170656769799419 1:5.0241386 2:15.16723 3:2.174 4:4.4072622 5:7.1823601 6:7.378601 7:35.2077 8:1.937 9:6.1720492 10:10.508355 11:15.400631 12:152.37835 13:1.872 14:12.587509 15:21.442632 16:7.4326057 17:33.994322 18:2.139 19:6.5225296 20:10.699043 
0.1166348138640838 1:7.787658 2:54.846964 3:1.554 4:5.8703812 5:12.345183 6:23.491628 7:428.5089 8:1.865 9:19.942427 10:37.449013 11:41.647635 12:1172.0133 13:4.17 14:46.979717 15:72.69101 16:12.719066 17:107.49937 18:2.557 19:12.254261 20:20.698216 
0.1129786259357695 1:5.9848458 2:22.119538 3:2.303 4:5.3931031 5:8.9814439 6:7.0086266 7:31.943708 8:2.206 9:6.2521571 10:10.744555 11:12.94619 12:124.93098 13:1.868 14:10.805094 15:20.242586 16:7.0054736 17:30.051213 18:2.033 19:5.9627066 20:9.8314777 
0.1117317690192124 1:5.073141 2:17.05584 3:2.32 4:4.7080336 5:7.9531078 6:6.3430939 7:26.805655 8:2.112 9:5.5666724 10:9.7128815 11:13.920986 12:127.17272 13:2.052 14:12.264799 15:20.372805 16:7.0130853 17:30.924763 18:2.23 19:6.2958461 20:10.472725 
0.1165632944942368 1:11.842632 2:82.316437 3:2.351 4:10.701692 5:17.213152 6:15.40259 7:147.33195 8:2.184 9:13.677704 10:22.525857 11:25.48052 12:443.6265 13:1.926 14:21.437804 15:37.738464 16:15.132908 17:145.93685 18:2.196 19:13.402306 20:22.850787 
0.1157520396242993 1:47.104339 2:1579.4329 3:2.055 4:41.031493 5:75.235525 6:43.659882 7:1345.9042 8:2.063 9:38.201335 10:69.119117 11:45.45705 12:1588.5883 13:1.995 14:39.640051 15:75.731272 16:50.142148 17:1641.4217 18:2.362 19:46.361769 20:78.942142 
0.1160671304681574 1:30.701949 2:648.54303 3:1.944 4:25.976047 5:46.034049 6:31.982418 7:639.75718 8:2.426 9:29.730939 10:49.13672 11:30.039204 12:718.37694 13:1.726 14:24.021335 15:46.972149 16:32.051868 17:622.52591 18:1.993 19:26.697517 20:44.575572 
0.1161955249389543 1:30.173223 2:623.38129 3:2.089 4:26.701752 5:46.550422 6:30.861256 7:589.07197 8:2.82 9:30.193118 10:49.147097 11:35.394849 12:806.30618 13:2.229 14:32.168168 15:53.351883 16:33.931772 17:727.22048 18:2.308 19:30.838127 20:51.661355 
0.1176063943387677 1:3.446235 2:10.835432 3:0.99 4:1.4280401 5:3.2157187 6:3.4477021 7:12.89215 8:0.885 9:1.1839891 10:2.947681 11:4.5566857 12:44.390692 13:0.498 14:0.25401368 15:0.98480407 16:4.6578562 17:26.262373 18:0.961 19:1.9135994 20:5.1390446 
0.1162047715605813 1:2.9341631 2:7.1925733 3:1.323 4:1.830937 5:3.8115381 6:5.7587315 7:41.945316 8:0.971 9:2.4573944 10:6.6060845 11:10.769654 12:174.15305 13:2.075 14:10.843671 15:30.981301 16:3.6787157 17:10.345166 18:1.598 19:2.7647338 20:5.2413173 
0.116733434906213 1:1.5248816 2:6.1897846 3:0.444 4:0.047427545 5:0.21597579 6:1.1923266 7:2.838459 8:0.415 9:0.024112323 10:0.086017836 11:1.6196755 12:11.725926 13:0.311 14:0.003901947 15:0.024227255 16:2.5080595 17:45.400541 18:0.323 19:0.009154262 20:0.09246662 
0.1168258720252963 1:2.4701963 2:5.1086307 3:2.104 4:2.2739805 5:4.4530227 6:5.6540301 7:44.780469 8:1.157 9:3.3773464 10:8.9315781 11:7.8664836 12:108.01001 13:0.873 14:3.0107612 15:8.9131888 16:3.8613504 17:14.15252 18:2.388 19:3.95321 20:7.8730119 
0.1166477806798557 1:1.8949898 2:4.7039261 3:1.063 4:0.94258636 5:2.6352428 6:3.4472194 7:29.78985 8:0.695 9:0.74777779 10:3.060344 11:5.46318 12:83.712728 13:0.808 14:1.9152119 15:7.5523274 16:2.7472842 17:13.107125 18:1.123 19:1.5740246 20:5.1961084 
0.0808345745029258 1:1.2881918 2:1.8105942 3:0.856 4:0.41175049 5:1.0301809 6:2.3507268 7:23.3079 8:0.403 9:0.042988504 10:0.28309974 11:3.0079527 12:53.455762 13:0.371 14:0.033055804 15:0.27927888 16:1.4117565 17:2.5523789 18:0.761 19:0.34556743 20:0.96805437 
0.1174614212310193 1:3.4189711 2:15.573149 3:0.917 4:1.3479218 5:3.5670282 6:5.3463441 7:58.793833 8:0.635 9:0.84684264 10:2.9409247 11:7.1517278 12:98.75199 13:0.706 14:1.579427 15:5.2688948 16:3.8404104 17:20.922517 18:0.83 19:1.2425619 20:3.3637356 
0.07655042077692625 1:1.2053987 2:0.94042579 3:1.89 4:0.99467945 5:1.6939267 6:1.6819955 7:9.7217771 8:0.328 9:0.006331903 10:0.032393248 11:1.9782792 12:22.392749 13:0.271 14:0.001203823 15:0.00866659 16:1.3140136 17:1.3596827 18:1.23 19:0.75107182 20:1.4850524 
0.1162870926793775 1:4.4903375 2:54.517983 3:0.455 4:0.16202095 5:0.73253125 6:5.4952153 7:107.34726 8:0.382 9:0.068906031 10:0.36986287 11:6.1139269 12:104.50606 13:0.473 14:0.27428636 15:1.266906 16:5.6070352 17:108.24903 18:0.4 19:0.096219871 20:0.50468833 
0.1161972225383982 1:2.7974675 2:5.5265691 3:1.536 4:1.9940184 5:3.6527104 6:3.1309532 7:12.416048 8:0.755 9:0.74880138 10:2.0833936 11:4.5858324 12:98.876093 13:0.355 14:0.034317415 15:0.23729233 16:3.5976988 17:31.590319 18:0.434 19:0.096171903 20:0.41583237 
0.1050860945789756 1:3.1779976 2:7.4944005 3:1.932 4:2.7041403 5:5.0504028 6:5.0766634 7:24.817545 8:1.961 9:4.5955233 10:9.8727146 11:4.6554385 12:23.782412 13:1.109 14:2.4315506 15:5.9168331 16:3.5627317 17:9.4803919 18:2.078 19:3.1780604 20:5.8789451 
0.1128097426278324 1:2.7734256 2:7.2295567 3:1.212 4:1.5842057 5:3.5647114 6:2.7990307 7:6.1718571 8:1.523 9:2.0178957 10:3.9445415 11:3.4945916 12:14.752145 13:0.876 14:1.1860349 15:3.2084538 16:3.5305028 17:20.023473 18:0.699 19:0.70817664 20:2.2630111 
0.1122008758591932 1:2.7623209 2:4.8928559 3:2.079 4:2.3966775 5:4.0620726 6:5.3847068 7:23.959578 8:1.835 9:4.5587818 10:8.9380737 11:5.767704 12:36.155274 13:1.241 14:3.5283597 15:8.415352 16:3.1405482 17:7.1699727 18:1.969 19:2.702288 20:4.9475926 
0.1097690470745515 1:2.3005913 2:3.5727253 3:1.964 4:1.9524391 5:3.4185725 6:3.3958834 7:14.418535 8:0.895 9:1.2087921 10:3.3683112 11:4.7104095 12:32.344969 13:0.968 14:2.0339171 15:6.0657822 16:2.7954316 17:6.7718325 18:1.565 19:2.0831684 20:4.3652165 
0.330178968574539 1:2.1816017 2:3.4274261 3:1.623 4:1.6374514 5:3.0143165 6:2.6774305 7:8.6675799 8:0.876 9:0.91539578 10:2.4390087 11:3.0159836 12:14.596869 13:0.681 14:0.55572678 15:1.7940167 16:2.1449171 17:3.3545934 18:1.658 19:1.6362954 20:3.0486454 
0.01804172798851501 1:4.3154831 2:12.065003 3:1.874 4:3.5517996 5:6.0213783 6:6.9133333 7:30.07186 8:2.296 9:6.3263008 10:10.378582 11:5.928716 12:30.639959 13:1.146 14:3.1309151 15:6.600255 16:4.1952305 17:12.325144 18:1.487 19:2.9056728 20:5.2789366 
0.0524083509464042 1:3.6743458 2:8.218159 3:2.29 4:3.3282001 5:5.3913555 6:4.4617103 7:13.027767 8:2.019 9:3.835985 10:6.5510625 11:6.7165218 12:31.542838 13:2.163 14:6.0320817 15:10.76197 16:5.0741314 17:16.693511 18:2.167 19:4.5024754 20:7.6774849 
0.09071534307116812 1:3.8223231 2:10.396578 3:1.841 4:3.1371608 5:5.7081404 6:4.5342449 7:17.938712 8:1.278 9:2.7557868 10:5.8211183 11:5.7918227 12:30.366843 13:1.35 14:3.799029 15:8.0628238 16:4.499169 17:15.538603 18:1.648 19:3.4436201 20:6.6299782 
0.6332814646297714 1:3.4109559 2:8.6232899 3:1.841 4:2.8259538 5:5.246027 6:3.9252689 7:13.297586 8:1.451 9:2.7317623 10:5.7084936 11:4.0046888 12:15.349367 13:1.245 14:2.3812072 15:5.3800858 16:3.4289491 17:8.0732049 18:1.954 19:2.9052752 20:5.1541027 
0.1167874363712384 1:2.433056 2:9.8279382 3:0.561 4:0.22535082 5:0.72865324 6:2.0912689 7:4.3460225 8:0.876 9:0.7000934 10:1.618265 11:2.4490108 12:15.152844 13:0.426 14:0.059616645 15:0.25556998 16:3.2225096 17:54.957623 18:0.302 19:0.006004461 20:0.042468975 
0.08588650638292757 1:4.3123587 2:12.133472 3:1.863 4:3.5379336 5:6.0317454 6:6.9123316 7:30.067261 8:2.298 9:6.330457 10:10.378122 11:5.9361551 12:30.612346 13:1.149 14:3.1466017 15:6.6116459 16:4.1862834 17:12.246208 18:1.494 19:2.9104099 20:5.2827055 
0.1037190143568816 1:4.5645014 2:14.25095 3:2.029 4:3.9785339 5:6.9256695 6:6.2546207 7:24.428527 8:2.362 9:5.7466791 10:9.5019537 11:5.6319663 12:21.443902 13:2.105 14:4.9629567 15:8.6797024 16:4.1979325 17:10.839968 18:2.268 19:3.7958003 20:6.1812951 
0.07836944054898602 1:4.7475116 2:15.284607 3:2.04 4:4.1236578 5:7.2107341 6:5.9525728 7:21.582374 8:2.182 9:5.2642951 10:8.5780971 11:6.4296794 12:27.594457 13:2.272 14:5.8843845 15:10.118626 16:5.2352718 17:17.580197 18:2.124 19:4.6061481 20:7.7613838 
0.01385079102118434 1:3.5539548 2:8.0722006 3:2.005 4:3.047574 5:5.0781086 6:4.2781457 7:11.20779 8:2.214 9:3.8078928 10:6.2393249 11:7.6508799 12:34.935601 13:2.534 14:7.1816321 15:11.487472 16:5.0217363 17:16.388359 18:2.002 19:4.2733554 20:7.3319776 
0.155074208681193 1:2.9024794 2:5.5775328 3:1.786 4:2.3155483 5:4.0100849 6:3.0649736 7:6.6182279 8:1.61 9:2.2793834 10:4.1381299 11:4.4970901 12:38.727298 13:0.613 14:0.58989151 15:2.1976704 16:3.4287558 17:11.835516 18:0.967 19:1.39128 20:3.2827905 
0.1162574419081657 1:4.3843422 2:117.57534 3:0.275 4:0.003159682 5:0.024420812 6:3.3978037 7:26.609774 8:0.417 9:0.071428491 10:0.28742866 11:3.9354085 12:103.8479 13:0.245 14:0.000736589 15:0.005630043 16:4.7829317 17:141.49426 18:0.29 19:0.006052275 20:0.049120998 
0.1162871419135669 1:4.0733454 2:134.82418 3:0.239 4:0.000564382 5:0.00507783 6:3.8979372 7:68.135575 8:0.311 9:0.009371324 10:0.058682605 11:3.0414711 12:23.02982 13:0.386 14:0.039327668 15:0.16068972 16:3.1301797 17:16.930393 18:0.511 19:0.19202421 20:0.64169371 
0.09972239862035517 1:3.8377042 2:10.775138 3:1.855 4:3.1843856 5:5.875512 6:4.5003972 7:14.003138 8:1.906 9:3.7248086 10:6.7754545 11:7.8649733 12:40.083286 13:2.224 14:7.0737167 15:12.021861 16:5.2130439 17:18.050051 18:2.013 19:4.4657066 20:7.7652822 
0.0871403633853424 1:5.0242198 2:18.560495 3:2.052 4:4.4406328 5:8.1399916 6:5.1968975 7:19.228535 8:1.931 9:4.3739232 10:8.0347245 11:6.1356009 12:25.263894 13:1.87 14:5.0061519 15:8.905958 16:4.7983277 17:16.782919 18:1.623 19:3.6141427 20:6.6878678 
0.01578847823890271 1:4.9113785 2:17.461802 3:1.978 4:4.2189865 5:7.7590912 6:5.620243 7:22.617915 8:1.976 9:4.8232747 10:8.7849946 11:6.2990554 12:27.2622 13:1.945 14:5.3362514 15:9.429673 16:4.7842989 17:14.706886 18:2.147 19:4.2255942 20:7.1522162 
0.1077796634458987 1:3.3897046 2:8.1908581 3:1.563 4:2.4623981 5:4.5125904 6:4.0224954 7:12.332276 8:1.54 9:2.8950636 10:5.6071717 11:7.0123364 12:34.715678 13:2.011 14:6.0834122 15:10.911362 16:5.9953409 17:24.268489 18:2.214 19:5.4164998 20:9.4379489 
0.05712051862077576 1:3.339089 2:6.989338 3:2.121 4:2.9370505 5:4.8379528 6:4.5475881 7:12.485962 8:2.532 9:4.2806345 10:6.881251 11:7.3287538 12:35.75163 13:2.541 14:7.0719222 15:11.898893 16:4.9970873 17:18.951089 18:1.706 19:3.9193926 20:7.4876988 
0.03613989712627769 1:3.2548946 2:8.3086641 3:1.461 4:2.2465199 5:4.4165496 6:4.473086 7:14.316127 8:1.57 9:3.2745271 10:5.9750981 11:6.7343079 12:32.538661 13:2.02 14:5.8734789 15:10.641481 16:4.4243563 17:14.661946 18:1.676 19:3.4231456 20:6.4688929 
0.1168599760851413 1:3.1333312 2:8.8022959 3:1.754 4:2.6070595 5:5.3777464 6:5.893822 7:50.129163 8:1.049 9:3.0170947 10:8.3221279 11:5.9913178 12:57.544366 13:0.873 14:2.2004493 15:6.516693 16:3.5087485 17:11.381006 18:1.73 19:2.9295765 20:6.0599367 
0.1171657062544635 1:3.1093706 2:10.211717 3:1.09 4:1.5602017 5:3.7677085 6:4.4793893 7:25.988785 8:1.316 9:2.9817491 10:8.2184272 11:6.5285385 12:93.762085 13:0.757 14:1.7577393 15:6.7081851 16:3.7291213 17:19.379044 18:0.807 19:1.0766122 20:3.1665463 
0.1166713584117377 1:1.9898411 2:3.6207727 3:1.098 4:0.99115358 5:2.1682927 6:3.2590957 7:30.509936 8:0.509 9:0.20897541 10:1.0434986 11:3.5711344 12:41.57923 13:0.506 14:0.22774099 15:1.2503784 16:2.0486278 17:4.9257519 18:0.844 19:0.63815971 20:1.690705 
0.1162723659692762 1:2.5121645 2:14.41156 3:0.521 4:0.1738883 5:0.72432158 6:2.3357162 7:6.8787625 8:0.738 9:0.52719751 10:1.4478807 11:3.2102383 12:19.535964 13:0.558 14:0.29692823 15:1.0441381 16:3.2114706 17:35.764579 18:0.409 19:0.063165522 20:0.34566181 
0.1171737564546215 1:2.5369738 2:17.677151 3:0.407 4:0.047146041 5:0.21059491 6:3.0923389 7:24.102179 8:0.542 9:0.25818492 10:1.1780843 11:3.8514987 12:52.76786 13:0.465 14:0.16221361 15:0.93973674 16:2.9092964 17:20.409474 18:0.538 19:0.23498934 20:1.017088 
0.1167065676220697 1:1.4970742 2:1.779236 3:1.414 4:0.99912915 5:1.9957546 6:1.9098869 7:5.4302722 8:0.777 9:0.50402243 10:1.5687993 11:3.8138655 12:64.574014 13:0.499 14:0.24635594 15:1.6183902 16:2.5707731 17:21.37742 18:0.483 19:0.13056098 20:0.69617686 
0.118839870638712 1:2.3724256 2:9.7370337 3:0.569 4:0.23199307 5:0.78700832 6:2.5463331 7:12.816049 8:0.497 9:0.13875438 10:0.51135104 11:3.1650925 12:8.9625637 13:1.1 14:1.5829703 15:3.3836452 16:2.5860272 17:7.1818149 18:0.875 19:0.8769025 20:2.1121217 
1.99067211570005 1:2.3639365 2:3.6845203 3:2.061 4:2.0554536 5:3.5309591 6:2.5074453 7:4.2348905 8:1.9 9:2.0755124 10:3.6684721 11:3.099413 12:10.050965 13:1.091 14:1.546626 15:3.7567053 16:2.5719333 17:5.4150819 18:1.375 19:1.6723717 20:3.4202015 
0.2852219786140851 1:2.0915747 2:2.861379 3:2.02 4:1.7943183 5:3.0767921 6:2.4800116 7:4.1646399 8:1.839 9:2.0102372 10:3.5788868 11:3.0509575 12:10.303216 13:1 14:1.3282129 15:3.3635576 16:2.3506791 17:4.8517132 18:1.218 19:1.3416358 20:2.8710618 
0.1169455827661781 1:3.2623532 2:30.691676 3:0.421 4:0.075000249 5:0.3570888 6:4.0403467 7:40.131932 8:0.601 9:0.51153623 10:2.30315 11:3.8961115 12:44.028516 13:0.451 14:0.13419365 15:0.65233319 16:2.5263032 17:8.63657 18:0.779 19:0.6643629 20:1.9193677 
0.1163349036471836 1:4.305182 2:60.216308 3:0.486 4:0.22873767 5:1.1776832 6:5.1203133 7:72.839891 8:0.671 9:0.98992169 10:4.6989639 11:5.68403 12:101.11597 13:0.579 14:0.67354428 15:3.2608948 16:3.8859596 17:26.227405 18:0.811 19:1.1698007 20:4.0555624 
0.1163839278022746 1:3.2214464 2:17.87087 3:0.827 4:1.0132687 5:3.5018877 6:2.3479468 7:5.337045 8:1.172 9:1.2949655 10:2.9390041 11:3.2404305 12:27.058335 13:0.563 14:0.32133758 15:1.4669704 16:4.0723877 17:52.08454 18:0.541 19:0.35546038 20:1.8356909 
0.111729402918459 1:2.1746356 2:5.4351999 3:0.824 4:0.6405548 5:1.6652973 6:2.5892995 7:3.9016671 8:2.249 9:2.310788 10:3.6395206 11:2.8847389 12:9.7278502 13:0.775 14:0.73172456 15:1.926023 16:2.6724067 17:24.257194 18:0.365 19:0.023635145 20:0.12511906 
0.09575364204748445 1:2.0496079 2:2.7594502 3:1.954 4:1.7252851 5:2.9733185 6:2.6994719 7:8.2248992 8:1.032 9:1.2415153 10:3.1971868 11:3.1752823 12:12.033031 13:0.984 14:1.3561625 15:3.6214771 16:2.1293049 17:3.0236267 18:1.922 19:1.7803042 20:3.0964326 
0.3160151100484386 1:2.1217669 2:2.8739838 3:2.12 4:1.858763 5:3.1397964 6:2.5599631 7:6.7047787 8:1.03 9:1.1590596 10:2.786711 11:2.7215013 12:8.9719359 13:0.878 14:0.93045733 15:2.5131327 16:2.1106269 17:2.8417932 18:2.163 19:1.871966 20:3.1416798 
0.1173880962120626 1:2.7539732 2:32.513071 3:0.357 4:0.021399791 5:0.13344995 6:2.5014685 7:8.5115686 8:0.969 9:1.0624559 10:3.0827091 11:4.2762739 12:54.50407 13:0.658 14:0.79104202 15:3.8769562 16:3.321842 17:23.137636 18:0.737 19:0.80744434 20:3.1551664 
0.1163850121622864 1:2.7821994 2:35.059694 3:0.334 4:0.012613698 5:0.081917063 6:4.468645 7:35.549193 8:1.236 9:2.9098346 10:10.029188 11:8.723923 12:219.32766 13:0.793 14:2.8660033 15:12.393438 16:5.0188741 17:50.491125 18:1.272 19:3.4758487 20:12.904529 
0.1173550034221885 1:3.2215445 2:28.278595 3:0.488 4:0.16654598 5:0.79273188 6:3.4363755 7:22.528632 8:0.781 9:0.94938312 10:3.5846264 11:6.0459826 12:117.96256 13:0.627 14:0.96818889 15:4.8931535 16:5.2754074 17:71.010159 18:0.831 19:1.8110033 20:8.2192685 
0.1213480960717221 1:1.9711254 2:3.6860134 3:1.041 4:0.90235155 5:2.046634 6:1.7440151 7:2.4332903 8:1.219 9:0.98592704 10:1.9776837 11:2.2053883 12:10.35315 13:0.466 14:0.087223753 15:0.33743979 16:2.3796821 17:10.534219 18:0.62 19:0.32363037 20:1.1836021 
0.116238310118733 1:2.9775136 2:25.35529 3:0.484 4:0.14934255 5:0.7293756 6:2.9897056 7:13.9312 8:0.732 9:0.67773928 10:2.1627709 11:3.3576453 12:28.817845 13:0.538 14:0.27382656 15:1.2397237 16:2.817403 17:12.515571 18:0.817 19:0.84803483 20:2.7620775 
0.1165754881242151 1:6.4829751 2:113.33997 3:0.864 4:2.5701977 5:10.669153 6:5.8980731 7:63.35016 8:1.069 9:3.3143655 10:10.010677 11:7.1474401 12:154.79789 13:0.799 14:2.384072 15:11.07619 16:5.8121779 17:61.582688 18:1.192 19:3.864231 20:11.459282 
0.1166486251441649 1:6.191941 2:194.93863 3:0.5 4:0.42558032 5:2.8561302 6:5.5181525 7:63.231277 8:1.232 9:3.8489709 10:13.033343 11:8.0227529 12:207.03541 13:0.76 14:2.4320499 15:11.001928 16:6.9124209 17:103.00664 18:1.389 19:5.6686578 20:18.949167 
0.1166761445416249 1:2.8414533 2:47.579306 3:0.289 4:0.003492441 5:0.025900966 6:5.9579955 7:64.017745 8:2.571 9:6.9996675 10:21.09462 11:12.645727 12:406.04653 13:1.231 14:9.3975924 15:34.577491 16:7.3475542 17:112.64987 18:2.12 19:8.2003879 20:27.077146 
0.1171547128888325 1:6.3931604 2:156.73074 3:0.547 4:0.6230382 5:3.4731209 6:4.5616651 7:36.878761 8:1.048 9:2.3423621 10:7.9738723 11:6.8417444 12:182.55875 13:0.547 14:0.67351067 15:3.7345199 16:7.1029556 17:104.77405 18:1.225 19:4.8572611 20:17.064519 
0.1170067287656497 1:5.5976644 2:78.240928 3:0.731 4:1.3901034 5:5.928552 6:6.47047 7:79.708778 8:0.914 9:2.7121916 10:8.8307161 11:7.1728854 12:126.68905 13:0.821 14:2.4568495 15:9.8285967 16:5.3701276 17:41.580304 18:1.336 19:3.8003795 20:10.554847 
0.1171077639858136 1:5.1595237 2:83.349008 3:0.506 4:0.33819303 5:1.6157636 6:4.1025479 7:52.867401 8:0.477 9:0.19678309 10:0.98428812 11:6.6759838 12:162.77617 13:0.529 14:0.56314168 15:2.8794776 16:7.5712917 17:142.96194 18:0.942 19:3.5403916 20:13.848821 
0.11614924247471 1:3.3680263 2:66.805735 3:0.38 4:0.043322582 5:0.40400687 6:1.884095 7:6.9526864 8:0.562 9:0.17722779 10:0.66564099 11:1.3762655 12:1.2214637 13:1.97 14:1.1600944 15:1.9775105 16:2.0042688 17:8.8237472 18:0.509 19:0.12266165 20:0.50613224 
0.1169795501076814 1:3.2890788 2:27.298112 3:0.549 4:0.2955383 5:1.2889432 6:5.7348758 7:82.890474 8:0.833 9:2.0388446 10:8.3264887 11:7.8332983 12:218.11823 13:0.642 14:1.4319717 15:7.0774593 16:4.944745 17:70.238609 18:0.652 19:0.88492146 20:4.1526447 
0.1169628775336158 1:2.734161 2:23.376573 3:0.416 4:0.058981171 5:0.29856607 6:4.817995 7:156.47527 8:0.378 9:0.062446996 10:0.60488699 11:4.9616211 12:183.81134 13:0.34 14:0.029019824 15:0.28217429 16:2.7840665 17:27.713426 18:0.392 19:0.041270775 20:0.23340144 
0.116924326814641 1:7.7972799 2:70.728782 3:1.311 4:5.2890699 5:12.459124 6:3.6882739 7:9.2464813 8:2.389 9:3.4780965 10:5.9664549 11:2.8335649 12:6.0558776 13:1.774 14:2.2741981 15:4.3562455 16:3.6523857 17:10.489746 18:1.853 19:3.0609161 20:5.9155799 
0.1172897443484665 1:6.236373 2:53.614551 3:1.014 4:2.9619128 5:8.1108691 6:3.5183517 7:8.7026001 8:2.351 9:3.2825106 10:5.8672723 11:3.2175365 12:6.743645 13:2.374 14:2.9854901 15:5.0621984 16:4.1527993 17:13.643958 18:2.188 19:3.8594924 20:7.2923768 
0.1159943222796264 1:6.9690811 2:81.754015 3:0.99 4:3.3580917 5:9.9134408 6:3.1561352 7:8.2681321 8:1.885 9:2.6880248 10:5.4091117 11:3.1905243 12:8.2819546 13:1.788 14:2.6346296 15:5.1679161 16:3.7539075 17:13.205869 18:1.523 19:2.8010104 20:6.0024173 
1.382608830055712 1:4.0571105 2:12.77096 3:1.926 4:3.4658402 5:6.6808975 6:3.1212231 7:6.0390707 8:2.218 9:2.8032405 10:4.5716947 11:2.8582482 12:5.577366 13:1.824 14:2.3124246 15:4.1184988 16:3.0639477 17:5.6445204 18:2.306 19:2.7623963 20:4.4901745 
0.1162456920956424 1:5.0639115 2:43.642817 3:0.889 4:1.8862665 5:6.3268579 6:5.3721136 7:48.12049 8:0.913 9:2.109618 10:6.9532517 11:7.5603325 12:114.18559 13:0.933 14:3.2265942 15:11.796358 16:6.4508296 17:94.641953 18:0.757 19:1.7461066 20:6.815195 
0.1163629686915833 1:3.5242629 2:29.757803 3:0.531 4:0.26986159 5:1.1445143 6:4.0499106 7:37.967319 8:0.558 9:0.38361458 10:1.5733355 11:6.7765936 12:115.99205 13:0.672 14:1.298776 15:5.6647494 16:5.4903799 17:91.908787 18:0.564 19:0.57661799 20:2.8059365 
0.1163416304937215 1:9.9999336 2:299.07095 3:0.908 4:4.4468624 5:20.668811 6:5.9294998 7:53.823513 8:1.177 9:3.5462114 10:10.841575 11:5.0750167 12:39.66851 13:0.775 14:1.3479182 15:4.2095779 16:5.8911657 17:46.305516 18:1.446 19:4.3882416 20:12.093195 
0.1167477721832759 1:2.1389252 2:4.8532214 3:1.033 4:0.97805157 5:2.4069249 6:2.4125721 7:6.0689055 8:1.254 9:1.4622066 10:3.5121869 11:3.4554282 12:29.429111 13:0.612 14:0.47431591 15:2.0677688 16:3.4100805 17:37.426003 18:0.474 19:0.15737629 20:0.82731623 
0.117276131264973 1:4.1136969 2:31.763863 3:0.602 4:0.51307144 5:1.7957975 6:4.1800748 7:18.906786 8:1.162 9:2.3238015 10:5.6378354 11:5.2797958 12:35.944189 13:0.858 14:1.7422547 15:4.831289 16:4.0885848 17:16.847822 18:1.173 19:2.2795338 20:5.2701431 
0.1162836687231772 1:4.4915629 2:29.731409 3:1.077 4:2.3098426 5:7.1151396 6:5.3455526 7:27.069204 8:1.858 9:4.6536585 10:9.9651148 11:9.5264392 12:129.69025 13:1.418 14:7.1801362 15:19.84875 16:6.0429426 17:37.931087 18:2.204 19:5.9224493 20:13.146641 
0.1170511832445667 1:4.6089384 2:32.768594 3:1.014 4:2.1628915 5:6.8672637 6:5.0941576 7:24.692855 8:1.888 9:4.4808994 10:9.6440149 11:9.0526445 12:119.05119 13:1.212 14:5.5834097 15:16.415036 16:5.4340678 17:29.458317 18:2.002 19:4.9867382 20:11.017095 
0.1166626177855571 1:6.9101317 2:97.113679 3:0.831 4:2.2834571 5:8.7224119 6:5.8550012 7:56.125232 8:0.863 9:2.0452487 10:6.5900543 11:5.5845692 12:34.518047 13:0.996 14:2.4329615 15:6.0567376 16:5.4476426 17:40.785719 18:0.841 19:1.7422196 20:5.004446 
0.1171213877050673 1:5.0301793 2:25.98673 3:1.264 4:3.1153817 5:7.2115766 6:5.2446652 7:23.85673 8:1.742 9:4.3002057 10:8.8084772 11:5.9662784 12:43.66779 13:1.096 14:3.1033893 15:8.1979361 16:5.7993755 17:41.887035 18:0.983 19:2.5360985 20:6.7002186 
0.1171805287047715 1:5.0821572 2:55.109761 3:0.636 4:0.80507598 5:2.9293831 6:7.6398866 7:138.04196 8:0.739 9:1.9525617 10:7.8433752 11:8.751968 12:181.56073 13:0.8 14:2.754608 15:11.183628 16:5.2187172 17:59.3513 18:0.625 19:0.7725365 20:2.9203484 
0.1163850195196543 1:2.334213 2:7.1405679 3:0.745 4:0.54376382 5:1.5300797 6:5.9760968 7:80.144469 8:0.703 9:1.289964 10:5.1710329 11:13.408694 12:590.46486 13:0.658 14:2.5652851 15:12.972326 16:4.3321659 17:37.152546 18:0.761 19:1.1381312 20:4.2630476 
0.1160870884287138 1:3.3090983 2:10.683177 3:1.059 4:1.5747095 5:3.5841334 6:3.5000248 7:13.438867 8:0.871 9:1.1684672 10:2.9080602 11:3.750013 12:20.108783 13:0.713 14:0.77819022 15:2.3438609 16:3.4724003 17:16.521088 18:0.675 19:0.60667491 20:1.7699511 
0.1162940082462468 1:5.3120381 2:86.827005 3:0.395 4:0.081696183 5:0.40298711 6:5.7257932 7:63.794949 8:0.607 9:0.7294401 10:2.7206503 11:6.6509036 12:144.02561 13:0.474 14:0.30589557 15:1.644378 16:4.4400682 17:41.253531 18:0.476 19:0.19666442 20:0.74610966 
0.06916915675966538 1:1.9779474 2:2.967851 3:1.786 4:1.6107936 5:3.0379839 6:2.4331665 7:8.0603583 8:0.871 9:0.83129965 10:2.4302299 11:3.5786041 12:36.372642 13:0.509 14:0.23424484 15:1.0889475 16:2.1496558 17:4.2480803 18:1.38 19:1.4311773 20:3.1401992 
0.1168755399208791 1:4.4670866 2:46.778926 3:0.688 4:0.90580431 5:3.8086102 6:6.0309784 7:72.876773 8:0.827 9:2.0532133 10:6.8912267 11:5.4426374 12:42.200839 13:1.27 14:3.6900695 15:9.782702 16:4.2035533 17:44.505355 18:0.579 19:0.47492941 20:2.0145544 
0.1168468885600848 1:4.0520906 2:42.476579 3:0.549 4:0.36817693 5:1.5927625 6:3.0568222 7:15.355648 8:0.712 9:0.6480474 10:2.1179473 11:5.0146315 12:96.426053 13:0.38 14:0.061783055 15:0.34153992 16:3.1950884 17:16.754939 18:0.77 19:0.83476832 20:2.7833303 
0.05102365998785414 1:2.0882449 2:3.3198068 3:1.706 4:1.6403847 5:3.1350189 6:2.5715904 7:8.99507 8:0.86 9:0.85416629 10:2.4968128 11:3.7044606 12:37.69583 13:0.523 14:0.27292892 15:1.2461267 16:2.3406837 17:5.1974051 18:1.251 19:1.4030525 20:3.1305949 
0.1173087820422692 1:4.1251209 2:42.120696 3:0.566 4:0.42126608 5:1.7903979 6:3.093147 7:14.487462 8:0.745 9:0.7336653 10:2.2934671 11:4.8745101 12:73.368824 13:0.421 14:0.11497137 15:0.55089345 16:3.1732159 17:15.396738 18:0.791 19:0.87705711 20:2.7949373 
0.117322851894063 1:4.8449845 2:69.75103 3:0.645 4:0.84749247 5:3.9820056 6:3.7773309 7:35.762935 8:0.615 9:0.5326738 10:2.3010732 11:4.1442121 12:48.493973 13:0.559 14:0.40725437 15:1.9631234 16:3.8263602 17:39.222275 18:0.601 19:0.50423356 20:2.2504632 
0.1161736878280824 1:0.5586199 2:0.19332828 3:2.192 4:0.49627781 5:0.8179461 6:1.4503178 7:10.844536 8:0.417 9:0.034000557 10:0.29100277 11:3.8222248 12:113.07903 13:0.463 14:0.20217663 15:1.5752355 16:1.1407765 17:6.1228554 18:0.461 19:0.048129086 20:0.36361079 
0.1162870318320103 1:19.163323 2:4292.5347 3:0.359 4:0.20526157 5:2.4124275 6:8.0549124 7:499.59859 8:0.396 9:0.15895151 10:1.3575101 11:3.7961335 12:67.483092 13:0.459 14:0.16811552 15:0.97553998 16:8.0714461 17:705.89608 18:0.336 19:0.049139516 20:0.52988003 
0.05984504754279661 1:3.8197308 2:77.67122 3:0.483 4:0.22397387 5:1.5081109 6:1.6763003 7:5.3258943 8:0.671 9:0.30094473 10:1.1035575 11:1.1888948 12:1.1044963 13:1.903 14:1.0041852 15:1.9612746 16:1.6534973 17:5.3981179 18:0.661 19:0.28288637 20:1.0822556 
0.1159246486655931 1:3.4406193 2:45.754337 3:0.582 4:0.44790233 5:2.2975064 6:2.1365648 7:12.572083 8:0.54 9:0.18147223 10:0.83729103 11:1.288928 12:1.6948267 13:1.25 14:0.78435711 15:1.8117026 16:1.5724266 17:3.8549094 18:0.952 19:0.66158012 20:2.0868483 
0.1173189247266498 1:4.6160159 2:116.99089 3:0.505 4:0.34307122 5:2.3246587 6:1.8746621 7:7.6996014 8:0.626 9:0.27175974 10:1.1093681 11:1.1400413 12:0.94718953 13:1.855 14:0.9390259 15:1.7533801 16:1.8344088 17:7.8995224 18:0.609 19:0.24325479 20:1.0434354 
0.04272440035020432 1:3.1801407 2:47.723325 3:0.485 4:0.1830151 5:1.1792357 6:1.4399944 7:3.0883749 8:0.814 9:0.4279602 10:1.3239532 11:0.97861006 12:0.69272699 13:2.046 14:0.86001486 15:1.5653276 16:1.5092765 17:3.8615179 18:0.748 19:0.36830282 20:1.2421078 
0.1173705296259576 1:2.695656 2:8.1448586 3:0.879 4:0.92369629 5:2.3138723 6:5.346388 7:37.746787 8:0.898 9:1.9580314 10:5.4930484 11:8.6282779 12:125.19984 13:1.057 14:4.4575144 15:14.551936 16:3.6431724 17:11.426148 18:1.394 19:2.4474892 20:5.0550612 
0.06323845901718282 1:4.0881609 2:76.72122 3:0.445 4:0.14270604 5:0.96895528 6:1.892463 7:5.3719066 8:0.744 9:0.44326358 10:1.4008974 11:1.432343 12:1.2390876 13:2.414 14:1.3248045 15:2.1303413 16:1.9817469 17:5.6454648 18:0.727 19:0.43076731 20:1.332858 
0.1033123012950698 1:2.9937596 2:40.881104 3:0.455 4:0.11886657 5:0.80036547 6:1.4971314 7:2.9725024 8:0.8 9:0.42054724 10:1.1940773 11:1.1369133 12:0.81300396 13:2.059 14:0.98529917 15:1.6283412 16:1.4969875 17:3.0746002 18:0.77 19:0.38042146 20:1.1239713 
0.1168755139078852 1:3.8359312 2:69.694281 3:0.515 4:0.29774792 5:1.912589 6:1.7559499 7:5.4808857 8:0.733 9:0.40261416 10:1.4578734 11:1.7828233 12:16.812532 13:0.307 14:0.00386943 15:0.028193986 16:2.3147029 17:19.166028 18:0.488 19:0.12631447 20:0.72715991 
0.07098122203037337 1:3.2716412 2:32.985096 3:0.468 4:0.13678568 5:0.74159057 6:1.7532735 7:2.7496554 8:1.247 9:1.0324415 10:2.2406652 11:1.4720386 12:1.2563858 13:2.296 14:1.3221296 15:2.0857896 16:1.8549134 17:3.9902005 18:0.879 19:0.63146073 20:1.658406 
0.05398434880478663 1:3.3802105 2:34.683101 3:0.474 4:0.15324624 5:0.78952045 6:1.8982785 7:3.4087334 8:1.107 9:0.95572518 10:2.1661148 11:1.7591226 12:1.752661 13:2.487 14:1.6420673 15:2.4970404 16:2.15678 17:4.0554901 18:1.276 19:1.2990093 20:2.7820979 
0.06669792332473679 1:2.5049105 2:24.343873 3:0.419 4:0.058000474 5:0.36009253 6:1.3576107 7:1.9397399 8:0.917 9:0.49983016 10:1.2187541 11:1.4425866 12:1.2021191 13:2.354 14:1.3080707 15:2.0589951 16:1.7076574 17:2.4626653 18:1.182 19:0.92655019 20:1.956793 
0.07901543868271781 1:3.1706486 2:49.179401 3:0.41 4:0.064943611 5:0.53287269 6:1.2796457 7:3.4009608 8:0.633 9:0.19386719 10:0.73256119 11:1.0704757 12:0.49645576 13:3.041 14:1.0022241 15:1.3187918 16:1.6253551 17:4.1309365 18:0.704 19:0.33190263 20:1.0428452 
0.1171403396405467 1:3.9589715 2:63.654348 3:0.481 4:0.20450025 5:1.3369408 6:3.3513752 7:47.161344 8:0.409 9:0.067643171 10:0.44158864 11:2.2389729 12:9.8408881 13:0.573 14:0.22862482 15:0.85422327 16:2.7044108 17:21.334142 18:0.472 19:0.1188774 20:0.59443539 
0.1174586407245234 1:3.9601051 2:13.40643 3:1.497 4:2.8299375 5:5.8890182 6:4.3238457 7:18.809554 8:1.116 9:2.2334414 10:5.2165675 11:5.5605559 12:66.151829 13:0.625 14:0.8024901 15:3.1746677 16:5.1149313 17:35.979233 18:0.938 19:2.0517721 20:5.959222 
0.116979517087723 1:3.7983275 2:39.184685 3:0.634 4:0.59674477 5:2.8831419 6:2.4010203 7:7.7252283 8:0.901 9:0.87506691 10:2.5598383 11:2.4263455 12:10.975722 13:0.622 14:0.33687128 15:1.2067079 16:3.771246 17:49.260786 18:0.493 19:0.21692309 20:1.1930993 
0.1174570013554929 1:4.0640975 2:22.817105 3:0.877 4:1.4237398 5:4.127042 6:3.7662435 7:12.407264 8:1.604 9:2.8631794 10:6.0546997 11:4.5130177 12:21.8254 13:1.395 14:3.1132153 15:7.5142995 16:5.1362643 17:40.529366 18:1.055 19:2.5912066 20:8.0666274 
0.1158642475716578 1:2.6588351 2:15.045319 3:0.595 4:0.31787977 5:1.2719885 6:2.3597418 7:11.428443 8:0.542 9:0.19225252 10:0.73803842 11:3.5158002 12:68.918877 13:0.338 14:0.018372963 15:0.13941718 16:3.6446238 17:51.861915 18:0.422 19:0.089044443 20:0.53950827 
0.1171804501466867 1:2.4088423 2:7.6837528 3:0.947 4:0.97604543 5:2.7785732 6:3.1287499 7:24.157025 8:0.542 9:0.26258635 10:1.1496629 11:5.2978627 12:107.73007 13:0.515 14:0.39409961 15:2.1637419 16:3.9120924 17:31.314732 18:0.96 19:1.765148 20:6.6325777 
0.1170817495759294 1:1.9599842 2:12.828007 3:0.354 4:0.013763866 5:0.070210918 6:2.426763 7:28.390154 8:0.307 9:0.005233 10:0.034373211 11:2.6305727 12:24.915362 13:0.372 14:0.026944762 15:0.15109692 16:2.0359296 17:8.2398226 18:0.517 19:0.13413127 20:0.49684015 
0.1161955249423352 1:2.6906301 2:28.097846 3:0.398 4:0.045321595 5:0.26409897 6:3.1659505 7:13.494758 8:0.908 9:1.2014719 10:3.3344238 11:5.8776896 12:89.917671 13:0.525 14:0.45175935 15:1.8314097 16:3.9411843 17:57.014597 18:0.415 19:0.086676831 20:0.48445617 
0.1170060901645791 1:6.3482301 2:138.19914 3:0.419 4:0.14543338 5:0.79279732 6:5.7542813 7:115.3678 8:0.363 9:0.049458161 10:0.26009528 11:4.9021412 12:44.704814 13:0.491 14:0.25199309 15:0.87006778 16:5.0170346 17:23.244018 18:1.199 19:2.8297631 20:6.2429643 
0.1171466447077913 1:4.0622811 2:19.281935 3:1.045 4:1.9418006 5:4.9778741 6:4.2596283 7:16.77405 8:1.46 9:3.0117517 10:6.5789669 11:5.7857826 12:54.540292 13:0.863 14:2.010712 15:6.498438 16:5.6227254 17:49.11287 18:0.993 19:2.5719151 20:7.9989391 
0.1168517968757272 1:5.2316859 2:21.208471 3:1.697 4:4.0930266 5:7.9478265 6:3.9636987 7:9.1799621 8:2.32 9:3.5770947 10:5.6820095 11:3.7559103 12:10.413464 13:1.793 14:3.0527632 15:5.6672539 16:3.9765838 17:9.7394185 18:2.258 19:3.5778021 20:5.8677603 
0.1174507157075974 1:1.569949 2:1.7740449 3:1.759 4:1.2502105 5:2.3016357 6:2.4263862 7:6.4136247 8:1.102 9:1.2385578 10:3.0780814 11:6.6545936 12:139.57709 13:0.704 14:1.5877937 15:7.3991608 16:3.8813859 17:41.543653 18:0.601 19:0.51247059 20:2.3560216 
0.1174570450470246 1:1.9141995 2:2.483365 3:1.911 4:1.5898944 5:2.8262992 6:4.0420692 7:46.638124 8:0.449 9:0.13586857 10:0.648457 11:6.6337123 12:140.18545 13:0.477 14:0.32626639 15:1.5461812 16:2.4774312 17:6.2349444 18:1.045 19:1.1537931 20:2.7283236 
0.1170029366262149 1:4.1348817 2:67.220108 3:0.46 4:0.16924335 5:1.015317 6:3.8375736 7:36.051541 8:0.511 9:0.24701437 10:1.0583811 11:5.420209 12:96.572193 13:0.461 14:0.22149531 15:1.0923791 16:2.9009656 17:11.629967 18:0.851 19:0.94275724 20:2.7943167 
0.2397133323011511 1:1.6180714 2:8.6379736 3:0.378 4:0.018550452 5:0.094830773 6:2.2713181 7:6.6214006 8:0.947 9:0.92112152 10:2.5295647 11:3.6637774 12:20.351978 13:0.952 14:1.5629319 15:4.6507652 16:2.1018263 17:6.482131 18:0.789 19:0.58615728 20:1.7287156 
0.1171840469044046 1:4.9580941 2:36.8716 3:0.675 4:0.87290636 5:2.7363915 6:5.1167696 7:29.274142 8:0.998 9:2.2370915 10:5.6251409 11:5.728423 12:65.872678 13:0.526 14:0.4060872 15:1.5417522 16:5.3233095 17:30.490179 18:1.064 19:2.5813412 20:6.2989611 
0.1172873188176053 1:5.3924171 2:38.362519 3:1.172 4:3.1730415 5:8.4815199 6:4.9728815 7:22.660829 8:1.67 9:3.9716644 10:8.4722341 11:6.9294663 12:60.6658 13:1.394 14:5.0051849 15:12.877372 16:7.5404512 17:80.418133 18:1.497 19:6.0007693 20:16.285246 
0.1053324062452647 1:2.0178386 2:2.7749962 3:1.645 4:1.5151948 5:2.7056499 6:2.110268 7:4.4810365 8:1.061 9:1.0115965 10:2.3494956 11:3.8792247 12:53.967649 13:0.441 14:0.12155038 15:0.69962136 16:2.8070523 17:20.564723 18:0.468 19:0.11491882 20:0.53951704 
0.1169373537736663 1:4.6339465 2:68.817195 3:0.666 4:0.92665984 5:4.4279383 6:3.855285 7:36.487441 8:0.858 9:1.4389907 10:5.9801614 11:3.578638 12:24.284988 13:0.887 14:1.3466892 15:4.9251366 16:3.9739359 17:34.380555 18:1.048 19:2.1490961 20:8.083078 
0.1172908973727911 1:6.4342913 2:47.408198 3:1.122 4:3.4103993 5:8.6919869 6:4.0615674 7:50.629534 8:0.373 9:0.04219472 10:0.20022004 11:4.476091 12:28.049641 13:0.9 14:1.6765817 15:4.791112 16:7.6888743 17:74.669781 18:1.185 19:4.4531977 20:12.212504 
0.7532595703973222 1:1.3410518 2:1.1615891 3:1.934 4:1.1213601 5:1.9064358 6:1.4462302 7:2.1568199 8:0.908 9:0.5223255 10:1.2467074 11:2.051743 12:21.500349 13:0.337 14:0.010156553 15:0.075318898 16:1.7002638 17:5.8726787 18:0.49 19:0.086469632 20:0.32614995 
0.1089878054019937 1:5.6541182 2:22.769614 3:1.902 4:4.703821 5:8.6718606 6:3.7254884 7:8.8457973 8:2.357 9:3.398575 10:5.8007655 11:3.0797599 12:6.0714283 13:2.383 14:2.8360449 15:4.8077372 16:4.8022758 17:25.524414 18:0.999 19:2.065453 20:5.3529856 
0.05215491346319356 1:1.5174395 2:1.8685735 3:1.313 4:0.93826508 5:1.904387 6:1.9053915 7:5.0436389 8:0.813 9:0.55415028 10:1.6656929 11:3.4690623 12:49.604867 13:0.539 14:0.31483275 15:2.0047813 16:2.5368646 17:16.749575 18:0.544 19:0.21614213 20:1.0131493 
0.1170500776765517 1:3.1056876 2:74.242921 3:0.304 4:0.006607731 5:0.064978919 6:2.1905067 7:8.7404556 8:0.758 9:0.55998315 10:1.9959405 11:3.3597322 12:43.068343 13:0.581 14:0.41479135 15:2.4383736 16:2.8499932 17:22.600874 18:0.62 19:0.41868488 20:2.0099727 
0.109357663803251 1:4.5258715 2:21.369046 3:1.028 4:2.0747534 5:4.9098424 6:3.0486809 7:5.9317265 8:2.064 9:2.6368158 10:4.4479157 11:2.7937651 12:5.8853436 13:1.607 14:2.0813515 15:4.0007573 16:4.7588817 17:28.722011 18:0.776 19:1.2357042 20:3.3687379 
0.1173332865896541 1:5.8432273 2:153.69743 3:0.453 4:0.23461299 5:1.3696813 6:5.1234944 7:136.78245 8:0.422 9:0.13572979 10:0.95138557 11:3.0128311 12:33.166235 13:0.407 14:0.058532563 15:0.32214044 16:3.3808743 17:29.833344 18:0.531 19:0.2695744 20:1.1282551 
0.1152665885446118 1:2.991025 2:8.5883112 3:1.506 4:2.2006516 5:4.8648291 6:2.7622341 7:7.4852313 8:1.377 9:1.864183 10:4.2038813 11:3.3637915 12:21.363704 13:0.725 14:0.77074066 15:2.7551192 16:4.3213504 17:39.7625 18:0.662 19:0.77486617 20:2.9012101 
0.1165748513666759 1:3.9949772 2:44.56036 3:0.591 4:0.49764644 5:2.2741238 6:4.2385756 7:42.355404 8:0.711 9:0.96515197 10:3.8881314 11:3.1319975 12:14.036798 13:1.205 14:1.9167788 15:5.5476079 16:2.9646354 17:13.859966 18:0.818 19:0.90126387 20:2.8836215 
0.1168807800050394 1:2.961323 2:11.522829 3:0.826 4:0.89595704 5:2.5311079 6:4.4317376 7:26.3268 8:1.005 9:2.039256 10:5.6245864 11:6.9340801 12:75.205341 13:1.105 14:3.9290557 15:11.225174 16:4.41913 17:44.312196 18:0.527 19:0.32698681 20:1.2990692 
0.1172897496559642 1:2.5204079 2:24.443634 3:0.405 4:0.047079774 5:0.28333664 6:2.9105894 7:42.156815 8:0.388 9:0.042613602 10:0.31516009 11:1.7609504 12:9.3771658 13:0.42 14:0.039916749 15:0.20025298 16:1.7117332 17:5.6330328 18:0.488 19:0.085029321 20:0.30541452 
0.1173083307107936 1:5.0156948 2:45.875541 3:0.747 4:1.2392385 5:4.3596209 6:4.7519778 7:28.230075 8:1.065 9:2.3736249 10:6.3204733 11:4.2167325 12:24.732588 13:0.923 14:1.6556607 15:4.7420663 16:4.4340397 17:41.903407 18:0.616 19:0.60826434 20:2.3927266 
0.1166424986381574 1:4.4135863 2:58.316217 3:0.428 4:0.11253644 5:0.55640624 6:3.1718368 7:37.562384 8:0.329 9:0.012363107 10:0.067639918 11:2.3994082 12:5.9705234 13:0.843 14:0.73937379 15:1.7717101 16:3.6263496 17:12.476385 18:1.18 19:1.9908895 20:4.5644792 
0.08315883290357365 1:1.6814098 2:1.958532 3:1.748 4:1.3248494 5:2.381213 6:1.9309505 7:3.475741 8:1.194 9:1.074733 10:2.4349022 11:4.1477369 12:49.19845 13:0.656 14:0.74962782 15:3.6066482 16:2.7039861 17:15.184766 18:0.639 19:0.4170478 20:1.6466783 
0.1165330520880744 1:6.2542695 2:105.24763 3:0.698 4:1.4265344 5:5.7584655 6:4.4863798 7:53.985825 8:0.622 9:0.68369397 10:2.9015116 11:3.5123978 12:24.025379 13:0.827 14:1.1714777 15:3.9942798 16:4.5722412 17:37.041562 18:1.033 19:2.3683455 20:7.3964453 
0.1172191336605293 1:7.157852 2:92.003847 3:1.131 4:4.3929895 5:13.093295 6:3.3509632 7:16.380761 8:0.902 9:1.2756798 10:3.6918467 11:3.2957167 12:14.908928 13:1.261 14:2.1701823 15:5.7976935 16:6.4771075 17:62.633098 18:1.407 19:5.0807018 20:13.175853 
0.1172915466329341 1:5.3209196 2:103.73678 3:0.457 4:0.21291235 5:1.1182708 6:5.0311646 7:104.40118 8:0.464 9:0.2201636 10:1.3301654 11:2.7796484 12:12.16176 13:0.781 14:0.75309257 15:2.4073555 16:3.0349463 17:16.342825 18:0.654 19:0.50301692 20:1.6954378 
0.1164404819400954 1:2.1511083 2:22.912732 3:0.27 4:0.001246411 5:0.007761048 6:3.078822 7:26.002583 8:0.398 9:0.047705171 10:0.23182878 11:3.6906601 12:68.077737 13:0.324 14:0.012715552 15:0.097361505 16:2.2453304 17:20.123286 18:0.331 19:0.00934434 20:0.053371933 
0.08738838200400508 1:1.6586353 2:2.0811227 3:2.083 4:1.4929581 5:2.7513193 6:2.2910936 7:10.338692 8:0.626 9:0.33637574 10:1.182358 11:2.4600606 12:23.687171 13:0.424 14:0.062737317 15:0.36761547 16:1.5507086 17:2.7163979 18:1.119 19:0.82305617 20:2.0446944 
0.1160043194567456 1:5.8169627 2:48.370599 3:1.299 4:4.0908103 5:10.641623 6:4.0128409 7:19.425548 8:1.328 9:2.7200331 10:6.8365619 11:4.9642521 12:51.931851 13:0.706 14:1.1013858 15:3.9667777 16:6.6580061 17:68.515062 18:1.097 19:3.7848757 20:10.374238 
0.1166719268078816 1:3.9941856 2:17.369501 3:1.402 4:2.8488885 5:6.5743242 6:3.8049525 7:19.528071 8:0.936 9:1.5301945 10:4.2847876 11:5.5464457 12:49.379732 13:0.836 14:1.8422165 15:5.5162983 16:5.5865504 17:33.826681 18:2.02 19:5.378437 20:11.784248 
0.1171523048815583 1:3.2739145 2:61.641088 3:0.337 4:0.016801835 5:0.13046258 6:3.6877389 7:61.017724 8:0.405 9:0.071072299 10:0.47770767 11:3.0216754 12:20.37678 13:0.598 14:0.37065542 15:1.5384553 16:2.4570614 17:13.114481 18:0.529 19:0.18163837 20:0.72211453 
0.08628496891542389 1:1.1497737 2:1.1849743 3:1.779 4:0.96272935 5:2.0007556 6:2.1779252 7:19.913025 8:0.431 9:0.063045425 10:0.37453178 11:3.0193226 12:54.216376 13:0.405 14:0.063155221 15:0.4989107 16:1.5553242 17:4.7665709 18:0.71 19:0.33964626 20:1.231755 
0.1174436284166066 1:1.0741257 2:1.2337326 3:1.346 4:0.71210143 5:1.7246194 6:2.3122126 7:28.11359 8:0.423 9:0.063039653 10:0.42890854 11:3.505453 12:75.870162 13:0.408 14:0.079487416 15:0.59471987 16:1.7516805 17:7.1626888 18:0.73 19:0.43382091 20:1.6942295 
0.1174450044395065 1:1.8522098 2:2.403478 3:2.032 4:1.6209856 5:2.8674098 6:2.848459 7:23.38257 8:0.426 9:0.070797411 10:0.33377224 11:4.2738758 12:109.31247 13:0.334 14:0.020296459 15:0.16923366 16:2.2559214 17:7.1499945 18:0.776 19:0.59720587 20:1.7272761 
0.1173214567113869 1:2.2640669 2:3.6731424 3:1.592 4:1.6727157 5:3.06896 6:2.6770166 7:7.5252247 8:1.09 9:1.332619 10:3.2568276 11:5.8362621 12:111.8024 13:0.598 14:0.78689719 15:4.0223738 16:3.7471873 17:35.478771 18:0.541 19:0.31250115 20:1.3982547 
0.1164496048577433 1:4.3570204 2:14.615859 3:1.6 4:3.267603 5:6.2750049 6:5.2228822 7:19.032597 8:1.83 9:4.2251987 10:7.7146489 11:8.2412879 12:61.32562 13:1.033 14:3.7913275 15:7.9361604 16:4.1948437 17:13.743722 18:1.302 19:2.5547703 20:5.064602 
0.1024874304914447 1:3.2047378 2:6.9775318 3:1.679 4:2.4510676 5:4.3401661 6:5.8514699 7:21.187961 8:2.341 9:5.4011902 10:8.7142438 11:5.9826579 12:22.396198 13:2.134 14:5.2488346 15:8.7244916 16:3.0339085 17:5.5207401 18:2.21 19:2.693309 20:4.3420729 
0.09488550383643069 1:4.1865947 2:15.444644 3:1.493 4:2.9799249 5:6.4123114 6:6.0181004 7:23.633288 8:2.63 9:5.8432518 10:9.74603 11:5.9851715 12:27.887966 13:1.832 14:4.9559298 15:9.5866497 16:3.3398121 17:7.7159257 18:1.827 19:2.7256956 20:4.840965 
0.07590847512153531 1:4.6270606 2:17.319463 3:1.814 4:3.7784194 5:7.6994149 6:5.3112976 7:21.298347 8:1.958 9:4.6135757 10:8.5323756 11:6.1730525 12:28.683332 13:2.331 14:5.8665816 15:10.696653 16:4.1103137 17:11.67513 18:1.939 19:3.4624953 20:6.2044314 
0.3572214923799886 1:2.3883517 2:4.179109 3:1.489 4:1.6632651 5:3.1253755 6:2.9446142 7:6.0049704 8:1.851 9:2.4177655 10:4.3175994 11:6.8077698 12:22.800897 13:2.448 14:6.0349418 15:8.7933104 16:3.8461034 17:11.117201 18:1.644 19:2.9405924 20:5.5441267 
0.1056163747535587 1:2.9356674 2:9.012733 3:1.25 4:1.7711062 5:4.2731136 6:3.576178 7:15.895825 8:0.895 9:1.2827326 10:3.5006167 11:4.9217108 12:27.163908 13:1.065 14:2.4435108 15:5.9211942 16:3.753393 17:12.387768 18:1.578 19:2.8397242 20:5.9298154 
0.116151812934395 1:4.2179834 2:14.045106 3:1.874 4:3.5677745 5:6.891491 6:4.1815862 7:11.323757 8:2.141 9:3.7396114 10:6.2052209 11:3.8282639 12:9.2582158 13:2.37 14:3.5604293 15:5.8311078 16:4.3899159 17:24.308311 18:0.782 19:1.1566006 20:3.172991 
0.1165441059221817 1:2.7746948 2:7.8328271 3:1.146 4:1.4839643 5:3.528794 6:4.6810592 7:35.410389 8:0.901 9:1.7689833 10:5.7892382 11:5.252633 12:54.721849 13:0.792 14:1.5420203 15:5.7003392 16:2.6359264 17:5.9334928 18:1.514 19:1.9060316 20:3.9484212 
0.1165632374725859 1:2.0010013 2:2.714392 3:1.908 4:1.6734228 5:2.9292829 6:3.8419516 7:39.311904 8:0.586 9:0.44743708 10:2.1366476 11:4.8439063 12:70.636043 13:0.588 14:0.59020896 15:3.011037 16:2.1781893 17:3.8366212 18:1.332 19:1.3716 20:2.7642859 
0.1161694447528148 1:1.8337521 2:2.0975339 3:1.831 4:1.4709194 5:2.4625382 6:2.0225573 7:3.1317404 8:1.27 9:1.2012771 10:2.3194436 11:4.3154013 12:64.211045 13:0.489 14:0.23392433 15:1.3611719 16:2.4816336 17:8.3378546 18:0.762 19:0.61737625 20:1.7779668 
0.1134376683030752 1:1.6795044 2:1.7948217 3:2.093 4:1.4694039 5:2.4505149 6:3.3928489 7:28.606793 8:0.664 9:0.61514354 10:2.7575259 11:4.3152339 12:50.88502 13:0.684 14:0.89406769 15:4.04001 16:1.8354217 17:3.0303935 18:1.302 19:1.1413021 20:2.4758214 
0.07253039036465152 1:2.7777482 2:22.104218 3:0.454 4:0.098886368 5:0.47937035 6:1.7781874 7:2.5495573 8:1.355 9:1.1417172 10:2.2880426 11:1.6014853 12:1.5662765 13:2.235 14:1.4453706 15:2.3175206 16:1.8892337 17:3.2615923 18:1.077 19:0.9020304 20:2.0248874 
0.9661098969529381 1:3.4669283 2:12.299899 3:0.931 4:1.3168335 5:3.1200192 6:3.3170352 7:6.8100806 8:2.106 9:2.8766341 10:4.7824315 11:3.3047631 12:6.6965116 13:2.222 14:2.9511664 15:4.8256546 16:3.2984942 17:6.9293335 18:2.126 19:2.9012668 20:4.8639239 
0.1115897641681119 1:2.5438028 2:6.0627754 3:1.233 4:1.4866012 5:3.32713 6:3.3532995 7:15.541791 8:0.951 9:1.3741101 10:4.0566876 11:3.8163576 12:26.28227 13:0.793 14:1.0968193 15:3.8711744 16:2.6833503 17:6.9061663 18:1.229 19:1.564536 20:3.5688804 
0.1170280827644146 1:3.6569623 2:47.935092 3:0.347 4:0.02220124 5:0.11800624 6:4.0728187 7:60.89374 8:0.372 9:0.042007389 10:0.23611725 11:4.0114674 12:93.225964 13:0.281 14:0.003665644 15:0.026367766 16:3.2002408 17:19.988927 18:0.492 19:0.16622489 20:0.60191757 
0.1169993483577189 1:3.6523057 2:41.05198 3:0.372 4:0.037212087 5:0.17689193 6:3.1972189 7:16.111086 8:0.599 9:0.37859874 10:1.1976924 11:4.597752 12:131.46841 13:0.285 14:0.004954118 15:0.037553544 16:4.7384347 17:76.230057 18:0.426 19:0.12013807 20:0.64801543 
0.1170051898930045 1:5.2168244 2:210.57865 3:0.292 4:0.007500373 5:0.069488736 6:4.9396765 7:185.01774 8:0.289 9:0.006342764 10:0.05801395 11:3.1783825 12:31.702392 13:0.365 14:0.028159908 15:0.13573602 16:2.9517301 17:13.29971 18:0.638 19:0.43585207 20:1.3574276 
0.1170437961220875 1:1.4006476 2:8.6824153 3:0.291 4:0.001770099 5:0.01054764 6:1.4858524 7:18.548938 8:0.231 9:0.000130945 10:0.001176625 11:1.7687694 12:39.452432 13:0.209 14:3.76e-005 15:0.000451429 16:1.3631269 17:7.8775373 18:0.282 19:0.001241522 20:0.007049357 
0.1091205499665529 1:1.2745951 2:1.2469614 3:1.285 4:0.76438439 5:1.4902825 6:2.2125593 7:13.73157 8:0.437 9:0.063154884 10:0.29917513 11:2.6083117 12:30.415214 13:0.386 14:0.036118245 15:0.24308038 16:1.5305098 17:2.0293211 18:1.063 19:0.7197286 20:1.5209279 
0.1163091924777844 1:3.4650444 2:8.9732002 3:1.663 4:2.6448193 5:5.0645105 6:4.8316338 7:19.980272 8:2.048 9:4.4112635 10:8.7316144 11:6.7359668 12:72.813056 13:0.743 14:1.6436745 15:5.0183751 16:4.182062 17:17.654807 18:1.035 19:1.9310968 20:4.4718143 
0.1189306497755656 1:3.3336892 2:7.8136563 3:1.67 4:2.5586018 5:4.6059115 6:5.2958797 7:20.747351 8:1.797 9:4.3101601 10:8.022057 11:5.6750461 12:42.741109 13:0.698 14:1.1114872 15:3.070807 16:3.9648123 17:13.449579 18:1.098 19:1.9526503 20:4.1086601 
0.03191631785159441 1:3.6709823 2:9.9231057 3:1.621 4:2.7654019 5:5.1526503 6:5.405812 7:19.617783 8:1.906 9:4.4771239 10:7.9083781 11:5.7634999 12:24.51756 13:1.848 14:4.7748386 15:8.8691634 16:3.8284187 17:9.5117059 18:1.984 19:3.256835 20:5.5310274 
0.0811431351532439 1:3.8668215 2:10.629862 3:1.806 4:3.1216223 5:5.7271654 6:5.1227701 7:18.080222 8:1.947 9:4.3558001 10:7.671709 11:5.7657889 12:24.479217 13:1.889 14:4.8464124 15:8.9671011 16:4.2103815 17:11.593251 18:2.083 19:3.6805168 20:6.275568 
0.08479423026423803 1:2.8903422 2:5.089516 3:2.085 4:2.5007928 5:4.0781044 6:4.0833602 7:11.257141 8:1.915 9:3.415215 10:5.98221 11:6.7190471 12:32.72752 13:2.202 14:6.1223314 15:11.159454 16:4.3805562 17:12.953589 18:2.122 19:3.8760927 20:6.7663626 
0.1044205143834812 1:3.0588792 2:5.7732767 3:2.149 4:2.7025757 5:4.4042128 6:4.3732839 7:11.94598 8:2.345 9:4.0153862 10:6.6132305 11:7.6357514 12:39.940321 13:2.473 14:7.3158395 15:12.580261 16:4.2108354 17:12.814881 18:1.64 19:3.183668 20:5.8933725 
0.1140814392257432 1:1.8457655 2:2.0455129 3:2.228 4:1.6493606 5:2.6473138 6:1.9080454 7:2.5850963 8:1.629 9:1.431675 10:2.6197901 11:3.231247 12:43.997648 13:0.396 14:0.052407377 15:0.34736199 16:2.3277224 17:7.3958012 18:0.738 19:0.52992832 20:1.5427312 
0.09956467078721286 1:3.7218072 2:9.3061209 3:1.832 4:3.0090802 5:5.3168873 6:5.7116531 7:26.43397 8:1.798 9:4.6991465 10:9.3348564 11:6.7652227 12:35.495376 13:2.03 14:5.9707709 15:11.417456 16:4.1112896 17:11.113248 18:2.078 19:3.5851553 20:6.159243 
0.1167692217599813 1:2.9653348 2:10.272543 3:1.039 4:1.3873287 5:3.6447662 6:3.0868283 7:9.6577367 8:1.477 9:2.2440393 10:5.1726577 11:4.8425443 12:48.72047 13:0.791 14:1.4481734 15:5.3152427 16:5.5012791 17:89.669065 18:0.598 19:0.74233864 20:3.305733 
0.1023425057660002 1:3.7611618 2:9.4586669 3:2.03 4:3.2496585 5:5.6378729 6:6.2263473 7:32.579948 8:1.622 9:4.7652109 10:9.7522822 11:6.5306017 12:29.324394 13:2.31 14:6.0393923 15:10.604297 16:4.335992 17:12.741914 18:2.043 19:3.757608 20:6.6065316 
0.1047175387431393 1:3.7894492 2:9.8212053 3:1.975 4:3.2438326 5:5.6838509 6:5.4674511 7:26.592503 8:1.293 9:3.3580725 10:7.2674487 11:7.0611549 12:32.802878 13:2.287 14:6.4730885 15:11.001986 16:5.0922154 17:16.685845 18:2.229 19:4.6008469 20:7.7118688 
0.1167665453395712 1:3.4630736 2:22.545137 3:0.622 4:0.49654563 5:1.6618921 6:4.470358 7:52.211204 8:0.486 9:0.23836397 10:0.94582577 11:6.2194529 12:51.108451 13:1.223 14:4.0850709 15:9.7537123 16:5.3286989 17:37.03083 18:1.181 19:3.3059947 20:7.976194 
0.1150945809502721 1:3.7096347 2:8.6927228 3:2.231 4:3.3346975 5:5.5542422 6:5.8344417 7:21.440336 8:2.337 9:5.3434645 10:8.8913019 11:8.0731755 12:48.228519 13:1.755 14:6.4466078 15:12.07657 16:5.8037268 17:24.534911 18:1.774 19:4.6545835 20:8.6434673 
0.1148314450375392 1:3.5628811 2:8.2042199 3:2.041 4:3.0627679 5:5.2288952 6:6.3431471 7:25.106549 8:2.537 9:6.0055839 10:9.8547371 11:8.7741874 12:53.3163 13:2.008 14:7.5863827 15:13.431112 16:5.1166255 17:17.948267 18:1.89 19:4.2314137 20:7.5661526 
0.115211735495281 1:3.4096473 2:7.9443962 3:1.823 4:2.7748596 5:4.8850992 6:5.4939007 7:19.988179 8:2.184 9:4.9397462 10:8.426584 11:7.634834 12:45.320067 13:1.712 14:6.0512569 15:11.639418 16:4.4976163 17:14.413584 18:1.826 19:3.6889881 20:6.6605723 
0.1166665008827799 1:2.8381634 2:7.1380813 3:1.72 4:2.316872 5:4.7772246 6:4.8823837 7:28.570004 8:1.308 9:3.3011827 10:7.9941596 11:6.1809294 12:52.023703 13:1.06 14:3.2324157 15:8.3409748 16:4.6361606 17:24.964079 18:1.628 19:3.882793 20:9.0429133 
0.1144616541728669 1:1.8000704 2:4.4626023 3:0.709 4:0.36551197 5:1.0717272 6:2.2736389 7:11.037977 8:0.567 9:0.22421757 10:0.90067895 11:3.7884318 12:56.876625 13:0.478 14:0.18875101 15:1.1964158 16:2.5325745 17:14.978154 18:0.55 19:0.22296955 20:0.95619365 
0.1169622654991043 1:1.9885719 2:4.8732337 3:1.004 4:0.88694034 5:2.4043983 6:3.9051493 7:31.831551 8:1.046 9:2.1002971 10:7.5800039 11:4.4505564 12:63.98119 13:0.579 14:0.53173812 15:2.6174496 16:2.7243602 17:17.027709 18:0.598 19:0.3379655 20:1.4046456 
0.1173466413556187 1:2.8873037 2:10.680819 3:1.277 4:1.8813547 5:4.9650229 6:3.2283625 7:13.327569 8:1.208 9:1.9747343 10:5.1306809 11:5.804972 12:90.202665 13:0.61 14:0.83484081 15:3.4393517 16:3.800243 17:25.298136 18:0.834 19:1.2709904 20:4.0365012 
0.1170029366262149 1:24.500184 2:2659.0145 3:0.69 4:6.398205 5:30.643383 6:17.386804 7:714.67135 8:1.699 9:18.975666 10:55.08296 11:35.618024 12:4702.9924 13:0.803 14:14.064091 15:55.614959 16:27.850542 17:1848.809 18:1.647 19:29.866179 20:86.574722 
0.1169964048983024 1:1.5134956 2:2.570832 3:1.236 4:0.90948374 5:2.3055472 6:8.621388 7:151.6009 8:1.748 9:8.8020896 10:26.427967 11:33.287249 12:2239.3225 13:1.308 14:26.566175 15:76.603612 16:8.3828578 17:135.23783 18:1.764 19:8.526339 20:24.698594 
0.116875540374163 1:23.422328 2:1573.6219 3:0.939 4:11.85632 5:44.36788 6:9.8973287 7:197.3407 8:1.346 9:7.8126345 10:24.393597 11:12.074274 12:836.10497 13:0.514 14:1.0129654 15:6.5626605 16:9.9473684 17:197.13514 18:1.23 19:6.9489007 20:22.310395 
0.1169928749616964 1:0.5768963 2:0.2796552 3:1.469 4:0.40427761 5:0.83256506 6:2.0924861 7:16.85527 8:0.662 9:0.42197514 10:2.4498487 11:7.2162902 12:204.77872 13:0.724 14:2.1415556 15:9.085797 16:1.6645138 17:9.5737221 18:0.733 19:0.44529757 20:2.4243999 
0.116825872054681 1:25.480256 2:2159.7513 3:1.042 4:16.67082 5:62.476454 6:8.7748146 7:149.09648 8:4.177 9:12.467132 10:33.446544 11:14.381177 12:1397.9774 13:0.565 14:1.9750348 15:13.035499 16:9.2950587 17:183.4005 18:2.541 19:12.016127 20:34.164255 
0.1167539199019464 1:15.298105 2:701.86881 3:0.744 4:4.5456958 5:17.229492 6:5.4425419 7:45.837398 8:1.309 9:4.0074432 10:10.400331 11:8.6656266 12:308.48442 13:0.61 14:1.3910811 15:7.155297 16:15.364251 17:952.14667 18:0.646 19:3.0226669 20:15.443298 
0.1167464941682649 1:13.798503 2:481.03592 3:0.807 4:4.7223823 5:17.836165 6:11.118976 7:583.5752 8:0.5 9:0.78252898 10:4.383251 11:10.331831 12:404.44634 13:0.583 14:1.3901403 15:6.4828042 16:11.621579 17:502.44621 18:0.583 19:1.5611536 20:7.1414524 
0.1166572228342216 1:12.233062 2:364.26363 3:0.783 4:3.8636467 5:13.781182 6:5.5036373 7:55.335036 8:1.03 9:2.6951021 10:9.9765342 11:4.0753912 12:51.959278 13:0.517 14:0.28753715 15:1.5015106 16:4.0405544 17:29.33445 18:0.848 19:1.3486559 20:4.890727 
0.1162512655399596 1:20.521734 2:1437.6812 3:0.659 4:4.1758406 5:18.71112 6:13.026697 7:546.54664 8:0.613 9:1.9984872 10:9.0383094 11:7.5635083 12:210.10829 13:0.535 14:0.66956646 15:3.4985397 16:8.7784025 17:156.54778 18:0.868 19:3.3042273 20:11.525406 
0.1162004992340246 1:4.6179384 2:130.24781 3:0.44 4:0.16650205 5:1.2504137 6:2.8354096 7:21.542254 8:0.762 9:0.81427058 10:3.4710627 11:3.7273908 12:89.320224 13:0.399 14:0.074186055 15:0.5402751 16:2.8149612 17:27.312486 18:0.653 19:0.53060873 20:2.7686788 
0.1159689559008874 1:34.261983 2:3032.2766 3:1.102 4:22.930212 5:76.59173 6:16.560845 7:463.60503 8:1.601 9:16.059962 10:38.813537 11:28.203857 12:2543.5048 13:0.918 14:14.316784 15:54.217517 16:17.469986 17:454.17174 18:2.739 19:22.055582 20:48.854769 
0.115822439422043 1:12.161991 2:619.38574 3:0.444 4:0.43235521 5:2.3497347 6:15.71431 7:648.16731 8:0.807 9:5.3211206 10:21.482231 11:16.747769 12:906.11373 13:0.587 14:2.1780266 15:9.8598282 16:8.6503671 17:182.39759 18:0.745 19:2.3240076 20:9.0108396 
0.1163693636039899 1:18.569319 2:1661.0716 3:0.581 4:2.6621865 5:13.793074 6:14.77345 7:462.23617 8:2.017 9:17.3622 10:48.717785 11:39.03826 12:4241.9705 13:1.083 14:26.077081 15:88.495391 16:14.85389 17:484.86515 18:1.833 19:16.659538 20:47.441335 
0.1163145644262917 1:6.9975351 2:120.89472 3:0.602 4:0.89819835 5:3.9375042 6:32.7668 7:1301.5672 8:1.541 9:25.871147 10:64.718196 11:85.627037 12:6293.0452 13:20 14:101.04137 15:189.33122 16:31.233581 17:1801.137 18:0.98 19:14.305419 20:50.929691 
0.1165748422277131 1:4.5229925 2:44.421722 3:0.76 4:1.22883 5:4.6647189 6:1.7544607 7:2.426011 8:1.378 9:1.1428003 10:2.2566565 11:2.627839 12:5.0398856 13:2.389 14:2.4752472 15:4.5548424 16:4.0890399 17:36.199971 18:0.823 19:1.36553 20:5.1260701 
0.1166633594780517 1:10.901745 2:338.1445 3:0.771 4:3.384926 5:13.668197 6:3.7914521 7:15.849881 8:1.065 9:1.8612146 10:4.544223 11:5.6707943 12:22.370158 13:2.256 14:5.2959292 15:9.0167071 16:9.9356564 17:259.19632 18:0.717 19:2.3825606 20:10.146633 
0.1167248634392347 1:11.934872 2:259.59605 3:1.459 4:10.526977 5:28.189767 6:15.825316 7:342.6722 8:1.177 9:10.472188 10:23.160558 11:34.291402 12:1229.7255 13:3.13 14:41.234568 15:77.138837 16:15.843222 17:335.64255 18:1.095 19:9.7181094 20:19.98402 
0.1171739439900356 1:2.8615237 2:5.9075338 3:1.942 4:2.4367061 5:4.457621 6:14.248026 7:401.94492 8:1.651 9:13.068124 10:44.747597 11:36.060947 12:3816.3659 13:0.986 14:20.393107 15:74.074392 16:10.846964 17:218.09247 18:2.14 19:11.852366 20:36.477563 
0.1173783558467526 1:9.740046 2:759.02392 3:0.342 4:0.061248761 5:0.61067131 6:8.7708709 7:204.68112 8:0.814 9:2.8829796 10:13.531768 11:19.634087 12:2079.2433 13:0.547 14:2.1775396 15:13.002516 16:8.7723765 17:248.37637 18:0.725 19:2.216657 20:11.88835 
0.1174704486498265 1:5.1536796 2:28.533292 3:0.836 4:1.5957967 5:3.7755777 6:13.964087 7:426.13742 8:1.132 9:8.7863416 10:30.743294 11:43.233267 12:3882.6757 13:1.173 14:29.684274 15:91.843875 16:13.780421 17:361.58265 18:1.345 19:10.413563 20:34.117426 
0.1172908973727911 1:23.497144 2:904.27534 3:1.034 4:11.582451 5:37.646772 6:29.418784 7:1254.3289 8:1.447 9:23.008929 10:62.192012 11:35.201912 12:3383.7834 13:0.735 14:9.4045239 15:38.640982 16:19.754388 17:837.55656 18:1.041 19:10.86008 20:37.629388 
0.1170051898930045 1:3.6802146 2:15.996477 3:2.987 4:4.3042557 5:9.3126345 6:7.5697746 7:116.71133 8:1.587 9:7.3810644 10:20.802294 11:55.090494 12:9435.103 13:1.195 14:42.65704 15:168.44878 16:28.754004 17:2461.1801 18:1.515 19:28.315049 20:111.29144 
0.116875514904992 1:23.493199 2:2023.9764 3:0.72 4:6.6852244 5:28.413463 6:16.682293 7:631.27061 8:1.122 9:10.987329 10:35.019204 11:29.837226 12:3992.3289 13:0.602 14:4.8354583 15:23.792652 16:24.799545 17:1256.0687 18:1.498 19:23.193876 20:65.12085 
0.1171856246565671 1:3.3196949 2:8.2089988 3:1.408 4:2.1964292 5:4.1705846 6:4.7382014 7:30.553262 8:1.054 9:2.3441564 10:6.7007479 11:10.583269 12:397.80744 13:0.626 14:1.7707866 15:8.8049697 16:5.0021485 17:50.290515 18:0.789 19:1.4439409 20:5.5480833 
0.1163334235304298 1:11.080848 2:422.3992 3:0.608 4:1.620239 5:8.2635489 6:7.7068458 7:124.7899 8:1.005 9:3.7557333 10:14.938764 11:7.2183077 12:110.73927 13:0.659 14:1.252999 15:4.894027 16:5.9294702 17:43.822374 18:1.241 19:3.6810159 20:9.7641252 
0.1158924739740002 1:3.137506 2:5.6017045 3:2.38 4:2.8313871 5:4.4811163 6:9.8224917 7:157.56819 8:1.713 9:8.834883 10:27.308585 11:32.074822 12:2153.0053 13:0.846 14:12.156339 15:38.617328 16:9.6170826 17:142.03108 18:1.561 19:7.8094149 20:24.082753 
0.1163349036718301 1:10.110275 2:183.77839 3:0.889 4:3.7733101 5:13.392264 6:4.8751684 7:20.198446 8:1.292 9:2.9815091 10:6.2332324 11:4.5809428 12:14.402952 13:2.265 14:4.2146588 15:7.3409848 16:7.1129688 17:77.491524 18:0.917 19:2.7153069 20:8.9646577 
0.1167990087376575 1:22.742531 2:833.46126 3:1.259 4:15.246357 5:46.738148 6:20.804876 7:920.40402 8:0.932 9:9.2880853 10:32.453675 11:14.806835 12:530.84842 13:0.846 14:5.3719719 15:21.988012 16:21.093164 17:918.03272 18:0.88 19:8.0879784 20:30.032193 
0.1173705296815844 1:35.15587 2:2428.9326 3:1.339 4:27.276131 5:86.36426 6:20.489436 7:1094.3159 8:0.795 9:6.6855399 10:26.599132 11:12.372263 12:316.70802 13:0.723 14:2.7745951 15:11.415177 16:22.182697 17:1243.0714 18:0.785 19:6.8276367 20:28.05426 
0.1163850121622864 1:4.6764074 2:15.722377 3:1.984 4:3.9987085 5:7.4077215 6:8.406798 7:197.41637 8:0.562 9:0.8491006 10:3.9636907 11:16.16952 12:609.33943 13:0.783 14:4.8640192 15:18.754502 16:7.9165908 17:164.51028 18:0.585 19:0.93440252 20:4.1517148 
0.1161721435889704 1:4.9136023 2:16.706853 3:2.052 4:4.3322402 5:7.5394513 6:10.780794 7:299.89306 8:0.645 9:1.8020706 10:8.115899 11:20.911483 12:999.3991 13:1.011 14:10.908463 15:41.432941 16:10.77121 17:263.47125 18:0.734 19:2.5984806 20:11.112628 
0.1171216514909604 1:3.4252748 2:7.0696064 3:1.979 4:2.8501183 5:4.7053717 6:6.3738545 7:48.437288 8:2.043 9:6.0883054 10:15.076387 11:47.632815 12:4950.9794 13:2.02 14:52.775858 15:180.7832 16:23.408206 17:1112.2904 18:3.068 19:30.534701 20:92.697305 
0.117015410966024 1:4.4662403 2:14.918009 3:1.615 4:3.4134095 5:6.2218566 6:14.679989 7:217.61785 8:20 9:18.421365 10:35.735589 11:15.685263 12:217.71237 13:3.16 14:17.866445 15:31.766352 16:3.9058717 17:11.665217 18:1.543 19:2.8086646 20:5.4899903 
0.1174622282282484 1:19.700192 2:1132.7573 3:0.795 4:6.8983194 5:26.064003 6:20.978742 7:780.64642 8:1.213 9:14.292746 10:41.643891 11:32.390075 12:2685.9939 13:0.81 14:11.406854 15:41.250575 16:16.15522 17:477.5003 18:1.38 19:13.095956 20:37.418722 
0.1164782286299675 1:0.70971916 2:0.37183863 3:1.481 4:0.49076356 5:0.93254467 6:2.2688065 7:8.9874624 8:1.242 9:1.4953865 10:4.9533942 11:6.8263179 12:119.93618 13:0.824 14:2.4884162 15:9.3143783 16:2.097761 17:7.3006999 18:1.534 19:1.7271353 20:5.4276963 
0.1166761445416249 1:0.67286735 2:0.25422933 3:2.47 4:0.61691701 5:0.9591337 6:5.125135 7:15.777575 8:3.541 9:5.3323703 10:8.3535146 11:19.698749 12:494.8273 13:7.661 14:26.095548 15:57.50044 16:5.9163693 17:23.793706 18:6.038 19:6.5138904 20:11.307598 
0.1162116695195909 1:7.5537756 2:265.52027 3:0.538 4:0.71591658 5:4.5701011 6:6.7208095 7:168.42684 8:0.529 9:0.55628572 10:3.1412259 11:9.6632581 12:285.37111 13:0.725 14:2.5178231 15:11.297903 16:9.0393991 17:335.10501 18:0.585 19:1.2073503 20:6.6661432 
0.1162871419135669 1:2.7685278 2:6.4283359 3:2.054 4:2.5084278 5:4.9544551 6:5.2907185 7:54.727108 8:1.282 9:3.7224031 10:13.190243 11:36.721325 12:5429.4179 13:0.908 14:19.167769 15:84.107922 16:19.146787 17:1353.3774 18:1.022 19:11.656913 20:57.303947 
0.1162870926793775 1:5.5839359 2:326.4816 3:0.31 4:0.01541427 5:0.20097573 6:5.0907827 7:251.40388 8:0.319 9:0.017916243 10:0.22747822 11:5.4431691 12:260.899 13:0.312 14:0.015376431 15:0.16671677 16:5.8963061 17:319.98662 18:0.33 19:0.028198406 20:0.3206326 
0.116676140933371 1:18.666282 2:2410.3688 3:0.483 4:1.2178213 5:8.4732712 6:12.228034 7:845.83495 8:0.557 9:1.4684373 10:9.3794855 11:11.22409 12:791.46537 13:0.431 14:0.35730946 15:2.8343332 16:9.7957281 17:448.18015 18:0.59 19:1.379022 20:8.5044856 
0.1170138379574991 1:5.4831562 2:50.48029 3:0.754 4:1.375617 5:4.536222 6:7.7593069 7:121.46655 8:0.82 9:2.4917857 10:9.2425978 11:10.406353 12:208.00133 13:0.832 14:3.5016335 15:11.933408 16:7.9929179 17:101.30184 18:1.064 19:4.2120107 20:12.60626 
0.1171856246565671 1:11.966481 2:1451.1482 3:0.295 4:0.020429104 5:0.23262185 6:12.501483 7:446.84639 8:0.808 9:4.2731123 10:18.46267 11:11.894877 12:399.14967 13:0.592 14:1.5333402 15:6.5864984 16:7.5875379 17:187.6985 18:0.502 19:0.46720024 20:2.5293613 
0.1163693636039899 1:5.0406367 2:65.862684 3:0.421 4:0.11547875 5:0.49211437 6:9.0608024 7:252.42422 8:0.632 9:1.4615047 10:7.421046 11:9.278546 12:279.75287 13:0.489 14:0.51536042 15:2.5524384 16:5.177097 17:112.29278 18:0.366 19:0.048083753 20:0.30263755 
0.1162453740180734 1:24.460784 2:2532.6179 3:0.756 4:7.9766154 5:41.476744 6:6.9296274 7:104.97614 8:1.13 9:4.1760433 10:16.322435 11:3.2962425 12:6.3324965 13:2.388 14:3.0094479 15:4.7629464 16:6.3151981 17:56.996462 18:1.337 19:4.3175194 20:12.933669 
0.1173414140697261 1:21.864355 2:1751.5198 3:0.619 4:3.5980028 5:17.468097 6:16.547306 7:780.35253 8:0.633 9:2.7590227 10:11.758511 11:33.013126 12:3005.3838 13:0.858 14:13.302185 15:52.739498 16:23.088702 17:1211.1575 18:0.99 19:11.966181 20:41.444709 
0.1174704486498265 1:15.736634 2:1353.5415 3:0.537 4:1.6057525 5:9.7384293 6:9.7052817 7:234.95333 8:1.048 9:5.3479475 10:22.752207 11:16.566081 12:1566.0483 13:0.519 14:1.473489 15:9.0097759 16:9.4411888 17:262.81591 18:0.923 19:4.3749627 20:19.493147 
0.1173604399181403 1:2.8640073 2:7.5468642 3:1.432 4:1.9514788 5:4.3989686 6:8.6880906 7:191.51186 8:0.925 9:3.790803 10:16.719639 11:28.944054 12:2876.9536 13:0.78 14:10.502616 15:38.393834 16:8.7686808 17:218.67348 18:0.942 19:4.1661512 20:18.778597 
0.1172291047391342 1:1.925842 2:2.8836198 3:1.719 4:1.5397597 5:2.9263812 6:4.5995535 7:47.030772 8:1.172 9:2.9549977 10:11.430391 11:13.89531 12:558.87403 13:0.822 14:5.4326572 15:18.918692 16:4.3212953 17:39.91024 18:1.32 19:3.2161678 20:11.930114 
0.1170930251421854 1:38.888125 2:2838.4595 3:1.463 4:33.835407 5:99.207421 6:9.3021739 7:155.0958 8:2.856 9:11.822842 10:31.808218 11:2.0159659 12:5.8755144 13:1.033 14:0.97097508 15:2.9116362 16:10.367033 17:177.02752 18:2.577 19:12.401241 20:32.577975 
-0.4468134425166361 1:2.5678084 2:3.8663258 3:2.368 4:2.3253131 5:3.7390756 6:2.5559373 7:3.7830608 8:2.471 9:2.3753181 10:3.7032007 11:2.4769768 12:3.6192574 13:2.411 14:2.2777252 15:3.6237982 16:2.507959 17:3.6479044 18:2.433 19:2.2994036 20:3.6436353 
-0.1703599734250422 1:1.9392843 2:2.38275 3:2.703 4:1.8850216 5:3.1021696 6:2.5932686 7:2.8375868 8:2.957 9:2.4439552 10:3.0570888 11:3.0502262 12:4.1636065 13:2.956 14:2.8692348 15:3.8077997 16:1.8053809 17:1.8799426 18:2.327 19:1.6324762 20:2.5581316 
-1.455341759533194 1:3.1213481 2:5.4716492 3:2.487 4:2.8596768 5:4.4745369 6:2.8186839 7:4.4657165 8:2.854 9:2.7389844 10:4.1579704 11:3.2163463 12:8.0135215 13:1.237 14:1.8535169 15:3.599077 16:2.9305393 17:4.7826814 18:2.566 19:2.7205829 20:4.2038639 
-0.9823745754699048 1:4.0160835 2:9.9825683 3:2.38 4:3.6969851 5:6.0791754 6:3.8069128 7:8.3795013 8:2.425 9:3.50646 10:5.4780883 11:4.0996007 12:9.8592337 13:2.502 14:3.8422641 15:6.0098322 16:3.8775897 17:9.3059203 18:2.454 19:3.6195473 20:5.9227701 
-1.8833678682488 1:4.6023253 2:16.602444 3:1.307 4:2.836177 5:5.5503655 6:4.7140874 7:20.054764 8:0.943 9:1.8281862 10:3.8879724 11:5.0353733 12:80.054383 13:0.332 14:0.021180077 15:0.098191532 16:5.1467305 17:42.233616 18:0.564 19:0.48299004 20:1.5313146 
-0.2197744997774282 1:2.9462542 2:5.1312789 3:2.548 4:2.7739316 5:4.390533 6:3.0979333 7:5.7899538 8:2.375 9:2.8428653 10:4.5839149 11:3.2576833 12:6.2679446 13:2.296 14:2.9325363 15:4.686117 16:3.0900222 17:5.6681502 18:2.262 19:2.7644594 20:4.435124 
-1.266127585859835 1:3.8437988 2:10.126215 3:2.1 4:3.3263034 5:6.0996965 6:3.3765845 7:6.9908667 8:2.533 9:3.2018144 10:5.1415212 11:5.2033723 12:26.375922 13:1.021 14:2.3435948 15:5.2629382 16:3.4668826 17:7.6746707 18:2.105 19:3.0490088 20:5.0808919 
-1.001062651664513 1:2.8273099 2:7.6367959 3:0.903 4:1.0134314 5:2.2419184 6:2.9061953 7:5.1546524 8:1.826 9:2.321404 10:3.825675 11:3.9651456 12:9.8064373 13:2.136 14:3.5146988 15:5.7140569 16:2.9687575 17:5.5273708 18:1.803 19:2.4000203 20:3.9013224 
-0.9546603081289388 1:0.044817778 2:0.003270818 3:1 4:0.021863943 5:0.063617696 6:0.045005961 7:0.003404006 8:1.052 9:0.024030794 10:0.071517207 11:0.046799013 12:0.00375506 13:0.931 14:0.020291854 15:0.06011135 16:0.045330287 17:0.00336247 18:0.993 19:0.021674968 20:0.064226432 
-0.7369823941101797 1:0.85412838 2:0.36829875 3:3.211 4:0.83634363 5:1.1934738 6:0.60770842 7:0.21049791 8:2.44 9:0.55960971 10:0.86654363 11:0.71329 12:0.28389997 13:2.599 14:0.67040277 15:1.0212236 16:0.84959215 17:0.35187835 18:2.952 19:0.81182081 20:1.132033 
-0.5121042849438815 1:1.6312846 2:1.6022754 3:2.989 4:1.6604986 5:2.5076074 6:0.84004413 7:0.40811299 8:2.283 9:0.74954559 10:1.188788 11:0.66410987 12:0.40133116 13:1.265 14:0.3987411 15:0.87667486 16:0.90304564 17:0.6035845 18:1.746 19:0.71587271 20:1.3506335 
-0.6406883227200471 1:0.62828931 2:1.579712 3:0.349 4:0.00407764 5:0.023297947 6:0.48963718 7:0.25187515 8:1.086 9:0.24415339 10:0.58675949 11:0.46703064 12:0.1990283 13:1.2 14:0.26220294 15:0.57878964 16:0.50042345 17:0.441778 18:0.584 19:0.054206832 20:0.18817888 
-0.1462905108061511 1:0.98915349 2:0.6379197 3:2.021 4:0.84961289 5:1.4498679 6:1.3136615 7:0.95750159 8:2.803 9:1.2565616 10:1.9255244 11:1.7295704 12:2.0231341 13:1.989 14:1.4895026 15:2.5723015 16:1.1719033 17:0.73968355 18:2.619 19:1.0914181 20:1.6457388 
-0.4436640997795718 1:2.0847429 2:2.2163026 3:2.103 4:1.7535998 5:2.5804246 6:2.0691641 7:2.2357737 8:2.953 9:2.0064163 10:2.9012386 11:1.6125704 12:1.7235065 13:2.122 14:1.4328329 15:2.4403039 16:1.337046 17:0.96612594 18:2.813 19:1.2900981 20:1.8972671 
-1.883630168314818 1:4.2804003 2:39.274733 3:0.592 4:0.50218312 5:2.0265813 6:2.815694 7:11.570436 8:0.659 9:0.4669868 10:1.3710728 11:2.9208496 12:12.820087 13:0.596 14:0.33444601 15:1.0418592 16:3.2141166 17:13.469998 18:0.725 19:0.69164278 20:1.9488296 
-1.540073017448228 1:2.215863 2:2.8568473 3:2.334 4:2.0052214 5:3.1671165 6:2.599309 7:4.1760957 8:2.084 9:2.2354255 10:3.736183 11:3.9992339 12:9.5924171 13:2.263 14:3.6592942 15:5.6772627 16:2.540048 17:4.1745034 18:2.145 19:2.2279764 20:3.8415229 
-0.5174807031234123 1:3.0043926 2:7.4801778 3:1.151 4:1.5774603 5:3.2524372 6:2.9894235 7:5.949871 8:1.903 9:2.4741214 10:4.3333015 11:4.4534584 12:11.959619 13:2.541 14:4.1895075 15:6.751024 16:3.0822097 17:5.3849567 18:2.211 19:2.7346391 20:4.1888836 
-1.743965149484629 1:3.8136414 2:9.3105736 3:2.551 4:3.5845115 5:6.139894 6:3.6212397 7:8.2735788 8:2.229 9:3.3030332 10:5.3295902 11:5.2338632 12:23.259725 13:1.405 14:3.5704617 15:7.1670507 16:3.6938568 17:8.4217626 18:2.351 19:3.4057621 20:5.5142685 
-1.468604230465699 1:2.1846539 2:2.9693988 3:2.015 4:1.8614041 5:3.0804165 6:2.4060556 7:5.2320941 8:1.015 9:1.0581761 10:2.2848624 11:3.6883818 12:14.367392 13:1.168 14:2.0777919 15:4.8598471 16:2.7110617 17:6.7906031 18:1.05 19:1.2535488 20:2.8002692 
-0.003757115167391037 1:2.88662 2:8.9386195 3:1.028 4:1.3270508 5:3.2176661 6:2.9401605 7:14.949234 8:0.579 9:0.30328969 10:1.0714172 11:5.6527952 12:240.40959 13:0.31 14:0.014237527 15:0.14617472 16:2.6964339 17:10.980713 18:0.677 19:0.48139681 20:1.5041828 
-1.879980488243361 1:2.88662 2:8.9386195 3:1.028 4:1.3270508 5:3.2176661 6:2.9401605 7:14.949234 8:0.579 9:0.30328969 10:1.0714172 11:5.6527952 12:240.40959 13:0.31 14:0.014237527 15:0.14617472 16:2.6964339 17:10.980713 18:0.677 19:0.48139681 20:1.5041828 
-0.8374219244548521 1:1.7040457 2:2.1351522 3:1.943 4:1.4515966 5:2.7048028 6:1.7617329 7:2.8689124 8:1.155 9:0.95100348 10:2.0700268 11:3.9571097 12:13.636149 13:1.726 14:3.2606367 15:6.5401265 16:2.8914493 17:6.8847947 18:1.615 19:2.2568846 20:4.3293023 
-1.15842303039767 1:1.756962 2:1.6832421 3:2.376 4:1.5868448 5:2.4036236 6:2.1649799 7:3.2631448 8:2.046 9:1.8753735 10:3.3825278 11:4.4514895 12:14.444421 13:2.839 14:4.4978688 15:8.0693374 16:1.9919539 17:2.4016207 18:2.645 19:1.9091428 20:3.0496183 
-1.148588336228329 1:2.5780132 2:4.6783336 3:1.83 4:2.1283754 5:3.761547 6:2.8650968 7:5.8536522 8:1.422 9:1.8987164 10:3.5244066 11:4.7476155 12:22.766384 13:1.181 14:2.6854612 15:6.1565745 16:2.8174554 17:6.3049484 18:1.451 19:1.9349797 20:3.8381332 
-1.309971005333993 1:3.2830096 2:6.7362512 3:2.366 4:3.0310945 5:4.9743865 6:3.937465 7:9.0901602 8:2.391 9:3.6007737 10:5.7197616 11:6.0976478 12:21.354641 13:2.668 14:5.7562836 15:9.0705323 16:3.3087811 17:6.8376356 18:2.173 19:2.9265763 20:4.8605677 
-1.883010921514463 1:3.1488516 2:6.2845859 3:2.591 4:3.0237489 5:4.9501617 6:4.4698524 7:12.04539 8:2.343 9:4.0837628 10:6.5532127 11:9.5570664 12:61.784478 13:2.096 14:8.3570468 15:14.838819 16:4.3637933 17:9.2572668 18:2.68 19:4.0434973 20:5.6763506 
-0.6472360754828213 1:1.7455183 2:1.9470677 3:2.137 4:1.5180443 5:2.624124 6:2.0107552 7:2.144797 8:2.586 9:1.8725761 10:2.7605401 11:2.8868776 12:4.1508313 13:3.229 14:2.8666482 15:3.9375975 16:1.8081926 17:1.8790759 18:2.561 19:1.7113316 20:2.6191142 
-1.887766497298518 1:2.9763074 2:7.6708358 3:1.238 4:1.7414228 5:3.6463906 6:3.5587432 7:10.797714 8:1.201 9:1.9709007 10:4.2080691 11:5.9542804 12:44.497366 13:0.812 14:1.7164195 15:4.7211667 16:3.8571414 17:14.744533 18:1.045 19:1.7828697 20:4.188429 
-1.328999287759029 1:2.0098558 2:2.2885064 3:2.591 4:1.8987309 5:2.9032443 6:2.5187372 7:3.9109189 8:2.514 9:2.363048 10:3.8763833 11:5.0983362 12:20.913354 13:1.973 14:4.4249392 15:8.8028786 16:2.4709832 17:3.4459303 18:2.457 19:2.2646234 20:3.5236168 
-1.600730751084505 1:3.8247105 2:7.7400219 3:2.363 4:3.4299624 5:5.097158 6:5.8658487 7:10.010842 8:2.132 9:4.323844 10:4.9089211 11:7.0002436 12:16.312152 13:2.871 14:5.9391539 15:7.1552581 16:2.8447761 17:4.5727662 18:2.605 19:2.6866769 20:4.1078864 
-1.99067211570005 1:3.6147819 2:11.940481 3:1.181 4:1.9882312 5:4.4006415 6:2.768755 7:5.2183854 8:1.965 9:2.3401324 10:4.1712549 11:2.6447025 12:4.0973389 13:2.776 14:2.561106 15:4.0028393 16:2.6693026 17:4.5765874 18:1.841 19:2.1595983 20:3.6772101 
-1.707805448783026 1:3.8086774 2:8.7155641 3:2.509 4:3.5958446 5:5.6780952 6:4.1404747 7:10.38659 8:2.454 9:3.8689748 10:6.192995 11:4.9944993 12:15.174821 13:2.217 14:4.4579735 15:7.2253439 16:4.2343296 17:10.561701 18:2.248 19:3.7486354 20:6.0656611 
-0.6390669656731268 1:3.9936219 2:9.7473795 3:2.65 4:3.8302799 5:6.1811613 6:3.4567624 7:6.5713943 8:2.629 9:3.22702 10:4.9516816 11:3.9531997 12:9.702488 13:2.718 14:3.8867732 15:6.1524766 16:3.5933549 17:7.9522572 18:2.583 19:3.4517187 20:5.4977261 
-0.2956691023311057 1:3.6963447 2:8.3687321 3:2.304 4:3.3540461 5:5.471059 6:3.6064358 7:7.7258024 8:2.315 9:3.2783018 10:5.2001196 11:3.7512654 12:8.7577388 13:2.347 14:3.4510611 15:5.6471482 16:3.709382 17:8.1660466 18:2.328 19:3.3567262 20:5.3928978 
-1.482722160151637 1:4.1796332 2:8.7983438 3:2.612 4:3.9400107 5:5.4337173 6:2.6771721 7:3.9962078 8:2.716 9:2.5536498 10:3.8846987 11:2.887192 12:5.4656519 13:2.003 14:2.4345385 15:4.2846094 16:3.3253903 17:6.0364322 18:2.946 19:3.2730509 20:4.7897953 
-0.1587709247007169 1:2.6877995 2:4.4176101 3:2.211 4:2.3859212 5:3.9190351 6:2.7473615 7:4.8948787 8:1.853 9:2.246683 10:3.8095455 11:2.8060666 12:5.2702035 13:1.666 14:2.1298374 15:3.7316888 16:2.7378213 17:4.7384167 18:2.028 19:2.3402583 20:3.9303217 
-1.855870589991899 1:1.4377551 2:1.8374844 3:1.061 4:0.68183566 5:1.4415219 6:1.3826905 7:3.1417336 8:0.487 9:0.067358357 10:0.21253426 11:1.7478269 12:12.989596 13:0.278 14:0.00138922 15:0.007552723 16:1.4233954 17:2.732865 18:0.596 19:0.16303889 20:0.45874707 
-0.5151005125920256 1:1.6785105 2:1.7568386 3:2.068 4:1.4455476 5:2.4114063 6:1.7777422 7:2.178408 8:1.585 9:1.3102496 10:2.3142641 11:2.306328 12:4.7822628 13:0.911 14:0.82349563 15:1.7969767 16:1.7641704 17:1.9649925 18:1.707 19:1.3437133 20:2.2952813 
-1.880054360488562 1:1.8405708 2:2.2286612 3:2.019 4:1.5903968 5:2.6998356 6:2.0767414 7:2.9588681 8:1.526 9:1.4585914 10:2.6486068 11:3.3790811 12:19.519162 13:0.682 14:0.63295009 15:2.1110614 16:1.9958481 17:4.1581049 18:0.926 19:0.75439033 20:1.7999019 
-1.039565298903861 1:2.2614347 2:3.8569971 3:1.422 4:1.5019896 5:2.9189433 6:2.0177597 7:3.1598053 8:1.542 9:1.447761 10:2.8733748 11:2.3775929 12:4.7626656 13:1.177 14:1.3013633 15:2.6663314 16:2.229764 17:4.1733444 18:1.176 19:1.2079919 20:2.5116813 
-0.4026122034025867 1:2.2899604 2:3.3226113 3:1.936 4:1.9013503 5:3.2241887 6:3.1124482 7:5.426489 8:2.9 9:3.0341973 10:4.5961998 11:4.7251412 12:13.538063 13:2.259 14:4.2375777 15:6.8960124 16:2.8016996 17:4.6217724 18:2.167 19:2.4423941 20:3.9460296 
-1.42156275910169 1:2.0789386 2:2.6738742 3:2.123 4:1.8101613 5:3.0101016 6:3.4772321 7:7.1505146 8:2.397 9:3.1943227 10:5.0779907 11:5.8812677 12:25.50159 13:1.713 14:4.5952169 15:8.6683077 16:3.2062657 17:5.9493733 18:2.41 19:2.9480076 20:4.6057759 
