svm_type nu_svr
kernel_type linear
nr_class 2
total_sv 354
rho 1.67154
SV
0.6308541474937075 1:0.20187824 2:1.5222181 3:1.3701782 4:13.182202 5:8.5249629 6:9.0758875 7:9.1916588 8:9.2541974 9:9.3298471 10:9.4735921 11:9.7105366 12:9.9784418 13:10.234231 14:10.439531 15:10.587058 16:3.475535 19:0.1138705 20:0.21556128 21:0.23066003 22:0.25152574 23:0.25174578 24:0.26543263 25:0.33155589 26:2.4352648 27:2.3099958 28:2.1632966 29:2.1405652 30:2.0413516 31:1.7280046 32:6.52152 33:2.1879343 34:1.1425635 35:0.69684533 36:0.38192282 37:0.15322568 38:1.7453479 39:0.63597453 40:0.41466004 41:0.3097241 42:0.22990147 43:0.16931568 44:8.8522174 45:8.9679856 46:9.0305226 47:9.1061705 48:9.2499126 49:9.486853 50:9.7547546 51:10.010541 52:10.21584 53:12.958504 54:1.5072809 55:0.35574111 56:5.5981898 57:1.244653 58:0.89594597 59:0.86532749 60:0.17050957 61:0.18548322 62:0.19803085 63:0.23111172 64:0.34217026 65:0.94360663 66:0.20538683 67:0.22074067 68:0.29490592 69:0.87073421 70:0.21026093 71:0.24059046 72:0.3499524 73:0.93233769 74:0.20945022 75:0.2366519 76:0.34642257 77:0.93631373 78:0.19474408 79:0.21188036 80:0.23348984 81:0.74877439 82:0.20701417 83:0.23822919 84:0.26696903 85:0.75965844 86:0.21188036 87:0.23744086 88:0.26849925 89:0.76512081 90:0.21672298 91:0.23586232 92:0.26849925 93:0.76913321 94:0.19227189 95:0.21107097 96:0.32497786 97:0.96851993 98:0.19803085 99:0.22154227 100:0.33289442 101:0.952716 102:0.21268909 103:0.21672298 104:0.32570014 105:0.95200878 106:0.20782685 107:0.21752781 108:0.3400373 109:0.98082938 110:0.28216689 111:0.21913553 112:0.28668157 113:0.85658404 114:0.28818195 115:0.22394323 116:0.28743204 117:0.84444795 118:0.28743204 119:0.21993842 120:0.27990189 121:0.83854884 122:0.29936358 123:0.22793207 124:0.2904283 125:0.84001685 126:0.0015418108 127:0.0015488 128:0.015392919 129:2.3983857 130:0.0016226827 131:0.00051586692 132:0.0030633033 133:1.9378676 134:0.0038914186 135:0.0024948852 136:0.017446914 137:2.0850027 138:0.0035965247 139:0.0020628708 140:0.016459791 141:2.2015096 142:0.00073672855 143:0.0003349439 144:0.00033394423 145:0.69247145 146:0.0034879102 147:0.0024769299 148:0.0024430134 149:0.68630281 150:0.0050263467 151:0.0024200693 152:0.002522815 153:0.71414321 154:0.0063617213 155:0.0021856098 156:0.0025357822 157:0.77026932 158:0.00075671362 159:0.00015398814 160:0.0032716423 161:3.1016561 162:0.0012302429 163:0.00028196025 164:0.0039003836 165:2.6971013 166:0.0026873857 167:0.00018098362 168:0.0024420159 169:2.6731158 170:0.0022803979 171:0.00024796925 172:0.0044689991 173:2.9469002 174:0.0026085947 175:0.00017598451 176:0.0026474923 177:2.7783583 178:0.0030852358 179:0.00023297286 180:0.0028688808 181:2.5920183 182:0.003232769 183:0.0001859827 184:0.0022993545 185:2.5918096 186:0.0043933352 187:0.00029395679 188:0.0031420586 189:2.4600525 190:2.0036242 191:0.6164713 192:0.22320755 193:0.25726668 194:1.6196237 195:0.40253816 196:0.13926965 197:0.26352667 198:2.0817813 199:0.62323853 200:0.21937486 201:0.24966473 202:2.0591444 203:0.62172422 204:0.2205137 205:0.25166881 206:1.6013451 207:0.43631434 208:0.15086357 209:0.26059115 210:2.1660456 211:0.67345353 212:0.25383802 213:0.26289566 214:2.2137199 215:0.67963987 216:0.24924473 217:0.25530944 218:2.1615025 219:0.66699569 220:0.25014219 221:0.26211654 222:1.7797009 223:0.23519464 224:0.072684316 225:0.25023485 226:1.817455 227:0.23110061 228:0.073180757 229:0.25621772 230:1.6457924 231:0.1990828 232:0.053878151 233:0.22417742 234:1.763853 235:0.25321329 236:0.072564353 237:0.23204938 238:0.17014101 239:0.17004906 240:0.15161576 241:0.63297458 242:0.16774162 243:0.17106595 244:0.16018842 245:0.6581395 246:0.17876524 247:0.17222745 248:0.16183735 249:0.65993574 250:0.17342123 251:0.17438767 252:0.16051041 253:0.64913416 254:3.1858225 255:1.2570811 256:0.41435811 257:0.1857515 258:2.6925476 259:0.93348722 260:0.2968794 261:0.20209232 262:3.1911568 263:1.2373436 264:0.40198974 265:0.18419563 266:3.1695135 267:1.2465859 268:0.40669768 269:0.18439108 270:2.7374051 271:1.0251433 272:0.38909247 273:0.23593578 274:3.3110757 275:1.3195494 276:0.55046087 277:0.23723027 278:3.3304645 279:1.3326166 280:0.53870204 281:0.22773221 282:3.2460724 283:1.318651 284:0.54081035 285:0.23268192 286:2.9596661 287:0.62679849 288:0.14929635 289:0.16951996 290:2.9650286 291:0.59011395 292:0.1476171 293:0.18048571 294:2.6802712 295:0.53066119 296:0.11154853 297:0.15578078 298:2.8451632 299:0.64701685 300:0.14435399 301:0.15758648 302:0.36937288 303:0.45803479 304:0.32864454 305:0.51265715 306:0.35877035 307:0.45208594 308:0.34456937 309:0.54216091 310:0.38095586 311:0.46104298 312:0.35492451 313:0.54663302 314:0.35979318 315:0.45215147 316:0.3425317 317:0.53915824 
1.735147540000172 1:0.37637472 2:1.2244819 3:2.4622254 4:13.494782 5:8.6765872 6:9.3377994 7:9.4071093 8:9.3938491 9:9.3555641 10:9.3441488 11:9.4439791 12:9.7211412 13:10.062897 14:10.326116 15:10.586275 16:5.4041628 19:0.23643325 20:0.23603135 21:0.2978695 22:0.38891829 23:0.45356106 24:0.600557 25:0.94709303 26:2.2889669 27:2.0374169 28:1.7040049 29:1.5104864 30:1.2353438 31:0.99613059 32:7.064399 33:1.610658 34:0.68229198 35:0.41547682 36:0.18549236 37:0.10044335 38:2.0128525 39:0.53954194 40:0.37020125 41:0.30931758 42:0.25443057 43:0.22156551 44:8.8808578 45:8.9501642 46:8.9369047 47:8.8986215 48:8.8872068 49:8.9870323 50:9.2641833 51:9.6059293 52:9.8691421 53:13.03779 54:1.757869 55:0.31017739 56:6.4964737 57:0.82837451 58:1.1689219 59:0.94857591 60:0.14636358 61:0.19491608 62:0.25464222 63:0.21026093 64:0.2707902 65:0.84546475 66:0.24764102 67:0.20130686 68:0.24373018 69:0.80543425 70:0.26696903 71:0.22074067 72:0.27687387 73:0.82920575 74:0.26543646 75:0.21672298 76:0.27459683 77:0.83542118 78:0.2342813 79:0.2592826 80:0.33932531 81:0.86072094 82:0.25231393 83:0.28893129 84:0.51760261 85:1.1065411 86:0.25231393 87:0.29565024 88:0.5235444 89:1.0986123 90:0.26390154 91:0.2978799 92:0.5359084 93:1.1129188 94:0.24294618 95:0.28668157 96:0.82417544 97:1.580096 98:0.25153663 99:0.29117596 100:0.829861 101:1.5739028 102:0.2585107 103:0.29117596 104:0.80424123 105:1.537694 106:0.2646693 107:0.29490592 108:0.89771935 109:1.6561434 110:0.33647224 111:0.30306317 112:0.347836 113:0.77709349 114:0.31990722 115:0.30895421 116:0.35487332 117:0.77785407 118:0.34145978 119:0.333611 120:0.36046774 121:0.74001168 122:0.3357577 123:0.31626953 124:0.37087366 125:0.79162914 126:0.054304456 127:0.00060381767 128:0.0029087654 129:1.762315 130:0.025953281 131:0.00018898214 132:0.00056883818 133:1.3878224 134:0.092632051 135:0.0011603266 136:0.0035955283 137:1.4115897 138:0.084369641 139:0.00090658892 140:0.0033264612 141:1.5415626 142:0.01475954 143:0.0044142429 144:0.01129596 145:1.2719601 146:0.070374583 147:0.021991407 148:0.19124 149:2.3492892 150:0.072045275 151:0.026612719 152:0.19646523 153:2.2027126 154:0.10659625 155:0.027782468 156:0.20969918 157:2.2280357 158:0.023451843 159:0.0035217912 160:0.16751244 161:3.9645218 162:0.037292895 163:0.0040477966 164:0.16802484 165:3.8309956 166:0.040763753 167:0.0032586847 168:0.098046433 169:3.4831814 170:0.056670461 171:0.0046850082 172:0.18262818 173:3.7767122 174:0.011170378 175:0.0044660125 176:0.012785911 177:1.3545746 178:0.0075027836 179:0.0052054282 180:0.014908317 181:1.3552548 182:0.013192594 183:0.0091490198 184:0.017100942 185:1.0566327 186:0.011334521 187:0.0063408542 188:0.019882036 189:1.424714 190:2.4351689 191:0.7390699 192:0.26322159 193:0.2431391 194:2.0350462 195:0.48626753 196:0.15800923 197:0.24164573 198:2.5190963 199:0.74827721 200:0.26446974 201:0.24052521 202:2.4827613 203:0.74313092 204:0.26425555 205:0.24242761 206:2.0751219 207:0.52901519 208:0.17701835 209:0.2450882 210:2.7692999 211:0.82559286 212:0.3733523 213:0.3021026 214:2.7968723 215:0.82674101 216:0.37054442 217:0.29922421 218:2.7549457 219:0.8162255 220:0.36972463 221:0.30341836 222:2.1276405 223:0.19738257 224:0.12820498 225:0.48664747 226:2.2141513 227:0.19865084 228:0.12751684 229:0.48173888 230:2.0485107 231:0.1627768 232:0.076962893 233:0.37333096 234:2.1407405 235:0.20587287 236:0.1267604 237:0.46448405 238:0.18462307 239:0.16095065 240:0.17100443 241:0.72656648 242:0.17736094 243:0.16118304 244:0.17522141 245:0.7395378 246:0.1964603 247:0.16194622 248:0.18196399 249:0.75857671 250:0.18969018 251:0.16428741 252:0.17902279 253:0.74097545 254:3.3735027 255:1.5272573 256:0.5616001 257:0.18977537 258:2.9557346 259:1.1582585 260:0.38938518 261:0.19716419 262:3.4074333 263:1.4974578 264:0.55563416 265:0.19401542 266:3.370753 267:1.5049057 268:0.55785138 269:0.19324254 270:3.0572177 271:1.036301 272:0.33648509 273:0.19880086 274:3.7339357 275:1.394271 276:0.54439598 277:0.21401481 278:3.7558467 279:1.3791839 280:0.53837522 281:0.21511783 282:3.6700029 283:1.3605008 284:0.53251823 285:0.21724056 286:3.0745424 287:0.41724545 288:0.16829785 289:0.303058 290:3.1339941 291:0.41476638 292:0.16708862 293:0.30291545 294:2.9271931 295:0.34617006 296:0.10249882 297:0.23185668 298:3.0047856 299:0.42462701 300:0.16297223 301:0.28862263 302:0.3517014 303:0.33264062 304:0.32051488 305:0.67162115 306:0.35060335 307:0.32882162 308:0.32396434 309:0.6844646 310:0.3690224 311:0.31335567 312:0.33244772 313:0.72834684 314:0.36093625 315:0.32905839 316:0.32184144 317:0.68024176 
1.2713043137857 1:0.13100809 2:1.7202386 3:2.2919179 4:12.858954 5:8.0820933 6:8.5183597 7:8.7795733 8:8.9380761 9:9.1332424 10:9.3881794 11:9.6563527 12:9.9071387 13:10.130943 14:10.321424 15:10.594214 16:4.0830406 18:4.4011269 19:0.044132668 20:0.17475047 21:0.18027112 22:0.19533814 23:0.20160935 24:0.20497958 25:0.23155607 26:2.9602074 27:2.9095753 28:2.7526215 29:2.6714917 30:2.5547943 31:2.289577 32:6.0878387 33:2.3555864 34:1.2293648 35:0.69820586 36:0.31167517 37:0.11548796 38:1.4111323 39:0.51961905 40:0.32150942 41:0.23423304 42:0.1574592 43:0.107042 44:8.3784131 45:8.6396198 46:8.7981193 47:8.993282 48:9.2482154 49:9.5163857 50:9.7671696 51:9.9909722 52:10.181452 53:12.718978 54:1.2509602 55:0.28954908 56:5.0879621 57:1.3790391 58:0.89685345 59:0.8972498 60:0.14521574 61:0.15818169 62:0.17311262 63:0.19309663 64:0.1996702 65:0.71175252 66:0.1806535 67:0.18232156 68:0.17981843 69:0.68561891 70:0.18564935 71:0.19721017 72:0.20294084 73:0.70907466 74:0.18232156 75:0.19638881 76:0.20375684 77:0.71367259 78:0.16551444 79:0.15529288 80:0.17647114 81:0.7649142 82:0.17479329 83:0.16551444 84:0.1889661 85:0.76804869 86:0.17981843 87:0.16551444 88:0.19227189 89:0.77830509 90:0.18232156 91:0.16551444 92:0.18813794 93:0.76546784 94:0.17227122 95:0.16636154 96:0.21349717 97:0.83937383 98:0.17730901 99:0.16974277 100:0.21591751 101:0.83408365 102:0.18647957 103:0.16720792 104:0.21752781 105:0.84808255 106:0.18398684 107:0.16889854 108:0.21993842 109:0.84884966 110:0.25464222 111:0.19309663 112:0.21349717 113:0.75017522 114:0.24216156 115:0.19638881 116:0.21591751 117:0.74697179 118:0.23980399 119:0.19885086 120:0.21752781 121:0.74409929 122:0.25231393 123:0.19721017 124:0.21349717 125:0.73799769 126:0.00010999395 127:7.3997262e-005 128:5.2998596e-005 129:0.54001989 130:0.0001509886 131:1.7999838e-005 132:5.999982e-006 133:0.28378173 134:0.00039492201 135:0.00010499449 136:6.5997822e-005 137:0.49054679 138:0.00027796137 139:9.6995296e-005 140:6.999755e-005 141:0.54153212 142:3.099952e-005 143:9.999995e-007 144:4.9999875e-006 145:1.6873755 146:0.00015398814 147:6.9999755e-006 148:2.6999636e-005 149:1.5764582 150:0.00026096595 151:6.9999755e-006 152:3.4999388e-005 153:1.7626128 154:0.0003149504 155:6.9999755e-006 156:2.4999688e-005 157:1.5279684 158:8.4996388e-005 159:2.9999955e-006 160:3.2999456e-005 161:2.4759003 162:0.00014998875 163:3.999992e-006 164:3.899924e-005 165:2.2811065 166:0.00028295996 167:2.9999955e-006 168:3.1999488e-005 169:2.5749507 170:0.00026196568 171:3.999992e-006 172:4.89988e-005 173:2.4959147 174:0.00061980788 175:1.6999856e-005 176:7.899688e-005 177:1.7263902 178:0.0003679323 179:2.1999758e-005 180:9.6995296e-005 181:1.6859177 182:0.00035793593 183:2.5999662e-005 184:0.00010599438 185:1.6365931 186:0.00058882661 187:2.4999688e-005 188:8.5996302e-005 189:1.4936607 190:1.5911024 191:0.37035248 192:0.17898934 193:0.36275244 194:1.2932455 195:0.23921609 196:0.1055386 197:0.34491507 198:1.6858142 199:0.38238957 200:0.17844405 201:0.35024341 202:1.6452584 203:0.37833643 204:0.17747734 205:0.35228231 206:1.2572059 207:0.29042157 208:0.12753709 209:0.3390767 210:1.7336841 211:0.45868102 212:0.20834337 213:0.3350498 214:1.7779741 215:0.4621825 216:0.20356432 217:0.32516281 218:1.7374557 219:0.45374149 220:0.20672795 221:0.33643724 222:1.4776919 223:0.20483049 224:0.047728649 225:0.19479099 226:1.528348 227:0.2088369 228:0.048933011 229:0.1955158 230:1.3792239 231:0.16442486 232:0.036178591 233:0.18742932 234:1.4868824 235:0.22362104 236:0.048492024 237:0.18088135 238:0.11063041 239:0.099973834 240:0.11112 241:0.75038679 242:0.11219769 243:0.099867054 244:0.11704765 245:0.78038945 246:0.12101425 247:0.096671979 248:0.11638384 249:0.79571821 250:0.11536768 251:0.10491932 252:0.11937821 253:0.76371142 254:2.9004373 255:0.97637949 256:0.5253792 257:0.34898435 258:2.4601589 259:0.73175857 260:0.37419664 261:0.35114971 262:2.9075024 263:0.98211218 264:0.51505108 265:0.33890214 266:2.877664 267:0.97797757 268:0.51168525 269:0.33839539 270:2.53484 271:1.003947 272:0.45031801 273:0.28440947 274:3.0464617 275:1.3047911 276:0.63041716 277:0.2828567 278:3.0544493 279:1.3131412 280:0.60749615 281:0.26814369 282:2.9896651 283:1.2936735 284:0.62977172 285:0.28630087 286:2.7514055 287:0.71338599 288:0.14700866 289:0.14162369 290:2.7746207 291:0.70672804 292:0.14855793 293:0.14487667 294:2.5232845 295:0.59404261 296:0.11037433 297:0.13439015 298:2.6701282 299:0.75278449 300:0.14431764 301:0.12949902 302:0.27117228 303:0.32721524 304:0.3220806 305:0.68392983 306:0.28725798 307:0.32110113 308:0.33410444 309:0.71669426 310:0.31094049 311:0.30770747 312:0.32930734 313:0.7335374 314:0.28407608 315:0.33429916 316:0.3437677 317:0.70974763 
1.078105763757415 1:0.3075744 2:1.4412846 3:2.0770019 4:12.599182 5:7.776535 6:7.6862464 7:7.8596816 8:7.9306678 9:7.9882096 10:8.1069378 11:8.3190252 12:8.5976062 13:8.89662 14:9.1371604 15:10.593096 16:4.7536889 19:0.33322554 20:0.51740295 21:0.84649211 22:0.96751526 23:0.9977343 24:0.99974803 25:0.95548491 26:1.6150402 27:1.026219 28:0.97901273 29:0.96930548 30:0.96982922 31:0.98596977 32:6.1917948 33:1.5446698 34:0.95997187 35:0.52079655 36:0.32531451 37:0.23135693 38:1.7049001 39:0.87455248 40:0.66492567 41:0.49586751 42:0.39447359 43:0.33076886 44:7.326323 45:7.4997265 46:7.5707013 47:7.6282343 48:7.7469461 49:7.9590085 50:8.2375638 51:8.536557 52:8.7770847 53:12.239061 54:1.3249861 55:0.48413395 56:5.5382995 57:0.81658619 58:0.91728544 59:0.48693633 60:0.22710768 61:0.47914113 62:0.19638881 63:0.539996 64:0.82680357 65:1.0282217 66:0.20048886 67:0.51222464 68:0.78070008 69:1.0182374 70:0.20457217 71:0.55961579 72:0.80155305 73:0.97027387 74:0.20130686 75:0.5590442 76:0.82636602 77:0.99902066 78:0.18647957 79:0.36325326 80:0.72124861 81:1.2276626 82:0.19474408 83:0.46373402 84:0.8535639 85:1.1892893 86:0.19803085 87:0.45932178 88:0.85611601 89:1.2007085 90:0.20375684 91:0.46561903 92:0.8704562 93:1.2061627 94:0.18647957 95:0.89035735 96:0.97380464 97:0.76436584 98:0.19144646 99:0.89240779 100:0.96393739 101:0.75405741 102:0.20294084 103:0.8662598 104:0.91027266 105:0.73123697 106:0.20620083 107:0.92346494 108:0.97945331 109:0.73980173 110:1.0228106 111:0.99288133 112:0.98507025 113:0.68694801 114:1.0423946 115:0.99510191 116:1.0061314 117:0.70190621 118:1.0231701 119:0.9913982 120:1.0083228 121:0.70662544 122:1.0155929 123:0.98507025 124:1.0260416 125:0.72597539 126:0.0010963987 127:0.40347914 128:0.44686102 129:0.75778304 130:0.00096853082 131:0.21512509 132:0.27071316 133:0.83087357 134:0.0021027876 135:0.44132441 136:0.42430256 137:0.66921303 138:0.001653632 139:0.43824848 140:0.43931437 141:0.69464955 142:0.00035593665 143:0.054775076 144:0.26310476 145:1.8477295 146:0.0013980223 147:0.33080909 148:0.60594906 149:1.139264 150:0.0018712481 151:0.31762866 152:0.60359221 153:1.1682957 154:0.0026664419 155:0.33186306 156:0.6115607 157:1.1450992 158:0.00046789052 159:0.51412757 160:0.23075848 161:0.32652291 162:0.00074272411 163:0.51288949 164:0.22786359 165:0.32345792 166:0.001333111 167:0.40958196 168:0.16114644 169:0.29671961 170:0.0019999987 171:0.55292028 172:0.23914209 173:0.31182087 174:0.41716572 175:0.44941883 176:0.38455739 177:0.60240868 178:0.42619998 179:0.43865292 180:0.40873775 181:0.65076251 182:0.4432245 183:0.43535848 184:0.41628239 185:0.66601645 186:0.42171437 187:0.43772124 188:0.4115479 189:0.65602925 190:1.8217428 191:0.65943061 192:0.35120883 193:0.37202345 194:1.482925 195:0.42945764 196:0.22507449 197:0.38563852 198:1.8784627 199:0.65977342 200:0.34532366 201:0.36563221 202:1.8666463 203:0.65696907 204:0.34527906 205:0.36736926 206:1.5581644 207:0.48388989 208:0.24618876 209:0.37053544 210:2.1402094 211:0.82135348 212:0.46796969 213:0.38428369 214:2.1793921 215:0.81695779 216:0.46455569 217:0.38386959 218:2.1330866 219:0.81438247 220:0.4635428 221:0.38447161 222:1.7793037 223:0.37680291 224:0.14936094 225:0.30160273 226:1.8223254 227:0.37502102 228:0.14871479 229:0.30186748 230:1.5975951 231:0.30456426 232:0.1098557 233:0.28227247 234:1.7470368 235:0.39396456 236:0.15424782 237:0.2966988 238:0.2683731 239:0.29716621 240:0.25308442 241:0.60554636 242:0.27106248 243:0.28902941 244:0.2657263 245:0.6461803 246:0.28633917 247:0.28751156 248:0.27054532 249:0.65890402 250:0.27292446 251:0.29060928 252:0.26393764 253:0.63955598 254:2.9850016 255:0.90028614 256:0.44683799 257:0.3262646 258:2.5583526 259:0.6206824 260:0.2952975 261:0.33601285 262:2.9950464 263:0.8913224 264:0.44280264 265:0.32735509 266:3.0005376 267:0.88803363 268:0.43958695 269:0.32639737 270:2.7391217 271:0.79836674 272:0.32891806 273:0.27667219 274:3.3559765 275:1.1475612 276:0.58326144 277:0.31351574 278:3.3746621 279:1.1454132 280:0.57887541 281:0.31168982 282:3.2842753 283:1.1373213 284:0.57572477 285:0.31295208 286:2.9943104 287:0.47039605 288:0.18810149 289:0.29607054 290:3.0101558 291:0.46802918 292:0.18769791 293:0.2970882 294:2.6795666 295:0.38566776 296:0.1411297 297:0.27921382 298:2.8321788 299:0.48738482 300:0.1939141 301:0.29320902 302:0.33026731 303:0.36649487 304:0.31412656 305:0.60634833 306:0.33235592 307:0.35663264 308:0.32807133 309:0.64507658 310:0.35169155 311:0.35506755 312:0.33371487 313:0.6571645 314:0.33611717 315:0.35920684 316:0.32476179 317:0.6354116 
-2 1:0.29173858 2:0.79054246 3:3.5047643 4:14.72219 5:10.389211 6:11.015365 7:11.125134 8:11.226058 9:11.335722 10:11.468276 11:11.643 12:11.848584 13:12.056248 14:12.245309 15:10.498984 16:5.346716 19:0.52225209 20:0.39128437 21:0.55922428 22:0.66468803 23:0.72929153 24:0.77117524 25:0.77767535 26:1.5407841 27:1.2366844 28:1.1244415 29:1.0790006 30:1.0550132 31:1.0510185 32:7.9318266 33:3.9015858 34:2.9494326 35:2.4812669 36:2.1169185 37:1.5409933 38:2.7571039 39:1.6421306 40:1.3649142 41:1.2132407 42:1.0873983 43:0.86824857 44:10.676618 45:10.786387 46:10.88731 47:10.996974 48:11.129527 49:11.304251 50:11.509834 51:11.717497 52:11.906558 53:14.383437 54:1.7460717 55:0.78728076 56:5.3380971 57:1.7124267 58:0.80385234 59:0.54729158 60:0.20789752 61:0.37248038 62:0.32280787 63:0.33718627 64:0.48180867 65:0.93359652 66:0.32425505 67:0.32714314 68:0.46373402 69:0.92606204 70:0.333611 71:0.33647224 72:0.48427629 73:0.93903022 74:0.3435897 75:0.33718627 76:0.48796633 77:0.94335283 78:0.29936358 79:0.36464311 80:0.58778666 81:1.036092 82:0.3074847 83:0.38730114 84:0.64500681 85:1.0700184 86:0.3074847 87:0.39136618 88:0.64132743 89:1.056688 90:0.31845373 91:0.390013 92:0.65544531 93:1.0788517 94:0.31772619 95:0.64919529 96:0.77794778 97:0.82756705 98:0.33074156 99:0.64657954 100:0.78982007 101:0.8430454 102:0.33432708 103:0.62967476 104:0.78709279 105:0.86072728 106:0.3457151 107:0.63073972 108:0.8294248 109:0.90415823 110:0.71049582 111:0.73044297 112:0.72609828 113:0.68895641 114:0.70408712 115:0.74241342 116:0.72609828 117:0.67758623 118:0.69664107 119:0.73380916 120:0.74479041 121:0.7037097 122:0.73140589 123:0.73572763 124:0.75846665 125:0.71498597 126:0.59261665 127:0.26589265 128:0.55040377 129:1.2265967 130:0.40628211 131:0.11380268 132:0.30015422 133:1.3620952 134:0.72592942 135:0.25811139 136:0.55329011 137:1.2554337 138:0.84291929 139:0.26636471 140:0.56034524 141:1.241702 142:0.25503284 143:0.143391 144:0.41978739 145:1.4777957 146:0.61859711 147:0.30644004 148:0.75055015 149:1.4154446 150:0.61767874 151:0.314315 152:0.7335302 153:1.3688521 154:0.74625326 155:0.31432011 156:0.75695028 157:1.4022647 158:0.38390774 159:0.71752365 160:0.54249288 161:0.52260438 162:0.53272957 163:0.71526331 164:0.55382936 165:0.53545599 166:0.49122743 167:0.580264 168:0.43837557 169:0.53035115 170:0.64409768 171:0.70542796 172:0.57399421 173:0.56340574 174:0.83299825 175:0.82133809 176:0.70427108 177:0.58932992 178:0.81896144 179:0.82052273 180:0.72012352 181:0.60396618 182:0.84730157 183:0.8089674 184:0.75164389 185:0.64162281 186:0.87117788 187:0.82266377 188:0.76322673 189:0.64032166 190:3.0126555 191:1.8590882 192:1.1150022 193:0.3208494 194:2.5428603 195:1.2929299 196:0.75940298 197:0.35775836 198:3.0609973 199:1.8433323 200:1.1066297 201:0.3225573 202:3.0781346 203:1.861033 204:1.098609 205:0.3135669 206:2.6029647 207:0.98003819 208:0.56819828 209:0.37818435 210:3.4187994 211:1.3182179 212:0.8340285 213:0.38930592 214:3.418995 215:1.2989776 216:0.82308318 217:0.39154737 218:3.4136656 219:1.3123302 220:0.82054694 221:0.38420334 222:2.6178337 223:0.79048712 224:0.4625144 225:0.39758951 226:2.7283272 227:0.79303233 228:0.46387614 229:0.3972676 230:2.562249 231:0.67736428 232:0.36546222 233:0.37531101 234:2.6829198 235:0.81412555 236:0.45537021 237:0.37758882 238:0.806383 239:0.76751458 240:0.66094367 241:0.59406911 242:0.8021101 243:0.7517118 244:0.67615564 245:0.62180638 246:0.84162839 247:0.75143779 248:0.68410795 249:0.62954262 250:0.81395453 251:0.76204711 252:0.67984003 253:0.61627424 254:3.759244 255:2.5051882 256:1.47925 257:0.2634506 258:3.2607421 259:1.8898896 260:1.0713182 261:0.29384951 262:3.7783488 263:2.4888943 264:1.4674277 265:0.26401137 266:3.7722247 267:2.5070961 268:1.4550911 269:0.25579659 270:3.387139 271:1.4494846 272:0.76653843 273:0.3025963 274:4.2150369 275:1.8164882 276:1.0615554 277:0.31272243 278:4.2129599 279:1.7882361 280:1.0502438 281:0.31717655 282:4.1784662 283:1.8057416 284:1.0419989 285:0.30813008 286:3.3533759 287:1.0094958 288:0.58840425 289:0.37795413 290:3.4376321 291:1.0133931 292:0.5880283 293:0.37576575 294:3.2575281 295:0.88341707 296:0.46933466 297:0.35208824 298:3.3586861 299:1.0439181 300:0.57172616 301:0.35003908 302:1.0074403 303:0.95716124 304:0.83471445 305:0.5949366 306:1.0044276 307:0.93569171 308:0.8524355 309:0.62515898 310:1.0521431 311:0.93767955 312:0.85697588 313:0.62731502 314:1.0100772 315:0.94935639 316:0.84872941 317:0.61184873 
-2 1:0.27676014 2:1.1934751 3:3.5337674 4:14.063766 5:9.6645956 6:10.050099 7:10.22991 8:10.367649 9:10.496159 10:10.639811 11:10.807588 12:10.986374 13:11.160633 14:11.319031 15:10.557853 16:4.97249 19:0.42404346 20:0.35735901 21:0.48264588 22:0.52494744 23:0.4985844 24:0.5110532 25:0.49384588 26:1.7065218 27:1.3734576 28:1.2934666 29:1.3206205 30:1.2930647 31:1.3059489 32:7.5288066 33:3.251587 34:2.2690867 35:1.7997159 36:1.3393995 37:0.88911438 38:2.3739475 39:1.3227031 40:1.0133706 41:0.84450769 42:0.70290591 43:0.54473476 44:9.7312657 45:9.9110739 46:10.048811 47:10.177319 48:10.32097 49:10.488746 50:10.66753 51:10.841788 52:11.000185 53:13.744916 54:1.6844268 55:0.69011659 56:5.6022854 57:1.6583452 58:0.79423925 59:0.55614577 60:0.22993961 61:0.33673292 62:0.25309063 63:0.37225297 64:0.46624658 65:0.84030475 66:0.27002714 67:0.3583735 68:0.45043847 69:0.84164735 70:0.27155269 71:0.3852624 72:0.47623418 73:0.83198348 74:0.2707902 75:0.37156356 76:0.47436909 77:0.85394245 78:0.25541711 79:0.3074847 80:0.37637953 81:0.81953487 82:0.28141246 83:0.32425505 84:0.40746311 85:0.83868199 86:0.28216689 87:0.32858406 88:0.41144718 89:0.8365906 90:0.29192307 91:0.32858406 92:0.41012092 93:0.83436111 94:0.26620304 95:0.54985401 96:0.51998356 97:0.65773915 98:0.27611544 99:0.58333231 100:0.51879379 101:0.61981598 102:0.28743204 103:0.52413664 104:0.53649337 105:0.70827173 106:0.2904283 107:0.61410397 108:0.53824622 109:0.61020135 110:0.5116253 111:0.41805222 112:0.42592112 113:0.70464137 114:0.49895545 115:0.44018854 116:0.43567095 117:0.68679807 118:0.49225424 119:0.43567095 120:0.42395969 121:0.67652632 122:0.53003984 123:0.44660705 124:0.44980092 125:0.69757785 126:0.069899127 127:0.17383397 128:0.18534947 129:0.72879855 130:0.080875591 131:0.082019522 132:0.10526051 133:0.83229415 134:0.14761882 135:0.20615608 136:0.19623104 137:0.66628356 138:0.14031744 139:0.17381044 140:0.19417931 141:0.75564158 142:0.051213891 143:0.035938409 144:0.048638724 145:0.85953751 146:0.26340142 147:0.084758341 148:0.11623784 149:0.87276467 150:0.27308201 151:0.092003811 152:0.11942169 153:0.83994604 154:0.340043 155:0.091679962 156:0.11655829 157:0.82748225 158:0.069970926 159:0.40652055 160:0.1425138 161:0.26648729 162:0.11075394 163:0.46660097 164:0.14219116 165:0.22871918 166:0.1372623 167:0.29691358 168:0.11394635 169:0.29945623 170:0.1612673 171:0.5222776 172:0.15114044 173:0.21340832 174:0.20828247 175:0.15291678 176:0.11101082 177:0.53683016 178:0.19319967 179:0.18532205 180:0.1300743 181:0.5201411 182:0.19347743 183:0.17428266 184:0.11395795 185:0.49101876 186:0.23544597 187:0.1981137 188:0.14631261 189:0.5418073 190:2.7352491 191:1.0344847 192:0.49924078 193:0.30527417 194:2.2954612 195:0.70547241 196:0.34167582 197:0.33464628 198:2.8300272 199:1.029783 200:0.49066067 201:0.30143408 202:2.8036108 203:1.0416863 204:0.49212159 205:0.29763191 206:2.3648402 207:0.82081982 208:0.3692851 209:0.30090427 210:3.1127182 211:1.1201474 212:0.54317277 213:0.29960299 214:3.1363565 215:1.1147199 216:0.53459977 217:0.29637914 218:3.0973982 219:1.1122607 220:0.53078941 221:0.29495506 222:2.2841373 223:0.63714069 224:0.28170977 225:0.31128189 226:2.4083886 227:0.63672391 228:0.28297727 229:0.31290089 230:2.2922528 231:0.53941017 232:0.20816391 233:0.28040063 234:2.3688251 235:0.64068215 236:0.26976374 237:0.29632933 238:0.41846491 239:0.61612844 240:0.44051946 241:0.50068983 242:0.42046997 243:0.60209383 244:0.46400945 245:0.53933728 246:0.43817106 247:0.59278858 248:0.45849895 249:0.54174854 250:0.42478003 251:0.60642249 252:0.45837629 253:0.52907646 254:3.6893787 255:1.5048011 256:0.73674388 257:0.27070477 258:3.1544534 259:1.1098173 260:0.52977024 261:0.29525284 262:3.7139641 263:1.4811199 264:0.71975941 265:0.27016224 266:3.6878052 267:1.5141292 268:0.72272346 269:0.26158242 270:3.2784859 271:1.3464711 272:0.61867145 273:0.26325848 274:3.986422 275:1.6912909 276:0.83860418 277:0.25978787 278:4.0021458 279:1.6755104 280:0.82384951 281:0.25824502 282:3.932506 283:1.6727695 284:0.81958466 285:0.25728214 286:3.1536457 287:0.86770997 288:0.41726324 289:0.31832645 290:3.2517833 291:0.85237666 292:0.41941929 293:0.3274005 294:3.0938786 295:0.75783553 296:0.30965881 297:0.277759 298:3.1664162 299:0.84513152 300:0.39534272 301:0.31119252 302:0.60647375 303:0.92674826 304:0.68367547 305:0.4964228 306:0.61460655 307:0.89011266 308:0.70899543 309:0.5416991 310:0.64154858 311:0.88158085 312:0.70987941 313:0.54853173 314:0.60688371 315:0.89112881 316:0.69234386 317:0.52730037 
-2 1:0.1312528 2:1.5971627 3:2.1856554 4:12.582893 5:7.9269635 6:9.1788487 7:9.5348964 8:9.7140749 9:9.8614995 10:10.006501 11:10.158852 12:10.311154 13:10.454303 14:10.601985 15:10.595566 16:5.3458214 18:4.1678596 19:0.38686248 20:0.20900893 21:0.27936659 22:0.34457787 23:0.42248937 24:0.56421889 25:0.71235748 26:2.5718673 27:1.9839458 28:1.6972207 29:1.4967217 30:1.245661 31:1.0949687 32:5.4427933 33:2.744356 34:1.9729098 35:1.5216003 36:1.0485505 37:0.74618308 38:1.4511617 39:0.9075107 40:0.76622569 41:0.6908325 42:0.61871723 43:0.55584411 44:9.0386087 45:9.3946517 46:9.5738284 47:9.7212518 48:9.8662518 49:10.018603 50:10.170904 51:10.314052 52:10.461734 53:12.442638 54:0.99014287 55:0.4963181 56:3.8850196 57:1.4118086 58:1.3773338 59:0.87314813 60:0.13322234 61:0.22105417 62:0.19803085 63:0.2707902 64:0.347836 65:0.84913375 66:0.19144646 67:0.24764102 68:0.33289442 69:0.87783843 70:0.21026093 71:0.27763174 72:0.35206433 73:0.84102825 74:0.20538683 75:0.27459683 76:0.35346981 77:0.85090791 78:0.16720792 79:0.17898266 80:0.21993842 81:0.8131952 82:0.16889854 83:0.18564935 84:0.23190506 85:0.82391751 86:0.17311262 87:0.1873091 88:0.23507212 89:0.82698203 90:0.17311262 91:0.1873091 92:0.23348984 93:0.82272659 94:0.17311262 95:0.43178242 96:0.7231913 97:1.0868146 98:0.17814619 99:0.42853038 100:0.72270598 101:1.0923621 102:0.19062036 103:0.41607529 104:0.70210692 105:1.0895271 106:0.1889661 107:0.45552431 108:0.73764242 109:1.0615385 110:0.34288023 111:0.3852624 112:0.29639401 113:0.55045568 114:0.36672428 115:0.40346311 116:0.29565024 117:0.52600168 118:0.36046774 119:0.4001175 120:0.30306317 121:0.54204053 122:0.35767444 123:0.40479822 124:0.30527638 125:0.53966436 126:0.00068276686 127:0.0096235448 128:0.035856406 129:1.5634231 130:0.000252968 131:0.0023033453 132:0.015804449 133:2.0678136 134:0.0017035481 135:0.012372148 136:0.038379013 137:1.4213856 138:0.0011723126 139:0.011083352 140:0.039076472 141:1.5207287 142:2.6999636e-005 143:3.1999488e-005 144:0.00035093841 145:2.4957922 146:6.099814e-005 147:9.4995488e-005 148:0.0011083855 149:2.5391593 150:9.7995198e-005 151:0.00011099384 152:0.0012691942 153:2.5182643 154:9.2995676e-005 155:0.00010799417 156:0.0011753091 157:2.4731904 158:6.3997952e-005 159:0.096453163 160:0.27748551 161:1.4251114 162:0.00010899406 163:0.095066514 164:0.27987845 165:1.444179 166:0.00026696436 167:0.06625486 168:0.20154232 169:1.4492093 170:0.00027196301 171:0.12495989 172:0.28346695 173:1.2419016 174:0.028094624 175:0.055850893 176:0.0093263739 177:0.15110605 178:0.04150656 179:0.069679969 180:0.009359067 181:0.12247955 182:0.040030001 183:0.067057533 184:0.011543121 185:0.15477477 186:0.037169573 187:0.071647877 188:0.012112348 189:0.15191647 190:1.3484243 191:0.69213617 192:0.42461458 193:0.42531479 194:1.015089 195:0.4592605 196:0.26956673 197:0.42578133 198:1.4045573 199:0.70452323 200:0.42170716 201:0.41398075 202:1.3676137 203:0.69850381 204:0.41935289 205:0.41570583 206:1.0372775 207:0.50076256 208:0.3025431 209:0.43408496 210:1.4847312 211:0.72951527 212:0.46085314 213:0.43505692 214:1.5234573 215:0.73881772 216:0.45321346 217:0.42157071 218:1.4749195 219:0.72409628 220:0.45370083 221:0.43189215 222:1.2058516 223:0.37049471 224:0.25864119 225:0.50573147 226:1.2344867 227:0.37657992 228:0.26113736 229:0.50231955 230:1.0936456 231:0.30859732 232:0.19699832 233:0.47144322 234:1.2001443 235:0.38236979 236:0.25620224 237:0.48672 238:0.37392834 239:0.37296809 240:0.36306896 241:0.67720071 242:0.36592146 243:0.36730138 244:0.37025926 245:0.69795411 246:0.3872475 247:0.36845805 248:0.37334197 249:0.7010588 250:0.37814872 251:0.37120142 252:0.37043257 253:0.69190691 254:2.4194762 255:1.253461 256:0.72853459 257:0.35655354 258:2.0241532 259:0.95466224 260:0.49982393 261:0.34062716 262:2.4168245 263:1.2527441 264:0.7197784 265:0.3517844 266:2.3928233 267:1.252378 268:0.71477902 269:0.34904924 270:2.2300233 271:1.2960403 272:0.74403134 273:0.34783811 274:2.8002303 275:1.6424072 276:1.0009965 277:0.34567689 278:2.8015881 279:1.6460028 280:0.97766914 281:0.33369911 282:2.7440776 283:1.6235112 284:0.9831109 285:0.34423489 286:2.4042956 287:0.5809612 288:0.34462534 289:0.42023549 290:2.4004523 291:0.59168074 292:0.34792639 293:0.41583317 294:2.1324621 295:0.50038794 296:0.26744977 297:0.38675788 298:2.2829237 299:0.58422477 300:0.33967354 301:0.41190367 302:0.65684724 303:0.61655605 304:0.69727664 305:0.78055256 306:0.62212529 307:0.59523166 308:0.71062014 309:0.82095403 310:0.6598613 311:0.59898649 312:0.70504314 313:0.81016726 314:0.64893664 315:0.59958183 316:0.69723531 317:0.80086776 
-0.4980622057093395 1:0.22287391 2:1.2247541 3:3.2020639 4:14.004555 5:9.5503065 6:10.390256 7:10.555858 8:10.688828 9:10.808077 10:10.938895 11:11.090003 12:11.255365 13:11.419125 14:11.575142 15:10.578218 16:4.6098956 19:0.44075567 20:0.31903538 21:0.43434925 22:0.4764354 23:0.50941363 24:0.55944377 25:0.55666974 26:1.8216295 27:1.460338 28:1.3904104 29:1.3483645 30:1.2258019 31:1.2226053 32:7.1194029 33:3.5056045 34:2.6056026 35:2.1001307 36:1.5255079 37:1.0362258 38:2.3070625 39:1.3958449 40:1.1110674 41:0.94648001 42:0.79577191 43:0.62353394 44:10.140602 45:10.306202 46:10.439172 47:10.55842 48:10.689237 49:10.840344 50:11.005706 51:11.169466 52:11.325482 53:13.754892 54:1.5567116 55:0.72003543 56:4.9441981 57:1.7803785 58:0.88432895 59:0.61659546 60:0.20015738 61:0.31333666 62:0.22394323 63:0.30895421 64:0.37912113 65:0.82131214 66:0.2342813 67:0.28292076 68:0.35417181 69:0.83277607 70:0.2366519 71:0.31772619 72:0.39136618 73:0.8245039 74:0.2366519 75:0.31845373 76:0.3845819 77:0.81122662 78:0.23269776 79:0.28593054 80:0.34074879 81:0.80046947 82:0.24842136 83:0.31990722 84:0.38185524 85:0.80353494 86:0.25309063 87:0.3264219 88:0.39676067 89:0.81609817 90:0.25541711 91:0.31188676 92:0.38797979 93:0.83076857 94:0.2342813 95:0.55388511 96:0.5687171 97:0.71056216 98:0.24294618 99:0.56189889 100:0.59111445 101:0.72704897 102:0.2577382 103:0.55043088 104:0.56018705 105:0.70466114 106:0.25541711 107:0.54696467 108:0.57997848 109:0.73220923 110:0.37637953 111:0.56928319 112:0.40145709 113:0.49717366 114:0.38730114 115:0.5816568 116:0.40679755 117:0.49240582 118:0.38730114 119:0.5816568 120:0.39743294 121:0.48150227 122:0.41144718 123:0.59056059 124:0.41739368 125:0.49681473 126:0.013101795 127:0.072975331 128:0.10506697 129:0.9015421 130:0.01410111 131:0.020882436 132:0.043882905 133:1.1397082 134:0.026975858 135:0.090644768 136:0.12325426 137:0.86815371 138:0.025990307 139:0.092081336 140:0.11117458 141:0.79711478 142:0.01320641 143:0.023054198 144:0.031958832 145:0.87232547 146:0.05636521 147:0.0872441 148:0.10233093 149:0.78021622 150:0.07000729 151:0.097760811 152:0.12191582 153:0.81647703 154:0.07326719 155:0.071872189 156:0.10830538 157:0.93021297 158:0.014653117 159:0.42464467 160:0.21181159 161:0.36874926 162:0.023749729 163:0.44138937 164:0.23516303 165:0.3905545 166:0.037818769 167:0.34830481 168:0.15417411 169:0.33652081 170:0.03846562 171:0.42603737 172:0.21980117 173:0.38035172 174:0.078579176 175:0.41749051 176:0.10259269 177:0.18938902 178:0.091556781 179:0.43318209 180:0.11566969 181:0.20390365 182:0.097267354 183:0.43154473 184:0.10237968 185:0.18213154 186:0.12614178 187:0.44559054 188:0.1306431 189:0.22201491 190:2.4399963 191:1.263743 192:0.669703 193:0.31893071 194:2.0343669 195:0.90215854 196:0.45710961 197:0.33331512 198:2.516168 199:1.2735584 200:0.66635649 201:0.31336809 202:2.4803715 203:1.2728745 204:0.65944095 205:0.3098026 206:2.0475492 207:0.9062905 208:0.43089046 209:0.31125699 210:2.704996 211:1.2087469 212:0.6362916 213:0.32107502 214:2.7350687 215:1.1904644 216:0.62616782 217:0.32232333 218:2.6923342 219:1.201544 220:0.62369474 221:0.31652606 222:2.0689631 223:0.65185372 224:0.32156742 225:0.34548578 226:2.1397986 227:0.65438504 228:0.32423119 229:0.3467648 230:2.0059784 231:0.55252787 232:0.24688039 233:0.32181027 234:2.1011696 235:0.6722524 236:0.31768107 237:0.32935339 238:0.54994691 239:0.60465088 240:0.51990151 241:0.59933857 242:0.54940498 243:0.59772489 244:0.54452245 245:0.63384612 246:0.57667404 247:0.59578294 248:0.54069098 249:0.63158237 250:0.55909394 251:0.59507283 252:0.54521604 253:0.6374003 254:3.5107866 255:1.8944427 256:1.0360171 257:0.2790179 258:3.0129542 259:1.5080446 260:0.76942975 261:0.2846728 262:3.5227436 263:1.8865741 264:1.0183866 265:0.27461811 266:3.4849209 267:1.8846444 268:1.0167809 269:0.27456036 270:3.0326232 271:1.5063371 272:0.74594265 273:0.27442585 274:3.6818506 275:1.8057697 276:0.98949287 277:0.28694205 278:3.6901543 279:1.7702094 280:0.95992017 281:0.28575021 282:3.6356979 283:1.8131747 284:0.96550519 285:0.27534807 286:3.0496847 287:0.88400966 288:0.4570311 289:0.34205946 290:3.0868117 291:0.88320085 292:0.45455047 293:0.34049841 294:2.886258 295:0.76239242 296:0.35813378 297:0.31965083 298:2.9983447 299:0.91240198 300:0.44881127 301:0.32215016 302:0.87749044 303:0.81902404 304:0.81234078 305:0.68717287 306:0.86604952 307:0.80550799 308:0.84088117 309:0.72517575 310:0.90341905 311:0.80290656 312:0.84431126 313:0.73072568 314:0.85689693 315:0.79849275 316:0.83300868 317:0.72457414 
2 1:0.35427847 2:0.97104971 3:3.3738914 4:14.897555 5:10.452591 6:10.813901 7:10.931798 8:11.05834 9:11.19116 10:11.346581 11:11.541241 12:11.770559 13:12.001298 14:12.204409 15:10.513221 16:4.4073611 19:0.35833996 20:0.38855697 21:0.46879039 22:0.45715519 23:0.45299352 24:0.47596085 25:0.49872774 26:1.5429705 27:1.3886523 28:1.4362691 29:1.439147 30:1.3437138 31:1.3014582 32:8.2159367 33:3.565847 34:2.3619666 35:1.7784238 36:1.1859774 37:0.73557764 38:2.8817297 39:1.4555968 40:1.0068745 41:0.79885179 42:0.63416122 43:0.48879901 44:10.388759 45:10.506655 46:10.633197 47:10.766015 48:10.921435 49:11.116094 50:11.345411 51:11.576149 52:11.779259 53:14.472403 54:2.1556477 55:0.73893379 56:6.1458607 57:1.9644799 58:0.66803704 59:0.60672672 60:0.25991357 61:0.30626337 62:0.28968008 63:0.3832195 64:0.27687387 65:0.52062782 66:0.31188676 67:0.32425505 68:0.26620304 69:0.58575404 70:0.30380145 71:0.390013 72:0.28668157 73:0.52828256 74:0.30453919 75:0.38048912 76:0.28216689 77:0.53303946 78:0.31699813 79:0.30674914 80:0.29713723 81:0.67487526 82:0.33432708 83:0.35767444 84:0.31408055 85:0.61957599 86:0.33432708 87:0.36464311 88:0.31772619 89:0.61518564 90:0.33932531 91:0.35276732 92:0.3155404 93:0.62971152 94:0.3220835 95:0.54174273 96:0.5590442 97:0.71379504 98:0.3357577 99:0.56474547 100:0.56360781 101:0.69182881 102:0.34500714 103:0.55331024 104:0.56189889 105:0.70324503 106:0.35627486 107:0.5463858 108:0.54927681 109:0.69658028 110:0.38933573 111:0.56644953 112:0.37706563 113:0.47065966 114:0.38797979 115:0.59277421 116:0.3852624 117:0.45803479 118:0.38048912 119:0.58834207 120:0.36394843 121:0.43700576 122:0.39676067 123:0.58500502 124:0.39541477 125:0.47627331 126:0.35008488 127:0.45643258 128:0.012836262 129:0.022088249 130:0.35532623 131:0.096494024 132:0.0049656507 133:0.047971734 134:0.50291179 135:0.48953845 136:0.017337827 137:0.027315511 138:0.50827497 139:0.44545604 140:0.014935902 141:0.026459831 142:0.44171989 143:0.063549282 144:0.011351329 145:0.16041331 146:1.0646542 147:0.27003706 148:0.028744879 149:0.089901945 150:1.0687096 151:0.28846227 152:0.03089965 153:0.08970724 154:1.1145903 155:0.24352954 156:0.028872159 157:0.10096145 158:0.43944583 159:0.39851568 160:0.1451232 161:0.27686629 162:0.61163014 163:0.44315452 164:0.14946343 165:0.25395051 166:0.63145687 167:0.35238847 168:0.11048626 169:0.24414154 170:0.78196634 171:0.42664587 172:0.13633346 173:0.24255316 174:0.071625536 175:0.34523941 176:0.061804161 177:0.14377215 178:0.07333596 179:0.38125506 180:0.073354546 181:0.15185462 182:0.06837895 183:0.37370058 184:0.05318715 185:0.11383035 186:0.082205598 187:0.37084813 188:0.084414675 189:0.17913733 190:3.2020458 191:1.7381966 192:0.73543242 193:0.20846271 194:2.6602046 195:1.2145863 196:0.47284708 197:0.22729891 198:3.2544614 199:1.7313521 200:0.73242558 201:0.20893914 202:3.2506635 203:1.7458091 204:0.7269813 205:0.20370953 206:2.7925959 207:1.2020397 208:0.42004103 209:0.20240519 210:3.5920384 211:1.5602468 212:0.62195725 213:0.20653194 214:3.601853 215:1.5277507 216:0.61543372 217:0.21166027 218:3.5711806 219:1.5369691 220:0.60731093 221:0.20609586 222:2.6772845 223:0.64728228 224:0.23419189 225:0.25454609 226:2.8007682 227:0.64953797 228:0.23587338 229:0.2552893 230:2.6710126 231:0.55165159 232:0.1777302 233:0.23446166 234:2.7568992 235:0.67472656 236:0.23131408 237:0.23910745 238:0.43900433 239:0.51319422 240:0.448356 241:0.61172181 242:0.45489189 243:0.51002871 244:0.4691026 245:0.6416586 246:0.46790017 247:0.5085354 248:0.46779494 249:0.64177546 250:0.45430099 251:0.5110244 252:0.47134835 253:0.64331597 254:4.0383983 255:2.2897097 256:1.2993428 257:0.26282031 258:3.4136047 259:1.8028097 260:0.93212707 261:0.26538201 262:4.0495455 263:2.2717621 264:1.2717827 265:0.2586659 266:4.0424314 267:2.3028602 268:1.2742594 269:0.25164626 270:3.5375994 271:1.8254996 272:0.78885546 273:0.20756361 274:4.3258451 275:2.1371728 276:1.0619511 277:0.22561809 278:4.3324572 279:2.0883323 280:1.0472755 281:0.23237917 282:4.2897694 283:2.1190629 284:1.0398865 285:0.22293153 286:3.4054534 287:0.88429633 288:0.34091592 289:0.25139898 290:3.5012426 291:0.87616141 292:0.34213333 293:0.25545274 294:3.3472587 295:0.76006069 296:0.2613422 297:0.23298219 298:3.4140167 299:0.91570056 300:0.33916432 301:0.23858216 302:0.70958582 303:0.70611671 304:0.73379284 305:0.72047631 306:0.73308014 307:0.69253099 308:0.75601258 309:0.75666643 310:0.75859638 311:0.69214168 312:0.77494466 313:0.77603001 314:0.72495249 315:0.69645769 316:0.74984268 317:0.74636135 
1.497145609810397 1:0.2529664 2:1.2740158 3:2.6312113 4:13.393636 5:8.8344826 6:8.8376893 7:9.0444742 8:9.2049867 9:9.355226 10:9.5412332 11:9.7656784 12:10.002184 13:10.228591 14:10.416131 15:10.585281 16:5.10955 19:0.42496704 20:0.35781779 21:0.5965344 22:0.72141048 23:0.76731776 24:0.84071682 25:0.92862199 26:1.7484584 27:1.2151724 28:1.0926147 29:1.0607218 30:1.0237961 31:0.99144644 32:6.8923827 33:2.3626368 34:1.7017084 35:1.3084101 36:0.99250816 37:0.55462335 38:2.0209963 39:1.0854497 40:0.90594783 41:0.77663824 42:0.67502852 43:0.50235162 44:8.5498981 45:8.756674 46:8.9171806 47:9.0674152 48:9.2534176 49:9.4778579 50:9.7143591 51:9.9407635 52:10.128302 53:13.105797 54:1.4435649 55:0.61145273 56:5.5913204 57:1.2964126 58:0.98011325 59:0.55641696 60:0.17844405 61:0.35710855 62:0.23980399 63:0.32930375 64:0.65284588 65:1.2123986 66:0.24216156 67:0.32425505 68:0.62433286 69:1.182864 70:0.25541711 71:0.33718627 72:0.65128298 73:1.1906678 74:0.24998021 75:0.33074156 76:0.67396436 77:1.2395567 78:0.22793207 79:0.27307592 80:0.53707799 81:1.1830548 82:0.24764102 83:0.28216689 84:0.60486227 85:1.2666884 86:0.25075872 87:0.28517894 88:0.60704448 89:1.2613837 90:0.25541711 91:0.28442678 92:0.61193713 93:1.2712622 94:0.24137632 95:0.72222043 96:0.99510191 97:0.95935367 98:0.25075872 99:0.71196893 100:0.97682123 101:0.9537314 102:0.25619141 103:0.71588667 104:0.87338323 105:0.84743442 106:0.26543646 107:0.74193734 108:1.1317246 109:1.0681531 110:0.78982007 111:0.76360564 112:0.64290596 113:0.58058636 114:0.80244992 115:0.73620667 116:0.62754142 117:0.58911356 118:0.78845736 119:0.76964515 120:0.62003871 121:0.55454926 122:0.75424228 123:0.74858189 124:0.66782937 125:0.61668883 126:0.025461098 127:0.052982317 128:0.38995884 129:2.2788235 130:0.018001005 131:0.031196296 132:0.24419716 133:2.2750817 134:0.053232663 135:0.062902496 136:0.38484735 137:2.1077859 138:0.041532462 139:0.054513753 140:0.40363076 141:2.2900202 142:0.0099731029 143:0.0088408047 144:0.16459368 145:3.0515207 146:0.053508539 147:0.019683012 148:0.34447867 149:3.0767956 150:0.062840518 151:0.021385687 152:0.34293417 153:2.991976 154:0.07119724 155:0.020629736 156:0.34437379 157:3.0312309 158:0.019727134 159:0.55996715 160:0.42279016 161:0.53124218 162:0.032256132 163:0.55060099 164:0.41393249 165:0.5296254 166:0.034410122 167:0.45978472 168:0.26555225 169:0.41939826 170:0.054084695 171:0.58733712 172:0.50155498 173:0.59604855 174:0.46192861 175:0.58491477 176:0.33697925 177:0.40822197 178:0.47761397 179:0.54613389 180:0.33038302 181:0.43102824 182:0.4854192 183:0.58398221 184:0.32164355 185:0.39091172 186:0.44479992 187:0.56326626 188:0.36689405 189:0.46121134 190:2.322075 191:0.76113428 192:0.43223102 193:0.38797844 194:1.9249553 195:0.55410003 196:0.29844396 197:0.38506374 198:2.3975279 199:0.76744264 200:0.42846002 201:0.38077001 202:2.3682735 203:0.75983433 204:0.4228832 205:0.38018696 206:2.0153968 207:0.61363904 208:0.29412303 209:0.33907599 210:2.6846448 211:0.87969355 212:0.44418377 213:0.3340135 214:2.720681 215:0.87489441 216:0.43904494 217:0.33226339 218:2.6641031 219:0.86708578 220:0.43357043 221:0.33168365 222:2.0358104 223:0.5272502 224:0.27782187 225:0.37931276 226:2.1125202 227:0.52917366 228:0.27557811 229:0.37492342 230:1.9772774 231:0.43748431 232:0.19211924 233:0.32638943 234:2.0736638 235:0.53358329 236:0.30787874 237:0.41301983 238:0.38414477 239:0.5118513 240:0.38539913 241:0.53268261 242:0.38999675 243:0.50046918 244:0.39615187 245:0.55871252 246:0.40527909 247:0.50592142 248:0.39541073 249:0.55187102 250:0.3923569 251:0.50513848 252:0.39083866 253:0.54675979 254:3.3054828 255:1.2263465 256:0.57730077 257:0.28090441 258:2.8582306 259:0.94965394 260:0.41281205 261:0.27950422 262:3.3172321 263:1.2228683 264:0.57303111 265:0.27972273 266:3.3077106 267:1.2230393 268:0.5606484 269:0.27275623 270:3.0192502 271:1.1338655 272:0.42911978 273:0.22655134 274:3.6654371 275:1.4820519 276:0.60573354 277:0.21892587 278:3.6853763 279:1.4673332 280:0.59851227 281:0.21954107 282:3.6068256 283:1.4588799 284:0.59023699 285:0.21807312 286:2.9828837 287:0.67724592 288:0.34324922 289:0.35266963 290:3.027125 291:0.68182331 292:0.34172271 293:0.34836975 294:2.8589137 295:0.56966908 296:0.24636621 297:0.31035631 298:2.930165 299:0.68046105 300:0.37116762 301:0.37915536 302:0.49175044 303:0.65008727 304:0.52079001 305:0.55747636 306:0.49709762 307:0.64200808 308:0.53826315 309:0.58333064 310:0.51766399 311:0.64190388 312:0.53928129 313:0.58450908 314:0.50742404 315:0.64503304 316:0.52200767 317:0.56331181 
0.9124422564208731 1:0.38640053 2:1.1312737 3:2.9844037 4:13.692659 5:9.1854327 6:9.6926302 7:9.7903775 8:9.8687537 9:9.9312489 10:10.011283 11:10.137348 12:10.311012 13:10.50871 14:10.684688 15:10.577176 16:4.975998 19:0.33067259 20:0.48991716 21:0.54078066 22:0.47360277 23:0.46286571 24:0.51646549 25:0.53044294 26:1.4505317 27:1.4101456 28:1.473535 29:1.4372641 30:1.2948943 31:1.2565301 32:7.1445558 33:2.6464007 34:1.5829555 35:1.1900553 36:0.84377595 37:0.63241846 38:2.3721208 39:1.1333982 40:0.72956589 41:0.60103902 42:0.52869285 43:0.46449788 44:9.2209931 45:9.318737 46:9.3971106 47:9.459604 48:9.5396356 49:9.6656978 50:9.8393577 51:10.037052 52:10.213027 53:13.220986 54:1.8182974 55:0.55308134 56:5.7570957 57:1.3175382 58:0.62060444 59:0.62954689 60:0.32243344 61:0.32254281 62:0.26696903 63:0.40346311 64:0.33145969 65:0.58263118 66:0.26236426 67:0.40078752 68:0.32425505 69:0.57485677 70:0.27611544 71:0.40945713 72:0.3357577 73:0.58139853 74:0.27535642 75:0.41277168 76:0.333611 77:0.57377282 78:0.25541711 79:0.34642257 80:0.27838903 81:0.57400435 82:0.26849925 83:0.36603104 84:0.29490592 85:0.57437378 86:0.26926349 87:0.37363038 88:0.29713723 89:0.56746887 90:0.27990189 91:0.36255761 92:0.29713723 93:0.58319949 94:0.26620304 95:0.65023968 96:0.47933496 97:0.5136598 98:0.27763174 99:0.64971762 100:0.47312376 101:0.50754144 102:0.28216689 103:0.6590732 104:0.48242615 105:0.5095386 106:0.29565024 107:0.68511501 108:0.50259182 109:0.50899475 110:0.38730114 111:0.58109768 112:0.32063317 113:0.39183599 114:0.40212621 115:0.59000642 116:0.34074879 117:0.40877629 118:0.40346311 119:0.55618133 120:0.3213586 121:0.41171818 122:0.40812823 123:0.58109768 124:0.33932531 125:0.41388952 126:0.091519367 127:0.27562062 128:0.022236917 129:0.068457395 130:0.049539407 131:0.16450376 132:0.011867304 133:0.064629767 134:0.13250174 135:0.29392032 136:0.023961614 137:0.068571316 138:0.12462977 139:0.30088281 140:0.022749262 141:0.063488282 142:0.042275657 143:0.081083089 144:0.0039173173 145:0.045423551 146:0.13561073 147:0.18230906 148:0.01046505 149:0.051265194 150:0.14377648 151:0.20234883 152:0.011087308 153:0.048513936 154:0.18858937 155:0.16957652 156:0.010934005 157:0.057789548 158:0.066144418 159:0.44168131 160:0.079618618 161:0.13909824 162:0.10349928 163:0.44151027 164:0.075733436 165:0.13255692 166:0.10149646 167:0.38094561 168:0.061643397 169:0.12850842 170:0.16400313 171:0.4986585 172:0.092214484 173:0.13925573 174:0.043018301 175:0.24372548 176:0.013934463 177:0.049590796 178:0.052880834 179:0.25322338 180:0.021600031 181:0.073037614 182:0.056182771 183:0.21740472 184:0.014641291 185:0.058962064 186:0.058341547 187:0.24480015 188:0.021359258 189:0.0749544 190:2.5045549 191:1.0827799 192:0.37153666 193:0.20734663 194:2.0933894 195:0.76020144 196:0.24615671 197:0.21921745 198:2.5774617 199:1.0823284 200:0.3675493 201:0.20506919 202:2.5429235 203:1.073585 204:0.36520962 205:0.20611539 206:2.1876272 207:0.81405732 208:0.27322051 209:0.22309795 210:2.8339055 211:1.1342931 212:0.41347362 213:0.2173677 214:2.8738599 215:1.1308762 216:0.41237319 217:0.21771766 218:2.8149505 219:1.1201164 220:0.40724219 221:0.21784795 222:2.2321057 223:0.49172598 224:0.21194832 225:0.31605522 226:2.2989708 227:0.4921277 228:0.21176708 229:0.31551779 230:2.15043 231:0.41522004 232:0.1627428 233:0.29518138 234:2.2502749 235:0.50782974 236:0.20765543 237:0.29920864 238:0.28925109 239:0.34896389 240:0.30454288 241:0.61653986 242:0.29263305 243:0.34948012 244:0.30907681 245:0.62366044 246:0.30410325 247:0.34840434 248:0.31348724 249:0.63305582 250:0.299242 251:0.35045896 252:0.31346019 253:0.62974774 254:3.3953017 255:1.5209304 256:0.66608888 257:0.23481596 258:2.9630326 259:1.1296496 260:0.46835352 261:0.25091046 262:3.4370372 263:1.5129968 264:0.65479349 265:0.23206682 266:3.3993064 267:1.4990812 268:0.65305253 269:0.23503576 270:3.0904578 271:1.2681365 272:0.56917962 273:0.26252964 274:3.741084 275:1.6338479 276:0.78171926 277:0.25264721 278:3.7738177 279:1.6174912 280:0.77598168 281:0.25483445 282:3.6756284 283:1.6218907 284:0.7684921 285:0.2505011 286:3.0980628 287:0.65186518 288:0.33037152 289:0.35482844 290:3.1306151 291:0.65260379 292:0.33200944 293:0.35610538 294:2.9587551 295:0.55457798 296:0.25620611 297:0.33216225 298:3.0264119 299:0.66251064 300:0.31735786 301:0.3346699 302:0.48952374 303:0.4898418 304:0.57000223 305:0.79548127 306:0.48481712 307:0.48811856 308:0.55696714 309:0.7814062 310:0.50154045 311:0.49643558 312:0.58389633 313:0.80360389 314:0.4911026 315:0.49184095 316:0.56545244 317:0.78692164 
0.4995737240321542 1:0.51710308 2:1.1209698 3:3.0194394 4:13.977419 5:9.3759396 6:9.7392589 7:9.9121583 8:10.052469 9:10.189096 10:10.333787 11:10.49429 12:10.672027 13:10.859139 14:11.030144 15:10.573701 16:4.5789746 19:0.40330878 20:0.4795046 21:0.46611295 22:0.51011397 23:0.59186777 24:0.66572151 25:0.67674032 26:1.385802 27:1.3882003 28:1.3006496 29:1.1965321 30:1.124448 31:1.1157994 32:7.6477815 33:2.8109258 34:1.8238612 35:1.5037767 36:1.1705741 37:0.70693815 38:2.5796959 39:1.1715511 40:0.85825688 41:0.79524653 42:0.70703825 43:0.52971313 44:9.0621543 45:9.2350446 46:9.3753486 47:9.5119703 48:9.6566571 49:9.8171548 50:9.9948881 51:10.181996 52:10.352998 53:13.300258 54:1.9268951 55:0.6194958 56:6.0743832 57:1.4521984 58:0.64858591 59:0.60134763 60:0.28718295 61:0.32410681 62:0.30453919 63:0.44340295 64:0.48427629 65:0.74975764 66:0.29117596 67:0.39944704 68:0.46624658 69:0.79289115 70:0.32063317 71:0.44596705 72:0.48119082 73:0.74176781 74:0.32425505 75:0.44596705 76:0.49591501 77:0.76190289 78:0.28818195 79:0.3457151 80:0.37087366 81:0.73580764 82:0.2934156 83:0.37018329 84:0.36741704 85:0.68867268 86:0.28818195 87:0.36325326 88:0.37569295 89:0.71348692 90:0.30453919 91:0.36741704 92:0.36810932 93:0.69427255 94:0.31481074 95:0.61734547 96:0.71392972 97:0.79757071 98:0.31845373 99:0.63816287 100:0.74763537 101:0.80881287 102:0.31261856 103:0.62165118 104:0.74479041 105:0.82551796 106:0.3386128 107:0.66526198 108:0.74810874 109:0.77830509 110:0.56644953 111:0.36464311 112:0.52591126 113:0.94496643 114:0.5641768 115:0.37843644 116:0.54232429 117:0.94204308 118:0.5630385 119:0.37775127 120:0.53473744 121:0.93228415 122:0.57885803 123:0.38865799 124:0.56018705 125:0.94819746 126:0.36620231 127:0.47950398 128:0.17759876 129:0.27449728 130:0.17329006 131:0.18209236 132:0.098185134 133:0.41643538 134:0.53760737 135:0.4873449 136:0.17031476 137:0.25902948 138:0.55800134 139:0.48811242 140:0.19004995 141:0.28716269 142:0.16663754 143:0.080002707 144:0.042708853 145:0.42125512 146:0.37869325 147:0.18834173 148:0.062913764 149:0.27256057 150:0.33774856 151:0.16852938 152:0.07004272 153:0.33307719 154:0.47470568 155:0.17746981 156:0.062302273 157:0.28595608 158:0.3240316 159:0.46744599 160:0.26713441 161:0.41466268 162:0.37021506 163:0.49615189 164:0.2880665 165:0.418509 166:0.28982078 167:0.40254217 168:0.22406073 169:0.40994174 170:0.50929766 171:0.54077251 172:0.28053207 173:0.37255755 174:0.24851418 175:0.05983843 176:0.22241849 177:1.6173031 178:0.24516098 179:0.07248995 180:0.24727327 181:1.5542025 182:0.26212654 183:0.071553856 184:0.24445171 185:1.5546228 186:0.26974313 187:0.086965459 188:0.27169445 189:1.4897364 190:2.85759 191:1.228861 192:0.42664913 193:0.19895331 194:2.4190065 195:0.83022378 196:0.28365221 197:0.22593007 198:2.9421277 199:1.2252505 200:0.41944099 201:0.19612337 202:2.9123287 203:1.2268947 204:0.42193342 205:0.19700325 206:2.4619679 207:0.81304975 208:0.35475901 209:0.29220234 210:3.1803847 211:1.1135846 212:0.51281644 213:0.28335849 214:3.2001957 215:1.1074898 216:0.50506547 217:0.28081681 218:3.1614283 219:1.0998249 220:0.50413026 221:0.28305413 222:2.4950323 223:0.57103096 224:0.25411883 225:0.31896415 226:2.5608298 227:0.56905963 228:0.25516534 229:0.32148259 230:2.4252226 231:0.48831434 232:0.19888037 233:0.29973786 234:2.5241433 235:0.5767802 236:0.24816235 237:0.30820209 238:0.37766148 239:0.51044955 240:0.41170957 241:0.56804417 242:0.37637884 243:0.5029638 244:0.41858862 245:0.58516768 246:0.40273004 247:0.50149079 248:0.4295865 249:0.60107246 250:0.38759573 251:0.51939004 252:0.42164222 253:0.57105581 254:3.6473419 255:1.6453954 256:0.63013443 257:0.19050548 258:3.2180536 259:1.2194189 260:0.43939944 261:0.2080957 262:3.6886573 263:1.6388431 264:0.62183591 265:0.18882784 266:3.6464816 267:1.6404752 268:0.61790842 269:0.18702465 270:3.2709856 271:1.2687167 272:0.60151697 273:0.27966679 274:4.0124889 275:1.6026348 276:0.83545241 277:0.28461863 278:4.0457865 279:1.6061407 280:0.8160796 281:0.27513392 282:3.956452 283:1.5901456 284:0.82266597 285:0.28288232 286:3.2331546 287:0.75928224 288:0.34013481 289:0.30483561 290:3.2933086 291:0.75022245 292:0.33712488 293:0.30657914 294:3.1650727 295:0.65592547 296:0.26535517 297:0.28356185 298:3.2090645 299:0.75138307 300:0.32815561 301:0.29774032 302:0.53185162 303:0.83473875 304:0.59138906 305:0.48142441 306:0.53104581 307:0.81007029 308:0.59406966 309:0.50082438 310:0.56588126 311:0.80900169 312:0.61127693 313:0.51675183 314:0.54107817 315:0.82321314 316:0.59134975 317:0.48925525 
2 1:0.18242322 2:0.89569815 3:3.2984835 4:15.157909 5:10.888763 6:11.552585 7:11.668441 8:11.732109 9:11.787139 10:11.852786 11:11.97063 12:12.16546 13:12.401018 14:12.62079 15:10.492616 16:4.4917337 19:0.37118348 20:0.35382228 21:0.39151627 22:0.42305352 23:0.46402203 24:0.48506341 25:0.49060312 26:1.61799 27:1.5147619 28:1.4547928 29:1.3713784 30:1.3323378 31:1.3123566 32:8.2518002 33:3.9769307 34:2.9026853 35:2.2117359 36:1.8046112 37:1.4027416 38:2.9285493 39:1.5188215 40:1.1599184 41:0.96841742 42:0.848223 43:0.71929532 44:11.352466 45:11.468321 46:11.531989 47:11.587019 48:11.652666 49:11.77051 50:11.965339 51:12.200897 52:12.420669 53:14.957787 54:2.0493814 55:0.72395326 56:5.699116 57:1.8065942 58:0.70770027 59:0.61270473 60:0.23667637 61:0.29258827 62:0.31772619 63:0.33504264 64:0.33289442 65:0.68937106 66:0.34429867 67:0.29117596 68:0.31188676 69:0.73373235 70:0.33217731 71:0.33647224 72:0.34217026 73:0.70309751 74:0.3357577 75:0.33932531 76:0.33789979 77:0.69066911 78:0.3220835 79:0.27687387 80:0.38048912 81:0.89666378 82:0.35346981 83:0.31115443 84:0.40413089 85:0.86051752 86:0.35065687 87:0.31042156 88:0.40546511 89:0.86441874 90:0.36603104 91:0.30232435 92:0.40812823 93:0.88696985 94:0.33789979 95:0.41805222 96:0.47747564 97:0.77895371 98:0.35136085 99:0.41607529 100:0.48489224 101:0.79267663 102:0.36046774 103:0.43889988 104:0.48980626 105:0.76407385 106:0.36949245 107:0.41936801 108:0.491031 109:0.79610576 110:0.36672428 111:0.55790003 112:0.50259182 113:0.62816216 114:0.3583735 115:0.54927681 116:0.51521597 117:0.65272354 118:0.37225297 119:0.57548914 120:0.51222464 121:0.62052111 122:0.3832195 123:0.57773633 124:0.52827254 125:0.63659059 126:0.67313221 127:0.27082987 128:0.085891417 129:0.25335302 130:0.67253061 131:0.053243092 132:0.033605941 133:0.48548874 134:0.87120968 135:0.27348375 136:0.10218287 137:0.29419606 138:0.90959597 139:0.29426014 140:0.09216524 141:0.24856877 142:0.50240789 143:0.027144239 144:0.065199553 145:1.2379222 146:1.3679277 147:0.11140183 148:0.13765189 149:0.81195103 150:1.3277798 151:0.10632115 152:0.13694493 153:0.83651695 154:1.5258328 155:0.088284649 156:0.1396889 157:0.96479247 158:0.60987589 159:0.16611849 160:0.14081356 161:0.60799281 162:0.80257541 163:0.16575255 164:0.14980181 165:0.6399563 166:0.79151405 167:0.1665859 168:0.11680122 169:0.52088031 170:0.95039956 171:0.17618527 172:0.15558565 173:0.62795992 174:0.091430847 175:0.32844871 176:0.22329554 177:0.49681169 178:0.080938307 179:0.31175059 180:0.24803985 181:0.57072415 182:0.1055386 183:0.35794783 184:0.24689758 185:0.50118854 186:0.12039739 187:0.35807367 188:0.2631209 189:0.53005985 190:3.2922532 191:1.9136732 192:1.0086807 193:0.26350823 194:2.7625275 195:1.3757565 196:0.72509778 197:0.30749205 198:3.3444252 199:1.8991072 200:1.00638 201:0.26664815 202:3.3356669 203:1.92246 204:0.9907208 205:0.25467245 206:2.8339036 207:1.1992416 208:0.44962233 209:0.2191034 210:3.6591158 211:1.5559177 212:0.64170282 213:0.21559594 214:3.6567328 215:1.5318272 216:0.63166372 217:0.21740954 218:3.654029 219:1.5411499 220:0.62589939 221:0.21272143 222:2.7564931 223:0.65830622 224:0.36266755 225:0.38478406 226:2.8751761 227:0.66852862 228:0.36503332 229:0.38054722 230:2.7054145 231:0.55689838 232:0.28145019 233:0.36197358 234:2.8239975 235:0.68233848 236:0.36308287 237:0.36975088 238:0.69250447 239:0.5074692 240:0.46853943 241:0.6439895 242:0.69916255 243:0.5018202 244:0.48058186 245:0.66615772 246:0.72422376 247:0.51213956 248:0.48625769 249:0.66075363 250:0.71117519 251:0.50812759 252:0.47412077 253:0.65027726 254:4.0526645 255:2.5690391 256:1.5370601 257:0.26459025 258:3.4446069 259:2.0711746 260:1.2097487 261:0.29213514 262:4.0690281 263:2.549522 264:1.5174759 265:0.26369338 266:4.0521561 267:2.5685594 268:1.5059634 269:0.25559835 270:3.5683659 271:1.8986015 272:0.73265631 273:0.17425746 274:4.3507267 275:2.2271305 276:0.97349794 277:0.18157044 278:4.3532817 279:2.2011583 280:0.95848395 281:0.18238822 282:4.3186959 283:2.2315103 284:0.94857359 285:0.17419361 286:3.4510369 287:0.98168738 288:0.54612809 289:0.36139827 290:3.5450353 291:0.99661242 292:0.5458176 293:0.35403075 294:3.3530924 295:0.83159086 296:0.42725074 297:0.34428875 298:3.4575394 299:1.011386 300:0.54046151 301:0.34340387 302:1.0816258 303:0.7023829 304:0.67672812 305:0.66772937 306:1.1006752 307:0.69873802 308:0.68619809 309:0.68067725 310:1.1164087 311:0.70150416 312:0.69498749 313:0.68668484 314:1.0860298 315:0.69542209 316:0.67203896 317:0.66981714 
-2 1:0.098741559 2:1.5514727 3:2.5073715 4:12.809924 5:8.2779203 6:9.0169309 7:9.2594233 8:9.3847251 9:9.5202002 10:9.6937247 11:9.8886366 12:10.095239 13:10.283973 14:10.457871 15:10.595304 16:4.4022372 18:3.9912774 19:0.3095913 20:0.21038166 21:0.2656136 22:0.35303432 23:0.44053105 24:0.56228422 25:0.73116765 26:2.5155384 27:2.0847464 28:1.7200219 29:1.4794408 30:1.2603975 31:1.0879321 32:5.626507 33:2.2278402 34:1.2897782 35:0.84680517 36:0.55914368 37:0.38363659 38:1.50011 39:0.71145703 40:0.55245363 41:0.48208844 42:0.43395732 43:0.39609266 44:8.9131635 45:9.155653 46:9.2809535 47:9.4164275 48:9.5899507 49:9.7848615 50:9.9914625 51:10.180196 52:10.354093 53:12.706144 54:1.151403 55:0.4015615 56:4.5830714 57:1.1673028 58:1.3144618 59:0.90734726 60:0.13408499 61:0.21912268 62:0.19144646 63:0.21268909 64:0.2904283 65:0.88456928 66:0.20212418 67:0.1996702 68:0.27383667 69:0.88597131 70:0.20212418 71:0.21591751 72:0.29639401 73:0.88852275 74:0.20375684 75:0.21833199 76:0.29117596 77:0.86930226 78:0.18813794 79:0.17898266 80:0.22074067 81:0.81545507 82:0.20457217 83:0.18979357 84:0.2342813 85:0.81676118 86:0.21026093 87:0.19144646 88:0.2366519 89:0.81775267 90:0.21188036 91:0.19144646 92:0.23586232 93:0.81565858 94:0.1996702 95:0.33647224 96:0.67904826 97:1.2325603 98:0.20701417 99:0.35346981 100:0.66268797 101:1.1684433 102:0.22074067 103:0.34288023 104:0.66062399 105:1.1904343 106:0.21833199 107:0.35206433 108:0.66936665 109:1.1812037 110:0.43113285 111:0.38662202 112:0.37087366 113:0.66848096 114:0.42133846 115:0.40812823 116:0.35907207 117:0.61903929 118:0.40346311 119:0.38662202 120:0.35487332 121:0.64319089 122:0.43954442 123:0.40212621 124:0.37637953 125:0.6540071 126:0.00051986485 127:0.00063579784 128:0.0068335977 129:2.4667327 130:0.00070675019 131:0.00014598934 132:0.0024539865 133:2.8821583 134:0.0012642006 135:0.00077469984 136:0.0079294784 137:2.4224703 138:0.0013570788 139:0.0009095862 140:0.0068107541 141:2.1413285 142:0.00027196301 143:2.999955e-005 144:0.00023297286 145:2.183966 146:0.0019431109 147:0.00012899168 148:0.00077969596 149:1.9548804 150:0.0029207305 151:0.0001469892 152:0.0008526364 153:1.9168608 154:0.0031410617 155:0.00014598934 156:0.00082465987 157:1.8957238 158:0.00072473731 159:0.017216934 160:0.17854945 161:2.5060486 162:0.0012532144 163:0.023713597 164:0.16999085 165:2.1658141 166:0.0024609693 167:0.01577295 168:0.12632776 169:2.2480926 170:0.0024170765 171:0.024513084 172:0.17273071 173:2.1515157 174:0.067315599 175:0.036262496 176:0.025087657 177:0.52352544 178:0.061289812 179:0.046762395 180:0.021037159 181:0.36748352 182:0.052245141 183:0.035689486 184:0.019839882 185:0.43921963 186:0.074347443 187:0.043705832 188:0.02769104 189:0.48765013 190:1.5275467 191:0.68735544 192:0.3215319 193:0.32474011 194:1.1648581 195:0.43388669 196:0.2059331 197:0.35131581 198:1.595821 199:0.68751787 200:0.31618789 201:0.31926068 202:1.5639492 203:0.69588393 204:0.31465525 205:0.31318241 206:1.2489136 207:0.47524363 208:0.20227858 209:0.31370502 210:1.8038585 211:0.70420284 212:0.31205073 213:0.30620373 214:1.83055 215:0.70613892 216:0.30488426 217:0.29816419 218:1.8061779 219:0.70044598 220:0.30645844 221:0.30263989 222:1.3101965 223:0.27266031 224:0.18541842 225:0.50073044 226:1.3385508 227:0.27295719 228:0.18506529 229:0.49941922 230:1.2159226 231:0.22557579 232:0.13864219 233:0.46228265 234:1.3004587 235:0.28730075 236:0.1843811 237:0.47520943 238:0.27023399 239:0.25069335 240:0.22160958 241:0.62632819 242:0.27304852 243:0.24516098 244:0.22487325 245:0.64586059 246:0.28533682 247:0.24707568 248:0.22768761 249:0.648302 250:0.27407694 251:0.24658348 252:0.22443312 253:0.64172546 254:2.678785 255:1.4378747 256:0.63674084 257:0.2446741 258:2.1582661 259:1.0691354 260:0.44898299 261:0.2594886 262:2.6913728 263:1.4240647 264:0.61876679 265:0.24028067 266:2.6412947 267:1.4272974 268:0.62392839 269:0.24175802 270:2.3480881 271:1.2482901 272:0.52821534 273:0.24694679 274:2.9194221 275:1.5818328 276:0.72401677 277:0.24297441 278:2.9158657 279:1.5727901 280:0.70522495 281:0.23754811 282:2.8785987 283:1.5657836 284:0.70940727 285:0.24118777 286:2.3527088 287:0.50176268 288:0.25481507 289:0.36837157 290:2.3453728 291:0.48765935 292:0.25629125 293:0.38172145 294:2.1243899 295:0.41753135 296:0.19390339 297:0.34565919 298:2.2431407 299:0.51191783 300:0.25457167 301:0.36024387 302:0.43563149 303:0.42936912 304:0.39222585 305:0.63950745 306:0.4444608 307:0.40898623 308:0.40494431 309:0.68712056 310:0.47282028 311:0.42394922 312:0.41240232 313:0.67639565 314:0.43710201 315:0.41421274 316:0.39374402 317:0.66282147 
-1.415770309112978 1:0.23825283 2:0.96019775 3:3.8859062 4:14.976036 5:10.583271 6:11.550351 7:11.648693 8:11.712538 9:11.765823 10:11.840181 11:11.951202 12:12.097779 13:12.263558 14:12.429767 15:10.529129 16:5.2109697 19:0.64425574 20:0.40976917 21:0.61686315 22:0.746157 23:0.81156157 24:0.91969413 25:0.96911693 26:1.5172737 27:1.2171861 28:1.1063159 29:1.0656365 30:0.99513112 31:0.9767271 32:8.3640817 33:3.8599662 34:3.1612653 35:2.9227502 36:2.5882378 37:2.4728187 38:2.8651873 39:1.613253 40:1.4364412 41:1.3747995 42:1.3033882 43:1.2700633 44:11.281323 45:11.379665 46:11.44351 47:11.496795 48:11.571153 49:11.682173 50:11.82875 51:11.994529 52:12.160738 53:14.707005 54:1.6595854 55:0.64336643 56:5.4344572 57:1.1271346 58:0.81462826 59:0.5618396 60:0.19558652 61:0.37011147 62:0.31481074 63:0.39877612 64:0.62057649 65:1.0134545 66:0.30968815 67:0.38390093 68:0.60813381 69:1.0254902 70:0.33289442 71:0.40145709 72:0.61842363 73:1.0053245 74:0.33504264 75:0.40679755 76:0.63180355 77:1.0134102 78:0.31115443 79:0.28668157 80:0.39676067 81:0.90294892 82:0.32063317 83:0.33504264 84:0.41739368 85:0.83356456 86:0.3220835 87:0.33789979 88:0.41871033 89:0.83009299 90:0.32930375 91:0.32786386 92:0.42133846 93:0.85463445 94:0.31772619 95:0.78207339 96:0.97040006 97:0.867922 98:0.33432708 99:0.79795754 100:0.94584953 101:0.8285195 102:0.34074879 103:0.79930738 104:0.97682123 105:0.85566604 106:0.35136085 107:0.78936604 108:0.97380464 109:0.86333205 110:0.82110054 111:0.87796562 112:0.57097955 113:0.43673959 114:0.84715499 115:0.87505198 116:0.58723095 117:0.45179001 118:0.8535639 119:0.88211328 120:0.56189889 121:0.42689125 122:0.85271175 123:0.8825271 124:0.58945194 125:0.44896511 126:0.60662532 127:0.3254929 128:0.73495205 129:1.3405847 130:0.36273435 131:0.16857162 132:0.51916218 133:1.5490089 134:0.85147441 135:0.33542598 136:0.72398962 137:1.2992043 138:0.86473888 139:0.35524212 140:0.74290545 141:1.2764078 142:0.41902673 143:0.045456041 144:0.16518727 145:1.5815058 146:0.91803122 147:0.22260421 148:0.32962959 149:0.94236113 150:0.94541216 151:0.23078151 152:0.32896844 153:0.9165359 154:1.0297037 155:0.19196408 156:0.33651652 157:1.0613994 158:0.43428707 159:0.91987709 160:0.97432074 161:0.73861421 162:0.65027152 163:0.94164459 164:0.96173588 165:0.70964484 166:0.63512604 167:0.79935279 168:0.80384652 169:0.69723033 170:0.79142749 171:0.94822729 172:0.96970372 173:0.71071152 174:0.98377329 175:1.0136105 176:0.61077213 177:0.39173326 178:1.0072909 179:0.98873641 180:0.66998909 181:0.4481088 182:1.0627485 183:1.0052923 184:0.62225733 185:0.40422367 186:1.0235086 187:0.99472217 188:0.66229718 189:0.43903334 190:3.2206676 191:1.2567792 192:0.86910101 193:0.43877286 194:2.734028 195:0.90507082 196:0.64875319 197:0.48261379 198:3.2956216 199:1.2576618 200:0.86171669 201:0.43382837 202:3.2742868 203:1.2573774 204:0.85298111 205:0.4286522 206:2.8628226 207:1.3541146 208:0.79075971 209:0.35023354 210:3.656047 211:1.7292995 212:1.1081421 213:0.36293054 214:3.6689028 215:1.7147049 216:1.0961837 217:0.36288949 218:3.6483725 219:1.7175263 220:1.0937826 221:0.36075013 222:2.7574679 223:0.79831183 224:0.70650507 225:0.61002967 226:2.9049058 227:0.80150056 228:0.70872866 229:0.60938778 230:2.7547305 231:0.67257349 232:0.56744052 233:0.58565773 234:2.8549223 235:0.81635105 236:0.70115354 237:0.59055284 238:0.8166242 239:0.79514766 240:0.84933478 241:0.74266089 242:0.81415878 243:0.77600147 244:0.87663972 245:0.78670856 246:0.8574172 247:0.78501553 248:0.89074028 249:0.79074293 250:0.82365952 251:0.77565531 252:0.86170402 253:0.77312681 254:3.9904197 255:1.7299569 256:1.1118411 257:0.36436877 258:3.4954263 259:1.3311558 260:0.85710235 261:0.3967183 262:4.0191217 263:1.7269206 264:1.1042537 265:0.36204321 266:3.9927024 267:1.7202594 268:1.0885613 269:0.3573737 270:3.6257965 271:2.0574021 272:1.1730755 273:0.28291397 274:4.4222246 275:2.3665626 276:1.5343128 277:0.31961088 278:4.4308696 279:2.3449155 280:1.5189732 281:0.32079426 282:4.3899262 283:2.3699037 284:1.5132428 285:0.31132511 286:3.4987518 287:0.97909124 288:0.84172838 289:0.58468854 290:3.6130817 291:0.97890415 292:0.84757496 293:0.58937318 294:3.4430136 295:0.83138927 296:0.68336196 297:0.56319907 298:3.525304 299:0.99777228 300:0.83525723 301:0.56667652 302:0.99091905 303:0.95558567 304:1.1120447 305:0.8220684 306:0.98279582 307:0.93452468 308:1.1359408 309:0.86181934 310:1.029909 311:0.94344198 312:1.1652149 313:0.87819543 314:0.99231689 315:0.93285557 316:1.1173032 317:0.84755483 
2 1:0.18890898 2:1.2103015 3:2.8542362 4:14.074604 5:9.6731305 6:10.43048 7:10.58126 8:10.672716 9:10.758669 10:10.869785 11:11.015597 12:11.188244 13:11.367533 14:11.537472 15:10.581283 16:4.9158135 19:0.52075081 20:0.31786811 21:0.43736421 22:0.55945177 23:0.67292304 24:0.78740453 25:0.86145686 26:1.7836996 27:1.4193826 28:1.233297 29:1.1218267 30:1.0484229 31:1.0145435 32:7.1898281 33:3.3872856 34:2.4863128 35:2.0301553 36:1.7646962 37:1.5686386 38:2.36607 39:1.3401939 40:1.1226087 41:1.0216668 42:0.96062106 43:0.90346848 44:10.222555 45:10.373334 46:10.46479 47:10.550742 48:10.661859 49:10.80767 50:10.980316 51:11.159604 52:11.329543 53:13.866673 54:1.5010252 55:0.60925892 56:4.9679523 57:1.2972402 58:0.96141781 59:0.62071411 60:0.16911473 61:0.31121084 62:0.28367405 63:0.31626953 64:0.36810932 65:0.78674544 66:0.26543646 67:0.28893129 68:0.34288023 69:0.79791072 70:0.29490592 71:0.31990722 72:0.36949245 73:0.78192516 74:0.29639401 75:0.32063317 76:0.36810932 77:0.77806215 78:0.25153663 79:0.26620304 80:0.54580659 81:1.2179727 82:0.2631332 83:0.30158498 84:0.57773633 85:1.1698753 86:0.26696903 87:0.30821972 88:0.58723095 89:1.1672972 90:0.27002714 91:0.29936358 92:0.56246886 93:1.1516234 94:0.25464222 95:0.68208623 96:0.89117803 97:0.90435903 98:0.26773443 99:0.69114518 100:0.91749001 101:0.91989862 102:0.27914574 103:0.66577598 104:0.91067499 105:0.94422686 106:0.27990189 107:0.70852828 108:0.94817692 109:0.92958714 110:0.51819838 111:0.56928319 112:0.58945194 113:0.71634404 114:0.51521597 115:0.58945194 116:0.62914185 117:0.7375989 118:0.5031966 119:0.63657683 120:0.62057649 121:0.67614954 122:0.54232429 123:0.61572603 124:0.6237971 125:0.70192157 126:0.16445965 127:0.13719779 128:0.14511801 129:0.72368754 130:0.053183357 131:0.031831945 132:0.055034438 133:1.0113241 134:0.23453126 135:0.14923864 136:0.14644996 137:0.68305341 138:0.24006832 139:0.15092118 140:0.14048516 141:0.65538716 142:0.033404795 143:0.011157523 144:0.26924821 145:3.3512184 146:0.11202069 147:0.054434207 148:0.45537338 149:2.4256737 150:0.13059835 151:0.062767266 152:0.46385413 153:2.3136013 154:0.13782354 155:0.051095125 156:0.41988465 157:2.3936459 158:0.036985525 159:0.56523256 160:0.6256539 161:0.76279124 162:0.066815302 163:0.57461812 164:0.64239847 165:0.77031746 166:0.084155469 167:0.46019316 168:0.50269829 169:0.75034193 170:0.093789934 171:0.61251559 172:0.65158585 173:0.73572379 174:0.36498611 175:0.41326594 176:0.40096969 177:0.67493076 178:0.36929478 179:0.43655348 180:0.46776926 181:0.73699085 182:0.35642191 183:0.509541 184:0.46375288 185:0.63546245 186:0.42019279 187:0.47981286 188:0.4605251 189:0.66776527 190:2.5666324 191:1.6341543 192:0.95261495 193:0.32645365 194:2.0578341 195:1.0547572 196:0.64191599 197:0.39272969 198:2.6259923 199:1.6386044 200:0.94577108 201:0.32183274 202:2.6120217 203:1.6349429 204:0.93200147 205:0.31689397 206:2.1159405 207:0.86020957 208:0.44565907 209:0.34484778 210:2.8301388 211:1.1837371 212:0.63474976 213:0.33012643 214:2.8518208 215:1.1666677 216:0.62449407 217:0.33089816 218:2.8062324 219:1.1809431 220:0.62386891 221:0.32474589 222:2.0952733 223:0.57929628 224:0.4645161 225:0.56154878 226:2.1915628 227:0.57720532 228:0.46584499 229:0.56513879 230:2.0626106 231:0.49143177 232:0.36018179 233:0.5206908 234:2.1415157 235:0.59333182 236:0.46045948 237:0.54346898 238:0.66606885 239:0.59889969 240:0.54117305 241:0.62888276 242:0.68245522 243:0.5859561 244:0.55160723 245:0.65433047 246:0.70244928 247:0.58649083 248:0.56094405 249:0.66431294 250:0.67708182 251:0.58821102 252:0.55201555 253:0.65235539 254:3.4025109 255:2.3035706 256:1.4113259 257:0.29581541 258:2.913714 259:1.6878841 260:1.0452319 261:0.34948788 262:3.4276345 263:2.3000484 264:1.4000461 265:0.29300239 266:3.4074884 267:2.2945304 268:1.3851254 269:0.2895356 270:3.0271995 271:1.4976298 272:0.62777525 273:0.2244491 274:3.7497107 275:1.8163304 276:0.85254464 277:0.23215958 278:3.7580539 279:1.7802461 280:0.83623576 281:0.23521045 282:3.6982704 283:1.8174815 284:0.84587642 285:0.22947467 286:2.9929566 287:0.74960927 288:0.57428594 289:0.52774705 290:3.0501037 291:0.74459476 292:0.57266344 293:0.53013401 294:2.8733376 295:0.64736289 296:0.44845946 297:0.4833683 298:2.9551725 299:0.75939128 300:0.56297129 301:0.50971581 302:0.91985358 303:0.81211307 304:0.73241068 305:0.62177684 306:0.94189961 307:0.78781625 308:0.73175136 309:0.6418481 310:0.97375781 311:0.77186917 312:0.74609962 313:0.66921303 314:0.92042139 315:0.78093093 316:0.73393061 317:0.64987061 
2 1:0.30119659 2:0.68668183 3:3.6532564 4:15.715689 5:11.355488 6:12.11978 7:12.221242 8:12.295228 9:12.380751 10:12.514063 11:12.706654 12:12.941403 13:13.177809 14:13.389779 15:10.426748 16:4.7559704 19:0.70061473 20:0.40028304 21:0.48066967 22:0.58904088 23:0.66548817 24:0.778794 25:0.88002252 26:1.4909106 27:1.3539331 28:1.2261825 29:1.1588403 30:1.0705725 31:1.0125761 32:8.6279749 33:4.4816712 34:3.4172709 35:2.9951199 36:2.4861263 37:2.0397871 38:3.2250638 39:1.8034014 40:1.4643923 41:1.3431619 42:1.2089006 43:1.0779142 44:11.768308 45:11.869769 46:11.943755 47:12.029278 48:12.16259 49:12.355181 50:12.589929 51:12.826335 52:13.038305 53:15.364214 54:2.0266287 55:0.76779212 56:5.5093412 57:1.7536023 58:0.75540858 59:0.61641137 60:0.21688561 61:0.31295354 62:0.34642257 63:0.37431838 64:0.43760956 65:0.79265354 66:0.37775127 67:0.3386128 68:0.37912113 69:0.7626364 70:0.36603104 71:0.37225297 72:0.43696378 73:0.79528762 74:0.36394843 75:0.37087366 76:0.43760956 77:0.79873032 78:0.36116485 79:0.31699813 80:0.41936801 81:0.87412742 82:0.38185524 83:0.36741704 84:0.45425527 85:0.83075245 86:0.38390093 87:0.37087366 88:0.46812687 89:0.84570559 90:0.3852624 91:0.3569749 92:0.46058441 93:0.86020111 94:0.37637953 95:0.65544531 96:0.87003735 97:0.91542636 98:0.3852624 99:0.66010733 100:0.84972349 101:0.88874933 102:0.39608795 103:0.64238006 104:0.88045628 105:0.94279556 106:0.41012092 107:0.68913916 108:0.89035735 109:0.89510019 110:0.67447392 111:0.54406696 112:0.44340295 113:0.57198695 114:0.63710579 115:0.56758396 116:0.48612301 117:0.59849139 118:0.64867269 119:0.54348641 120:0.49347599 121:0.6332151 122:0.67447392 123:0.56928319 124:0.50016904 125:0.61310456 126:1.1832518 127:0.61755904 128:0.37159252 129:0.42313278 130:1.1231943 131:0.17945746 132:0.11560823 133:0.48456953 134:1.4739469 135:0.59455482 136:0.36304183 137:0.43105878 138:1.4437629 139:0.59469938 140:0.36647962 141:0.43489769 142:1.022479 143:0.13034031 144:0.20515309 145:0.96914501 146:1.89709 147:0.45873601 148:0.41572892 149:0.63423759 150:1.9145513 151:0.46677718 152:0.45345495 153:0.67524743 154:1.923603 155:0.39127017 156:0.42687233 157:0.74760175 158:1.0959855 159:0.73750372 160:0.74325695 161:0.69866195 162:1.2627707 163:0.75269546 164:0.7281098 165:0.66992103 166:1.2581067 167:0.62155343 168:0.61180371 169:0.68261238 170:1.4730045 171:0.81271795 172:0.75591022 173:0.64224223 174:0.77288584 175:0.53321021 176:0.33523075 177:0.4481401 178:0.70552624 179:0.57973265 180:0.47708537 181:0.57563592 182:0.7747774 183:0.52727735 184:0.50621682 185:0.66738979 186:0.78613512 187:0.58895376 188:0.51157254 189:0.60579138 190:3.5417521 191:2.1867092 192:1.0555218 193:0.21266727 194:2.9554551 195:1.481999 196:0.71980226 197:0.26991263 198:3.5961679 199:2.1704007 200:1.0419753 201:0.21219584 202:3.5898504 203:2.189743 204:1.0450114 205:0.20894482 206:3.0613774 207:1.5771393 208:0.76825883 209:0.26310168 210:3.8575609 211:1.9462906 212:1.0380962 213:0.26531222 214:3.8510101 215:1.9174462 216:1.0274854 217:0.26935974 218:3.8427919 219:1.9293438 220:1.0222534 221:0.26418645 222:2.9374552 223:0.80002519 224:0.57179786 225:0.48824131 226:3.0411598 227:0.80703018 228:0.57189495 229:0.483446 230:2.8935417 231:0.69970364 232:0.45865826 233:0.4538698 234:2.9979422 235:0.81912587 236:0.57042572 237:0.47389355 238:0.80304812 239:0.82956659 240:0.94165083 241:0.79316671 242:0.80120216 243:0.81992255 244:0.97469171 245:0.8325421 246:0.85259239 247:0.82340673 248:0.98664257 249:0.83985494 250:0.81654155 251:0.82681538 252:0.96443612 253:0.81636697 254:4.240478 255:2.7856904 256:1.4512587 257:0.19464201 258:3.5789749 259:2.0833282 260:1.1022908 261:0.25155296 262:4.2540626 263:2.7718259 264:1.4357581 265:0.19367025 266:4.2528639 267:2.7949386 268:1.4386517 269:0.19003176 270:3.7180248 271:2.2371487 272:1.1209516 273:0.22085774 274:4.4951395 275:2.5414261 276:1.4144638 277:0.23604319 278:4.483805 279:2.504808 280:1.3893734 281:0.23741956 282:4.473072 283:2.5420827 284:1.3896779 285:0.22907393 286:3.5620395 287:1.0182229 288:0.70240321 289:0.45491664 290:3.6539211 291:1.0248986 292:0.70570846 293:0.45349562 294:3.4847964 295:0.90538144 296:0.56870974 297:0.41875178 298:3.570294 299:1.0287623 300:0.69779486 301:0.44563409 302:1.0151289 303:1.1032572 304:1.3104322 305:0.85207173 306:1.0263573 307:1.0790866 308:1.3129112 309:0.87508075 310:1.0814532 311:1.0961523 312:1.3212173 313:0.86671092 314:1.0307573 315:1.0863248 316:1.2903494 317:0.85083616 
-2 1:0.37581932 2:0.9101314 3:2.5871721 4:14.538422 5:10.091708 6:10.381984 7:10.484966 8:10.570785 9:10.675534 10:10.83219 11:11.046548 12:11.282599 13:11.510602 14:11.700996 15:10.203527 16:3.2215053 19:0.19115162 20:0.34290649 21:0.34673369 22:0.34399317 23:0.33895273 24:0.31072357 25:0.29764602 26:1.7070946 27:1.6659508 28:1.6739023 29:1.7057002 30:1.8105552 31:1.8755611 32:7.7668225 33:3.4393962 34:2.2574324 35:1.6288348 36:1.2122216 37:0.84141588 38:2.5754496 39:1.2305635 40:0.83782744 41:0.65106137 42:0.51648637 43:0.38626258 44:9.9258177 45:10.028798 46:10.114616 47:10.219363 48:10.376017 49:10.590373 50:10.826422 51:11.054423 52:11.244817 53:14.082238 54:1.9990579 55:0.64461376 56:5.7805191 57:1.7698318 58:0.55781588 59:0.53004632 60:0.25937596 61:0.25905649 62:0.30895421 63:0.32063317 64:0.36672428 65:0.77562906 66:0.33789979 67:0.28141246 68:0.30232435 69:0.73532218 70:0.31408055 71:0.32786386 72:0.36810932 73:0.7640282 74:0.31188676 75:0.3220835 76:0.36810932 77:0.7752123 78:0.34854196 79:0.39339253 80:0.39271754 81:0.69210914 82:0.33217731 83:0.45615822 84:0.45488999 85:0.69141568 86:0.3400373 87:0.46058441 88:0.45932178 89:0.69143622 90:0.33789979 91:0.46561903 92:0.45488999 93:0.67870946 94:0.30821972 95:0.33504264 96:0.24998021 97:0.53857775 98:0.31334982 99:0.3357577 100:0.24920109 101:0.53606813 102:0.34712953 103:0.32930375 104:0.28292076 105:0.60892935 106:0.32930375 107:0.33647224 108:0.22074067 109:0.48088175 110:0.347836 111:0.27687387 112:0.38390093 113:0.90303729 114:0.3457151 115:0.27914574 116:0.3825376 117:0.89494656 118:0.34642257 119:0.27155269 120:0.37706563 121:0.90338744 122:0.37018329 123:0.27459683 124:0.37706563 125:0.89582962 126:0.5242876 127:0.076719345 128:0.051442833 129:0.50803072 130:0.55844024 131:0.016525695 132:0.007772714 133:0.38408347 134:0.56917509 135:0.086980127 136:0.051885369 137:0.46123467 138:0.55816102 139:0.077951291 140:0.051144533 141:0.49911998 142:0.65951077 143:0.14405272 144:0.041304118 145:0.24071231 146:0.78635242 147:0.45035115 148:0.14253635 149:0.23846636 150:0.85907679 151:0.45859884 152:0.14586675 153:0.23893737 154:0.87089161 155:0.48041982 156:0.14042955 157:0.21869688 158:0.37210341 159:0.042626446 160:0.00098251717 161:0.022313199 162:0.41675711 163:0.043838879 164:0.00095254618 165:0.021049888 166:0.60731801 167:0.031772854 168:0.0020758439 169:0.062391531 170:0.52223252 171:0.046087468 172:0.0002469695 173:0.0052243294 174:0.029517054 175:0.0072000176 176:0.045304095 177:2.0032944 178:0.02923642 179:0.0076149327 180:0.046053088 181:1.9692988 182:0.030883168 183:0.005713646 184:0.042923465 185:2.1580494 186:0.043706789 187:0.0066518275 188:0.042653277 189:2.0187952 190:3.1690181 191:1.1060889 192:0.43857552 193:0.24073511 194:2.647138 195:0.79355797 196:0.27038967 197:0.22819159 198:3.1581965 199:1.0859923 200:0.43382125 201:0.24433972 202:3.1839779 203:1.0948566 204:0.42886583 205:0.23844351 206:2.6633202 207:0.73620619 208:0.26143922 209:0.24265594 210:3.1881709 211:1.0911048 212:0.43111206 213:0.24101647 214:3.1679813 215:1.0794787 216:0.4256278 217:0.24140538 218:3.2267563 219:1.0884458 220:0.42544419 221:0.23840254 222:2.797123 223:0.59262936 224:0.2032102 225:0.24578059 226:2.8078029 227:0.59909032 228:0.20324855 229:0.24270693 230:2.5856332 231:0.51686575 232:0.13457984 233:0.19298121 234:2.7319902 235:0.61615922 236:0.21274083 237:0.24553811 238:0.36053608 239:0.47544318 240:0.31591305 241:0.47642609 242:0.36940191 243:0.46879102 244:0.32615491 245:0.4976188 246:0.38269789 247:0.45562196 248:0.32864814 249:0.51530617 250:0.36545737 251:0.47338852 252:0.32679196 253:0.49372931 254:3.9537664 255:1.6800304 256:0.72988067 257:0.22009732 258:3.338669 259:1.3679155 260:0.53240315 261:0.21525008 262:3.924802 263:1.6416214 264:0.72154366 265:0.226352 266:3.9580092 267:1.663739 268:0.71398114 269:0.21796135 270:3.3330949 271:1.1070767 272:0.44277952 273:0.24295245 274:3.9171664 275:1.474536 276:0.65212569 277:0.24134804 278:3.8728278 279:1.4569187 280:0.64201914 281:0.24171091 282:3.9403119 283:1.4627367 284:0.64448358 285:0.24119956 286:3.5645218 287:0.98852916 288:0.47631678 289:0.30866635 290:3.561495 291:0.99646512 292:0.47859103 293:0.30691248 294:3.2540402 295:0.88754675 296:0.2974455 297:0.21703694 298:3.4455273 299:1.0186971 300:0.55314806 301:0.3488616 302:0.63106378 303:0.91272558 304:0.53243368 305:0.38629044 306:0.64736656 307:0.89772342 308:0.54867212 309:0.40727347 310:0.66703418 311:0.89208533 312:0.55673106 313:0.41690344 314:0.61786852 315:0.91501752 316:0.5540058 317:0.40180642 
-0.432249647893502 1:0.21878205 2:1.2386209 3:3.8007937 4:14.365892 5:9.8536143 6:9.3674997 7:9.5065176 8:9.6076596 9:9.6650601 10:9.7119882 11:9.8097188 12:10.039322 13:10.367256 14:10.63404 15:10.552096 16:5.3618853 18:3.2626455 19:0.20340278 20:0.28680394 21:0.45595288 22:0.57309877 23:0.66691254 24:0.79539461 25:0.9504989 26:1.9923637 27:1.3986897 28:1.230539 29:1.1389625 30:1.049365 31:0.98465119 32:7.6258083 33:1.7587685 34:0.72041744 35:0.36709427 36:0.19475148 37:0.10329729 38:2.2121457 39:0.77725806 40:0.49070108 41:0.36815776 42:0.28800952 43:0.22527408 44:9.1229635 45:9.2619783 46:9.3631183 47:9.4205177 48:9.467445 49:9.5651741 50:9.7947742 51:10.122705 52:10.389487 53:14.121332 54:1.8887792 55:0.41637801 56:7.000668 57:0.90414973 58:1.1304284 59:0.63274675 60:0.15037155 61:0.29242705 62:0.25541711 63:0.23822919 64:0.33504264 65:0.90807871 66:0.28367405 67:0.24842136 68:0.33002291 69:0.86983833 70:0.26005391 71:0.24059046 72:0.34074879 73:0.9133452 74:0.2631332 75:0.24059046 76:0.3386128 77:0.90891077 78:0.3074847 79:0.28517894 80:0.43178242 81:0.9694007 82:0.29192307 83:0.29416104 84:0.41541544 85:0.9186272 86:0.30158498 87:0.2934156 88:0.4167347 89:0.92272161 90:0.29936358 91:0.29490592 92:0.41871033 93:0.92268425 94:0.25386672 95:0.43372857 96:0.94817692 97:1.363947 98:0.2592826 99:0.43243156 100:0.97267107 101:1.3964093 102:0.29117596 103:0.43372857 104:0.96164643 105:1.3802911 106:0.28292076 107:0.39944704 108:0.9662231 109:1.4622554 110:0.51521597 111:0.67549225 112:0.61139468 113:0.62784837 114:0.5235444 115:0.65596439 116:0.61950064 117:0.65521995 118:0.51700648 119:0.66474771 120:0.60922195 121:0.63592635 122:0.53356511 123:0.64919529 124:0.61193713 125:0.65410173 126:0.096569387 127:0.0033503812 128:0.021609817 129:2.016067 130:0.14430811 131:0.0031839259 132:0.011977977 133:1.5641717 134:0.11106989 135:0.0036114708 136:0.023383463 137:2.0201872 138:0.13024462 139:0.0037499601 140:0.022643686 141:1.9595235 142:0.24440707 143:0.010463071 144:0.050440231 145:1.77812 146:0.27377431 147:0.022040318 148:0.07159854 149:1.4657054 150:0.33759518 151:0.021090034 152:0.070140613 153:1.4836357 154:0.33913298 155:0.022204642 156:0.072911185 157:1.4744243 158:0.067349255 159:0.0829155 160:0.14758172 161:1.04364 162:0.084301626 163:0.081556024 164:0.15134675 165:1.0725893 166:0.16804851 167:0.066722697 168:0.1125239 169:1.0028709 170:0.1593301 171:0.058951694 172:0.14822257 173:1.2895422 174:0.099073091 175:0.21566203 176:0.13281526 177:0.46382898 178:0.10264232 179:0.20372013 180:0.13997496 181:0.50978428 182:0.10586969 183:0.20785203 184:0.13615632 185:0.48940605 186:0.1101764 187:0.19870823 188:0.13606992 189:0.5086707 190:2.9576894 191:0.83372575 192:0.34074239 193:0.27143835 194:2.4448716 195:0.57711942 196:0.22209901 197:0.27647349 198:2.9357722 199:0.81415435 200:0.33099584 201:0.27160528 202:2.9854164 203:0.83454691 204:0.33361387 205:0.26523476 206:2.3647082 207:0.51887653 208:0.20630579 209:0.29034303 210:2.8571438 211:0.74513224 212:0.33260047 213:0.3049366 214:2.842628 215:0.73300087 216:0.32243923 217:0.301494 218:2.9017565 219:0.73892949 220:0.32705157 221:0.30286448 222:2.6789161 223:0.31850973 224:0.096436818 225:0.23895233 226:2.6978374 227:0.31748162 228:0.096681966 229:0.24032471 230:2.3890826 231:0.26182412 232:0.072127154 233:0.22305795 234:2.5636137 235:0.33164561 236:0.095202901 237:0.22632728 238:0.20552363 239:0.22602181 240:0.17225186 241:0.55459061 242:0.20246808 243:0.22587582 244:0.1760402 245:0.5650598 246:0.21656516 247:0.22455376 248:0.17799722 249:0.57314105 250:0.20477671 251:0.22503297 252:0.17602595 253:0.56682744 254:3.9082041 255:1.5494267 256:0.61318797 257:0.20554236 258:3.2663775 259:1.1408617 260:0.42184948 261:0.22028908 262:3.8622438 263:1.5136954 264:0.5919408 265:0.20528992 266:3.9023962 267:1.5427965 268:0.59842873 269:0.20111632 270:3.1142995 271:0.96450473 272:0.33824994 273:0.22147576 274:3.6789783 275:1.27227 276:0.53646004 277:0.24400914 278:3.6322647 279:1.2574611 280:0.52051315 281:0.2400927 282:3.7022001 283:1.2612421 284:0.5263243 285:0.24201633 286:3.6176883 287:0.5051059 288:0.12297929 289:0.18159629 290:3.6152883 291:0.50440264 292:0.12262286 293:0.18138028 294:3.186016 295:0.42163894 296:0.09199469 297:0.16867131 298:3.3940862 299:0.54539109 300:0.12093274 301:0.16317272 302:0.31102768 303:0.30887491 304:0.24581578 305:0.57099198 306:0.30452813 307:0.31155801 308:0.24979795 309:0.57451622 310:0.32640458 311:0.30851138 312:0.25396447 313:0.58779889 314:0.30552985 315:0.31142619 316:0.25089645 317:0.57690096 
-0.3125562250899526 1:0.59831109 2:0.70166133 3:3.0124884 4:15.212711 5:10.623106 6:11.002248 7:11.051804 8:11.042006 9:11.016599 10:11.020979 11:11.118993 12:11.372816 13:11.699522 14:11.968297 15:10.385359 16:4.341523 19:0.26303481 20:0.3280418 21:0.32704292 22:0.38341171 23:0.42531022 24:0.46453181 25:0.84459793 26:1.7647202 27:1.8513128 28:1.6966609 29:1.5837765 30:1.4880998 31:1.0666516 32:8.2719171 33:2.9777781 34:1.5187422 35:0.99189864 36:0.52004717 37:0.17192352 38:2.8805726 39:0.96539894 40:0.59870517 41:0.47504403 42:0.3608784 43:0.26741992 44:10.183225 45:10.23278 46:10.222982 47:10.197576 48:10.201955 49:10.299967 50:10.553787 51:10.880488 52:11.149261 53:14.393667 54:2.449789 55:0.51128832 56:6.845428 57:1.8207139 58:0.78039403 59:0.90563658 60:0.22449304 61:0.19246164 62:0.34642257 63:0.28743204 64:0.30084506 65:0.7198154 66:0.38117242 67:0.28216689 68:0.28818195 69:0.70534251 70:0.35417181 71:0.29192307 72:0.2934156 73:0.69609284 74:0.35767444 75:0.28517894 76:0.29565024 77:0.71413734 78:0.39810475 79:0.37912113 80:0.40679755 81:0.73665532 82:0.38390093 83:0.38594244 84:0.47995396 85:0.83631896 86:0.39271754 87:0.39743294 88:0.48242615 89:0.81999655 90:0.38797979 91:0.38933573 92:0.49469624 93:0.85208837 94:0.36186147 95:0.26773443 96:0.41409443 97:0.98245668 98:0.36672428 99:0.26849925 100:0.41144718 101:0.97553916 102:0.40413089 103:0.26773443 104:0.5359084 105:1.1967808 106:0.37569295 107:0.26236426 108:0.40945713 109:0.98830139 110:0.3213586 111:0.31845373 112:0.45995329 113:0.93896492 114:0.3155404 115:0.31990722 116:0.44211843 117:0.90615999 118:0.30895421 119:0.31626953 120:0.43889988 121:0.90873546 122:0.3264219 123:0.31845373 124:0.45171236 125:0.92531668 126:1.0998359 127:0.04152095 128:0.015003877 129:0.30495651 130:1.1678015 131:0.022940835 132:0.0062951439 133:0.24067851 134:1.1895876 135:0.046337635 136:0.011948334 137:0.22589416 138:1.2557784 139:0.038493526 140:0.012986312 141:0.28748005 142:1.3539375 143:0.17395079 144:0.062484538 145:0.29219711 146:1.6526809 147:0.29806251 148:0.2210702 149:0.53795137 150:1.7165974 151:0.33369768 152:0.22109666 153:0.48530349 154:1.7190337 155:0.30982021 156:0.24035695 157:0.55854207 158:1.1006392 159:0.0046710735 160:0.037899649 161:2.224711 162:1.1848383 163:0.0047417402 164:0.036578765 165:2.179155 166:1.3581269 167:0.0036971571 168:0.053362552 169:2.7599729 170:1.2057768 171:0.0039591522 172:0.035744486 173:2.3197168 174:0.017417432 175:0.011932523 176:0.090056403 177:2.180426 178:0.014830483 179:0.011972048 180:0.076536877 181:2.0287091 182:0.013818089 183:0.010940929 184:0.078201013 185:2.127477 186:0.019283865 187:0.01160935 188:0.086450136 189:2.1671306 190:3.4148361 191:1.2696937 192:0.48524317 193:0.21832798 194:2.970084 195:0.97401157 196:0.31738552 197:0.20423144 198:3.4148228 199:1.2555422 200:0.47658257 201:0.21775064 202:3.4435221 203:1.2646529 204:0.48375551 205:0.21894515 206:2.9930342 207:0.96885244 208:0.32242619 209:0.20922068 210:3.5349517 211:1.3088446 212:0.53103111 213:0.23058063 214:3.4997781 215:1.2903645 216:0.52323392 217:0.23189713 218:3.5639657 219:1.307289 220:0.52303538 221:0.22702481 222:3.1638098 223:0.43084756 224:0.18940805 225:0.32729165 226:3.2063557 227:0.42661062 228:0.18863409 229:0.32943539 230:2.9247213 231:0.35484387 232:0.10027239 233:0.22123132 234:3.1003214 235:0.44189925 236:0.18883281 237:0.31775603 238:0.36330194 239:0.27788322 240:0.27508607 241:0.68737405 242:0.35547202 243:0.27053617 244:0.2750048 245:0.70255033 246:0.38283701 247:0.26914736 248:0.28847276 249:0.73366225 250:0.36026619 251:0.27093283 252:0.28309256 253:0.71859463 254:4.1136739 255:1.9554608 256:0.88472039 257:0.21060689 258:3.5871446 259:1.6034027 260:0.63253587 261:0.20070651 262:4.0929393 263:1.9265868 264:0.88308549 265:0.21655389 266:4.1171824 267:1.9540376 268:0.89151227 269:0.21312635 270:3.5834817 271:1.4153166 272:0.52665153 273:0.20077851 274:4.1682224 275:1.8078734 276:0.77092132 277:0.20531272 278:4.1123427 279:1.7704487 280:0.759132 281:0.20959944 282:4.1875583 283:1.8006756 284:0.75194142 285:0.2003571 286:3.8213717 287:0.8600416 288:0.3191146 289:0.24352875 290:3.8548867 291:0.85155678 292:0.31897287 293:0.24662333 294:3.5040562 295:0.73168593 296:0.15314074 297:0.14274185 298:3.7298987 299:0.88945012 300:0.32002341 301:0.23353022 302:0.66510052 303:0.52764203 304:0.42969648 305:0.57235544 306:0.65921287 307:0.51386799 308:0.43738617 309:0.59705469 310:0.7119341 311:0.51528049 312:0.45869366 313:0.62238775 314:0.65419115 315:0.51629484 316:0.44502871 317:0.60400499 
-2 1:0.1859209 2:1.1693901 3:3.5413429 4:14.309677 5:9.9211801 6:10.254373 7:10.382994 8:10.515037 9:10.664152 10:10.845058 11:11.050804 12:11.258923 13:11.451984 14:11.621675 15:10.52731 16:5.0963902 18:0.69270458 19:0.19880905 20:0.26158011 21:0.27496227 22:0.30506486 23:0.32597447 24:0.34374714 25:0.39481257 26:2.1101988 27:2.0722092 28:1.887209 29:1.7775596 30:1.6603916 31:1.5037402 32:7.6461207 33:3.6311891 34:2.4377333 35:1.7945944 36:1.177095 37:0.66128441 38:2.3151938 39:1.1248812 40:0.82374289 41:0.67421357 42:0.53955593 43:0.41156248 44:10.050054 45:10.178674 46:10.310716 47:10.459831 48:10.640735 49:10.846481 50:11.054599 51:11.247659 52:11.41735 53:14.10535 54:1.7654158 55:0.60667929 56:5.5361143 57:2.083031 58:0.84448749 59:0.79166856 60:0.19498602 61:0.22107822 62:0.28216689 63:0.24998021 64:0.28517894 65:0.77102077 66:0.3155404 67:0.24294618 68:0.27763174 69:0.77179014 70:0.28968008 71:0.25541711 72:0.28893129 73:0.76602722 74:0.29192307 75:0.24998021 76:0.28818195 77:0.77751406 78:0.32930375 79:0.29639401 80:0.36325326 81:0.81958818 82:0.31261856 83:0.30601303 84:0.37775127 85:0.82510615 86:0.31918074 87:0.31188676 88:0.3845819 89:0.82479849 90:0.32063317 91:0.30158498 92:0.3852624 93:0.8481091 94:0.27383667 95:0.26236426 96:0.37912113 97:0.93085101 98:0.28141246 99:0.25386672 100:0.3832195 101:0.96161471 102:0.31772619 103:0.2585107 104:0.37775127 105:0.93841693 106:0.3074847 107:0.26159474 108:0.3845819 109:0.94334621 110:0.27002714 111:0.25619141 112:0.37294192 113:0.93528715 114:0.27459683 115:0.24529636 116:0.3583735 117:0.93623453 118:0.26390154 119:0.25231393 120:0.35065687 121:0.9015486 122:0.27002714 123:0.2569651 124:0.36464311 125:0.9169729 126:0.26320007 127:0.007314186 128:0.0084065656 129:0.76550505 130:0.34787201 131:0.0033264612 132:0.0041862255 133:0.81494658 134:0.31659236 135:0.0090330786 136:0.0090885735 137:0.69620301 138:0.33623721 139:0.0071325031 140:0.0088546813 141:0.80758552 142:0.43891536 143:0.018456624 144:0.02740892 145:0.91298126 146:0.52104067 147:0.039026464 148:0.055152737 149:0.8857243 150:0.57326958 151:0.044488545 152:0.059344744 153:0.85184863 154:0.60756369 155:0.03435215 156:0.059724452 157:1.0155846 158:0.14408563 159:0.0046402175 160:0.024813581 161:1.8566326 162:0.1826715 163:0.0033184877 164:0.026551372 165:2.2077623 166:0.33678862 167:0.0032028653 168:0.018037345 169:1.8981349 170:0.32210596 171:0.0047815501 172:0.026642905 173:1.8921383 174:0.004913907 175:0.0032985538 176:0.038714816 177:2.5607883 178:0.0057593829 179:0.0021027876 180:0.032213528 181:2.806579 182:0.0042170955 183:0.0027552009 184:0.027974052 185:2.4233536 186:0.0050432614 187:0.0032457269 188:0.035842899 189:2.5034969 190:3.0866971 191:0.98705111 192:0.43563537 193:0.28090592 194:2.5562088 195:0.7109316 196:0.29603112 197:0.28711466 198:3.0886847 199:0.97996613 200:0.42373977 201:0.27538376 202:3.0880037 203:0.97089406 204:0.42238712 205:0.27795593 206:2.5299775 207:0.62529972 208:0.26754314 209:0.30237682 210:3.0696172 211:0.89069309 212:0.40422234 213:0.29765344 214:3.0527036 215:0.88339722 216:0.39590691 217:0.29436966 218:3.0894749 219:0.88312064 220:0.39489679 221:0.29370192 222:2.7353304 223:0.50109584 224:0.19559639 225:0.28675139 226:2.7467344 227:0.50013387 228:0.19722166 229:0.28964489 230:2.4741786 231:0.41918128 232:0.14823551 233:0.26762502 234:2.6547299 235:0.52575404 236:0.19436376 237:0.27013858 238:0.42063677 239:0.46171059 240:0.3168641 241:0.49185807 242:0.42144541 243:0.46400128 244:0.3312242 245:0.50986536 246:0.44403369 247:0.45336154 248:0.32920374 249:0.51860449 250:0.42940101 251:0.44504986 252:0.33214503 253:0.53226103 254:3.9484411 255:1.7151755 256:0.83449178 257:0.25156306 258:3.2950878 259:1.3605501 260:0.61090894 261:0.25506693 262:3.919939 263:1.6882338 264:0.8084712 265:0.24857657 266:3.9161206 267:1.6945589 268:0.80775317 269:0.24659207 270:3.2345588 271:1.1001235 272:0.47185379 273:0.26297869 274:3.8423149 275:1.440815 276:0.66890572 277:0.25874542 278:3.8021668 279:1.4185248 280:0.65100817 281:0.25698598 282:3.8391305 283:1.4392129 284:0.64888438 285:0.24990076 286:3.6039883 287:0.98618911 288:0.34520684 289:0.21934434 290:3.5888745 291:1.0041459 292:0.34569953 293:0.21412218 294:3.2033951 295:0.85996543 296:0.2666719 297:0.20229329 298:3.4191422 299:1.0254027 300:0.34012342 301:0.20420535 302:0.83816572 303:0.93679507 304:0.54225917 305:0.38110957 306:0.83077293 307:0.96761977 308:0.57607727 309:0.39031966 310:0.88954462 311:0.93196997 312:0.58010725 313:0.41257444 314:0.85316817 315:0.90672553 316:0.57200614 317:0.42057701 
