svm_type nu_svr
kernel_type linear
nr_class 2
total_sv 261
rho 1.98713
SV
-1 1:0.90252887 2:0.00016698606 3:0.27801121 4:3.8530268 5:14.724467 6:10.475032 7:11.910519 8:11.982559 9:12.04865 10:12.110556 11:12.182593 12:12.272392 13:12.372525 14:12.475104 15:12.573614 16:10.096485 17:4.6048945 20:1.5649254 21:0.71771735 22:0.96436979 23:0.97854377 24:0.98793582 25:0.99891828 26:1.0024703 27:1.1908329 28:0.9826768 29:0.97585088 30:0.97192599 31:0.96829819 32:0.9674765 33:8.0040817 34:5.1197033 35:4.8629611 36:4.7223734 37:4.5782909 38:4.3163631 39:2.9968775 40:2.3916001 41:2.2813098 42:2.2216599 43:2.1605226 44:2.0434103 45:10.44471 46:10.516749 47:10.582839 48:10.644743 49:10.716779 50:10.806576 51:10.906708 52:11.009286 53:11.107795 54:1.1600587 55:0.75213612 56:3.4240568 57:0.98462308 58:0.62437635 59:0.4868675 60:0.32863476 61:0.47826805 
-1 1:0.25033061 2:0.00034194153 3:0.56333799 4:3.6685952 5:14.927504 6:10.529934 7:11.845006 8:11.967819 9:12.053826 10:12.140377 11:12.235519 12:12.35806 13:12.500356 14:12.646226 15:12.784003 16:10.302865 17:4.6967061 20:0.54427413 21:0.36346673 22:0.42638345 23:0.47889647 24:0.57132751 25:0.70496804 26:0.84840453 27:1.6404971 28:1.4778087 29:1.3952187 30:1.2414902 31:1.0968988 32:1.0216114 33:8.283645 34:4.4879473 35:3.5232577 36:2.7317551 37:2.0081382 38:1.56385 39:2.8858576 40:1.7576839 41:1.4246188 42:1.2062124 43:1.0254525 44:0.89766719 45:11.560559 46:11.683371 47:11.769378 48:11.855929 49:11.951071 50:12.073611 51:12.215907 52:12.361777 53:12.499554 54:1.8287246 55:0.80252125 56:5.2635868 57:2.1297143 58:0.8241829 59:0.68247678 60:0.19501605 61:0.27360408 
-1 1:0.48679683 2:0.0005538466 3:0.4510495 4:3.3743717 5:14.791247 6:10.462732 7:11.273065 8:11.31247 9:11.388562 10:11.476516 11:11.581739 12:11.722696 13:11.890754 14:12.066521 15:12.232774 16:10.181265 17:4.3943458 20:0.71856733 21:0.4395354 22:0.60603744 23:0.70542105 24:0.80123941 25:0.86085455 26:0.87535123 27:1.461537 28:1.2044733 29:1.1173627 30:1.0488981 31:1.0147965 32:1.0086092 33:8.1756931 34:3.9333315 35:2.9972386 36:2.4698235 37:2.0290339 38:1.6057684 39:2.8622027 40:1.6978579 41:1.3828248 42:1.2202173 43:1.0756111 44:0.91921007 45:10.645981 46:10.685384 47:10.761476 48:10.849429 49:10.954651 50:11.095607 51:11.263664 52:11.43943 53:11.605683 54:1.8110423 55:0.77628278 56:5.5540712 57:1.6757145 58:0.76713883 59:0.5480728 60:0.21885014 61:0.38099147 
-1 1:0.32468229 2:0.00045689561 3:0.62288779 4:3.9032592 5:14.732229 6:10.368855 7:11.119844 8:11.259373 9:11.378335 10:11.496 11:11.625678 12:11.779124 13:11.941941 14:12.102352 15:12.249754 16:10.361625 17:4.8937133 20:0.58855692 21:0.46123593 22:0.6740352 23:0.70684691 24:0.70069959 25:0.67044237 26:0.65598826 27:1.4583399 28:1.1177006 29:1.0918142 30:1.0953162 31:1.1163782 32:1.1268657 33:8.01547 34:4.4249032 35:3.7764516 36:3.1903406 37:2.5840066 38:1.625503 39:2.7746311 40:1.9860037 41:1.7196071 42:1.473896 43:1.2292261 44:0.85789014 45:10.73626 46:10.875788 47:10.994749 48:11.112413 49:11.242091 50:11.395537 51:11.558353 52:11.718764 53:11.866165 54:1.6088851 55:1.0172222 56:4.8816427 57:2.1869001 58:0.73258924 59:0.50361269 60:0.26176569 61:0.41458243 
-1 1:0.33367977 2:0.00038292667 3:0.5705286 4:3.2116812 5:14.447288 6:10.306383 7:10.051913 8:10.158837 9:10.250032 10:10.351352 11:10.486468 12:10.677805 13:10.912204 14:11.157335 15:11.370512 16:10.213465 17:4.64098 20:0.28828464 21:0.50237824 22:0.62015812 23:0.6662019 24:0.67990489 25:0.69222526 26:0.73375347 27:1.3302754 28:1.1650125 29:1.1257789 30:1.1145919 31:1.1037073 32:1.0772405 33:7.6667226 34:2.7576105 35:1.677704 36:1.1742042 37:0.76980771 38:0.42399503 39:2.645891 40:1.252105 41:0.88037419 42:0.7086814 43:0.56113007 44:0.41647824 45:9.6558378 46:9.7627602 47:9.8539534 48:9.9552717 49:10.090385 50:10.28172 51:10.516117 52:10.761246 53:10.974421 54:2.0344121 55:0.66192343 56:6.2626012 57:1.5439044 58:0.65418369 59:0.5371097 60:0.28073807 61:0.37393699 
-1 1:0.30638041 2:0.00085963041 3:0.62469434 4:3.5292218 5:14.227486 6:9.9279362 7:10.251181 8:10.360003 9:10.458242 10:10.546921 11:10.645287 12:10.764255 13:10.896876 14:11.03936 15:11.16826 16:10.222046 17:4.7744473 20:0.52619018 21:0.52243359 22:0.75951996 23:0.78305781 24:0.78816277 25:0.8664137 26:0.93254668 27:1.392967 28:1.0864405 29:1.0843562 30:1.0711757 31:1.0151977 32:0.98831405 33:7.8844812 34:2.88772 35:2.290113 36:1.9802965 37:1.8845661 38:1.9930402 39:2.4912954 40:1.3706689 41:1.1460314 42:1.0342761 43:1.0218579 44:1.0768812 45:9.8926977 46:10.001518 47:10.099755 48:10.188433 49:10.286799 50:10.405765 51:10.538385 52:10.680868 53:10.809767 54:1.5323897 55:0.55319864 56:5.7040914 57:0.82547758 58:0.73408187 59:0.53484475 60:0.25299735 61:0.39366647 
-1 1:0.61275349 2:0.00028895825 3:0.71696526 4:4.2843231 5:15.034918 6:10.603064 7:12.406342 8:12.459479 9:12.525876 10:12.601298 11:12.692338 12:12.800635 13:12.916563 14:13.030519 15:13.136775 16:10.475078 17:4.6811402 20:1.2430321 21:0.48488362 22:0.71143739 23:0.80785126 24:0.84063874 25:0.91026139 26:0.95636032 27:1.4084054 28:1.1129211 29:1.051891 30:1.0307202 31:0.99782574 32:0.98097037 33:8.1978282 34:5.2252308 35:4.8249928 36:4.627475 37:4.40737 38:4.0999076 39:3.0161211 40:2.3343671 41:2.2023828 42:2.1340191 43:2.0620331 44:1.9384858 45:11.560841 46:11.613979 47:11.680375 48:11.755796 49:11.846836 50:11.955133 51:12.07106 52:12.185016 53:12.291272 54:1.2373998 55:0.76074309 56:3.7005968 57:1.1097662 58:0.75087594 59:0.52809065 60:0.22801479 61:0.39764656 
-1 1:0.32104673 2:0.00047088911 3:0.88106099 4:3.2920836 5:14.606607 6:10.155801 7:11.463986 8:11.57163 9:11.684168 10:11.809268 11:11.942001 12:12.090368 13:12.248621 14:12.405008 15:12.550802 16:10.512642 17:4.3720469 20:0.57702058 21:0.32535784 22:0.37551161 23:0.4254736 24:0.48283471 25:0.56678035 26:0.69536023 27:1.7429692 28:1.5739191 29:1.4500102 30:1.3389255 31:1.2212478 32:1.1074214 33:7.7605151 34:4.4582669 35:3.4926995 36:2.854443 37:2.2934517 38:1.7962782 39:2.706485 40:1.7274122 41:1.4095042 42:1.2218913 43:1.0701871 44:0.94330767 45:11.08542 46:11.193064 47:11.305602 48:11.430702 49:11.563434 50:11.7118 51:11.870053 52:12.026439 53:12.172234 54:1.6583944 55:0.77513612 56:4.7092908 57:1.9329923 58:0.84497119 59:0.70091723 60:0.193771 61:0.25890236 
-1 1:0.34754358 2:0.00073772781 3:0.89353743 4:3.7786311 5:14.514892 6:10.0866 7:10.741173 8:10.917836 9:11.041912 10:11.151262 11:11.272042 12:11.415217 13:11.570786 14:11.727518 15:11.871439 16:10.509193 17:4.7118048 20:0.63886046 21:0.44493002 22:0.68199017 23:0.70337718 24:0.67940519 25:0.64884936 26:0.63693708 27:1.5211408 28:1.1097668 29:1.0939545 30:1.1103488 31:1.1329918 32:1.1430623 33:7.7636197 34:4.0869435 35:3.489022 36:2.9395167 37:2.3296175 38:1.3982825 39:2.5896806 40:1.8464588 41:1.5965883 42:1.3652655 43:1.1232659 44:0.77022627 45:10.325598 46:10.502259 47:10.626334 48:10.735683 49:10.856463 50:10.999636 51:11.155204 52:11.311936 53:11.455857 54:1.5400323 55:0.97488541 56:4.9249562 57:2.1109106 58:0.76938054 59:0.50104232 60:0.25481168 61:0.41450856 
-1 1:0.3131634 2:0.0004908795 3:0.7806364 4:3.0615193 5:14.18318 6:9.972827 7:9.8077737 8:9.949885 9:10.088519 10:10.21721 11:10.376373 12:10.577184 13:10.807165 14:11.037407 15:11.236488 16:10.431112 17:4.4770692 20:0.29079547 21:0.4231223 22:0.49729834 23:0.53432494 24:0.55245823 25:0.58485794 26:0.64429721 27:1.4583659 28:1.3229959 29:1.2616344 30:1.2316511 31:1.1935281 32:1.1422004 33:7.5466581 34:2.7570051 35:1.6366658 36:1.1119601 37:0.71301647 38:0.39232245 39:2.5233096 40:1.167935 41:0.80696325 42:0.64237428 43:0.51069682 44:0.38440489 45:9.4400531 46:9.5821612 47:9.7207922 48:9.8494813 49:10.008642 50:10.20945 51:10.439429 52:10.669669 53:10.868749 54:1.9683369 55:0.61795702 56:6.1652974 57:1.5497487 58:0.69023073 59:0.58706502 60:0.25508887 61:0.32091853 
-1 1:0.25248097 2:0.00055784438 3:0.74415393 4:2.892957 5:14.42851 6:10.214569 7:10.58841 8:10.719778 9:10.805666 10:10.873919 11:10.952889 12:11.0582 13:11.188708 14:11.337198 15:11.478192 16:10.468437 17:4.5767944 20:0.4097061 21:0.39674789 22:0.62897179 23:0.6918198 24:0.72227676 25:0.74785693 26:0.78636745 27:1.6167003 28:1.1567614 29:1.1015736 30:1.0810113 31:1.0662451 32:1.0461081 33:7.8189425 34:2.799656 35:2.420576 36:2.2761904 37:2.0225293 38:1.6878904 39:2.3988653 40:1.2897912 41:1.1743797 42:1.1297091 43:1.0444398 44:0.93072683 45:10.301203 46:10.43257 47:10.518458 48:10.58671 49:10.66568 50:10.77099 51:10.901498 52:11.049987 53:11.19098 54:1.5017502 55:0.62478976 56:5.7023135 57:1.0629078 58:0.86642811 59:0.53425276 60:0.20826061 61:0.37883126 
-1 1:0.15257344 2:0.00021197753 3:0.89713768 4:2.3993091 5:14.255563 6:9.8596402 7:10.371489 8:10.45199 9:10.554677 10:10.684122 11:10.829082 12:11.008896 13:11.211444 14:11.413251 15:11.589756 16:10.509498 17:4.2476692 20:0.20178834 21:0.24224947 22:0.24557488 23:0.2737378 24:0.33464199 25:0.44098732 26:0.63170732 27:2.208043 28:2.188263 29:2.0076801 30:1.7177948 31:1.4224158 32:1.1683557 33:7.6524557 34:2.8210473 35:1.5216123 36:0.740389 37:0.31034824 38:0.14303744 39:2.2289824 40:0.81610878 41:0.52753229 42:0.3839057 43:0.28890507 44:0.23149736 45:10.206667 46:10.287167 47:10.389853 48:10.519298 49:10.664258 50:10.844071 51:11.046618 52:11.248425 53:11.42493 54:1.8900916 55:0.43650418 56:6.3504833 57:1.7073751 58:0.97951286 59:0.99932219 60:0.15512523 61:0.18677023 
1 1:0.28292452 2:0.0011693161 3:0.40751634 4:2.1796937 5:13.274343 6:9.0872684 7:9.3136024 8:9.5363473 9:9.6542501 10:9.7383146 11:9.8333286 12:9.9564371 13:10.10378 14:10.26233 15:10.408694 16:9.7501351 17:4.326594 20:0.65615171 21:0.49559462 22:0.78104999 23:0.87899833 24:0.90903689 25:0.96000288 26:0.9798235 27:1.4453625 28:1.0603021 29:1.0097064 30:0.9993649 31:0.98015302 32:0.9740244 33:6.9674473 34:2.3805342 35:1.9500131 36:1.7787793 37:1.6181043 38:1.5617356 39:2.0712457 40:1.1815235 41:1.0479995 42:0.98877175 43:0.93901536 44:0.92058669 45:8.9866323 46:9.2093702 47:9.3272699 48:9.4113324 49:9.5063444 50:9.6294505 51:9.7767912 52:9.9353385 53:10.081701 54:1.2788331 55:0.54957312 56:5.1830017 57:0.83329075 58:0.78883125 59:0.50802243 60:0.22496414 61:0.42761016 
-1 1:0.31347627 2:0.0003049535 3:0.62116825 4:3.3674048 5:14.673075 6:10.374834 7:11.533442 8:11.692321 9:11.781461 10:11.847374 11:11.909927 12:11.993554 13:12.101711 14:12.226244 15:12.348451 16:10.243844 17:4.3476991 20:0.50697301 21:0.41696737 22:0.55528126 23:0.58827266 24:0.62171348 25:0.63677998 26:0.62427341 27:1.5007641 28:1.245336 29:1.203042 30:1.1640382 31:1.1421678 32:1.1521865 33:8.1504635 34:4.0478618 35:3.3738538 36:2.9675233 37:2.6563273 38:2.4154299 39:2.742168 40:1.7160708 41:1.4826819 42:1.3487672 43:1.2487885 44:1.1529628 45:11.165273 46:11.324151 47:11.413291 48:11.479204 49:11.541757 50:11.625383 51:11.73354 52:11.858073 53:11.98028 54:1.5841622 55:0.71793193 56:5.1300198 57:1.279255 58:0.73265993 59:0.54348195 60:0.24712901 61:0.36558019 
1 1:0.20656936 2:0.00027896109 3:0.88320416 4:3.0555768 5:13.815884 6:9.4138525 7:8.9796505 8:9.1501495 9:9.3269784 10:9.5147119 11:9.7222295 12:9.9716682 13:10.246407 14:10.511382 15:10.730464 16:10.54039 17:4.6943115 19:0.42724878 20:0.25574084 21:0.42341177 22:0.55357932 23:0.63347838 24:0.72424218 25:0.82230967 26:0.92785876 27:1.5538466 28:1.2901099 29:1.1719383 30:1.0926023 31:1.0386634 32:0.99081659 33:7.4766701 34:2.3223824 35:1.2400505 36:0.71659609 37:0.40032794 38:0.21160767 39:2.3030085 40:1.0482235 41:0.70477581 42:0.53662962 43:0.41665823 44:0.31272609 45:8.75023 46:8.9207239 47:9.0975484 48:9.2852779 49:9.492792 50:9.7422272 51:10.016963 52:10.281936 53:10.501017 54:1.8417652 55:0.55978798 56:6.4598092 57:1.3001155 58:0.82099852 59:0.59035682 60:0.20967103 61:0.33052339 
1 1:0.56526949 2:0.0019500973 3:0.5532119 4:2.6145535 5:12.977861 6:8.7872203 7:8.5297247 8:8.6235343 9:8.7117231 10:8.8055919 11:8.9239268 12:9.0830165 13:9.2727973 14:9.4791487 15:9.6611924 16:10.133123 17:4.1264668 20:0.58726986 21:0.81454722 22:0.96790054 23:0.93711676 24:0.9084283 25:0.89430644 26:0.9046209 27:1.1329609 28:0.97868057 29:0.98982665 30:0.99831965 31:1.0014598 32:0.9975739 33:6.8296558 34:2.964597 35:1.9933082 36:1.497573 37:1.0402746 38:0.55595882 39:2.3446427 40:1.4388496 41:1.0528472 42:0.87176606 43:0.70234277 44:0.50051465 45:7.7700274 46:7.8638169 47:7.9519885 48:8.0458404 49:8.1641564 50:8.3232238 51:8.5129823 52:8.7193137 53:8.9013429 54:1.6429052 55:0.75862282 56:5.1999286 57:1.6687169 58:0.57567309 59:0.48598679 60:0.40771954 61:0.48136485 
-1 1:0.1481717 2:1.099994e-005 3:1.2854376 4:2.9257574 5:13.702734 6:9.3470542 7:10.497308 8:10.623645 9:10.687823 10:10.733763 11:10.791591 12:10.886353 13:11.015736 14:11.164406 15:11.308824 16:10.57057 17:4.2999935 19:3.253893 20:0.13529109 21:0.25574858 22:0.30794783 23:0.35362921 24:0.39823235 25:0.42276198 26:0.4253527 27:2.1124333 28:1.817416 29:1.6486496 30:1.5029563 31:1.4304732 32:1.4234854 33:6.9247998 34:2.8708567 35:2.1516364 36:1.6740101 37:1.3173266 38:1.0948529 39:2.0117069 40:0.99298618 41:0.82136536 42:0.73053641 43:0.65263347 44:0.58209997 45:10.337601 46:10.463937 47:10.528115 48:10.574055 49:10.631882 50:10.726644 51:10.856027 52:11.004697 53:11.149114 54:1.4379772 55:0.527192 56:5.1531173 57:1.2863808 58:0.95052562 59:0.67569075 60:0.17862904 61:0.25783732 
1 1:0.60177065 2:0.0013470923 3:0.55784451 4:3.1932845 5:13.986512 6:9.8748308 7:11.18971 8:11.221809 9:11.247429 10:11.28807 11:11.337579 12:11.412455 13:11.511057 14:11.623695 15:11.734493 16:9.5140813 17:4.2850876 20:1.3102602 21:0.64733934 22:0.88288533 23:0.89771568 24:0.91578861 25:0.94362142 26:0.97301921 27:1.2796411 28:1.0171538 29:1.0052063 30:0.99582734 31:0.98477185 32:0.97563039 33:7.2925527 34:4.1118634 35:3.8519917 36:3.7059116 37:3.6253923 38:3.588151 39:2.5247808 40:1.9126947 41:1.8149169 42:1.7604741 43:1.7344481 44:1.7250716 45:10.36438 46:10.396478 47:10.422098 48:10.462738 49:10.512246 50:10.587122 51:10.685722 52:10.798359 53:10.909155 54:1.0858376 55:0.64621277 56:3.5968597 57:0.81564406 58:0.67600718 59:0.49989343 60:0.3037204 61:0.44547337 
1 1:0.44648484 2:0.00067477229 3:0.76001206 4:2.7789083 5:14.079104 6:9.7939517 7:10.648892 8:10.947996 9:11.0999 10:11.199196 11:11.284959 12:11.388408 13:11.512727 14:11.648472 15:11.777169 16:10.206006 17:4.4208446 20:0.90119821 21:0.3912749 22:0.68231775 23:0.82583897 24:0.9046209 25:0.97797982 26:0.97347415 27:1.6882472 28:1.1636095 29:1.0575569 30:1.0177644 31:0.97468378 32:0.97577287 33:7.4848868 34:3.6978055 35:3.1172996 36:2.7870356 37:2.4013614 38:2.0255623 39:2.3696025 40:1.6192777 41:1.470288 42:1.3633962 43:1.2421049 44:1.094984 45:10.086101 46:10.3852 47:10.537102 48:10.636398 49:10.722159 50:10.825607 51:10.949926 52:11.08567 53:11.214366 54:1.3081196 55:0.72669067 56:4.7802438 57:1.3463475 58:0.95381102 59:0.53445199 60:0.17540586 61:0.41162125 
-1 1:0.10276325 2:6.099814e-005 3:0.82928823 4:2.5749799 5:14.277703 6:10.031661 7:10.761215 8:10.912144 9:10.988266 10:11.051208 11:11.118235 12:11.213278 13:11.3412 14:11.489002 15:11.633808 16:10.3591 17:4.8238324 20:0.16779658 21:0.29707185 22:0.37120901 23:0.40202118 24:0.45021729 25:0.50640728 26:0.54063799 27:1.9300058 28:1.6776809 29:1.5896068 30:1.4383819 31:1.2892164 32:1.2389581 33:7.7053684 34:2.9717962 35:2.1533197 36:1.5776527 37:1.0544253 38:0.80033652 39:2.2975567 40:1.0794223 41:0.85095018 42:0.72095153 43:0.60887768 44:0.53390816 45:10.652989 46:10.803917 47:10.880039 48:10.942981 49:11.010008 50:11.10505 51:11.232972 52:11.380775 53:11.52558 54:1.7000784 55:0.56486628 56:5.9855753 57:1.5210562 58:0.90692193 59:0.70361866 60:0.19244053 61:0.27480525 
-1 1:0.22134674 2:0.00073972633 3:0.46249929 4:2.2953227 5:14.040159 6:9.8984248 7:11.266612 8:11.48849 9:11.523403 10:11.531325 11:11.545701 12:11.594426 13:11.680112 14:11.793307 15:11.913576 16:8.9933054 17:4.1342717 20:0.62177469 21:0.32300626 22:0.45261647 23:0.55937747 24:0.68592214 25:0.84794636 26:0.94346261 27:1.8044875 28:1.5094222 29:1.3855959 30:1.1954649 31:1.0262925 32:0.98630585 33:7.3227835 34:3.6968383 35:3.0567354 36:2.4953302 37:1.7422728 38:1.5018587 39:2.2958768 40:1.3687875 41:1.1965904 42:1.0838106 43:0.96179933 44:0.89170783 45:11.01886 46:11.240737 47:11.27565 48:11.283572 49:11.297948 50:11.346673 51:11.432358 52:11.545553 53:11.665822 54:1.4270844 55:0.6434853 56:4.8310175 57:1.6484579 58:0.95652884 59:0.68809366 60:0.15720166 61:0.30341859 
-1 1:0.32662102 2:0.00021397711 3:0.97873243 4:3.0382533 5:14.787925 6:10.260672 7:11.518149 8:11.676211 9:11.783216 10:11.86875 11:11.959753 12:12.078938 13:12.224932 14:12.38344 15:12.542151 16:10.55739 17:4.8400493 20:0.43817686 21:0.32681793 22:0.38533791 23:0.43755275 24:0.49082718 25:0.5610907 26:0.62256054 27:1.7246028 28:1.5350555 29:1.4153037 30:1.3230864 31:1.2181742 32:1.1550897 33:8.1721678 34:4.1663316 35:3.2656604 36:2.7005278 37:2.1786931 38:1.7893659 39:2.8041345 40:1.6060851 41:1.3253783 42:1.1639658 43:1.0313515 44:0.92006879 45:11.131877 46:11.289939 47:11.396944 48:11.482478 49:11.57348 50:11.692664 51:11.838658 52:11.997166 53:12.155877 54:1.7927088 55:0.72821419 56:5.3264793 57:1.72472 58:0.82852038 59:0.6610597 60:0.20140131 61:0.27963624 
-1 1:0.19335216 2:0.00025996621 3:1.1565179 4:3.0697096 5:14.538786 6:9.9894817 7:10.782857 8:10.937132 9:11.045931 10:11.153258 11:11.272762 12:11.424561 13:11.60856 14:11.801513 15:11.979736 16:10.562813 17:4.6393698 20:0.34934897 21:0.29486124 22:0.3399583 23:0.40989329 24:0.47125597 25:0.54547108 26:0.61171638 27:1.8628575 28:1.6737302 29:1.4692639 30:1.3470557 31:1.2365712 32:1.165189 33:8.1375871 34:3.4011071 35:2.3335741 36:1.8752859 37:1.4674491 38:1.1122867 39:2.5953337 40:1.242245 41:0.96507442 42:0.85890947 43:0.76774478 44:0.67042191 45:10.569552 46:10.723826 47:10.832625 48:10.939952 49:11.059455 50:11.211254 51:11.395252 52:11.588205 53:11.766427 54:1.8539065 55:0.61218394 56:6.0705619 57:1.5846704 58:0.90067494 59:0.69866009 60:0.18359714 61:0.26514139 
1 1:0.12884342 2:5.5998432e-005 3:1.2464479 4:2.8829501 5:14.685555 6:9.9060343 7:10.844981 8:11.040462 9:11.182006 10:11.33243 11:11.505019 12:11.705014 13:11.91606 14:12.116913 15:12.29569 16:10.561733 17:3.7984438 20:0.19794307 21:0.25797155 22:0.2527707 23:0.26443443 24:0.28389391 25:0.32041472 26:0.41453518 27:2.0777174 28:2.1122756 29:2.0355559 30:1.9221043 31:1.7459202 32:1.4700533 33:8.3072261 34:3.9261989 35:2.5911913 36:1.7161498 37:0.95675375 38:0.39647953 39:2.6595518 40:1.2433243 41:0.84144864 42:0.62175536 43:0.45131572 44:0.31479906 45:10.707472 46:10.902952 47:11.044496 48:11.19492 49:11.367509 50:11.567504 51:11.778549 52:11.979402 53:12.158178 54:2.1081393 55:0.66908976 56:6.0299163 57:2.5236146 58:0.796589 59:0.8786495 60:0.18848613 61:0.19399879 
1 1:0.31293526 2:0.00052786066 3:1.0363943 4:2.6867521 5:14.260866 6:9.6095191 7:10.883922 8:11.072563 9:11.203645 10:11.32962 11:11.463114 12:11.605624 13:11.751706 14:11.893931 15:12.032378 16:10.574816 17:4.5422276 20:0.48521793 21:0.31150894 22:0.37479282 23:0.43963978 24:0.50800244 25:0.6132795 26:0.70812249 27:1.7981281 28:1.5754382 29:1.4169994 30:1.3028263 31:1.1782808 32:1.0924302 33:7.7061499 34:3.8263699 35:2.9547405 36:2.4668948 37:1.9463569 38:1.4922535 39:2.507784 40:1.4554125 41:1.2108404 42:1.086018 43:0.95768639 44:0.83847448 45:10.516497 46:10.705137 47:10.836219 48:10.962193 49:11.095686 50:11.238195 51:11.384277 52:11.526501 53:11.664948 54:1.6127579 55:0.69094649 56:5.1691177 57:1.7030436 58:0.89578178 59:0.69146902 60:0.1821322 61:0.2698264 
-1 1:0.3901457 2:0.00012399231 3:0.90336597 4:3.1347314 5:14.870445 6:10.442784 7:12.079226 8:12.194628 9:12.267797 10:12.341733 11:12.422906 12:12.527564 13:12.65125 14:12.784425 15:12.921698 16:10.551269 17:4.5339758 20:0.47397386 21:0.37120418 22:0.41399661 23:0.44047183 24:0.48453873 25:0.56465848 26:0.62519537 27:1.5823546 28:1.4737488 29:1.4321901 30:1.3481547 31:1.216874 32:1.1524898 33:8.2573665 34:4.7115242 35:3.8928784 36:3.2860393 37:2.6886105 38:2.146295 39:2.9185616 40:1.8529411 41:1.5552898 42:1.3704381 43:1.2174952 44:1.0482175 45:11.602033 46:11.717435 47:11.790604 48:11.864539 49:11.945712 50:12.05037 51:12.174056 52:12.307231 53:12.444503 54:1.7396673 55:0.81745234 56:4.8806185 57:1.9138629 58:0.73592808 59:0.65762619 60:0.22973414 61:0.28336647 
-1 1:1.0296194 2:7.7996958e-005 3:0.40569375 4:3.8510863 5:15.771701 6:11.312815 7:12.95454 8:13.052269 9:13.115747 10:13.172574 11:13.241456 12:13.336137 13:13.456028 14:13.590035 15:13.726308 16:10.199359 17:4.4420328 20:1.1002569 21:0.65329867 22:0.78865916 23:0.82156502 24:0.83424258 25:0.85225384 26:0.85362097 27:1.1642945 28:1.0519842 29:1.0315255 30:1.0254475 31:1.016964 32:1.0164611 33:8.9936365 34:5.7202871 35:5.268208 36:5.0767077 37:4.9282163 38:4.7688425 39:3.6160404 40:2.6132612 41:2.4269722 42:2.3446634 43:2.2833385 44:2.2120084 45:11.154552 46:11.25228 47:11.315757 48:11.372584 49:11.441465 50:11.536145 51:11.656035 52:11.790041 53:11.926314 54:1.5133278 55:0.75510987 56:3.9468133 57:0.98735073 58:0.58301124 59:0.50280001 60:0.33527356 61:0.4352694 
-1 1:0.77360349 2:0.00036093486 3:0.79390522 4:3.3317295 5:14.097502 6:9.4276268 7:10.112987 8:10.326939 9:10.45933 10:10.559403 11:10.664533 12:10.787663 13:10.923579 14:11.065507 15:11.195931 16:10.386208 17:5.2397431 19:0.16435275 20:0.78446486 21:0.62687542 22:0.78759608 23:0.77741618 24:0.76558179 25:0.74844612 26:0.73273946 27:1.3295076 28:1.0452776 29:1.0503337 30:1.0566275 31:1.0657936 32:1.0746532 33:7.8790368 34:4.6607788 35:4.1624372 36:3.6280408 37:3.0492213 38:2.0479529 39:2.6590582 40:2.1418123 41:1.9071347 42:1.6738485 43:1.437717 44:1.0350646 45:8.9455142 46:9.159448 47:9.2918309 48:9.3918975 49:9.4970219 50:9.6201456 51:9.7560559 52:9.8979791 53:10.028398 54:1.3730471 55:1.0460473 56:4.4108221 57:2.1097272 58:0.6721282 59:0.49388437 60:0.34442625 61:0.44291095 
-0.9743035280775261 1:0.30649524 2:0.00051486743 3:1.2201887 4:2.6939704 5:13.646816 6:9.0047911 7:9.3257773 8:9.5329421 9:9.6864336 10:9.8533708 11:10.05931 12:10.289666 13:10.516813 14:10.724881 15:10.909321 16:10.583679 17:4.6416254 20:0.29532951 21:0.38378716 22:0.4907023 23:0.48458431 24:0.48696276 25:0.55847743 26:0.67909034 27:1.679038 28:1.3909012 29:1.3905219 30:1.3866288 31:1.2485467 32:1.1199034 33:7.0235928 34:2.6981667 35:1.5065969 36:0.96856283 37:0.5303235 38:0.26212962 39:2.1895766 40:1.1155071 41:0.72026758 42:0.54803297 43:0.42131746 44:0.3203973 45:8.9671608 46:9.1743183 47:9.3278054 48:9.4947385 49:9.7006739 50:9.9310253 51:10.15817 52:10.366235 53:10.550674 54:1.7182069 55:0.5828703 56:5.7416463 57:1.5662931 58:0.81345242 59:0.66265811 60:0.22932229 61:0.28795719 
-1 1:0.15458716 2:5.999982e-006 3:1.5907382 4:3.2588783 5:14.062768 6:9.4462817 7:10.779797 8:10.9479 9:11.043825 10:11.112735 11:11.180952 12:11.276809 13:11.406777 14:11.555985 15:11.704438 16:10.58086 17:3.8623229 19:4.0970241 20:0.15845227 21:0.22610476 22:0.2368271 23:0.24135825 24:0.24918316 25:0.26159474 26:0.26680592 27:2.3330282 28:2.2439589 29:2.2115677 30:2.151289 31:2.0470014 32:2.0106425 33:7.4784133 34:3.4413253 35:2.5491774 36:1.9813308 37:1.295994 38:0.87077357 39:2.1501862 40:1.0202712 41:0.75947551 42:0.61603555 43:0.47618697 44:0.37623058 45:10.612624 46:10.780727 47:10.876651 48:10.945561 49:11.013779 50:11.109636 51:11.239603 52:11.388811 53:11.537263 54:1.6628159 55:0.55983641 56:5.3953747 57:1.8453595 58:0.76534727 59:0.71021929 60:0.17914206 61:0.19461788 
-1 1:0.41132988 2:0.00016198688 3:1.2412316 4:2.756066 5:13.792387 6:9.1088612 7:10.264317 8:10.437319 9:10.564495 10:10.700585 11:10.879338 12:11.091249 13:11.297151 14:11.476729 15:11.636409 16:10.588494 17:4.9273801 19:0.79970073 20:0.26556299 21:0.24639825 22:0.24130719 23:0.25606988 24:0.26852066 25:0.29269051 26:0.33696783 27:2.1934489 28:2.2059563 29:2.1011813 30:2.0162822 31:1.8790282 32:1.6827155 33:6.9024504 34:3.2905585 35:2.2048057 36:1.7005073 37:1.1705143 38:0.67283783 39:2.1528565 40:1.0070597 41:0.7097432 42:0.59704203 43:0.48758995 44:0.38054107 45:9.7555176 46:9.9285155 47:10.055689 48:10.191777 49:10.370528 50:10.582436 51:10.788336 52:10.967913 53:11.127592 54:1.6728043 55:0.54257005 56:5.027301 57:1.821728 58:0.79128624 59:0.81939288 60:0.18786562 61:0.19595001 
0.2381792770653218 1:0.22719533 2:0.00038192706 3:1.1352087 4:2.898659 5:14.806866 6:10.388349 7:11.366845 8:11.429943 9:11.496607 10:11.605135 11:11.758763 12:11.959797 13:12.181111 14:12.391524 15:12.578191 16:10.556513 17:4.3577186 20:0.41922862 21:0.31774002 22:0.36577442 23:0.4142015 24:0.47443256 25:0.5734691 26:0.69000575 27:1.7594095 28:1.5933469 29:1.4699816 30:1.3515714 31:1.2114998 32:1.1069722 33:8.2321011 34:3.8519118 35:2.6894813 36:2.045087 37:1.4854252 38:1.0342206 39:2.7543312 40:1.4326793 41:1.0833436 42:0.91674783 43:0.78332558 44:0.66231883 45:11.111773 46:11.174871 47:11.241535 48:11.350063 49:11.50369 50:11.704724 51:11.926037 52:12.13645 53:12.323117 54:1.9468971 55:0.69811078 56:5.869042 57:1.9764662 58:0.85251926 59:0.7091584 60:0.18985762 61:0.25693193 
-1 1:0.14794834 2:0.00026296542 3:1.3306418 4:3.5512748 5:14.508784 6:9.949512 7:11.05805 8:11.228727 9:11.32888 10:11.415783 11:11.514481 12:11.639024 13:11.789192 14:11.953054 15:12.112694 16:10.568388 17:4.9547488 19:2.9448829 20:0.29869916 21:0.28804926 22:0.31360052 23:0.32099958 24:0.34681853 25:0.40085249 26:0.44626918 27:1.9162798 28:1.7929652 29:1.7761785 30:1.6852516 31:1.489946 32:1.3861333 33:7.7295889 34:3.808922 35:2.8314695 36:2.1669948 37:1.4532612 38:0.97481961 39:2.5210232 40:1.3489201 41:1.0138605 42:0.82792629 43:0.67604426 44:0.55066557 45:10.898599 46:11.069276 47:11.169429 48:11.256332 49:11.35503 50:11.479572 51:11.62974 52:11.793603 53:11.953242 54:1.8150945 55:0.68783648 56:5.3626246 57:2.0417439 58:0.80130847 59:0.74633242 60:0.20239866 61:0.23485514 
1 1:0.37547589 2:0.00065078819 3:0.81832018 4:2.7117837 5:14.370382 6:10.012297 7:11.095784 8:11.266571 9:11.385477 10:11.477368 11:11.566583 12:11.685043 13:11.840531 14:12.020757 15:12.203561 16:10.566536 17:4.6579159 20:0.78942008 21:0.34573492 22:0.51990924 23:0.64947321 24:0.76026269 25:0.87745759 26:0.89061594 27:1.7015255 28:1.2997193 29:1.1677297 30:1.0895312 31:1.0096707 32:1.00312 33:7.7191618 34:4.1147941 35:3.252601 36:2.7116966 37:2.2081103 38:1.7321535 39:2.6231338 40:1.6916441 41:1.4498509 42:1.2926557 43:1.1465853 44:0.96848196 45:10.640108 46:10.810895 47:10.9298 48:11.02169 49:11.110905 50:11.229364 51:11.384852 52:11.565076 53:11.74788 54:1.5652783 55:0.78143603 56:4.9087611 57:1.748022 58:0.92639756 59:0.58139156 60:0.16951693 61:0.35400994 
-1 1:0.31641456 2:0.00053085907 3:0.86437156 4:3.131279 5:15.046017 6:10.7109 7:11.98011 8:12.088682 9:12.116513 10:12.128365 11:12.170007 12:12.298345 13:12.506049 14:12.734589 15:12.950025 16:10.556203 17:5.0253345 20:0.80167821 21:0.35229989 22:0.47386741 23:0.61726294 24:0.77205263 25:0.8901997 26:0.98026297 27:1.6480675 28:1.3625005 29:1.1867092 30:1.06657 31:1.0053476 32:0.97448454 33:8.0207346 34:4.6781538 35:3.6624351 36:3.0129564 37:2.6128929 38:2.2958985 39:2.8835752 40:1.8764801 41:1.5857926 42:1.4208337 43:1.3065813 44:1.2014799 45:11.607914 46:11.716485 47:11.744316 48:11.756169 49:11.79781 50:11.926148 51:12.133852 52:12.362392 53:12.577827 54:1.6387041 55:0.76380807 56:4.7141075 57:1.6942271 58:0.88938833 59:0.60550849 60:0.16592141 61:0.322683 
-1 1:0.79963601 2:0.00031195134 3:0.2688738 4:3.763581 5:14.567401 6:10.413583 7:11.679767 8:11.758524 9:11.822287 10:11.881814 11:11.952993 12:12.041204 13:12.137751 14:12.236032 15:12.327048 16:10.049611 17:4.6936451 20:1.5925995 21:0.69991721 22:0.97829304 23:1.0030154 24:1.0106594 25:1.0213446 26:1.0243491 27:1.1695686 28:0.97512288 29:0.96762433 30:0.96545835 31:0.96256192 32:0.96174276 33:7.7968894 34:4.8061085 35:4.6338763 36:4.5435382 37:4.4500316 38:4.2317586 39:2.9017638 40:2.2574811 41:2.185078 42:2.1465613 43:2.1075911 44:2.0107239 45:10.455056 46:10.533812 47:10.597573 48:10.657099 49:10.728277 50:10.816488 51:10.913033 52:11.011313 53:11.102328 54:1.1359546 55:0.71564081 56:3.3879355 57:0.89839516 58:0.61315292 59:0.48473925 60:0.31313765 61:0.48260574 
-1 1:0.40238771 2:0.00053785533 3:0.52991859 4:3.2853104 5:15.081174 6:10.747294 7:11.783146 8:11.890806 9:12.010314 10:12.147885 11:12.31035 12:12.495243 13:12.681417 14:12.854057 15:13.0068 16:10.2705 17:4.1847423 20:0.68000064 21:0.3607564 22:0.38284042 23:0.42521349 24:0.46960417 25:0.51965592 26:0.60172189 27:1.596674 28:1.5324992 29:1.4308008 30:1.3432773 31:1.2687918 32:1.1785014 33:8.0551933 34:4.9373477 35:3.8791182 36:3.1758395 37:2.5944504 38:2.0304313 39:2.9895614 40:1.9499052 41:1.5647671 42:1.3384019 43:1.1580224 44:0.9949703 45:11.28776 46:11.395419 47:11.514927 48:11.652497 49:11.814962 50:11.999855 51:12.186028 52:12.358668 53:12.51141 54:1.8078989 55:0.8622934 56:4.6008478 57:2.111064 58:0.73169154 59:0.66196553 60:0.22789049 61:0.27147416 
-1 1:0.49304549 2:0.00035793593 3:0.5986123 4:3.219897 5:14.948433 6:10.668979 7:10.889593 8:10.972881 9:11.075354 10:11.184937 11:11.326164 12:11.512419 13:11.728453 14:11.947402 15:12.138644 16:10.305133 17:4.5956562 20:0.6786775 21:0.44171475 22:0.65840976 23:0.79434273 24:0.86277265 25:0.93184671 26:0.9629094 27:1.4412628 28:1.16259 29:1.0604022 30:1.0201263 31:0.9905886 32:0.97931473 33:8.1848259 34:3.6629239 35:2.704914 36:2.2607916 37:1.8615486 38:1.436108 39:2.8913442 40:1.6006883 41:1.2973413 42:1.1565928 43:1.0235812 44:0.86846384 45:10.252314 46:10.335601 47:10.438073 48:10.547655 49:10.68888 50:10.875133 51:11.091166 52:11.310113 53:11.501354 54:1.8940663 55:0.74651927 56:5.8037514 57:1.5936601 58:0.77121662 59:0.53595678 60:0.20496744 61:0.39362422 
-1 1:0.4794656 2:0.00093256503 3:0.59603974 4:3.6243642 5:13.838885 6:9.8153665 7:10.35763 8:10.504531 9:10.638433 10:10.757808 11:10.875505 12:11.002068 13:11.128502 14:11.246205 15:11.351219 16:10.406853 17:5.188934 20:0.74690972 21:0.71967129 22:0.80419783 23:0.80541101 24:0.79734232 25:0.77277549 26:0.75469091 27:1.1513436 28:1.0375359 29:1.0370099 30:1.0409652 31:1.0533314 32:1.06302 33:7.5521965 34:4.633511 35:4.128074 36:3.56551 37:2.9493532 38:1.9351863 39:2.6069155 40:2.135209 41:1.9011583 42:1.6581403 43:1.405616 44:0.99824742 45:9.7424458 46:9.8893434 47:10.023242 48:10.142615 49:10.26031 50:10.386872 51:10.513303 52:10.631005 53:10.736018 54:1.3462713 55:1.0601659 56:4.1374712 57:2.1719319 58:0.56229425 59:0.49104071 60:0.39571258 61:0.4517093 
-1 1:0.26846944 2:0.00031095165 3:0.47886426 4:3.6389285 5:14.969048 6:10.728496 7:11.25109 8:11.316375 9:11.400084 10:11.500247 11:11.623658 12:11.778623 13:11.95571 14:12.139475 15:12.306968 16:10.286883 17:4.6702311 20:0.50024666 21:0.47692462 22:0.66567372 23:0.70648385 24:0.70122794 25:0.77974085 26:0.88422653 27:1.414071 28:1.202349 29:1.1608291 30:1.1643098 31:1.0733294 32:1.006044 33:8.2103542 34:3.6518926 35:2.7659073 36:2.4180947 37:2.1789185 38:2.1624705 39:2.8759151 40:1.5635404 41:1.2698507 42:1.1500703 43:1.1062967 44:1.133308 45:10.943134 46:11.008419 47:11.092127 48:11.192289 49:11.3157 50:11.470665 51:11.647751 52:11.831516 53:11.999008 54:1.7869663 55:0.61333346 56:5.5993857 57:1.1077879 58:0.72059744 59:0.58259716 60:0.24202248 61:0.35806979 
-1 1:0.21401723 2:0.00049287852 3:0.8072635 4:3.0958381 5:14.819392 6:10.423055 7:11.357103 8:11.448506 9:11.555304 10:11.684316 11:11.844246 12:12.03094 13:12.22566 14:12.412776 15:12.577337 16:10.482587 17:5.1925014 20:0.41200368 21:0.29796601 22:0.33714344 23:0.38088754 24:0.40312303 25:0.41327387 26:0.41198117 27:1.8497705 28:1.6849119 29:1.5384546 30:1.4784416 31:1.4544604 32:1.4552638 33:7.8382475 34:4.3530527 35:3.2651213 36:2.7144287 37:2.3649477 38:2.0086199 39:2.7133983 40:1.6146943 41:1.2697645 42:1.1036144 43:0.99628384 44:0.87448909 45:11.118462 46:11.209865 47:11.316663 48:11.445675 49:11.605603 50:11.792298 51:11.987018 52:12.174133 53:12.338694 54:1.7427575 55:0.72994673 56:4.8533954 57:1.6514111 58:0.78636072 59:0.61979612 60:0.20954776 61:0.27010469 
1 1:0.47877195 2:0.0023223014 3:0.64874796 4:3.0732531 5:13.513306 6:9.443751 7:9.9661258 8:10.061277 9:10.137543 10:10.208272 11:10.285996 12:10.400978 13:10.555755 14:10.722975 15:10.882016 16:10.363001 17:4.4056808 20:0.67349381 21:0.6245096 22:0.8863279 23:0.96472807 24:1.0180867 25:1.0216844 26:1.0327627 27:1.268224 28:1.031683 29:0.99308732 30:0.96712338 31:0.96542598 32:0.95982597 33:7.0409453 34:3.2159025 35:2.5326462 36:2.1748654 37:1.8660786 38:1.4586346 39:2.3927089 40:1.5205531 41:1.2779187 42:1.1560107 43:1.0387487 44:0.88665469 45:9.3520746 46:9.4472221 47:9.5234857 48:9.5942127 49:9.6719336 50:9.7869125 51:9.9416866 52:10.108902 53:10.267941 54:1.4659703 55:0.7165044 56:4.8789814 57:1.344374 58:0.6748182 59:0.4991716 60:0.27598635 61:0.4618984 
-1 1:0.30834095 2:0.0011613254 3:0.8986875 4:3.5560728 5:13.286751 6:9.0856838 7:9.8383396 8:9.9669374 9:10.081023 10:10.188142 11:10.309842 12:10.450403 13:10.594371 14:10.730232 15:10.854178 16:10.54148 17:4.9962968 20:0.56819941 21:0.56296959 22:0.6815335 23:0.67523318 24:0.66227036 25:0.62913919 26:0.63182801 27:1.362437 28:1.1086722 29:1.1122706 30:1.1219948 31:1.1483756 32:1.1468823 33:6.8951115 34:4.0802916 35:3.5416449 36:2.9717189 37:2.3651457 38:1.4081512 39:2.2503831 40:1.8467786 41:1.6068981 42:1.3692782 43:1.1287434 44:0.77143651 45:9.4771978 46:9.6057928 47:9.7198766 48:9.8269933 49:9.9486914 50:10.089251 51:10.233217 52:10.369077 53:10.493022 54:1.2572483 55:0.97786969 56:4.0480029 57:2.1197594 58:0.65957382 59:0.50604971 60:0.33341636 61:0.40497687 
0.3319914251669044 1:0.13490495 2:0.00044989878 3:1.0272727 4:2.8014718 5:12.941129 6:8.8049253 7:8.7821011 8:8.9419209 9:9.0214813 10:9.1079861 11:9.2171792 12:9.359723 13:9.5309346 14:9.7117457 15:9.8774228 16:10.560249 17:5.0070981 20:0.24048983 21:0.40361206 22:0.53056295 23:0.5538558 24:0.56019219 25:0.59968834 26:0.5986178 27:1.6590908 28:1.3026907 29:1.2528095 30:1.2508732 31:1.1760812 32:1.1761719 33:6.4773675 34:2.0108883 35:1.35131 36:1.1023845 37:1.0196975 38:1.1323984 39:1.8453339 40:0.93166632 41:0.72475049 42:0.64045132 43:0.63383763 44:0.67611851 45:8.637697 46:8.7975132 47:8.8770721 48:8.9635753 49:9.0727666 50:9.2153084 51:9.3865179 52:9.5673271 53:9.7330027 54:1.2876054 55:0.44311657 56:5.1755835 57:0.72110218 58:0.81807286 59:0.56789059 60:0.2455668 61:0.34633872 
1 1:0.25782861 2:0.0008396474 3:0.70512368 4:3.1425481 5:14.144736 6:9.9352769 7:10.95844 8:10.985636 9:11.050323 10:11.125323 11:11.214973 12:11.333644 13:11.475385 14:11.623588 15:11.765981 16:10.319803 17:4.6105538 20:0.53581887 21:0.39640687 22:0.56303565 23:0.67712348 24:0.72771864 25:0.73795036 26:0.73824912 27:1.5839999 28:1.2720461 29:1.1479477 30:1.0877953 31:1.0916713 32:1.0726792 33:7.4103892 34:3.6583522 35:2.829707 36:2.3991449 37:2.1220249 38:1.5849598 39:2.4503879 40:1.5376106 41:1.3007964 42:1.1756807 43:1.0607432 44:0.88145868 45:10.664329 46:10.691525 47:10.756211 48:10.831211 49:10.920861 50:11.039531 51:11.181271 52:11.329474 53:11.471867 54:1.5072977 55:0.7335745 56:4.9465322 57:1.5353768 58:0.82083843 59:0.55458095 60:0.21464125 61:0.38141297 
-1 1:0.65501324 2:0.00018198344 3:0.56619864 4:3.3931501 5:14.887922 6:10.580327 7:12.247723 8:12.347757 9:12.42001 10:12.492029 11:12.573644 12:12.673073 13:12.784593 14:12.900159 15:13.012329 16:10.376919 17:3.9136306 20:0.67569019 21:0.39686692 22:0.4689731 23:0.51108919 24:0.55850145 25:0.5997317 26:0.61359519 27:1.5151595 28:1.3575829 29:1.2967202 30:1.226333 31:1.1768438 32:1.1631864 33:7.8821223 34:4.9109793 35:4.3505223 36:4.0310328 37:3.7593875 38:3.5232205 39:2.9280899 40:2.0488786 41:1.8465099 42:1.7524091 43:1.6701787 44:1.5812845 45:11.322562 46:11.422596 47:11.494848 48:11.566867 49:11.648481 50:11.74791 51:11.859429 52:11.974994 53:12.087164 54:1.428343 55:0.73676148 56:3.877085 57:1.1865485 58:0.71881425 59:0.58589824 60:0.24216477 61:0.32478761 
-1 1:0.60707936 2:0.00014298978 3:0.27058729 4:3.4891855 5:15.895522 6:11.461432 7:12.44226 8:12.575278 9:12.674778 10:12.77906 11:12.905348 12:13.060499 13:13.230704 14:13.400788 15:13.555983 16:10.086124 17:4.7839416 20:0.38295634 21:0.42511544 22:0.45125841 23:0.49844348 24:0.54611477 25:0.59564901 26:0.64971762 27:1.4301074 28:1.3737966 29:1.2959943 30:1.232553 31:1.1789128 32:1.1318775 33:8.8589984 34:5.1920746 35:4.2045013 36:3.6687701 37:3.1024383 38:2.4583752 39:3.435188 40:2.1507768 41:1.772455 42:1.5916215 43:1.3960528 44:1.1726654 45:11.607201 46:11.740219 47:11.839718 48:11.943999 49:12.070287 50:12.225438 51:12.395642 52:12.565726 53:12.720921 54:2.0295489 55:0.91765778 56:5.0723898 57:2.016195 58:0.66929059 59:0.60382548 60:0.25771053 61:0.30744477 
-0.1035324626562524 1:0.17343048 2:4.4998988e-005 3:0.54677484 4:3.2127219 5:15.486614 6:11.056114 7:11.473915 8:11.619157 9:11.77149 10:11.941878 11:12.14297 12:12.372089 13:12.607057 14:12.828744 15:13.021332 16:10.303047 17:4.4241386 20:0.20597054 21:0.3313197 22:0.30522848 23:0.30538249 24:0.32202335 25:0.35434724 26:0.4236658 27:1.7113781 28:1.8060845 29:1.8041943 30:1.7336521 31:1.6139965 32:1.4400792 33:8.5982373 34:4.5413295 35:3.1896924 36:2.2804699 37:1.3730156 38:0.63746532 39:3.1295199 40:1.6308095 41:1.1244486 42:0.84824912 43:0.60915615 44:0.41300197 45:11.28454 46:11.429781 47:11.582113 48:11.752501 49:11.953593 50:12.182712 51:12.417679 52:12.639367 53:12.831955 54:2.3516011 55:0.86837289 56:5.7434159 57:2.8844119 58:0.64892644 59:0.74961437 60:0.23918538 61:0.2220556 
-1 1:0.32960946 2:0.0002949565 3:0.39790527 4:3.2355206 5:15.511815 6:11.093934 7:11.688424 8:11.821958 9:11.944978 10:12.076365 11:12.2367 12:12.433822 13:12.648687 14:12.856498 15:13.03802 16:10.187808 17:4.7288715 20:0.37733652 21:0.37709101 22:0.3907683 23:0.41496913 24:0.45356106 25:0.51155875 26:0.62153195 27:1.5515906 28:1.5072667 29:1.4549752 30:1.3756112 31:1.280598 32:1.1619563 33:8.6366116 34:4.5340131 35:3.3173536 36:2.5761941 37:1.8951295 38:1.3174029 39:3.1994852 40:1.7821476 41:1.3210671 42:1.0893879 43:0.89833041 44:0.74498413 45:11.298003 46:11.431537 47:11.554556 48:11.685943 49:11.846277 50:12.043399 51:12.258263 52:12.466074 53:12.647596 54:2.1963292 55:0.84136984 56:5.6729689 57:2.3165851 58:0.70359358 59:0.67619987 60:0.23730796 61:0.26237484 
0.09696503003187146 1:0.38933031 2:0.00029195738 3:0.53449957 4:2.9835335 5:14.953979 6:10.719649 7:11.77851 8:11.908837 9:11.986108 10:12.065048 11:12.164242 12:12.290454 13:12.434293 14:12.58042 15:12.720176 16:10.228044 17:4.6322289 20:0.52243478 21:0.38356504 22:0.41004394 23:0.45530995 24:0.49925595 25:0.55241507 26:0.60444492 27:1.5416296 28:1.4691974 29:1.3743012 30:1.2997202 31:1.2263589 32:1.1713403 33:7.9117334 34:4.3723819 35:3.4497206 36:2.9621308 37:2.3944412 38:1.8615374 39:2.8949458 40:1.7213769 41:1.4078682 42:1.2667763 43:1.100602 44:0.93561874 45:11.302523 46:11.432849 47:11.51012 48:11.58906 49:11.688254 50:11.814464 51:11.958303 52:12.104431 53:12.244186 54:1.8198041 55:0.78848549 56:4.8818681 57:1.8444413 58:0.71236009 59:0.63203399 60:0.23998204 61:0.29056385 
-1 1:0.29450077 2:0.00019498099 3:0.52833798 4:3.6637263 5:15.456572 6:11.049286 7:12.369386 8:12.442792 9:12.5099 10:12.580241 11:12.665832 12:12.77897 13:12.914277 14:13.059451 15:13.197767 16:10.274377 17:4.5828419 20:0.48531518 21:0.37398545 22:0.4024947 23:0.41690278 24:0.43167137 25:0.45688293 26:0.47185941 27:1.5580905 28:1.4830714 29:1.4498657 30:1.418566 31:1.3621082 32:1.336015 33:8.623773 34:4.8850346 35:4.0611506 36:3.611821 37:3.1396512 38:2.7279329 39:3.1655296 40:1.9559906 41:1.6320734 42:1.4686687 43:1.320204 44:1.1784885 45:12.026932 46:12.100338 47:12.167446 48:12.237787 49:12.323377 50:12.436515 51:12.571822 52:12.716996 53:12.855311 54:1.8654034 55:0.81180953 56:4.9680699 57:1.6148013 58:0.66257681 59:0.60703493 60:0.25405276 61:0.28703654 
-1 1:0.5812017 2:0.0001859827 3:0.66974139 4:3.3705594 5:14.933865 6:10.595434 7:11.82548 8:11.949413 9:12.042075 10:12.124485 11:12.215366 12:12.325242 13:12.449044 14:12.578135 15:12.700956 16:10.4443 17:3.7969965 20:0.6312755 21:0.40281694 22:0.53519311 23:0.58750607 24:0.61242399 25:0.62896646 26:0.62341975 27:1.506922 28:1.2570552 29:1.1940491 30:1.1667173 31:1.1491657 32:1.1540177 33:8.0176995 34:4.2518942 35:3.6680482 36:3.4545076 37:3.2944296 38:3.1321407 39:2.8806062 40:1.8222623 41:1.6235037 42:1.5523358 43:1.4971121 44:1.4294918 45:11.037303 46:11.161234 47:11.253896 48:11.336306 49:11.427186 50:11.537061 51:11.660862 52:11.789954 53:11.912774 54:1.5309906 55:0.68538388 56:4.54789 57:1.0256106 58:0.73547027 59:0.54462514 60:0.23913627 61:0.35950349 
-1 1:0.17203466 2:1.7999838e-005 3:0.67004538 4:3.326294 5:15.394806 6:10.983155 7:11.507456 8:11.598077 9:11.705297 10:11.830117 11:11.981136 12:12.16872 13:12.376907 14:12.587462 15:12.77642 16:10.377154 17:4.9144192 20:0.12948936 21:0.33226411 22:0.33230715 23:0.35307929 24:0.37859807 25:0.40853439 26:0.43792649 27:1.7031157 28:1.7024726 29:1.6296534 30:1.5458319 31:1.4657871 32:1.4032505 33:8.5368683 34:4.196221 35:2.9297486 36:2.1406542 37:1.4161805 38:0.79440961 39:3.034292 40:1.550628 41:1.1151085 42:0.87722178 43:0.67274649 44:0.48313886 45:11.319739 46:11.41036 47:11.517579 48:11.6424 49:11.793418 50:11.981002 51:12.189189 52:12.399744 53:12.588701 54:2.2517525 55:0.81246272 56:5.9492979 57:2.4504907 58:0.69373485 59:0.67262343 60:0.2336295 61:0.2527722 
-1 1:0.39461647 2:8.3996472e-005 3:0.81364342 4:2.9558573 5:14.205918 6:9.9008842 7:10.87149 8:10.996712 9:11.099616 10:11.202594 11:11.330913 12:11.491915 13:11.666699 14:11.834411 15:11.985203 16:10.423264 17:5.0129414 19:1.5823479 20:0.28131585 21:0.29067883 22:0.27249813 23:0.28035983 24:0.29730884 25:0.31382339 26:0.34618987 27:1.9558659 28:2.0192975 29:1.964414 30:1.8482991 31:1.7703537 32:1.6463141 33:7.3729578 34:3.4551034 35:2.4890209 36:1.8664851 37:1.3624542 38:0.85383942 39:2.4278572 40:1.145327 41:0.84721971 42:0.69849038 43:0.57220761 44:0.44454671 45:10.387687 46:10.512907 47:10.615811 48:10.718787 49:10.847106 50:11.008106 51:11.18289 52:11.350601 53:11.501392 54:1.8460011 55:0.61138787 56:5.3060685 57:1.8454546 58:0.70279159 59:0.74329684 60:0.21928947 61:0.21434122 
-1 1:0.26531989 2:0.00019298138 3:0.46087648 4:3.2718756 5:15.359732 6:11.024709 7:11.089891 8:11.200347 9:11.328103 10:11.449832 11:11.587127 12:11.754733 13:11.95266 14:12.167989 15:12.356297 16:10.274472 17:4.80975 20:0.40630476 21:0.38609743 22:0.41867678 23:0.47868955 24:0.55088464 25:0.64269879 26:0.75269734 27:1.5311137 28:1.4505435 29:1.3320135 30:1.2323556 31:1.1409266 32:1.0657481 33:8.5813525 34:3.3010413 35:2.3349535 36:1.8090336 37:1.3676328 38:1.0151339 39:3.0324861 40:1.3281328 41:1.0316859 42:0.8919423 43:0.77307188 44:0.67217581 45:10.786049 46:10.896504 47:11.024259 48:11.145988 49:11.283283 50:11.450888 51:11.648814 52:11.864143 53:12.052451 54:2.2307137 55:0.65091467 56:6.5922785 57:1.5974949 58:0.74445761 59:0.64917983 60:0.22075719 61:0.282369 
-1 1:0.16415249 2:0.00018098362 3:0.58026735 4:3.1920275 5:15.462256 6:11.080742 7:11.965896 8:12.028406 9:12.091551 10:12.171692 11:12.280323 12:12.429089 13:12.60739 14:12.792742 15:12.965042 16:10.361931 17:5.0976166 20:0.27801272 21:0.34991011 22:0.3623161 23:0.38495691 24:0.4272116 25:0.48543089 26:0.53498697 27:1.6359334 28:1.5984382 29:1.5382319 30:1.4293694 31:1.3166993 32:1.2453913 33:8.4322452 34:4.5339209 35:3.4163184 36:2.7043381 37:1.9912956 38:1.4765671 39:3.086025 40:1.7404951 41:1.332423 42:1.1170745 43:0.91885504 44:0.77167089 45:11.787503 46:11.850013 47:11.913158 48:11.993299 49:12.10193 50:12.250696 51:12.428997 52:12.614348 53:12.786649 54:2.0856214 55:0.82296872 56:5.4199434 57:2.2083109 58:0.71935622 59:0.67907558 60:0.23105893 61:0.26406857 
-1 1:0.37581932 2:0.00011299362 3:0.9101314 4:2.5871721 5:14.538422 6:10.091708 7:10.381984 8:10.484966 9:10.570785 10:10.675534 11:10.83219 12:11.046548 13:11.282599 14:11.510602 15:11.700996 16:10.203527 17:3.2215053 20:0.19115162 21:0.34290649 22:0.34673369 23:0.34399317 24:0.33895273 25:0.31072357 26:0.29764602 27:1.7070946 28:1.6659508 29:1.6739023 30:1.7057002 31:1.8105552 32:1.8755611 33:7.7668225 34:3.4393962 35:2.2574324 36:1.6288348 37:1.2122216 38:0.84141588 39:2.5754496 40:1.2305635 41:0.83782744 42:0.65106137 43:0.51648637 44:0.38626258 45:9.9258181 46:10.028799 47:10.114616 48:10.219363 49:10.376018 50:10.590373 51:10.826422 52:11.054424 53:11.244817 54:1.9990578 55:0.64461364 56:5.7805191 57:1.7698319 58:0.55781612 59:0.53004606 60:0.26085015 61:0.25905667 
-1 1:0.1859209 2:0.00039192319 3:1.1693901 4:3.5413429 5:14.309677 6:9.9211801 7:10.254373 8:10.382994 9:10.515037 10:10.664152 11:10.845058 12:11.050804 13:11.258923 14:11.451984 15:11.621675 16:10.52731 17:5.0963902 19:0.69270458 20:0.19880905 21:0.26158011 22:0.27496227 23:0.30506486 24:0.32597447 25:0.34374714 26:0.39481257 27:2.1101988 28:2.0722092 29:1.887209 30:1.7775596 31:1.6603916 32:1.5037402 33:7.6461207 34:3.6311891 35:2.4377333 36:1.7945944 37:1.177095 38:0.66128441 39:2.3151938 40:1.1248812 41:0.82374289 42:0.67421357 43:0.53955593 44:0.41156248 45:10.050054 46:10.178674 47:10.310716 48:10.459831 49:10.640735 50:10.846481 51:11.054598 52:11.247659 53:11.41735 54:1.7654159 55:0.60667951 56:5.5361143 57:2.0830308 58:0.84448749 59:0.79166858 60:0.19038496 61:0.22107823 
1 1:0.22314755 2:0.0012791815 3:1.0724822 4:3.8265432 5:14.700771 6:10.134718 7:10.167148 8:10.281476 9:10.416979 10:10.564802 11:10.755278 12:10.990799 13:11.248007 14:11.503042 15:11.713906 16:10.539774 17:4.8549275 20:0.53718787 21:0.28770732 22:0.45461394 23:0.65573862 24:0.78433707 25:0.83351068 26:0.91005292 27:1.9787089 28:1.4719832 29:1.2043434 30:1.0862809 31:1.0358894 32:0.99726962 33:7.7996591 34:3.2363983 35:2.4003439 36:1.9938112 37:1.6797353 38:1.1642568 39:2.4723685 40:1.2669777 41:1.1106637 42:1.0255088 43:0.93309396 44:0.75322954 45:9.9171538 46:10.031481 47:10.166983 48:10.314804 49:10.505279 50:10.740799 51:10.998005 52:11.25304 53:11.463904 54:1.6586915 55:0.65853451 56:5.7548793 57:1.5097308 58:1.1153819 59:0.62788228 60:0.13865055 61:0.33786146 
1 1:0.30889253 2:0.0004429019 3:0.86557369 4:3.348666 5:14.985436 6:10.49836 7:10.989484 8:11.114492 9:11.224279 10:11.357952 11:11.53249 12:11.74911 13:11.985017 14:12.211068 15:12.403153 16:10.504371 17:5.0426719 20:0.42589434 21:0.30188079 22:0.36105822 23:0.44241915 24:0.4828236 25:0.49384588 26:0.50089286 27:1.8430894 28:1.6371848 29:1.442392 30:1.3510179 31:1.3117788 32:1.300469 33:7.975018 34:3.9990329 35:2.906796 36:2.3927666 37:1.969766 38:1.4853439 39:2.7364757 40:1.4723055 41:1.1703539 42:1.0406321 43:0.91638913 44:0.75260877 45:10.627576 46:10.752583 47:10.862368 48:10.996042 49:11.170578 50:11.387197 51:11.623103 52:11.849154 53:12.041239 54:1.8554187 55:0.71778423 56:5.3709013 57:1.7787167 58:0.8521 59:0.63212715 60:0.19833442 61:0.29338176 
1 1:0.36406864 2:0.00056384101 3:0.85495433 4:3.5813103 5:14.941466 6:10.419987 7:10.874632 8:11.016944 9:11.135531 10:11.257477 11:11.412452 12:11.607934 13:11.826602 14:12.044913 15:12.23355 16:10.499198 17:4.5745366 20:0.48168946 21:0.36373159 22:0.50831708 23:0.55847228 24:0.5784325 25:0.59157836 26:0.59795864 27:1.6513124 28:1.3271219 29:1.2414613 30:1.2168577 31:1.1933411 32:1.1813247 33:8.1060711 34:3.9442836 35:2.9141286 36:2.3309317 37:1.9040002 38:1.3824793 39:2.8027736 40:1.6142559 41:1.2723157 42:1.0797447 43:0.94209063 44:0.76042164 45:10.435469 46:10.57778 47:10.696366 48:10.818312 49:10.973286 50:11.168766 51:11.387433 52:11.605744 53:11.794379 54:1.8670162 55:0.77962519 56:5.5542501 57:1.8264609 58:0.8115115 59:0.56527351 60:0.21982907 61:0.34538114 
1 1:0.48682572 2:0.00040991597 3:0.77638202 4:3.5696125 5:15.110108 6:10.642707 7:11.431145 8:11.533557 9:11.648652 10:11.779699 11:11.934149 12:12.114975 13:12.308826 14:12.498929 15:12.665267 16:10.476275 17:4.3251695 20:0.63575109 21:0.33385739 22:0.4188202 23:0.50853961 24:0.56773644 25:0.61092251 26:0.66083419 27:1.7162853 28:1.5061142 29:1.3533426 30:1.2518328 31:1.1808913 32:1.1282976 33:8.1194212 34:4.4081223 35:3.6308449 36:3.247864 37:2.9879985 38:2.6931944 39:2.8705225 40:1.7109947 41:1.492807 42:1.4090404 43:1.3537526 44:1.2684184 45:10.804012 46:10.906422 47:11.021516 48:11.152563 49:11.307011 50:11.487837 51:11.681687 52:11.871789 53:12.038127 54:1.6369968 55:0.68350536 56:4.7927626 57:1.3166642 58:0.84496392 59:0.64219999 60:0.19732935 61:0.30757971 
1 1:0.50473592 2:0.00059782127 3:0.82063541 4:3.4403601 5:15.115496 6:10.569597 7:10.681101 8:10.799643 9:10.919994 10:11.057858 11:11.241837 12:11.474111 13:11.731173 14:11.983877 15:12.194189 16:10.478065 17:4.1381944 20:0.41162013 21:0.33421397 22:0.33915364 23:0.35128907 24:0.39190762 25:0.45912277 26:0.54207659 27:1.7206848 28:1.7121118 29:1.6669284 30:1.5441159 31:1.3888084 32:1.2445715 33:8.1859574 34:3.7052574 35:2.4361702 36:1.7262541 37:1.2405143 38:0.78893634 39:2.8026941 40:1.339007 41:0.9199305 42:0.74477095 43:0.64029689 44:0.52423136 45:10.024574 46:10.143114 47:10.263462 48:10.401324 49:10.585301 50:10.817573 51:11.074632 52:11.327334 53:11.537645 54:2.1105891 55:0.6608653 56:6.0194753 57:2.0139826 58:0.7412103 59:0.75068008 60:0.22210121 61:0.24244566 
1 1:0.43053944 2:0.00041091556 3:0.70352168 4:3.2824332 5:15.32283 6:10.851393 7:11.26094 8:11.398786 9:11.518061 10:11.65476 11:11.831464 12:12.040912 13:12.262856 14:12.477105 15:12.661386 16:10.44926 17:4.7408176 20:0.55387247 21:0.32763257 22:0.34765307 23:0.4252344 24:0.50449986 25:0.57149467 26:0.66020293 27:1.7148862 28:1.6738001 29:1.5125825 30:1.3282854 31:1.2204307 32:1.12991 33:8.3075393 34:4.1868093 35:3.1344633 36:2.5238406 37:2.1484563 38:1.7068196 39:2.9414438 40:1.5242873 41:1.2069766 42:1.0976538 43:1.0191909 44:0.89914457 45:10.722862 46:10.860707 47:10.979981 48:11.116679 49:11.293383 50:11.502829 51:11.724772 52:11.939021 53:12.123301 54:1.9600482 55:0.68668223 56:5.5088822 57:1.7579974 58:0.80606688 59:0.71915696 60:0.19864537 61:0.26737378 
1 1:0.57848633 2:0.00034194153 3:0.65226841 4:3.403857 5:15.29393 6:10.844393 7:11.355701 8:11.469751 9:11.584206 10:11.719522 11:11.891416 12:12.095086 13:12.310432 14:12.517873 15:12.693715 16:10.38948 17:4.1905812 20:0.74731855 21:0.36369614 22:0.44949092 23:0.54542587 24:0.62002365 25:0.68890419 26:0.82210224 27:1.5918394 28:1.3981851 29:1.2551641 30:1.1670348 31:1.1071464 32:1.0326904 33:8.2651612 34:4.181686 35:3.2980026 36:2.8150351 37:2.473606 38:2.0307713 39:2.9361058 40:1.6879439 41:1.4241307 42:1.2906658 43:1.1944644 44:1.0648431 45:10.572378 46:10.686427 47:10.80088 48:10.936194 49:11.108087 50:11.311755 51:11.5271 52:11.73454 53:11.910382 54:1.8049163 55:0.73112102 56:5.32814 57:1.5772604 58:0.81121648 59:0.62691167 60:0.19558146 61:0.29667805 
1 1:0.33096137 2:0.00045189788 3:0.82496986 4:3.7543548 5:15.087498 6:10.607476 7:11.35992 8:11.459619 9:11.571419 10:11.699098 11:11.858746 12:12.050978 13:12.258076 14:12.461003 15:12.637997 16:10.493193 17:4.298602 20:0.67467715 21:0.29180133 22:0.33195778 23:0.41776844 24:0.47396266 25:0.5445561 26:0.65342146 27:1.880702 28:1.7306235 29:1.4906834 30:1.3509335 31:1.2421393 32:1.1356325 33:8.053569 34:4.3264976 35:3.4116059 36:2.975318 37:2.609342 38:2.1740946 39:2.7482755 40:1.5744449 41:1.3475769 42:1.2616505 43:1.1792514 44:1.0685956 45:10.96762 46:11.067318 47:11.179118 48:11.306796 49:11.466444 50:11.658674 51:11.865772 52:12.068699 53:12.245692 54:1.6703218 55:0.68513689 56:4.9785045 57:1.5774984 58:0.91190739 59:0.73080573 60:0.17779622 61:0.25593297 
-1 1:0.30956195 2:0.00027996081 3:0.52350115 4:2.755274 5:14.67401 6:10.523123 7:11.179444 8:11.307718 9:11.413874 10:11.504813 11:11.600418 12:11.723454 13:11.873765 14:12.035523 15:12.190065 16:9.9368353 17:4.7434014 20:0.63785643 21:0.40964237 22:0.50279627 23:0.57723733 24:0.62366794 25:0.7295037 26:0.83075899 27:1.4864256 28:1.3575654 29:1.3012167 30:1.259002 31:1.0952777 32:1.0306264 33:7.7021379 34:3.8381312 35:3.0507877 36:2.6561871 37:1.9342695 38:1.6908548 39:2.7075739 40:1.526112 41:1.2437317 42:1.1264807 43:0.99189122 44:0.94058483 45:10.816622 46:10.944895 47:11.051051 48:11.14199 49:11.237594 50:11.36063 51:11.51094 52:11.672698 53:11.827239 54:1.730901 55:0.6736324 56:5.0829852 57:1.5903188 58:0.73357903 59:0.64102005 60:0.2188628 61:0.31302574 
1 1:0.19685132 2:0.0002849594 3:0.64336327 4:3.2300896 5:15.132631 6:10.727926 7:10.788206 8:10.936732 9:11.037059 10:11.15133 11:11.302001 12:11.507953 13:11.752478 14:12.000054 15:12.208554 16:10.326685 17:4.8816239 20:0.32297223 21:0.33903395 22:0.37534605 23:0.43943681 24:0.49666443 25:0.58391083 26:0.72196833 27:1.6726685 28:1.5586464 29:1.4109348 30:1.3147852 31:1.2028762 32:1.0890443 33:8.3920196 34:3.1094485 35:1.9157952 36:1.4006545 37:0.98940624 38:0.74490864 39:2.8768469 40:1.1869604 41:0.8456631 42:0.71308558 43:0.61331741 44:0.55860728 45:10.570648 46:10.719173 47:10.8195 48:10.933771 49:11.084441 50:11.290392 51:11.534917 52:11.782492 53:11.990992 54:2.2117726 55:0.57973801 56:6.6798486 57:1.5669708 58:0.80887279 59:0.69399107 60:0.19883263 61:0.2598779 
-1 1:0.29545379 2:0.00017098538 3:0.87665637 4:3.3093547 5:14.508471 6:10.127071 7:11.514275 8:11.645317 9:11.742916 10:11.836826 11:11.936814 12:12.048793 13:12.170655 14:12.295728 15:12.417838 16:10.409083 17:4.1112734 20:0.36347716 21:0.32724696 22:0.39288295 23:0.43497601 24:0.46125863 25:0.48115621 26:0.49062883 27:1.7490771 28:1.5252834 29:1.4248014 30:1.3726477 31:1.3258092 32:1.3077418 33:7.6630976 34:4.0715871 35:3.4423995 36:3.173079 37:2.9180659 38:2.718285 39:2.5882937 40:1.5867769 41:1.3974175 42:1.3218974 43:1.2533605 44:1.1891179 45:11.170543 46:11.301584 47:11.399183 48:11.493093 49:11.59308 50:11.705059 51:11.826921 52:11.951994 53:12.074104 54:1.4719575 55:0.65626387 56:4.4910888 57:1.1367203 58:0.79552128 59:0.61122828 60:0.21725093 61:0.29367856 
1 1:0.15942901 2:7.999968e-006 3:1.2512186 4:3.6711246 5:14.502503 6:10.090714 7:11.394583 8:11.534037 9:11.626213 10:11.693534 11:11.763937 12:11.856281 13:11.974829 14:12.109278 15:12.243472 16:10.51908 17:4.2465675 19:3.6962442 20:0.11973136 21:0.28191422 22:0.30116403 23:0.31551706 24:0.3322304 25:0.35629727 26:0.36221308 27:1.930489 28:1.8344602 29:1.7769641 30:1.7175643 31:1.6103191 32:1.5863887 33:7.7711146 34:3.8638937 35:3.1335893 36:2.7642837 37:1.9394213 38:1.5300996 39:2.5226351 40:1.3291236 41:1.0804595 42:0.96316249 43:0.78267202 44:0.67160071 45:11.221744 46:11.361198 47:11.453373 48:11.520694 49:11.591098 50:11.683442 51:11.801989 52:11.936438 53:12.070632 54:1.7467597 55:0.67390512 56:5.1383801 57:1.7648452 58:0.74889874 59:0.67259117 60:0.207626 61:0.23806812 
-1 1:0.63475984 2:0.00081167051 3:0.59282783 4:3.8129574 5:14.903354 6:10.551036 7:11.071538 8:11.187839 9:11.300058 10:11.415026 11:11.554588 12:11.732856 13:11.937534 14:12.143206 15:12.327741 16:10.370053 17:4.4656185 20:0.79659056 21:0.55239492 22:0.76619548 23:0.82381003 24:0.83793084 25:0.90209403 26:0.91439454 27:1.2886746 28:1.0743862 29:1.047185 30:1.0485533 31:1.0014198 32:0.99413731 33:8.0949546 34:4.4635134 35:3.476307 36:2.9133942 37:2.425258 38:2.0998584 39:3.0416596 40:2.019193 41:1.6187488 42:1.3971136 43:1.2334858 44:1.1152763 45:10.184991 46:10.30129 47:10.413507 48:10.528472 49:10.668033 50:10.846298 51:11.050974 52:11.256644 53:11.441178 54:1.7825878 55:0.83978283 56:4.9796453 57:1.6929102 58:0.66710967 59:0.51895737 60:0.268074 61:0.41982504 
-1 1:0.40608358 2:0.00016698606 3:0.91478239 4:2.4222107 5:13.81736 6:9.3575528 7:10.594913 8:10.759489 9:10.901295 10:11.027282 11:11.165558 12:11.323807 13:11.484198 14:11.635773 15:11.774201 16:10.551356 17:4.9763818 19:0.0065852694 20:0.29185436 21:0.27988072 22:0.25085988 23:0.26124518 24:0.2678622 25:0.28221591 26:0.30631269 27:1.9875969 28:2.1541256 29:2.0813456 30:2.0408495 31:1.9462895 32:1.8169827 33:7.0148794 34:3.5821451 35:2.580042 36:2.0335158 37:1.4262763 38:0.92760409 39:2.2883491 40:1.1016367 41:0.8079578 42:0.67644141 43:0.54526183 44:0.42985524 45:10.094002 46:10.258575 47:10.400379 48:10.526364 49:10.664639 50:10.822887 51:10.983277 52:11.134851 53:11.273278 54:1.7397052 55:0.59011735 56:4.8377678 57:1.8917805 58:0.64213787 59:0.7469749 60:0.21720263 61:0.2020904 
1 1:0.2414423 2:0.00019598079 3:0.55495236 4:3.3750728 5:15.409342 6:10.987392 7:12.102391 8:12.313127 9:12.488052 10:12.649031 11:12.803838 12:12.960091 13:13.116616 14:13.265048 15:13.398776 16:10.304534 17:4.3952876 20:0.42141457 21:0.36192275 22:0.3510413 23:0.34841775 24:0.36622034 25:0.42144803 26:0.49553126 27:1.6041379 28:1.6411999 29:1.6555387 30:1.5988691 31:1.4496369 32:1.3053627 33:8.5669194 34:5.1717759 35:4.2785504 36:3.6687557 37:2.6347125 38:1.762354 39:3.1558056 40:1.9721035 41:1.5899317 42:1.3633317 43:1.0655538 44:0.84379229 45:11.829309 46:12.040045 47:12.214969 48:12.375948 49:12.530755 50:12.687008 51:12.843533 52:12.991965 53:13.125692 54:1.9980523 55:0.95632812 56:4.8706275 57:2.6222015 58:0.65497691 59:0.72154685 60:0.24845694 61:0.24274343 
1 1:0.1357871 2:0.00021097774 3:0.69890756 4:3.1089786 5:15.235515 6:10.829709 7:11.437608 8:11.59088 9:11.714272 10:11.831019 11:11.95814 12:12.117249 13:12.304728 14:12.501057 15:12.680874 16:10.331677 17:4.8047261 20:0.28039685 21:0.33222035 22:0.34018889 23:0.35380122 24:0.39273644 25:0.46549096 26:0.54509313 27:1.7009107 28:1.6788089 29:1.6459133 30:1.5280042 31:1.3591084 32:1.2361445 33:8.3780033 34:4.0808145 35:2.9476541 36:2.1959839 37:1.3778964 38:0.89350756 39:2.9539968 40:1.5067237 41:1.1003704 42:0.88762414 43:0.69017126 44:0.56832461 45:11.292172 46:11.445443 47:11.568835 48:11.685582 49:11.812703 50:11.971812 51:12.159291 52:12.355619 53:12.535437 54:2.1581413 55:0.75355382 56:5.8451412 57:2.2947543 58:0.73807034 59:0.73848731 60:0.22012923 61:0.24365794 
1 1:0.16090468 2:0.00010499449 3:0.7665533 4:3.2791053 5:15.187083 6:10.726105 7:11.706444 8:11.876319 9:11.993095 10:12.091819 11:12.19773 12:12.331318 13:12.492549 14:12.66394 15:12.824605 16:10.371891 17:4.8514293 20:0.25319233 21:0.3127612 22:0.32158047 23:0.33139652 24:0.36613991 25:0.43739714 26:0.49590953 27:1.7801524 28:1.746342 29:1.7199009 30:1.61148 31:1.4143467 32:1.299492 33:8.4305564 34:4.4894459 35:3.5272859 36:2.9013201 37:1.9818013 38:1.3831063 39:2.9566156 40:1.6360132 41:1.2744439 42:1.0802881 43:0.86322365 44:0.71931334 45:11.531873 46:11.701747 47:11.818523 48:11.917248 49:12.023158 50:12.156746 51:12.317977 52:12.489368 53:12.650032 54:2.022688 55:0.79799728 56:5.4113051 57:2.3089343 58:0.75304576 59:0.75178532 60:0.21367924 61:0.23778081 
0.8763884015370684 1:0.27103579 2:0.00032194817 3:0.70028564 4:3.795071 5:15.387552 6:10.987155 7:12.260021 8:12.383871 9:12.496021 10:12.584609 11:12.684976 12:12.817007 13:12.97508 14:13.137848 15:13.290219 16:10.365885 17:4.9689956 20:0.67903964 21:0.3610868 22:0.41245926 23:0.48627675 24:0.55411152 25:0.67795587 26:0.78904446 27:1.5987187 28:1.4662426 29:1.3405504 30:1.2777045 31:1.1159737 32:1.048724 33:8.3266927 34:5.1845902 35:4.2723634 36:3.8834571 37:3.044857 38:2.5528967 39:3.1072868 40:2.0798859 41:1.7582415 42:1.6123361 43:1.407981 44:1.2579603 45:11.948701 46:12.072551 47:12.1847 48:12.273289 49:12.373655 50:12.505686 51:12.663759 52:12.826526 53:12.978898 54:1.726478 55:0.85167513 56:4.5004064 57:1.966626 58:0.79054112 59:0.66557068 60:0.20071462 61:0.28015507 
1 1:0.25599092 2:0.0013650679 3:0.72921823 4:3.7393177 5:14.353275 6:9.9694157 7:9.7700192 8:9.8326134 9:9.9075816 10:10.012675 11:10.195509 12:10.459627 13:10.756335 14:11.038072 15:11.270111 16:10.3684 17:4.8072929 20:0.63936395 21:0.37305073 22:0.64486094 23:0.86243669 24:0.94071404 25:0.99481758 26:1.0123733 27:1.6610732 28:1.2016567 29:1.02528 30:0.98749486 31:0.96974846 32:0.9651209 33:7.8498716 34:2.8323782 35:2.0701655 36:1.8020236 37:1.5327968 38:1.0892772 39:2.4496687 40:1.2410246 41:1.08212 42:1.0040301 43:0.90917628 44:0.7368712 45:9.4782975 46:9.5408906 47:9.6158575 48:9.7209491 49:9.9037803 50:10.167896 51:10.464601 52:10.746336 53:10.978374 54:1.6559811 55:0.64812063 56:6.0706436 57:1.2970389 58:0.9382244 59:0.53537788 60:0.16214396 61:0.4076694 
-1 1:0.48641448 2:0.00047588675 3:0.37744485 4:3.051745 5:14.697835 6:10.202184 7:10.831082 8:11.001188 9:11.132582 10:11.277488 11:11.451625 12:11.657672 13:11.868218 14:12.066617 15:12.238363 16:10.052215 17:4.4373276 20:0.61018777 21:0.366673 22:0.48941157 23:0.62924046 24:0.74655192 25:0.80826845 26:0.82849723 27:1.6319056 28:1.3438836 29:1.1641494 30:1.0734305 31:1.0374356 32:1.0274191 33:8.1737462 34:3.9259134 35:2.9088619 36:2.3677969 37:1.9411185 38:1.3700163 39:2.761502 40:1.6114902 41:1.325516 42:1.1712892 43:1.0307267 44:0.81532366 45:10.204625 46:10.374728 47:10.506121 48:10.651025 49:10.82516 50:11.031206 51:11.24175 52:11.440148 53:11.611893 54:1.7873625 55:0.78624729 56:5.627454 57:1.8329062 58:0.86436602 59:0.58000945 60:0.18911624 61:0.35175441 
-1 1:0.19404013 2:0.00094755093 3:1.2603011 4:2.9019105 5:12.476204 6:8.1250391 7:9.116071 8:9.3506827 9:9.4862365 10:9.6018406 11:9.7333909 12:9.8804977 13:10.031801 14:10.179116 15:10.321137 16:10.593507 17:5.3128839 19:0.69356359 20:0.46682358 21:0.3158693 22:0.43967264 23:0.55642556 24:0.64012977 25:0.73346681 26:0.82524505 27:1.8376169 28:1.4227394 29:1.2353305 30:1.1524225 31:1.0839087 32:1.0294098 33:5.6329391 34:2.8532689 35:2.1882892 36:1.8749475 37:1.5732199 38:1.2961235 39:1.7757971 40:1.175189 41:1.0233423 42:0.94977502 43:0.87225357 44:0.79405756 45:8.9019523 46:9.1365584 47:9.2721096 48:9.3877118 49:9.5192601 50:9.6663649 51:9.8176667 52:9.9649799 53:10.107 54:1.0909201 55:0.58269631 56:3.7763621 57:1.1935085 58:0.99190242 59:0.62441345 60:0.16647667 61:0.30659237 
1 1:0.4126691 2:0.00074572188 3:0.5687171 4:3.5209332 5:14.605675 6:10.148471 7:10.325471 8:10.438736 9:10.565238 10:10.708837 11:10.878325 12:11.088473 13:11.328762 14:11.565902 15:11.767573 16:10.323591 17:4.4818994 20:0.39300311 21:0.46288838 22:0.6567762 23:0.65112134 24:0.62621326 25:0.64860473 26:0.66037757 27:1.4852626 28:1.1934948 29:1.2162641 30:1.2369283 31:1.1559987 32:1.1300183 33:8.171417 34:3.2852593 35:2.1571399 36:1.6083834 37:1.0619307 38:0.6322463 39:2.7380278 40:1.4447317 41:1.0222056 42:0.81750897 43:0.65222466 44:0.49489988 45:9.8146478 46:9.9279107 47:10.05441 48:10.198007 49:10.367493 50:10.577638 51:10.817925 52:11.055064 53:11.256733 54:2.0161975 55:0.74100943 56:6.324939 57:1.8268359 58:0.72478521 59:0.5599949 60:0.26724288 61:0.3844586 
-1 1:0.2660743 2:0.00057083704 3:0.54716893 4:3.2120654 5:14.63459 6:10.274327 7:10.538156 8:10.65192 9:10.734127 10:10.811233 11:10.909528 12:11.043041 13:11.209888 14:11.398694 15:11.578551 16:10.289089 17:4.6820676 20:0.32246314 21:0.42974137 22:0.47022048 23:0.53200789 24:0.58174735 25:0.64888072 26:0.72339555 27:1.4816857 28:1.3911297 29:1.2867091 30:1.2108392 31:1.1434097 32:1.0853548 33:8.1765452 34:2.9002546 35:1.983391 36:1.7030894 37:1.415857 38:1.0119329 39:2.6754625 40:1.1823917 41:0.91007546 42:0.8558016 43:0.78533248 44:0.65944716 45:10.233333 46:10.347096 47:10.429303 48:10.506408 49:10.604702 50:10.738214 51:10.905061 52:11.093866 53:11.273722 54:1.9457891 55:0.59531132 56:6.4273641 57:1.3408859 58:0.71648888 59:0.61829938 60:0.24812034 61:0.31076159 
-0.2040055413406089 1:0.11710725 2:4.3999032e-005 3:1.2894089 4:3.0365033 5:13.12995 6:8.9997428 7:9.8825795 8:10.027441 9:10.099933 10:10.160336 11:10.233577 12:10.340957 13:10.475697 14:10.622102 15:10.763921 16:10.593803 17:5.0937512 19:3.4468742 20:0.21396153 21:0.24642014 22:0.29210976 23:0.3264522 24:0.35586301 25:0.40049612 26:0.42102279 27:2.1709049 28:1.8870412 29:1.7519805 30:1.6737225 31:1.4998728 32:1.4427014 33:6.1650782 34:2.6509639 35:2.0197093 36:1.7204564 37:1.0466841 38:0.70747061 39:1.7369685 40:0.88698097 41:0.7289018 42:0.65502259 43:0.53627697 44:0.44512611 45:9.7583462 46:9.9032068 47:9.975698 48:10.036101 49:10.109342 50:10.216721 51:10.351461 52:10.497865 53:10.639684 54:1.2820456 55:0.50828274 56:4.6081747 57:1.4400531 58:0.95115405 59:0.72941541 60:0.17431262 61:0.23899991 
1 1:0.90203033 2:4.099916e-005 3:0.2355479 4:3.1384389 5:15.484016 6:11.211618 7:10.906294 8:10.955138 9:11.033852 10:11.152046 11:11.332075 12:11.587186 13:11.890891 14:12.187046 15:12.426885 16:9.8368702 17:4.4228835 20:0.21380569 21:0.37543742 22:0.35271883 23:0.3803401 24:0.42348379 25:0.48624232 26:0.61415646 27:1.5604836 28:1.6224438 29:1.5434812 30:1.442202 31:1.3251397 32:1.18219 33:8.5358603 34:3.1857956 35:1.7525807 36:1.0069899 37:0.53805764 38:0.26697439 39:3.074178 40:1.1837684 41:0.74845416 42:0.54366177 43:0.40628411 44:0.30896816 45:9.4417531 46:9.490594 47:9.5693033 48:9.6874913 49:9.8675128 50:10.122615 51:10.426311 52:10.722461 53:10.962296 54:2.5452286 55:0.6125089 56:6.93649 57:1.9199206 58:0.6817774 59:0.71935986 60:0.24010088 61:0.24361154 
-1 1:0.29927462 2:0.0001489889 3:0.40443391 4:3.4865979 5:15.714013 6:11.337381 7:12.507032 8:12.532374 9:12.603894 10:12.686638 11:12.78784 12:12.928289 13:13.099393 14:13.27768 15:13.442872 16:10.137197 17:4.9484837 20:0.32728084 21:0.39641965 22:0.39954026 23:0.40325868 24:0.4489415 25:0.51063681 26:0.60031563 27:1.5137027 28:1.5083927 29:1.5246608 30:1.3983645 31:1.2818351 32:1.1791927 33:8.6329064 34:4.9857801 35:3.9911598 36:3.023523 37:2.1598393 38:1.542866 39:3.3073847 40:1.9585924 41:1.5286306 42:1.2299426 43:0.99396448 44:0.81857514 45:12.158154 46:12.183496 47:12.255016 48:12.337759 49:12.438961 50:12.57941 51:12.750514 52:12.928801 53:13.093993 54:2.1778806 55:0.92597147 56:5.2027245 57:2.5695663 58:0.66894699 59:0.68379602 60:0.25312506 61:0.26590359 
1 1:0.41259563 2:0.00012799181 3:0.66039721 4:3.0814576 5:15.048072 6:10.932589 7:11.466793 8:11.500911 9:11.563214 10:11.638253 11:11.736123 12:11.876214 13:12.058357 14:12.255418 15:12.440004 16:10.451867 17:5.1910604 20:0.21515089 21:0.40940799 22:0.4266041 23:0.44014669 24:0.49799932 25:0.58417404 26:0.65137213 27:1.4702066 28:1.4490565 29:1.4433956 30:1.3225129 31:1.1956316 32:1.1310827 33:7.8627211 34:3.8446762 35:2.8411117 36:2.1884398 37:1.7038724 38:1.4435958 39:2.8816619 40:1.5204565 41:1.1589065 42:0.98459814 43:0.87110172 44:0.80634729 45:10.956066 46:10.990183 47:11.052487 48:11.127525 49:11.225394 50:11.365485 51:11.547627 52:11.744687 53:11.929273 54:1.9720308 55:0.68576357 56:5.3899669 57:1.6835859 58:0.67240303 59:0.65853576 60:0.2508342 61:0.28438784 
-1 1:0.18906957 2:9.6995296e-005 3:0.46983487 4:3.4199851 5:15.720064 6:11.354176 7:12.448665 8:12.485398 9:12.561627 10:12.647254 11:12.752503 12:12.895441 13:13.069868 14:13.253184 15:13.42084 16:10.138445 17:5.0923325 20:0.28006287 21:0.37932508 22:0.37202345 23:0.36564261 24:0.39207047 25:0.44767877 26:0.51842706 27:1.5436032 28:1.5706382 29:1.6271057 30:1.530068 31:1.385799 32:1.2748931 33:8.5762042 34:4.7970248 35:3.7743017 36:2.8610404 37:1.9669581 38:1.385468 39:3.226601 40:1.832771 41:1.4062529 42:1.1154937 43:0.88258378 44:0.72742831 45:12.240541 46:12.277274 47:12.353503 48:12.43913 49:12.544379 50:12.687316 51:12.861743 52:13.045059 53:13.212715 54:2.2014551 55:0.88595361 56:5.3356579 57:2.5331924 58:0.64034026 59:0.70018139 60:0.25590454 61:0.25334194 
1 1:0.39684405 2:0.00022697424 3:0.42552064 4:3.283802 5:15.261758 6:11.058086 7:12.084904 8:12.169186 9:12.230196 10:12.287862 11:12.358872 12:12.45676 13:12.5805 14:12.719962 15:12.859339 16:10.191138 17:4.504915 20:0.38121613 21:0.4284092 22:0.48277485 23:0.52333881 24:0.56649663 25:0.61134964 26:0.64844057 27:1.4289448 28:1.3532057 29:1.2717005 30:1.2218816 31:1.1655567 32:1.1324896 33:8.1208414 34:4.3790451 35:3.469263 36:3.0046328 37:2.5219338 38:2.0643835 39:3.0395892 40:1.750498 41:1.4827337 42:1.3298539 43:1.1828496 44:1.0292333 45:11.597783 46:11.682066 47:11.743075 48:11.800741 49:11.871751 50:11.969639 51:12.093378 52:12.23284 53:12.372216 54:1.8877126 55:0.77914845 56:5.0358637 57:1.6969801 58:0.67296192 59:0.59257308 60:0.25757156 61:0.32266424 
-1 1:0.60114428 2:8.4996388e-005 3:0.41740817 4:3.5793195 5:15.606064 6:11.333643 7:12.787724 8:12.826425 9:12.899186 10:12.975003 11:13.064712 12:13.178131 13:13.308546 14:13.444109 15:13.575071 16:10.070963 17:4.911539 20:0.29519553 21:0.43209341 22:0.44335866 23:0.46244891 24:0.50372548 25:0.58657704 26:0.64690217 27:1.4406339 28:1.4276141 29:1.3979304 30:1.3750458 31:1.1929614 32:1.1336419 33:8.3939563 34:5.3849008 35:4.4428687 36:4.0221117 37:3.1834893 38:2.6168412 39:3.2524354 40:2.1450146 41:1.8135808 42:1.614469 43:1.4242371 44:1.234914 45:11.963523 46:12.002223 47:12.074984 48:12.1508 49:12.24051 50:12.353928 51:12.484343 52:12.619906 53:12.750868 54:1.838479 55:0.89351915 56:4.4036574 57:2.0695085 58:0.65462211 59:0.6537518 60:0.26520849 61:0.29281715 
-1 1:1.0296194 2:3.99992e-005 3:0.11571423 4:3.8383885 5:15.803484 6:11.557382 7:13.305708 8:13.383048 9:13.433713 10:13.480351 11:13.539861 12:13.619672 13:13.711252 14:13.805575 15:13.894562 16:9.4240282 17:4.3475211 20:0.55715562 21:0.65538976 22:0.64489977 23:0.64220488 24:0.63855635 25:0.63967045 26:0.63721366 27:1.1326082 28:1.1344224 29:1.136579 30:1.1394087 31:1.138617 32:1.1406927 33:8.8358548 34:6.152761 35:5.9639594 36:5.8985389 37:5.8214675 38:5.6984699 39:3.6023208 40:2.7647674 41:2.6755712 42:2.6435744 43:2.6084497 44:2.550078 45:11.505716 46:11.583055 47:11.63372 48:11.680358 49:11.739868 50:11.819679 51:11.911257 52:12.00558 53:12.094567 54:1.2843973 55:0.72015388 56:3.0429299 57:0.83487349 58:0.51492019 59:0.51699114 60:0.39781561 61:0.38890678 
-1 1:0.6902876 2:0.00054685045 3:0.34155857 4:3.6281348 5:15.15604 6:10.970936 7:11.640689 8:11.79094 9:11.921374 10:12.031758 11:12.148423 12:12.281891 13:12.422056 14:12.56026 15:12.686612 16:10.13791 17:5.0275596 20:0.73422098 21:0.62277193 22:0.85136302 23:0.85831452 24:0.85597454 25:0.83420046 26:0.81492843 27:1.2112464 28:1.0194078 29:1.0149379 30:1.0159283 31:1.0245024 32:1.0327958 33:8.1307955 34:4.8345589 35:4.2517908 36:3.6737858 37:3.0683712 38:2.0589633 39:3.0758281 40:2.2328066 41:1.9721145 42:1.7219282 43:1.4711809 44:1.0602442 45:10.646415 46:10.796664 47:10.927097 48:11.037479 49:11.154143 50:11.28761 51:11.427774 52:11.565977 53:11.692329 54:1.6770952 55:1.0801114 56:4.5565875 57:2.2046779 58:0.61262491 59:0.48857629 60:0.31903421 61:0.46563826 
1 1:0.49099611 2:0.00043590498 3:0.51676197 4:3.3862349 5:14.905333 6:10.771764 7:10.012132 8:10.048491 9:10.111499 10:10.197733 11:10.359698 12:10.634708 13:10.995853 14:11.351522 15:11.629582 16:10.261885 17:4.9968695 20:0.32460568 21:0.5219424 22:0.69472244 23:0.67865822 24:0.69150684 25:0.73759603 26:0.77533297 27:1.3083242 28:1.1169904 29:1.1345468 30:1.1150593 31:1.079956 32:1.0622118 33:7.8226759 34:2.7735996 35:1.3869796 36:0.8451517 37:0.55686458 38:0.35979388 39:2.8381657 40:1.266787 41:0.7728526 42:0.58574903 43:0.47987165 44:0.38898201 45:9.3782289 46:9.4145864 47:9.4775924 48:9.5638228 49:9.7257833 50:10.000786 51:10.361925 52:10.717589 53:10.995647 54:2.2577466 55:0.62529541 56:6.5078766 57:1.5052386 58:0.64720819 59:0.53367247 60:0.28319192 61:0.38368972 
-1 1:0.56069121 2:0.00044590057 3:0.69544254 4:2.7233075 5:13.962894 6:9.9463075 7:10.378477 8:10.478289 9:10.562121 10:10.649764 11:10.763002 12:10.904981 13:11.063916 14:11.223888 15:11.368069 16:10.569306 17:5.4512816 20:0.26816204 21:0.37620106 22:0.34481378 23:0.34220009 24:0.36942541 25:0.39387959 26:0.45969 27:1.6116523 28:1.7237538 29:1.7034181 30:1.5957052 31:1.5116517 32:1.3714358 33:7.1226668 34:2.6662188 35:1.7944036 36:1.2591931 37:0.85566179 38:0.48923869 39:2.3865806 40:0.97611767 41:0.71790662 42:0.58821269 43:0.48287235 44:0.3761688 45:9.6266287 46:9.7264379 47:9.8102674 48:9.8979079 49:10.011143 50:10.153118 51:10.312051 52:10.47202 53:10.616199 54:1.8965347 55:0.53536373 56:5.7141419 57:1.4848827 58:0.63302437 59:0.71821167 60:0.26419609 61:0.24386854 
1 1:0.50834415 2:0.00025396775 3:0.46618196 4:3.6896605 5:15.715308 6:11.408254 7:12.942212 8:12.942436 9:12.96461 10:13.003195 11:13.067997 12:13.177234 13:13.324092 14:13.484898 15:13.640132 16:10.1762 17:5.0131516 20:0.63547675 21:0.40966693 22:0.42921809 23:0.44287392 24:0.48398235 25:0.564195 26:0.66260189 27:1.4695453 28:1.4458678 29:1.440618 30:1.3746167 31:1.2231597 32:1.1256826 33:8.3519668 34:5.5235359 35:4.6555514 36:4.0435711 37:3.2538535 38:2.6453485 39:3.2847012 40:2.225875 41:1.8717937 42:1.6483801 43:1.4331231 44:1.2511674 45:12.279678 46:12.279902 47:12.302076 48:12.340661 49:12.405463 50:12.5147 51:12.661558 52:12.822363 53:12.977598 54:1.8333091 55:0.92158032 56:4.2411915 57:2.1647187 58:0.66848418 59:0.6722904 60:0.25043548 61:0.27673317 
1 1:0.73998974 2:0.00023697192 3:0.32208133 4:3.5682777 5:15.797584 6:11.451592 7:12.838178 8:12.863237 9:12.894296 10:12.927775 11:12.988253 12:13.096467 13:13.24817 14:13.418065 15:13.582607 16:9.9757142 17:4.8208869 20:0.59885628 21:0.41184472 22:0.39917671 23:0.40591567 24:0.44790372 25:0.53936993 26:0.63726971 27:1.4686556 28:1.5246309 29:1.5770616 30:1.4549588 31:1.2532183 32:1.1456959 33:8.5768266 34:5.5534601 35:4.7188481 36:3.9795977 37:3.0510683 38:2.3556008 39:3.3578068 40:2.1842642 41:1.812417 42:1.5729042 43:1.3348858 44:1.129477 45:11.742269 46:11.767328 47:11.798387 48:11.831866 49:11.892343 50:12.000557 51:12.152259 52:12.322154 53:12.486695 54:1.9685641 55:0.95014215 56:4.4792642 57:2.4380791 58:0.64058877 59:0.71832902 60:0.25823397 61:0.26253253 
-1 1:0.68517045 2:0.0011892925 3:0.96029805 4:3.4205341 5:14.842751 6:10.116015 7:10.232303 8:10.291867 9:10.30218 10:10.302989 11:10.335646 12:10.452402 13:10.726156 14:11.071763 15:11.335881 16:10.535414 17:4.6471035 20:0.26722321 21:0.43653991 22:0.46850063 23:0.50323287 24:0.56768883 25:0.71588911 26:0.99003327 27:1.4387504 28:1.3993614 29:1.3614252 30:1.2650128 31:1.1137048 32:0.9760766 33:8.5636553 34:2.2324899 35:1.0021832 36:0.56534222 37:0.23830011 38:0.11318403 39:2.9023326 40:0.94922558 41:0.55859126 42:0.42260668 43:0.30636569 44:0.23748738 45:9.2482534 46:9.3078143 47:9.3181266 48:9.3189349 49:9.3515901 50:9.4683399 51:9.7420826 52:10.087679 53:10.351791 54:2.5021079 55:0.49109511 56:7.6701024 57:1.244953 58:0.70429714 59:0.6897044 60:0.21963561 61:0.25030592 
-1 1:0.24307401 2:0.0012382331 3:0.89185582 4:2.7192128 5:14.100569 6:9.8074171 7:10.046174 8:10.164956 9:10.259697 10:10.355096 11:10.477818 12:10.642727 13:10.842377 14:11.048146 15:11.233772 16:10.529682 17:5.1655715 20:0.44281934 21:0.36966589 22:0.48578409 23:0.56464256 24:0.62794924 25:0.66297659 26:0.69089715 27:1.661512 28:1.3375567 29:1.2238363 30:1.1596845 31:1.1278442 32:1.1064396 33:7.2886662 34:2.8559581 35:1.9657285 36:1.4961023 37:1.1334169 38:0.72409095 39:2.2972855 40:1.213175 41:0.94809013 42:0.81104665 43:0.69292166 44:0.5406968 45:9.7710247 46:9.889805 47:9.9845448 48:10.079943 49:10.202663 50:10.367572 51:10.56722 52:10.772988 53:10.958613 54:1.6476466 55:0.64283459 56:5.673198 57:1.482895 58:0.84777732 59:0.57913237 60:0.21163429 61:0.33698969 
-1 1:0.90252887 2:0.00016698606 3:0.27801121 4:3.8530268 5:14.724467 6:10.475032 7:11.910519 8:11.982559 9:12.04865 10:12.110556 11:12.182593 12:12.272392 13:12.372525 14:12.475104 15:12.573614 16:10.096485 17:4.6048945 20:1.5649254 21:0.71771735 22:0.96436979 23:0.97854377 24:0.98793582 25:0.99891828 26:1.0024703 27:1.1908329 28:0.9826768 29:0.97585088 30:0.97192599 31:0.96829819 32:0.9674765 33:8.0040817 34:5.1197033 35:4.8629611 36:4.7223734 37:4.5782909 38:4.3163631 39:2.9968775 40:2.3916001 41:2.2813098 42:2.2216599 43:2.1605226 44:2.0434103 45:10.44471 46:10.516749 47:10.582839 48:10.644743 49:10.716779 50:10.806576 51:10.906708 52:11.009286 53:11.107795 54:1.1600587 55:0.75213612 56:3.4240568 57:0.98462308 58:0.62437635 59:0.4868675 60:0.32863476 61:0.47826805 
-1 1:0.25248097 2:0.00055784438 3:0.74415393 4:2.892957 5:14.42851 6:10.214569 7:10.58841 8:10.719778 9:10.805666 10:10.873919 11:10.952889 12:11.0582 13:11.188708 14:11.337198 15:11.478192 16:10.468437 17:4.5767944 20:0.4097061 21:0.39674789 22:0.62897179 23:0.6918198 24:0.72227676 25:0.74785693 26:0.78636745 27:1.6167003 28:1.1567614 29:1.1015736 30:1.0810113 31:1.0662451 32:1.0461081 33:7.8189425 34:2.799656 35:2.420576 36:2.2761904 37:2.0225293 38:1.6878904 39:2.3988653 40:1.2897912 41:1.1743797 42:1.1297091 43:1.0444398 44:0.93072683 45:10.301203 46:10.43257 47:10.518458 48:10.58671 49:10.66568 50:10.77099 51:10.901498 52:11.049987 53:11.19098 54:1.5017502 55:0.62478976 56:5.7023135 57:1.0629078 58:0.86642811 59:0.53425276 60:0.20826061 61:0.37883126 
-1 1:0.40175423 2:0.00026796409 3:0.78915121 4:2.8740691 5:13.989142 6:9.5554891 7:10.339221 8:10.527484 9:10.651899 10:10.752864 11:10.84942 12:10.967958 13:11.110959 14:11.266296 15:11.40962 16:10.538357 17:4.9189945 20:0.46146036 21:0.3600625 22:0.52574458 23:0.630885 24:0.68089189 25:0.76046839 26:0.813236 27:1.6834639 28:1.2950468 29:1.1564298 30:1.1188929 31:1.0631754 32:1.0342778 33:7.4832804 34:3.0175615 35:2.3429831 36:2.0710262 37:1.8096529 38:1.5834193 39:2.3286151 40:1.2902899 41:1.1207387 42:1.0391361 43:0.97029168 44:0.90016094 45:9.8447973 46:10.033057 47:10.15747 48:10.258434 49:10.354989 50:10.473525 51:10.616525 52:10.77186 53:10.915184 54:1.4742224 55:0.60427433 56:5.4018551 57:1.1309651 58:0.89976203 59:0.57711027 60:0.18858755 61:0.34259779 
-1 1:0.19401295 2:0.00068576481 3:0.8708418 4:2.4978091 5:13.846417 6:9.6642781 7:10.328212 8:10.521554 9:10.591309 10:10.648785 11:10.715842 12:10.824215 13:10.97126 14:11.13609 15:11.295842 16:10.412556 17:4.6905 20:0.3393367 21:0.3145326 22:0.42444125 23:0.51387098 24:0.63622174 25:0.78667532 26:0.91633513 27:1.8399312 28:1.5347508 29:1.3815805 30:1.2001575 31:1.0534856 32:0.99571836 33:7.3271176 34:2.6752443 35:1.7423176 36:1.1702298 37:0.79094064 38:0.66533241 39:2.14367 40:1.0134323 41:0.7774727 42:0.66007167 43:0.58855026 44:0.55621917 45:10.114108 46:10.307449 47:10.377203 48:10.434678 49:10.501735 50:10.610108 51:10.757152 52:10.921981 53:11.081733 54:1.5792124 55:0.51224117 56:5.8990378 57:1.3305648 58:0.975574 59:0.69235969 60:0.15790687 61:0.2841071 
-0.4000046813187972 1:0.15257344 2:0.00021197753 3:0.89713768 4:2.3993091 5:14.255563 6:9.8596402 7:10.371489 8:10.45199 9:10.554677 10:10.684122 11:10.829082 12:11.008896 13:11.211444 14:11.413251 15:11.589756 16:10.509498 17:4.2476692 20:0.20178834 21:0.24224947 22:0.24557488 23:0.2737378 24:0.33464199 25:0.44098732 26:0.63170732 27:2.208043 28:2.188263 29:2.0076801 30:1.7177948 31:1.4224158 32:1.1683557 33:7.6524557 34:2.8210473 35:1.5216123 36:0.740389 37:0.31034824 38:0.14303744 39:2.2289824 40:0.81610878 41:0.52753229 42:0.3839057 43:0.28890507 44:0.23149736 45:10.206667 46:10.287167 47:10.389853 48:10.519298 49:10.664258 50:10.844071 51:11.046618 52:11.248425 53:11.42493 54:1.8900916 55:0.43650418 56:6.3504833 57:1.7073751 58:0.97951286 59:0.99932219 60:0.15512523 61:0.18677023 
-1 1:0.22316275 2:0.00052186381 3:0.84874567 4:2.6588238 5:14.105157 6:9.8982237 7:10.401536 8:10.652603 9:10.765926 10:10.846248 11:10.926888 12:11.04181 13:11.191861 14:11.357102 15:11.510376 16:10.542052 17:4.8518245 20:0.33767152 21:0.29352 22:0.37946331 23:0.44761933 24:0.54954929 25:0.71152134 26:0.84675414 27:1.9203904 28:1.6590474 29:1.5305984 30:1.3467466 31:1.1039576 32:1.0245232 33:7.4998789 34:2.7558915 35:1.8226855 36:1.2358603 37:0.72602426 38:0.60439465 39:2.2117927 40:0.98642855 41:0.74850052 42:0.62649763 43:0.54480435 44:0.51967912 45:10.151521 46:10.402585 47:10.515908 48:10.59623 49:10.676869 50:10.791791 51:10.941841 52:11.107081 53:11.260355 54:1.6683883 55:0.50247833 56:6.0329233 57:1.4352751 58:0.98248902 59:0.76219383 60:0.15637044 61:0.26213046 
1 1:0.28292452 2:0.0011693161 3:0.40751634 4:2.1796937 5:13.274343 6:9.0872684 7:9.3136024 8:9.5363473 9:9.6542501 10:9.7383146 11:9.8333286 12:9.9564371 13:10.10378 14:10.26233 15:10.408694 16:9.7501351 17:4.326594 20:0.65615171 21:0.49559462 22:0.78104999 23:0.87899833 24:0.90903689 25:0.96000288 26:0.9798235 27:1.4453625 28:1.0603021 29:1.0097064 30:0.9993649 31:0.98015302 32:0.9740244 33:6.9674473 34:2.3805342 35:1.9500131 36:1.7787793 37:1.6181043 38:1.5617356 39:2.0712457 40:1.1815235 41:1.0479995 42:0.98877175 43:0.93901536 44:0.92058669 45:8.9866323 46:9.2093702 47:9.3272699 48:9.4113324 49:9.5063444 50:9.6294505 51:9.7767912 52:9.9353385 53:10.081701 54:1.2788331 55:0.54957312 56:5.1830017 57:0.83329075 58:0.78883125 59:0.50802243 60:0.22496414 61:0.42761016 
-1 1:0.40275878 2:0.00048488243 3:0.77407857 4:2.8804637 5:13.957175 6:9.5577525 7:10.767544 8:10.978102 9:11.100188 10:11.188441 11:11.268383 12:11.366177 13:11.482312 14:11.606529 15:11.72288 16:10.529746 17:4.5486325 20:0.60493381 21:0.39796438 22:0.58753441 23:0.6682662 24:0.73741236 25:0.81567008 26:0.82303971 27:1.6249624 28:1.2851737 29:1.1921706 30:1.1105303 31:1.0345874 32:1.0297673 33:7.5576826 34:3.5135822 35:2.8438493 36:2.4595094 37:2.1381493 38:1.818226 39:2.3497808 40:1.4786215 41:1.2871351 42:1.1857602 43:1.1081923 44:0.98783937 45:10.271612 46:10.482167 47:10.604251 48:10.692503 49:10.772446 50:10.870238 51:10.986373 52:11.110589 53:11.226939 54:1.3933251 55:0.67291142 56:5.0828957 57:1.3126549 58:0.85934652 59:0.5777232 60:0.20473188 61:0.37173505 
1 1:0.35444055 2:0.00099350631 3:0.71670598 4:2.5452049 5:13.173821 6:8.9339279 7:9.9804094 8:10.308421 9:10.42875 10:10.485469 11:10.535328 12:10.605812 13:10.697939 14:10.800331 15:10.900835 16:10.168437 17:4.1449897 20:0.48356439 21:0.45427305 22:0.56415575 23:0.59840124 24:0.62830995 25:0.67567594 26:0.68346849 27:1.4876831 28:1.2485518 29:1.2021188 30:1.166745 31:1.11281 32:1.1071458 33:6.675 34:2.9630083 35:2.4088313 36:2.0881117 37:1.6490732 38:1.369585 39:2.0717406 40:1.2448538 41:1.0821597 42:0.99788141 43:0.88764555 44:0.78870733 45:9.555051 46:9.8830557 47:10.003383 48:10.060101 49:10.109959 50:10.180442 51:10.272568 52:10.374959 53:10.475462 54:1.3151632 55:0.62030239 56:4.6768274 57:1.260211 58:0.7367768 59:0.55913125 60:0.26227647 61:0.35856604 
-1 1:0.31347627 2:0.0003049535 3:0.62116825 4:3.3674048 5:14.673075 6:10.374834 7:11.533442 8:11.692321 9:11.781461 10:11.847374 11:11.909927 12:11.993554 13:12.101711 14:12.226244 15:12.348451 16:10.243844 17:4.3476991 20:0.50697301 21:0.41696737 22:0.55528126 23:0.58827266 24:0.62171348 25:0.63677998 26:0.62427341 27:1.5007641 28:1.245336 29:1.203042 30:1.1640382 31:1.1421678 32:1.1521865 33:8.1504635 34:4.0478618 35:3.3738538 36:2.9675233 37:2.6563273 38:2.4154299 39:2.742168 40:1.7160708 41:1.4826819 42:1.3487672 43:1.2487885 44:1.1529628 45:11.165273 46:11.324151 47:11.413291 48:11.479204 49:11.541757 50:11.625383 51:11.73354 52:11.858073 53:11.98028 54:1.5841622 55:0.71793193 56:5.1300198 57:1.279255 58:0.73265993 59:0.54348195 60:0.24712901 61:0.36558019 
1 1:0.56526949 2:0.0019500973 3:0.5532119 4:2.6145535 5:12.977861 6:8.7872203 7:8.5297247 8:8.6235343 9:8.7117231 10:8.8055919 11:8.9239268 12:9.0830165 13:9.2727973 14:9.4791487 15:9.6611924 16:10.133123 17:4.1264668 20:0.58726986 21:0.81454722 22:0.96790054 23:0.93711676 24:0.9084283 25:0.89430644 26:0.9046209 27:1.1329609 28:0.97868057 29:0.98982665 30:0.99831965 31:1.0014598 32:0.9975739 33:6.8296558 34:2.964597 35:1.9933082 36:1.497573 37:1.0402746 38:0.55595882 39:2.3446427 40:1.4388496 41:1.0528472 42:0.87176606 43:0.70234277 44:0.50051465 45:7.7700274 46:7.8638169 47:7.9519885 48:8.0458404 49:8.1641564 50:8.3232238 51:8.5129823 52:8.7193137 53:8.9013429 54:1.6429052 55:0.75862282 56:5.1999286 57:1.6687169 58:0.57567309 59:0.48598679 60:0.40771954 61:0.48136485 
-1 1:0.1481717 2:1.099994e-005 3:1.2854376 4:2.9257574 5:13.702734 6:9.3470542 7:10.497308 8:10.623645 9:10.687823 10:10.733763 11:10.791591 12:10.886353 13:11.015736 14:11.164406 15:11.308824 16:10.57057 17:4.2999935 19:3.253893 20:0.13529109 21:0.25574858 22:0.30794783 23:0.35362921 24:0.39823235 25:0.42276198 26:0.4253527 27:2.1124333 28:1.817416 29:1.6486496 30:1.5029563 31:1.4304732 32:1.4234854 33:6.9247998 34:2.8708567 35:2.1516364 36:1.6740101 37:1.3173266 38:1.0948529 39:2.0117069 40:0.99298618 41:0.82136536 42:0.73053641 43:0.65263347 44:0.58209997 45:10.337601 46:10.463937 47:10.528115 48:10.574055 49:10.631882 50:10.726644 51:10.856027 52:11.004697 53:11.149114 54:1.4379772 55:0.527192 56:5.1531173 57:1.2863808 58:0.95052562 59:0.67569075 60:0.17862904 61:0.25783732 
-1 1:0.60757132 2:0.0014918866 3:0.66165755 4:3.1816171 5:14.027665 6:9.7645128 7:9.1811762 8:9.2794342 9:9.3745679 10:9.4987467 11:9.6898928 12:9.9594448 13:10.276151 14:10.583222 15:10.829073 16:10.478792 17:4.2643244 20:0.40793938 21:0.70018287 22:0.88407741 23:0.83942783 24:0.87101425 25:0.9366924 26:0.97087702 27:1.1902211 28:1.0195547 29:1.0550539 30:1.0291254 31:0.98893469 32:0.97692702 33:7.6385989 34:3.1217576 35:1.6997686 36:0.98373814 37:0.61807444 38:0.38434021 39:2.678972 40:1.4668526 41:0.90752926 42:0.66354688 43:0.53388119 44:0.42492323 45:8.3453438 46:8.4435892 47:8.5387118 48:8.6628777 49:8.8540067 50:9.1235396 51:9.4402286 52:9.7472881 53:9.993132 54:2.0213026 55:0.72079988 56:6.0675781 57:1.7721569 58:0.61044621 59:0.51351337 60:0.33710355 61:0.43016364 
-1 1:0.57050373 2:0.0014789059 3:0.7074366 4:3.4261353 5:14.144411 6:9.7971265 7:10.043335 8:10.148714 9:10.250664 10:10.357351 11:10.490137 12:10.667419 13:10.877119 14:11.090293 15:11.278701 16:10.505991 17:4.3856076 20:0.78214475 21:0.67124865 22:0.9398174 23:0.9669732 24:0.97421883 25:0.97969849 26:0.96762965 27:1.2308819 28:0.99023575 29:0.98018267 30:0.97721197 31:0.97392397 32:0.9773324 33:7.6403239 34:4.0778917 35:3.2226382 36:2.6649519 37:2.2662465 38:1.9873593 39:2.7455244 40:1.9128312 41:1.5486742 42:1.3289147 43:1.1851456 44:1.0811575 45:9.2742272 46:9.3796012 47:9.4815472 48:9.5882302 49:9.7210114 50:9.8982883 51:10.107983 52:10.321153 53:10.509558 54:1.5780139 55:0.80279852 56:4.8052601 57:1.5190274 58:0.64756124 59:0.48659396 60:0.31038197 61:0.48099565 
-1 1:0.54279453 2:0.00060181887 3:0.8758949 4:2.3127521 5:12.571039 6:8.4559559 7:8.8672214 8:9.0852691 9:9.2637522 10:9.4033912 11:9.5413488 12:9.6920104 13:9.8520243 14:10.008286 15:10.146336 16:10.258168 17:4.6875847 20:0.29139268 21:0.39004144 22:0.35361587 23:0.3782782 24:0.40919547 25:0.47864989 26:0.57687344 27:1.6339941 28:1.7273831 29:1.6375685 30:1.5172044 31:1.3468085 32:1.2139437 33:6.0368597 34:1.8318378 35:1.093317 36:0.75263469 37:0.44541248 38:0.26765409 39:1.8645916 40:0.73239962 41:0.52119389 42:0.44526322 43:0.3705527 44:0.30612274 45:8.1465612 46:8.3645798 47:8.5430433 48:8.6826693 49:8.8206156 50:8.9712666 51:9.1312709 52:9.287525 53:9.4255688 54:1.5204181 55:0.41246494 56:5.221161 57:0.99511642 58:0.69855999 59:0.75456978 60:0.2552321 61:0.24788615 
1 1:0.60177065 2:0.0013470923 3:0.55784451 4:3.1932845 5:13.986512 6:9.8748308 7:11.18971 8:11.221809 9:11.247429 10:11.28807 11:11.337579 12:11.412455 13:11.511057 14:11.623695 15:11.734493 16:9.5140813 17:4.2850876 20:1.3102602 21:0.64733934 22:0.88288533 23:0.89771568 24:0.91578861 25:0.94362142 26:0.97301921 27:1.2796411 28:1.0171538 29:1.0052063 30:0.99582734 31:0.98477185 32:0.97563039 33:7.2925527 34:4.1118634 35:3.8519917 36:3.7059116 37:3.6253923 38:3.588151 39:2.5247808 40:1.9126947 41:1.8149169 42:1.7604741 43:1.7344481 44:1.7250716 45:10.36438 46:10.396478 47:10.422098 48:10.462738 49:10.512246 50:10.587122 51:10.685722 52:10.798359 53:10.909155 54:1.0858376 55:0.64621277 56:3.5968597 57:0.81564406 58:0.67600718 59:0.49989343 60:0.3037204 61:0.44547337 
-1 1:0.19074762 2:0.00012799181 3:0.97582375 4:3.4115793 5:14.391112 6:9.9930083 7:10.756301 8:10.969919 9:11.096561 10:11.194374 11:11.294649 12:11.421119 13:11.574902 14:11.74132 15:11.896598 16:10.52418 17:4.835653 19:1.8676429 20:0.31194752 21:0.35317553 22:0.42761335 23:0.45689433 24:0.4930974 25:0.56395835 26:0.60668638 27:1.6597954 28:1.4605299 29:1.4102865 30:1.3438393 31:1.2216488 32:1.1737785 33:7.794754 34:3.4391508 35:2.4756383 36:1.9164009 37:1.3450158 38:0.9254784 39:2.5652559 40:1.3652872 41:1.0387965 42:0.87259628 43:0.73326845 44:0.59919688 45:10.546152 46:10.759769 47:10.886411 48:10.984223 49:11.084498 50:11.210968 51:11.36475 52:11.531167 53:11.686446 54:1.82307 55:0.68867645 56:5.721674 57:1.7788445 58:0.78500691 59:0.64139804 60:0.21893785 61:0.29399547 
0.4156147545657596 1:0.6046263 2:0.00070974807 3:0.64216542 4:2.8526477 5:14.246879 6:10.034691 7:10.347677 8:10.512232 9:10.638794 10:10.74914 11:10.860534 12:11.003793 13:11.177657 14:11.362608 15:11.529288 16:10.010457 17:4.3686093 20:0.65267512 21:0.58026735 22:0.81016237 23:0.8055558 24:0.84479473 25:0.89587249 26:0.90591105 27:1.3396531 28:1.0722594 29:1.0863612 30:1.0524497 31:1.002638 32:0.99780768 33:7.6209804 34:3.6348942 35:2.6323031 36:1.9721695 37:1.3835749 38:0.85067771 39:2.6247781 40:1.6753925 41:1.2725701 42:1.035033 43:0.8365906 44:0.62875692 45:9.5171504 46:9.6816994 47:9.8082569 48:9.9186 49:10.029991 50:10.173246 51:10.347108 52:10.532055 53:10.698733 54:1.7501484 55:0.84918758 56:5.4229243 57:1.9875806 58:0.69799254 59:0.52415783 60:0.28397555 61:0.42645002 
1 1:0.44648484 2:0.00067477229 3:0.76001206 4:2.7789083 5:14.079104 6:9.7939517 7:10.648892 8:10.947996 9:11.0999 10:11.199196 11:11.284959 12:11.388408 13:11.512727 14:11.648472 15:11.777169 16:10.206006 17:4.4208446 20:0.90119821 21:0.3912749 22:0.68231775 23:0.82583897 24:0.9046209 25:0.97797982 26:0.97347415 27:1.6882472 28:1.1636095 29:1.0575569 30:1.0177644 31:0.97468378 32:0.97577287 33:7.4848868 34:3.6978055 35:3.1172996 36:2.7870356 37:2.4013614 38:2.0255623 39:2.3696025 40:1.6192777 41:1.470288 42:1.3633962 43:1.2421049 44:1.094984 45:10.086101 46:10.3852 47:10.537102 48:10.636398 49:10.722159 50:10.825607 51:10.949926 52:11.08567 53:11.214366 54:1.3081196 55:0.72669067 56:4.7802438 57:1.3463475 58:0.95381102 59:0.53445199 60:0.17540586 61:0.41162125 
-1 1:0.10276325 2:6.099814e-005 3:0.82928823 4:2.5749799 5:14.277703 6:10.031661 7:10.761215 8:10.912144 9:10.988266 10:11.051208 11:11.118235 12:11.213278 13:11.3412 14:11.489002 15:11.633808 16:10.3591 17:4.8238324 20:0.16779658 21:0.29707185 22:0.37120901 23:0.40202118 24:0.45021729 25:0.50640728 26:0.54063799 27:1.9300058 28:1.6776809 29:1.5896068 30:1.4383819 31:1.2892164 32:1.2389581 33:7.7053684 34:2.9717962 35:2.1533197 36:1.5776527 37:1.0544253 38:0.80033652 39:2.2975567 40:1.0794223 41:0.85095018 42:0.72095153 43:0.60887768 44:0.53390816 45:10.652989 46:10.803917 47:10.880039 48:10.942981 49:11.010008 50:11.10505 51:11.232972 52:11.380775 53:11.52558 54:1.7000784 55:0.56486628 56:5.9855753 57:1.5210562 58:0.90692193 59:0.70361866 60:0.19244053 61:0.27480525 
1 1:0.12451411 2:0.00016298672 3:0.73776771 4:2.7650299 5:14.63754 6:10.340936 7:11.164938 8:11.273675 9:11.33085 10:11.392811 11:11.463819 12:11.570684 13:11.718529 14:11.888835 15:12.051657 16:10.301611 17:4.7788538 20:0.23401306 21:0.30430907 22:0.36769609 23:0.41993721 24:0.49918311 25:0.58247704 26:0.62406234 27:1.8421087 28:1.6311 29:1.5271353 30:1.3316774 31:1.1942921 32:1.1526894 33:8.0490874 34:3.4708888 35:2.5406466 36:1.8221406 37:1.3348205 38:1.0843281 39:2.6021716 40:1.2726306 41:1.0017151 42:0.8464861 43:0.74150868 44:0.66722765 45:11.032342 46:11.141079 47:11.198253 48:11.260215 49:11.331222 50:11.438087 51:11.585933 52:11.756238 53:11.91906 54:1.8558026 55:0.62193805 56:5.9311524 57:1.6672188 58:0.89258252 59:0.69851207 60:0.18660731 61:0.27915247 
0.08813991141535443 1:0.22134674 2:0.00073972633 3:0.46249929 4:2.2953227 5:14.040159 6:9.8984248 7:11.266612 8:11.48849 9:11.523403 10:11.531325 11:11.545701 12:11.594426 13:11.680112 14:11.793307 15:11.913576 16:8.9933054 17:4.1342717 20:0.62177469 21:0.32300626 22:0.45261647 23:0.55937747 24:0.68592214 25:0.84794636 26:0.94346261 27:1.8044875 28:1.5094222 29:1.3855959 30:1.1954649 31:1.0262925 32:0.98630585 33:7.3227835 34:3.6968383 35:3.0567354 36:2.4953302 37:1.7422728 38:1.5018587 39:2.2958768 40:1.3687875 41:1.1965904 42:1.0838106 43:0.96179933 44:0.89170783 45:11.01886 46:11.240737 47:11.27565 48:11.283572 49:11.297948 50:11.346673 51:11.432358 52:11.545553 53:11.665822 54:1.4270844 55:0.6434853 56:4.8310175 57:1.6484579 58:0.95652884 59:0.68809366 60:0.15720166 61:0.30341859 
-1 1:1.0296194 2:7.7996958e-005 3:0.40569375 4:3.8510863 5:15.771701 6:11.312815 7:12.95454 8:13.052269 9:13.115747 10:13.172574 11:13.241456 12:13.336137 13:13.456028 14:13.590035 15:13.726308 16:10.199359 17:4.4420328 20:1.1002569 21:0.65329867 22:0.78865916 23:0.82156502 24:0.83424258 25:0.85225384 26:0.85362097 27:1.1642945 28:1.0519842 29:1.0315255 30:1.0254475 31:1.016964 32:1.0164611 33:8.9936365 34:5.7202871 35:5.268208 36:5.0767077 37:4.9282163 38:4.7688425 39:3.6160404 40:2.6132612 41:2.4269722 42:2.3446634 43:2.2833385 44:2.2120084 45:11.154552 46:11.25228 47:11.315757 48:11.372584 49:11.441465 50:11.536145 51:11.656035 52:11.790041 53:11.926314 54:1.5133278 55:0.75510987 56:3.9468133 57:0.98735073 58:0.58301124 59:0.50280001 60:0.33527356 61:0.4352694 
-1 1:0.57804997 2:0.00059282424 3:0.38750207 4:3.0924402 5:14.643198 6:10.563052 7:10.115893 8:10.201995 9:10.280015 10:10.362094 11:10.47592 12:10.638514 13:10.848438 14:11.089186 15:11.300457 16:9.9948002 17:4.7654941 20:0.57176907 21:0.6807213 22:0.85379045 23:0.8394058 24:0.83900183 25:0.84758953 26:0.87519287 27:1.1539145 28:1.0199543 29:1.0305001 30:1.0287769 31:1.0190267 32:1.0082907 33:7.8093195 34:3.10495 35:2.0655008 36:1.535794 37:1.071397 38:0.58560429 39:2.830896 40:1.4708784 41:1.0668464 42:0.87675624 43:0.70828305 44:0.51071602 45:9.3333823 46:9.4194804 47:9.4974971 48:9.5795729 49:9.6933941 50:9.8559833 51:10.065902 52:10.306645 53:10.517913 54:2.0737996 55:0.76735171 56:6.0851695 57:1.7403585 58:0.57968173 59:0.50173131 60:0.34545389 61:0.44047414 
-1 1:0.31566366 2:0.00059282424 3:1.0448806 4:3.8211544 5:14.954339 6:10.454091 7:11.282092 8:11.391568 9:11.47491 10:11.565156 11:11.674509 12:11.815189 13:11.981922 14:12.159289 15:12.327128 16:10.513062 17:4.581293 20:0.47007925 21:0.38757266 22:0.50602813 23:0.53106404 24:0.54322853 25:0.56570578 26:0.54920752 27:1.5502994 28:1.316176 29:1.2976131 30:1.2672324 31:1.2162003 32:1.2287369 33:8.3332268 34:3.9653859 35:2.9288712 36:2.3070408 37:1.806996 38:1.323584 39:2.9158283 40:1.6418768 41:1.2720397 42:1.0610631 43:0.9009261 44:0.72443362 45:10.910929 46:11.020405 47:11.103746 48:11.193992 49:11.303344 50:11.444024 51:11.610756 52:11.788122 53:11.955961 54:1.9815994 55:0.79827732 56:5.7845588 57:1.8813079 58:0.72342405 59:0.56230062 60:0.24298439 61:0.34373239 
-0.6180572070736097 1:1.0296194 2:3.999992e-006 3:1.6255278 4:3.3337935 5:14.489137 6:9.8317767 7:10.501001 8:10.662657 9:10.742327 10:10.812908 11:10.914766 12:11.065529 13:11.252642 14:11.452625 15:11.630668 16:10.566262 17:4.0021391 19:3.8758171 20:0.63170094 21:0.25563707 22:0.28017471 23:0.30851872 24:0.31412803 25:0.31442234 26:0.30962726 27:2.0864946 28:1.9360817 29:1.7883497 30:1.7633327 31:1.7602373 32:1.7812469 33:7.9804137 34:2.871658 35:1.8815656 36:1.5989845 37:1.4004854 38:1.2312241 39:2.4206559 40:0.94487391 41:0.71121644 42:0.63780095 43:0.58264681 44:0.52819588 45:8.7011402 46:8.8627753 47:8.9424361 48:9.01301 49:9.1148583 50:9.2656076 51:9.4527075 52:9.6526786 53:9.8307129 54:1.8626836 55:0.49024729 56:6.2127145 57:1.1422134 58:0.77410894 59:0.62357415 60:0.19415007 61:0.23196552 
-1 1:0.45617977 2:0.00065578493 3:0.9523175 4:3.7999437 5:14.872388 6:10.246155 7:10.038249 8:10.167226 9:10.292532 10:10.457654 11:10.69271 12:10.974745 13:11.26981 14:11.545528 15:11.76965 16:10.522424 17:4.4623542 20:0.42997754 21:0.53489267 22:0.68032685 23:0.64083495 24:0.60420449 25:0.66700031 26:0.74946844 27:1.3317447 28:1.1747437 29:1.2260282 30:1.2488201 31:1.1618234 32:1.0736855 33:8.6723985 34:3.4414507 35:2.0720126 36:1.4264574 37:0.89620843 38:0.47797614 39:3.0057814 40:1.4974768 41:0.9658014 42:0.74002743 43:0.58354714 44:0.44175846 45:9.4602488 46:9.5892225 47:9.7145246 48:9.8796424 49:10.114693 50:10.396725 51:10.691786 52:10.967502 53:11.191622 54:2.2952893 55:0.75272635 56:6.7969674 57:2.0118863 58:0.63706495 59:0.58604329 60:0.30093747 61:0.35862113 
1 1:0.33096137 2:0.00045189788 3:0.82496986 4:3.7543548 5:15.087498 6:10.607476 7:11.35992 8:11.459619 9:11.571419 10:11.699098 11:11.858746 12:12.050978 13:12.258076 14:12.461003 15:12.637997 16:10.493193 17:4.298602 20:0.67467715 21:0.29180133 22:0.33195778 23:0.41776844 24:0.47396266 25:0.5445561 26:0.65342146 27:1.880702 28:1.7306235 29:1.4906834 30:1.3509335 31:1.2421393 32:1.1356325 33:8.053569 34:4.3264976 35:3.4116059 36:2.975318 37:2.609342 38:2.1740946 39:2.7482755 40:1.5744449 41:1.3475769 42:1.2616505 43:1.1792514 44:1.0685956 45:10.96762 46:11.067318 47:11.179118 48:11.306796 49:11.466444 50:11.658674 51:11.865772 52:12.068699 53:12.245692 54:1.6703218 55:0.68513689 56:4.9785045 57:1.5774984 58:0.91190739 59:0.73080573 60:0.17779622 61:0.25593297 
-1 1:0.24647407 2:9.89951e-005 3:1.1847778 4:3.6429561 5:14.728819 6:10.130025 7:10.626855 8:10.744898 9:10.843143 10:10.960395 11:11.110481 12:11.300438 13:11.513728 14:11.727722 15:11.919352 16:10.54984 17:4.8974747 19:2.5212394 20:0.2647 21:0.3187715 22:0.34907746 23:0.39203601 24:0.42779135 25:0.45150928 26:0.45675944 27:1.7577422 28:1.6569095 29:1.5269522 30:1.4298846 31:1.3768592 32:1.3632509 33:8.259415 34:2.9739057 35:1.7832761 36:1.2338518 37:0.81248678 38:0.57122415 39:2.6790009 40:1.0843267 41:0.75290743 42:0.61604365 43:0.49700333 44:0.41409774 45:10.347356 46:10.465399 47:10.563643 48:10.680895 49:10.830979 50:11.020936 51:11.234225 52:11.448218 53:11.639848 54:2.1308079 55:0.56310068 56:6.6947207 57:1.5772531 58:0.76169461 59:0.63901863 60:0.21819372 61:0.27537922 
-1 1:0.3880802 2:0.00027796137 3:0.80293209 4:3.3899033 5:15.283755 6:10.82846 7:11.221183 8:11.33289 9:11.433562 10:11.556216 11:11.715181 12:11.918818 13:12.15025 14:12.378003 15:12.579147 16:10.48095 17:4.81397 20:0.28833336 21:0.44295227 22:0.5387458 23:0.57205637 24:0.59942149 25:0.62886303 26:0.66547121 27:1.4110443 28:1.2501539 29:1.2077019 30:1.1786113 31:1.1489451 32:1.119873 33:8.7315678 34:3.9696096 35:2.8405081 36:2.2277751 37:1.694283 38:1.042585 39:3.1290768 40:1.6946649 41:1.2765501 42:1.0634268 43:0.88515748 44:0.65587617 45:10.747043 46:10.858749 47:10.95942 48:11.082074 49:11.241038 50:11.444674 51:11.676106 52:11.903858 53:12.105001 54:2.189003 55:0.85130967 56:6.2468103 57:2.0946079 58:0.67937854 59:0.56185059 60:0.26077993 61:0.3428455 
-1 1:0.44603619 2:0.0010464523 3:1.2411394 4:3.0423161 5:14.425389 6:9.9356643 7:10.512831 8:10.628017 9:10.742595 10:10.883511 11:11.054934 12:11.259132 13:11.475574 14:11.681307 15:11.866318 16:10.560413 17:5.1393699 20:0.30528007 21:0.33398772 22:0.33138647 23:0.36098435 24:0.41044336 25:0.47086576 26:0.53167065 27:1.7322412 28:1.7434379 29:1.6251756 30:1.4816379 31:1.3511777 32:1.2563616 33:7.7240329 34:3.2339468 35:2.0193137 36:1.3611222 37:0.82100375 38:0.46822267 39:2.5564321 40:1.1562763 41:0.79746891 42:0.63828542 43:0.50312465 44:0.39370085 45:9.9507433 46:10.065927 47:10.180503 48:10.321417 49:10.492837 50:10.697034 51:10.913474 52:11.119206 53:11.304215 54:2.0007384 55:0.60646521 56:5.9883861 57:1.8705676 58:0.75347337 59:0.72838678 60:0.22228369 61:0.25035665 
-1 1:0.31098152 2:0.0031580082 3:1.2405999 4:3.2560214 5:13.825841 6:9.2401904 7:9.001758 8:8.970631 9:8.9993548 10:9.0647609 11:9.1957754 12:9.4010656 13:9.6691769 14:9.963889 15:10.197037 16:10.572908 17:4.24858 20:0.37860218 21:0.5142956 22:0.83693492 23:0.96357882 24:0.99766941 25:1.0297948 26:0.99634181 27:1.4569907 28:1.0288302 29:0.97917651 30:0.9694409 31:0.96065971 32:0.9712981 33:7.5728554 34:1.9766638 35:1.2556687 36:0.84437402 37:0.50233831 38:0.31177402 39:2.2779003 40:1.0297162 41:0.79240501 42:0.6362445 43:0.48997413 44:0.38610626 45:8.6370482 46:8.6059229 47:8.6346452 48:8.7000479 49:8.8310561 50:9.036338 51:9.3044407 52:9.5991457 53:9.8322899 54:1.7680272 55:0.57090243 56:6.6488186 57:1.0851691 58:0.80569157 59:0.49169268 60:0.22542062 61:0.46669407 
