svm_type nu_svr
kernel_type linear
nr_class 2
total_sv 621
rho -4.76525
SV
1 1:0.23521678 2:0.0014779074 3:1.0851869 4:1.9335076 5:13.238803 6:8.9961566 7:10.769961 8:10.72663 9:10.747649 10:10.836148 11:10.972337 12:11.126894 13:11.276368 14:11.424457 15:11.580507 16:8.2479658 17:1.8584062 20:0.54783061 21:0.23899485 22:0.32040165 23:0.48119947 24:0.68998469 25:0.8438396 26:0.91032658 27:2.3965041 28:1.8983267 29:1.4171577 30:1.1169436 31:1.024782 32:0.99665228 33:5.4851555 34:3.5028413 35:2.5328723 36:1.9795068 37:1.7275292 38:1.5341938 39:1.5824837 40:1.1704137 41:1.0551956 42:1.0074673 43:0.95823504 44:0.89910714 45:10.504785 46:10.461453 47:10.482473 48:10.570971 49:10.707159 50:10.861715 51:11.011189 52:11.159277 53:11.315327 54:0.89786965 55:0.56364131 56:3.2532547 57:1.3729196 58:1.362738 59:0.77315427 60:0.11793122 61:0.28776853 
-1 1:0.66121266 2:0.0010604375 3:0.42961839 4:2.6564255 5:14.889896 6:10.567695 7:11.269855 8:11.132731 9:11.018928 10:10.918113 11:10.841894 12:10.842107 13:11.037665 14:11.388047 15:11.674282 16:9.2963842 17:4.5624637 20:0.26356431 21:0.40045726 22:0.43002828 23:0.48693695 24:0.57062129 25:0.77040818 26:1.0214195 27:1.5493509 28:1.5074654 29:1.4190618 30:1.2629871 31:1.0743589 32:0.96496813 33:7.6190287 34:2.1440011 35:1.0716894 36:0.63062103 37:0.19841224 38:0.10822012 39:2.6979777 40:0.88069381 41:0.53755655 42:0.41532831 43:0.28900844 44:0.23488712 45:10.332734 46:10.195614 47:10.081813 48:9.9810013 49:9.9047842 50:9.904997 51:10.10055 52:10.450924 53:10.737155 54:2.3231194 55:0.46242973 56:6.7542208 57:1.2141513 58:0.76934992 59:0.72195902 60:0.19593582 61:0.24575171 
-1 1:0.3295699 2:3.1999488e-005 3:0.39996199 4:3.0565291 5:15.460504 6:11.400059 7:11.36775 8:11.448685 9:11.517421 10:11.600564 11:11.770963 12:12.045398 13:12.351408 14:12.630932 15:12.862579 16:8.3311863 17:3.8758901 20:0.1409065 21:0.46066642 22:0.45844079 23:0.45300497 24:0.44623078 25:0.43933241 26:0.48301178 27:1.3568462 28:1.3601519 29:1.3709957 30:1.3833119 31:1.3948638 32:1.3238217 33:7.9270915 34:4.5215936 35:3.0522721 36:2.2101387 37:1.5493286 38:0.71313214 39:3.1600072 40:1.8074074 41:1.2423816 42:0.95987078 43:0.7373052 44:0.46216612 45:10.977386 46:11.05832 47:11.127055 48:11.210198 49:11.380597 50:11.655031 51:11.96104 52:12.240564 53:12.47221 54:2.278397 55:0.96155462 56:5.1059972 57:2.7767796 58:0.55784216 59:0.58162312 60:0.31266825 61:0.30003517 
1 1:0.30872437 2:0.0001399902 3:0.31086208 4:3.2948908 5:15.892781 6:11.70276 7:12.306578 8:12.255789 9:12.19158 10:12.131001 11:12.11949 12:12.244532 13:12.53255 14:12.854739 15:13.126429 16:8.7327546 17:4.3608196 20:0.21626636 21:0.49314382 22:0.54182649 23:0.58298851 24:0.60842609 25:0.67695885 26:0.8845763 27:1.3068382 28:1.2410515 29:1.1967331 30:1.1734257 31:1.1261678 32:1.0116933 33:8.2897594 34:4.6192002 35:2.487315 36:1.9423243 37:0.93198139 38:0.22770991 39:3.380029 40:1.8909346 41:1.1211853 42:0.8934077 43:0.5587863 44:0.31130094 45:11.944893 46:11.894104 47:11.829896 48:11.769317 49:11.757806 50:11.882848 51:12.170864 52:12.493053 53:12.764742 54:2.5441018 55:1.0333142 56:5.5210916 57:3.2061095 58:0.63918483 59:0.60205623 60:0.26229702 61:0.2943695 
1 1:0.44744419 2:0.00086662437 3:0.40408816 4:2.9589153 5:15.53639 6:11.451603 7:11.536424 8:11.436224 9:11.322533 10:11.207833 11:11.119899 12:11.129601 13:11.383175 14:11.787206 15:12.107649 16:8.3947195 17:4.2408316 20:0.26567723 21:0.5058563 22:0.58231897 23:0.66145113 24:0.72869529 25:0.83934964 26:1.0487005 27:1.2910332 28:1.2443658 29:1.1911839 30:1.1145503 31:1.0408405 32:0.95856601 33:8.0400176 34:2.1209425 35:0.98373964 36:0.68961545 37:0.2135101 38:0.1187781 39:3.0795914 40:0.92947109 41:0.57615539 42:0.46379251 43:0.30538912 44:0.24633963 45:10.972122 46:10.871923 47:10.758233 48:10.643535 49:10.555601 50:10.565303 51:10.818875 52:11.222903 53:11.543345 54:2.6680424 55:0.49284822 56:7.1887582 57:1.1860945 58:0.64927056 59:0.60342998 60:0.2387721 61:0.3078292 
1 1:0.29519106 2:0.00011199373 3:0.34983893 4:3.5935207 5:15.985823 6:11.782227 7:12.933031 8:13.050166 9:13.19054 10:13.339786 11:13.512327 12:13.704444 13:13.892027 14:14.059647 15:14.206634 16:8.6852981 17:4.4096633 20:0.3121532 21:0.45542094 22:0.44635494 23:0.44617766 24:0.46232674 25:0.47977325 26:0.51330854 27:1.3653659 28:1.3837657 29:1.3843455 30:1.3555537 31:1.3245096 32:1.2722443 33:8.3369842 34:6.6047389 35:5.6340392 36:4.7645157 37:3.8557214 38:2.6397046 39:3.5024895 40:2.7840282 41:2.3229739 42:1.9596055 43:1.6054887 44:1.1672583 45:12.589649 46:12.706784 47:12.847158 48:12.996404 49:13.168945 50:13.361061 51:13.548645 52:13.716264 53:13.863252 54:1.7949569 55:1.3033712 56:3.3305939 57:3.092787 58:0.57694717 59:0.59557967 60:0.30354966 61:0.29891495 
1 1:0.29254946 2:0.00050187404 3:0.43762957 4:3.1400188 5:15.357487 6:11.276583 7:12.008008 8:12.091608 9:12.204441 10:12.331938 11:12.491788 12:12.680486 13:12.873861 14:13.054191 15:13.213015 16:8.632169 17:4.612169 20:0.46986549 21:0.41654483 22:0.44853928 23:0.48125077 24:0.52532303 25:0.5606444 26:0.60463723 27:1.4497794 28:1.3872946 29:1.3342824 30:1.2715867 31:1.2220481 32:1.1717382 33:7.8470287 34:5.3057592 35:4.3126541 36:3.5425321 37:2.8007741 38:1.9364542 39:3.0764845 40:2.1897868 41:1.7847191 42:1.5102605 43:1.2518282 44:0.96371883 45:11.668172 46:11.751771 47:11.864604 48:11.992101 49:12.15195 50:12.340648 51:12.534023 52:12.714353 53:12.873176 54:1.7839879 55:1.0310346 56:4.0714973 57:2.5376969 58:0.66427798 59:0.60627319 60:0.25954308 61:0.3065684 
1 1:0.44641381 2:0.00074472263 3:0.35017788 4:3.1872711 5:15.865888 6:11.721994 7:11.698274 8:11.743549 9:11.806483 10:11.896089 11:12.066948 12:12.33688 13:12.648138 14:12.939732 15:13.177258 16:8.750533 17:3.9633307 20:0.30913114 21:0.52819294 22:0.5821564 23:0.58228824 24:0.60759964 25:0.6261737 26:0.69368404 27:1.2589504 28:1.1965282 29:1.1930254 30:1.1681872 31:1.1509751 32:1.1016181 33:8.2454584 34:4.4680278 35:2.7433696 36:1.925686 37:1.4194099 38:0.85695635 39:3.3208184 40:1.8813017 41:1.2249489 42:0.95700994 43:0.7855919 44:0.5927532 45:11.135582 46:11.180857 47:11.243791 48:11.333396 49:11.504255 50:11.774185 51:12.085442 52:12.377036 53:12.614561 54:2.3705367 55:0.91129559 56:5.5153295 57:2.537068 58:0.59129822 59:0.55752413 60:0.31047317 61:0.34400798 
1 1:0.39506522 2:0.00019298138 3:0.35028849 4:3.5477578 5:15.857731 6:11.684414 7:12.835515 8:12.947408 9:13.073112 10:13.214667 11:13.386173 12:13.578805 13:13.764792 14:13.930336 15:14.074696 16:9.0283824 17:4.6302188 20:0.51074362 21:0.45607267 22:0.4800573 23:0.50203994 24:0.53494363 25:0.54778436 26:0.59240819 27:1.3657883 28:1.3297978 29:1.3011291 30:1.2584948 31:1.2354808 32:1.1828309 33:8.2182306 34:6.3800958 35:5.4583762 36:4.6757319 37:3.8811184 38:2.6913221 39:3.4046371 40:2.7198307 41:2.3001777 42:1.9805178 43:1.6684558 44:1.2192889 45:12.351035 46:12.462928 47:12.588632 48:12.730187 49:12.901693 50:13.094325 51:13.280311 52:13.445856 53:13.590215 54:1.7126368 55:1.2497274 56:3.3853647 57:2.8650178 58:0.61523398 59:0.58652414 60:0.28643265 61:0.31770107 
1 1:0.25684522 2:0.00021797624 3:0.53706046 4:3.0659405 5:14.631224 6:10.703379 7:12.234904 8:12.273698 9:12.314102 10:12.368315 11:12.446916 12:12.553607 13:12.671992 14:12.787508 15:12.893694 16:9.4720945 17:4.7424024 20:0.478314 21:0.41525899 22:0.42523113 23:0.43090736 24:0.43962818 25:0.43102434 26:0.42078844 27:1.4492004 28:1.4299916 29:1.4210525 30:1.404644 31:1.4193824 32:1.433997 33:7.2243785 34:5.3026999 35:4.864242 36:4.6039337 37:4.3868904 38:4.0694359 39:2.8303964 40:2.1830379 41:1.9965235 42:1.8942794 43:1.7947465 44:1.6535472 45:11.94206 46:11.980855 47:12.021259 48:12.075471 49:12.154072 50:12.260763 51:12.379148 52:12.494664 53:12.60085 54:1.2704287 55:0.78453575 56:2.7556365 57:1.1520185 58:0.57822185 59:0.55765521 60:0.28976328 61:0.303398 
1 1:0.34804572 2:0.00018098362 3:0.31737679 4:3.5832837 5:15.841907 6:11.66514 7:13.278034 8:13.340396 9:13.414298 10:13.498536 11:13.609711 12:13.745258 13:13.8862 14:14.018901 15:14.138668 16:8.6892797 17:4.5619264 20:0.61186934 21:0.46016476 22:0.4775904 23:0.47873849 24:0.4920843 25:0.50162765 26:0.53349707 27:1.3584773 28:1.3319567 29:1.3307962 30:1.3105072 31:1.2936178 32:1.2486345 33:8.2705583 34:6.4308489 35:5.7658111 36:5.2238145 37:4.6976233 38:3.801759 39:3.4212109 40:2.7481254 41:2.4390543 42:2.2089483 43:1.9909696 44:1.6276728 45:12.861738 46:12.9241 47:12.998002 48:13.08224 49:13.193415 50:13.328961 51:13.469903 52:13.602605 53:13.722371 54:1.5493064 55:1.0782474 56:3.139588 57:2.0635364 58:0.58830718 59:0.57868643 60:0.30055837 61:0.31375296 
1 1:0.26837004 2:9.3995582e-005 3:0.32911164 4:3.6221617 5:15.845332 6:11.668475 7:13.539115 8:13.586895 9:13.641213 10:13.705048 11:13.793269 12:13.909889 13:14.035584 14:14.156412 15:14.267306 16:8.6358065 17:4.5200275 20:0.37306106 21:0.45703616 22:0.46487173 23:0.46205525 24:0.47171778 25:0.46108397 26:0.46685932 27:1.368362 28:1.3600838 29:1.367493 30:1.3517076 31:1.3615861 32:1.3450032 33:8.2782186 34:6.6004482 35:6.0309856 36:5.5398475 37:5.0197965 38:4.1318708 39:3.4350621 40:2.8123148 41:2.5420393 42:2.3255544 43:2.0873075 44:1.7108245 45:13.231284 46:13.279065 47:13.333382 48:13.397217 49:13.485438 50:13.602059 51:13.727754 52:13.848582 53:13.959475 54:1.4913358 55:1.0892514 56:2.9139137 57:1.9789016 58:0.56376939 59:0.56235944 60:0.310132 61:0.31562433 
1 1:0.41249368 2:0.00011099384 3:0.29153688 4:3.7370466 5:16.13897 6:11.873867 7:13.442771 8:13.518233 9:13.609483 10:13.716163 11:13.850796 12:14.009758 13:14.170734 14:14.319302 15:14.452179 16:8.8816491 17:4.3982478 20:0.57407025 21:0.46123845 22:0.45855522 23:0.46510163 24:0.49092634 25:0.50671157 26:0.54919655 27:1.3613355 28:1.3753087 29:1.3666484 30:1.322864 31:1.29186 32:1.230454 33:8.5445113 34:6.7836378 35:5.9627491 36:5.2859381 37:4.5689645 38:3.471654 39:3.5886771 40:2.8917815 41:2.5108833 42:2.2325591 43:1.9364942 44:1.5022856 45:12.932192 46:13.007654 47:13.098904 48:13.205584 49:13.340217 50:13.499179 51:13.660154 52:13.808722 53:13.941599 54:1.6788975 55:1.2151714 56:3.2289055 57:2.5749475 58:0.58856404 59:0.60065926 60:0.30010597 61:0.30469311 
1 1:0.22187955 2:1.899982e-005 3:0.28194741 4:3.7551098 5:15.917732 6:11.767575 7:13.616018 8:13.676602 9:13.744627 10:13.820002 11:13.920346 12:14.046214 13:14.177076 14:14.299423 15:14.409378 16:8.8110167 17:4.5603438 20:0.1787552 21:0.50261178 22:0.51669457 23:0.5137992 24:0.52447347 25:0.50552279 26:0.48386277 27:1.2952908 28:1.2825273 29:1.2909623 30:1.2778513 31:1.2936216 32:1.3169995 33:8.3313931 34:6.7629976 35:6.2266905 36:5.8017369 37:5.4228925 38:4.7888539 39:3.5188296 40:2.9399231 41:2.6780266 42:2.4904178 43:2.3134385 44:2.0179143 45:13.367598 46:13.428181 47:13.496206 48:13.571581 49:13.671925 50:13.797794 51:13.928655 52:14.051002 53:14.160958 54:1.400048 55:0.99929376 56:2.6935121 57:1.6103113 58:0.54320046 59:0.53168113 60:0.33377755 61:0.3473976 
1 1:0.34611559 2:0.00019198157 3:0.36913094 4:3.3413907 5:15.520313 6:11.408131 7:13.132031 8:13.168768 9:13.202004 10:13.245319 11:13.311919 12:13.408489 13:13.522909 14:13.640108 15:13.750534 16:8.8109884 17:4.5293891 20:0.5128362 21:0.42957804 22:0.41843925 23:0.41042214 24:0.41848202 25:0.41211892 26:0.41729618 27:1.4226772 28:1.4517234 29:1.4712293 30:1.4527357 31:1.4596826 32:1.442097 33:7.9754767 34:5.8072901 35:5.3303188 36:4.9554832 37:4.6674707 38:4.2237137 39:3.1906356 40:2.3842333 41:2.1564917 42:1.9978292 43:1.8752674 44:1.7053692 45:12.718466 46:12.755203 47:12.788439 48:12.831754 49:12.898354 50:12.994924 51:13.109344 52:13.226542 53:13.336969 54:1.4736486 55:0.8479897 56:3.1324377 57:1.3529415 58:0.55278835 59:0.57688643 60:0.30303386 61:0.29173875 
1 1:0.42482842 2:0.0001529883 3:0.29486571 4:3.7548966 5:16.118523 6:11.872172 7:13.529682 8:13.601631 9:13.679062 10:13.769419 11:13.890733 12:14.041608 13:14.197466 14:14.341859 15:14.470157 16:8.8559563 17:4.5605112 20:0.7682746 21:0.48406123 22:0.51663372 23:0.53434662 24:0.56274574 25:0.58013636 26:0.6295714 27:1.3206536 28:1.2763235 29:1.2555571 30:1.2218574 31:1.2002009 32:1.1501795 33:8.5095802 34:6.7658842 35:6.0247375 36:5.4588295 37:4.8920514 38:3.9760758 39:3.5977648 40:2.9477099 41:2.6111373 42:2.3763796 43:2.1378172 44:1.76192 45:13.000355 46:13.072304 47:13.149735 48:13.240092 49:13.361406 50:13.512281 51:13.668139 52:13.812532 53:13.94083 54:1.5639071 55:1.1175308 56:3.1049822 57:2.165179 58:0.60472178 59:0.57448449 60:0.29651103 61:0.32898349 
1 1:0.29113112 2:4.4998988e-005 3:0.35263379 4:3.4931085 5:15.5944 6:11.492468 7:13.52596 8:13.550726 9:13.579701 10:13.620887 11:13.687683 12:13.782955 13:13.890327 14:13.995887 15:14.093812 16:8.7609717 17:4.6045804 20:0.26840139 21:0.43327027 22:0.43813234 23:0.42940492 24:0.4340584 25:0.42557945 26:0.41639582 27:1.4105283 28:1.4068548 29:1.4297333 30:1.4188758 31:1.431952 32:1.4440178 33:7.9884966 34:6.315789 35:5.920061 36:5.6228275 37:5.3444729 38:4.8582055 39:3.2651328 40:2.6541367 41:2.4587882 42:2.3300538 43:2.1977806 44:1.975859 45:13.18802 46:13.212787 47:13.241761 48:13.282947 49:13.349744 50:13.445016 51:13.552387 52:13.657947 53:13.755872 54:1.3140325 55:0.88688598 56:2.5824932 57:1.3171223 58:0.55340839 59:0.55512044 60:0.30368582 61:0.30461978 
1 1:0.31466401 2:0.00018698252 3:0.44330217 4:3.3096886 5:15.376621 6:11.346304 7:13.105295 8:13.146023 9:13.185243 10:13.236604 11:13.312111 12:13.412675 13:13.522972 14:13.631094 15:13.731557 16:9.3939585 17:4.7411132 20:0.63828172 21:0.43396963 22:0.43615272 23:0.43642552 24:0.44908319 25:0.44294199 26:0.44614757 27:1.412688 28:1.4194165 29:1.4234066 30:1.3963811 31:1.3983287 32:1.3831722 33:7.7412229 34:5.7516307 35:5.3154484 36:4.9878116 37:4.7171505 38:4.3685446 39:3.1047656 40:2.3898894 41:2.1922579 42:2.0617609 43:1.9434649 44:1.804597 45:12.735497 46:12.776225 47:12.815445 48:12.866806 49:12.942313 50:13.042876 51:13.153173 52:13.261295 53:13.361758 54:1.357811 55:0.81681422 56:2.8818179 57:1.2375682 58:0.57037731 59:0.5742799 60:0.29912121 61:0.30375759 
1 1:0.19427812 2:0.00011199373 3:0.332376 4:3.4563803 5:15.761169 6:11.609635 7:13.393583 8:13.442757 9:13.493079 10:13.553989 11:13.640035 12:13.753662 13:13.878101 14:13.998348 15:14.108423 16:8.9294285 17:4.6472011 20:0.39608391 21:0.42362456 22:0.44087987 23:0.44353965 24:0.45567712 25:0.45309968 26:0.46118297 27:1.4335488 28:1.4036789 29:1.4003854 30:1.3780737 31:1.377669 32:1.3553257 33:8.0716174 34:6.163154 35:5.6112092 36:5.2296438 37:4.8181226 38:4.1446847 39:3.2681089 40:2.586574 41:2.3408914 42:2.1843677 43:2.0003818 44:1.7195074 45:13.17915 46:13.228324 47:13.278645 48:13.339555 49:13.425601 50:13.539228 51:13.663667 52:13.783914 53:13.89399 54:1.4457367 55:0.95943488 56:3.0219445 57:1.6447004 58:0.59289273 59:0.57517718 60:0.28873667 61:0.30504099 
1 1:0.34559054 2:3.99992e-005 3:0.2622958 4:3.7218294 5:16.315005 6:11.900383 7:13.947568 8:14.015538 9:14.083474 10:14.15888 11:14.257959 12:14.37936 13:14.506774 14:14.628525 15:14.740604 16:9.7591297 17:4.71609 20:0.46151646 21:0.43582747 22:0.43335326 23:0.4303021 24:0.43653604 25:0.43818009 26:0.44737387 27:1.4064678 28:1.4089007 29:1.4152377 30:1.4024969 31:1.3975557 32:1.378717 33:8.9945377 34:6.894932 35:6.3060503 36:5.8970424 37:5.4681086 38:4.8089452 39:3.6935602 40:2.9266995 41:2.6503849 42:2.4696235 43:2.2760571 44:1.992014 45:13.534745 46:13.602715 47:13.67065 48:13.746056 49:13.845136 50:13.966537 51:14.09395 52:14.215701 53:14.327781 54:1.5571785 55:0.99999562 56:3.2403779 57:1.6766496 58:0.56850323 59:0.57426731 60:0.30117512 61:0.29862201 
-1 1:0.226025 2:4.999875e-005 3:0.33945065 4:3.6623939 5:16.017434 6:11.601385 7:13.884258 8:13.934938 9:13.986719 10:14.052075 11:14.143027 12:14.259724 13:14.383567 14:14.501183 15:14.608754 16:9.9892835 17:5.0217568 20:0.51300984 21:0.32133467 22:0.31919745 23:0.31799544 24:0.31812349 25:0.3187904 26:0.32275067 27:1.7326899 28:1.7402983 29:1.7457157 30:1.7445092 31:1.7407551 32:1.7242259 33:8.6255959 34:6.85994 35:6.3290868 36:5.9836569 37:5.6035685 38:5.040293 39:3.3576777 40:2.7105059 41:2.4646242 42:2.3112225 43:2.1437725 44:1.9037727 45:13.630651 46:13.681331 47:13.733112 48:13.798468 49:13.88942 50:14.006117 51:14.12996 52:14.247576 53:14.355147 54:1.403454 55:0.93324101 56:2.8283089 57:1.5094642 58:0.60019263 59:0.6100152 60:0.24295417 61:0.24030007 
1 1:0.23456765 2:9.6995296e-005 3:0.43231929 4:2.8117579 5:14.925881 6:10.768359 7:11.463404 8:11.72479 9:11.86648 10:11.977497 11:12.101976 12:12.259552 13:12.444204 14:12.631697 15:12.806004 16:9.5601535 17:5.0433338 20:0.45978724 21:0.31687649 22:0.32143909 23:0.36979026 24:0.42337182 25:0.45639013 26:0.51768544 27:1.7593609 28:1.7592785 29:1.6169494 30:1.4821035 31:1.3863454 32:1.2750776 33:7.7675706 34:4.530278 35:3.5388258 36:2.8831463 37:2.3421963 38:1.8295935 39:2.7009011 40:1.6461393 41:1.3313536 42:1.1523726 43:1.0089691 44:0.88079163 45:11.199045 46:11.460431 47:11.60212 48:11.713136 49:11.837616 50:11.995191 51:12.179844 52:12.367336 53:12.541643 54:1.7102737 55:0.75493684 56:4.6608562 57:1.956927 58:0.76367714 59:0.72519427 60:0.21178735 61:0.25295111 
1 1:0.1976288 2:6.999755e-005 3:0.36054863 4:3.4091938 5:15.520534 6:11.291992 7:13.216795 8:13.284635 9:13.329305 10:13.376294 11:13.444101 12:13.541608 13:13.654203 14:13.767985 15:13.876795 16:9.7172443 17:4.5902261 20:0.30184678 21:0.41828195 22:0.42700022 23:0.42623524 24:0.44128196 25:0.44558734 26:0.4453087 27:1.4634295 28:1.4618127 29:1.4652077 30:1.409669 31:1.3870298 32:1.3838617 33:8.2827688 34:6.095898 35:5.499113 36:4.9190393 37:4.3356662 38:3.6633201 39:3.2639168 40:2.5006192 41:2.2312102 42:2.0169248 43:1.7884522 44:1.509414 45:12.998285 46:13.066125 47:13.110796 48:13.157784 49:13.225591 50:13.323098 51:13.435693 52:13.549476 53:13.658286 54:1.5664998 55:0.99800506 56:3.4309798 57:1.9104646 58:0.5946489 59:0.5867718 60:0.28849162 61:0.2994969 
-1 1:0.21821784 2:6.6997756e-005 3:0.32433459 4:3.4997271 5:15.718357 6:11.40722 7:13.798637 8:13.836889 9:13.878367 10:13.932776 11:14.009458 12:14.108746 13:14.216033 14:14.319374 15:14.415624 16:9.8606748 17:4.9019268 20:0.44904681 21:0.3134178 22:0.31322481 23:0.31610771 24:0.31635043 25:0.31917057 26:0.32654888 27:1.768345 28:1.7656022 29:1.7521165 30:1.7509595 31:1.7390875 32:1.7090052 33:8.3665701 34:6.7323601 35:6.2913411 36:6.0184384 37:5.7007263 38:5.227252 39:3.213238 40:2.6378199 41:2.4458141 42:2.3235646 43:2.1883035 44:1.993886 45:13.554779 46:13.593032 47:13.634509 48:13.688918 49:13.7656 50:13.864888 51:13.972176 52:14.075516 53:14.171766 54:1.2748957 55:0.86875443 56:2.575456 57:1.3345365 58:0.62121045 59:0.62211915 60:0.23658687 61:0.23768594 
1 1:0.24395743 2:6.3997952e-005 3:0.22622201 4:3.5109656 5:16.044669 6:11.744672 7:13.657977 8:13.731624 9:13.795245 10:13.866129 11:13.959049 12:14.076192 13:14.201454 14:14.322194 15:14.432903 16:9.7080469 17:4.4776342 20:0.45159077 21:0.44428895 22:0.44167488 23:0.43795295 24:0.42821372 25:0.4258878 26:0.42818961 27:1.3853674 28:1.3889581 29:1.3966832 30:1.4170975 31:1.4226935 32:1.4171378 33:8.6715093 34:6.481325 35:5.8884309 36:5.5557441 37:5.1385691 38:4.5911009 39:3.5239259 40:2.7433539 41:2.4646869 42:2.3014665 43:2.1132102 44:1.8778968 45:13.381687 46:13.455334 47:13.518955 48:13.589839 49:13.68276 50:13.799903 51:13.925164 52:14.045904 53:14.156613 54:1.5415211 55:0.95121019 56:3.2733549 57:1.536465 58:0.54823792 59:0.55788149 60:0.31011526 61:0.30276058 
1 1:0.60549778 2:5.99982e-005 3:0.35659204 4:3.3349791 5:15.403159 6:11.265118 7:13.148891 8:13.24943 9:13.310224 10:13.372113 11:13.455339 12:13.561328 13:13.674591 14:13.783254 15:13.885574 16:10.1043 17:4.8979122 20:0.39719568 21:0.47044228 22:0.45654851 23:0.44534458 24:0.44053749 25:0.43780063 26:0.43217909 27:1.3433091 28:1.3618723 29:1.3825002 30:1.3916366 31:1.3966676 32:1.4083105 33:8.0878387 34:6.06791 35:5.6105317 36:5.335935 37:5.0253347 38:4.5873591 39:3.2727158 40:2.5722806 41:2.3533139 42:2.2240251 43:2.0822369 44:1.8838344 45:12.31673 46:12.417268 47:12.478062 48:12.539951 49:12.623176 50:12.729166 51:12.842429 52:12.951091 53:13.053412 54:1.3917495 55:0.87613788 56:2.9367228 57:1.308347 58:0.53132469 59:0.54852712 60:0.32742845 61:0.31034451 
1 1:0.21384526 2:2.899958e-005 3:0.11157715 4:3.9439519 5:16.447318 6:12.168838 7:14.382415 8:14.429556 9:14.477461 10:14.534248 11:14.617058 12:14.724155 13:14.837967 14:14.945949 15:15.04467 16:9.6373369 17:4.8437048 20:0.45447874 21:0.54414008 22:0.53811136 23:0.53181226 24:0.52684404 25:0.52741486 26:0.52597686 27:1.2338984 28:1.2401448 29:1.2495381 30:1.256533 31:1.2550147 32:1.2555417 33:8.9061712 34:7.200341 35:6.7597042 36:6.4619938 37:6.1573096 38:5.687254 39:3.819365 40:3.183263 41:2.972182 42:2.8277594 43:2.6851449 44:2.4652376 45:14.143984 46:14.191125 47:14.239031 48:14.295817 49:14.378627 50:14.485724 51:14.599536 52:14.707518 53:14.806239 54:1.3650628 55:0.92163105 56:2.648147 57:1.3363037 58:0.52796354 59:0.5364224 60:0.35505995 61:0.34650325 
1 1:0.18935013 2:3.099952e-005 3:0.28354151 4:3.6928457 5:16.19314 6:11.841157 7:13.931938 8:14.020127 9:14.101896 10:14.175619 11:14.257458 12:14.355 13:14.462079 14:14.57184 15:14.68618 16:9.8453449 17:4.9105236 20:0.43936335 21:0.48019836 22:0.47594097 23:0.45105778 24:0.43657481 25:0.43962174 26:0.44157651 27:1.3286425 28:1.3322758 29:1.3792564 30:1.4051993 31:1.3956108 32:1.3902493 33:9.0268383 34:6.6179873 35:6.1417853 36:5.82864 37:5.1717318 38:4.5922714 39:3.6952376 40:2.8385697 41:2.5837779 42:2.4181413 43:2.139627 44:1.89522 45:13.723474 46:13.811663 47:13.893433 48:13.967155 49:14.048995 50:14.146536 51:14.253615 52:14.363376 53:14.477716 54:1.6283983 55:1.0044925 56:3.4763653 57:1.6807515 58:0.52786475 59:0.55347233 60:0.33253878 61:0.31215365 
0.8174188650325017 1:0.26283877 2:5.899826e-005 3:0.24946683 4:3.5060085 5:15.613914 6:11.404962 7:13.537811 8:13.583791 9:13.619573 10:13.661614 11:13.723907 12:13.810742 13:13.910367 14:14.010835 15:14.106327 16:9.6571887 17:4.5490256 20:0.45936979 21:0.42542916 22:0.42623524 23:0.41598689 24:0.420156 25:0.41752476 26:0.41573288 27:1.4448335 28:1.4432164 29:1.4643793 30:1.4402213 31:1.4400948 32:1.4435184 33:8.3850964 34:6.2344749 35:5.8086266 36:5.4399065 37:5.0809525 38:4.6491079 39:3.3260411 40:2.5928535 41:2.3854315 42:2.2376257 43:2.0822045 44:1.8913497 45:13.237195 46:13.283175 47:13.318957 48:13.360997 49:13.42329 50:13.510126 51:13.60975 52:13.710218 53:13.80571 54:1.4230688 55:0.88339351 56:3.1003392 57:1.3722241 58:0.56751425 59:0.56952174 60:0.29946983 61:0.29595007 
-1 1:0.53384015 2:4.099916e-005 3:0.2878708 4:3.6633752 5:15.741968 6:11.389277 7:13.651278 8:13.709464 9:13.765507 10:13.825954 11:13.90941 12:14.01798 13:14.134076 14:14.244246 15:14.344392 16:9.788955 17:3.4100896 20:0.48629151 21:0.36401653 22:0.33367404 23:0.32533545 24:0.32157685 25:0.3220835 26:0.32916057 27:1.5911686 28:1.6868263 29:1.7177149 30:1.731089 31:1.7281844 32:1.7003461 33:8.3090753 34:6.6333966 35:6.1713008 36:5.9108358 37:5.566477 38:5.1129167 39:3.3173543 40:2.6419694 41:2.4100956 42:2.2868872 43:2.135096 44:1.9499551 45:12.94581 46:13.003996 47:13.060039 48:13.120486 49:13.203941 50:13.312512 51:13.428608 52:13.538778 53:13.638924 54:1.3790177 55:0.87723199 56:2.6258436 57:1.3367678 58:0.53551336 59:0.60609858 60:0.27497141 61:0.24451139 
1 1:0.1977084 2:9.999995e-007 3:0.25083654 4:3.7806536 5:16.225125 6:11.866037 7:14.101433 8:14.166956 9:14.235971 10:14.316946 11:14.420683 12:14.547123 13:14.677016 14:14.797201 15:14.90413 16:9.0661105 17:4.2350728 18:2.0764531 20:0.077395206 21:0.38291475 22:0.38039069 23:0.38386278 24:0.38689848 25:0.39461917 26:0.40913769 27:1.5265438 28:1.5333947 29:1.523403 30:1.5143834 31:1.4937238 32:1.4582761 33:8.7998353 34:7.1906348 35:6.5955039 36:6.1542967 37:5.5998858 38:4.7780895 39:3.5724028 40:2.9906259 41:2.7131159 42:2.5154677 43:2.2757783 44:1.9253288 45:13.882826 46:13.948349 47:14.017364 48:14.098339 49:14.202076 50:14.328516 51:14.458409 52:14.578594 53:14.685523 54:1.4528951 55:1.0767807 56:2.8448388 57:1.928584 58:0.59536645 59:0.60275097 60:0.27262632 61:0.2725822 
-1 1:0.49475234 2:2.9999955e-006 3:0.14085005 4:3.873992 5:16.136268 6:11.812133 7:14.054131 8:14.261829 9:14.346695 10:14.407332 11:14.480522 12:14.57536 13:14.680273 14:14.783487 15:14.881396 16:9.5533539 17:4.8145477 20:1.1261016 21:0.43085146 22:0.41975124 23:0.42818048 24:0.43389382 25:0.45239577 26:0.49185257 27:1.4167666 28:1.4406677 29:1.4220012 30:1.4078325 31:1.3696331 32:1.304461 33:8.8726368 34:7.0752144 35:6.5818081 36:6.1458276 37:5.4639934 38:4.6381181 39:3.6209486 40:2.9917705 41:2.7710908 42:2.5665452 43:2.2912178 44:1.9538687 45:13.41404 46:13.621738 47:13.706603 48:13.767241 49:13.840431 50:13.935268 51:14.040181 52:14.143395 53:14.241305 54:1.4686922 55:1.0790201 56:2.9903879 57:1.987388 58:0.58928343 59:0.60998519 60:0.29185931 61:0.2866402 
-1 1:0.69846601 2:5.999982e-006 3:0.057933003 4:4.3519092 5:16.939253 6:12.537328 7:14.88183 8:14.93994 9:15.012281 10:15.09776 11:15.208348 12:15.337353 13:15.465619 14:15.582283 15:15.686198 16:9.2833194 17:4.5623923 20:1.2833858 21:0.62703248 22:0.6344163 23:0.63133348 24:0.61817414 25:0.65745523 26:0.68511955 27:1.1498958 28:1.1428537 29:1.1460075 30:1.1820882 31:1.125336 32:1.1045791 33:9.3943942 34:8.0189818 35:7.4904409 36:7.1640407 37:6.5019527 38:5.6401633 39:4.1772582 40:3.6485354 41:3.3913082 42:3.2004807 43:2.9321826 44:2.5345933 45:13.871165 46:13.929275 47:14.001616 48:14.087095 49:14.197683 50:14.326688 51:14.454953 52:14.571618 53:14.675532 54:1.428407 55:1.1409553 56:2.5765097 57:1.949365 58:0.53005693 59:0.53904561 60:0.37187556 61:0.36984428 
1 2:1.099994e-005 3:0.29360052 4:3.4660974 5:15.746251 6:11.439344 7:13.337032 8:13.397271 9:13.46181 10:13.534688 11:13.632472 12:13.756168 13:13.885497 14:14.007494 15:14.117317 16:9.5145736 17:3.8056563 18:2.1779656 21:0.38557256 22:0.39315228 23:0.40423902 24:0.41011495 25:0.42259554 26:0.45994761 27:1.5266396 28:1.5041156 29:1.4749179 30:1.4582629 31:1.4289198 32:1.3578488 33:8.3519476 34:6.2960263 35:5.7171098 36:5.3346877 37:4.8742457 38:4.1845393 39:3.3104964 40:2.5874104 41:2.3407721 42:2.1811636 43:1.9930969 44:1.7329239 45:13.337032 46:13.397271 47:13.46181 48:13.534688 49:13.632472 50:13.756168 51:13.885497 52:14.007494 53:14.117317 54:1.4767291 55:0.94994634 56:3.1954571 57:1.7039047 58:0.62923293 59:0.61951868 60:0.26603556 61:0.27586123 
1 2:1.2999916e-005 3:0.1455132 4:3.4431599 5:15.208422 6:11.118964 7:12.546674 8:12.88869 9:13.02515 10:13.09931 11:13.162088 12:13.235509 13:13.324425 14:13.423 15:13.532524 16:9.6240386 17:3.6622973 18:1.6450531 21:0.45586921 22:0.44189796 23:0.45208085 24:0.46321879 25:0.47952998 26:0.52943754 27:1.3714804 28:1.4017944 29:1.3765124 30:1.3534501 31:1.3236788 32:1.2542285 33:8.0825873 34:5.6606622 35:4.9939584 36:4.4905945 37:3.8196483 38:3.217518 39:3.1342982 40:2.3285366 41:2.0625307 42:1.8545577 43:1.6080445 44:1.4018808 45:12.546674 46:12.88869 47:13.02515 48:13.09931 49:13.162088 50:13.235509 51:13.324425 52:13.423 53:13.532524 54:1.5771583 55:0.94381193 56:3.6807386 57:1.8967037 58:0.58388098 59:0.60488014 60:0.3016318 61:0.29513694 
1 2:3.999992e-006 3:0.30945482 4:3.2175854 5:15.603949 6:11.240434 7:11.713228 8:11.744892 9:11.819346 10:11.950532 11:12.180635 12:12.499353 13:12.827241 14:13.112197 15:13.345085 16:9.4992003 17:3.6349502 18:2.9357555 21:0.36427777 22:0.35281581 23:0.33836188 24:0.35313198 25:0.37334679 26:0.38581327 27:1.5990415 28:1.6577327 29:1.7058551 30:1.641097 31:1.5631969 32:1.5218184 33:8.2592637 34:5.2326153 35:3.3938484 36:2.2777046 37:1.4766713 38:0.92287342 39:3.242203 40:1.974495 41:1.2388521 42:0.88151997 43:0.65322166 44:0.49374762 45:11.713228 46:11.744892 47:11.819346 48:11.950532 49:12.180635 50:12.499353 51:12.827241 52:13.112197 53:13.345085 54:2.31558 55:0.98470987 56:4.8603452 57:3.1599928 58:0.59315315 59:0.64753715 60:0.26503475 61:0.25407342 
1 2:2.9999955e-006 3:0.35344313 4:3.1054698 5:15.422636 6:11.030055 7:11.543576 8:11.557444 9:11.609733 10:11.718748 11:11.934545 12:12.243434 13:12.561952 14:12.84036 15:13.068433 16:9.4060563 17:4.4422786 18:2.2606068 21:0.33672792 22:0.34391447 23:0.35551267 24:0.37354435 25:0.40678823 26:0.43098859 27:1.6801599 28:1.6583115 29:1.628627 30:1.5686763 31:1.4710614 32:1.4143209 33:8.421971 34:4.7323375 35:2.872946 36:1.8542166 37:1.0672499 38:0.60678995 39:3.1499763 40:1.7646719 41:1.0908919 42:0.76977113 43:0.5541799 44:0.41331819 45:11.543576 46:11.557444 47:11.609733 48:11.718748 49:11.934545 50:12.243434 51:12.561952 52:12.84036 53:13.068433 54:2.3535514 55:0.89255708 56:5.5088373 57:2.9759088 58:0.67879245 59:0.66375162 60:0.23750528 61:0.2555547 
1 1:0.42838575 2:6.9999755e-006 3:0.37670274 4:3.5291946 5:15.890297 6:11.429174 7:12.143156 8:12.133594 9:12.152673 10:12.242767 11:12.464663 12:12.793204 13:13.127609 14:13.41243 15:13.64647 16:10.002383 17:4.8473255 18:0.018729503 20:0.18828043 21:0.32965476 22:0.33601213 23:0.34982836 24:0.37631295 25:0.41353446 26:0.44758993 27:1.7238663 28:1.70362 29:1.6611072 30:1.5702013 31:1.4569317 32:1.3823762 33:8.6719145 34:5.4083114 35:3.4217083 36:2.2972653 37:1.4141889 38:0.84111277 39:3.3401697 40:1.9864092 41:1.2599011 42:0.90566771 43:0.66948544 44:0.50450408 45:11.608382 46:11.59882 47:11.617899 48:11.707993 49:11.929888 50:12.258428 51:12.592833 52:12.877653 53:13.111693 54:2.3942831 55:0.99209296 56:5.1323231 57:3.3828403 58:0.70774183 59:0.69069359 60:0.23059134 61:0.25121422 
-1 1:0.35974852 2:0.00081766562 3:0.6433433 4:3.1686516 5:15.014049 6:11.090874 7:11.74125 8:11.815672 9:11.896178 10:11.989341 11:12.111535 12:12.269943 13:12.445597 14:12.616899 15:12.772466 16:9.0041081 17:4.9263161 20:0.78249142 21:0.49588943 22:0.56138679 23:0.64152752 24:0.69757934 25:0.81514753 26:0.87562872 27:1.300518 28:1.2242824 29:1.1551183 30:1.1145106 31:1.0400194 32:1.0091262 33:7.3826361 34:4.7785509 35:3.7448206 36:3.2226224 37:2.7659813 38:2.1761133 39:2.9965148 40:2.0350319 41:1.6400214 42:1.4712061 43:1.3426603 44:1.1287114 45:11.308285 46:11.382707 47:11.463212 48:11.556376 49:11.678569 50:11.836977 51:12.01263 52:12.183932 53:12.339498 54:1.7156631 55:0.86456467 56:4.0097203 57:1.8906448 58:0.64825728 59:0.57120637 60:0.25703561 61:0.3424253 
-1 1:0.24524706 2:6.3997952e-005 3:0.36595267 4:3.4219722 5:15.775203 6:11.379337 7:12.34988 8:12.467986 9:12.611938 10:12.789815 11:13.014449 12:13.264508 13:13.502037 14:13.709197 15:13.886299 16:10.097691 17:4.9397596 20:0.27715435 21:0.31069058 22:0.31162245 23:0.32682947 24:0.33825636 25:0.34994887 26:0.36040289 27:1.7795155 28:1.7741313 29:1.7108946 30:1.6673522 31:1.6275092 32:1.5931341 33:8.3939603 34:6.0497953 35:4.6917216 36:3.7270495 37:2.8551316 38:1.9606922 39:3.205829 40:2.2921751 41:1.7282126 42:1.3797422 43:1.0870342 44:0.8035421 45:12.071944 46:12.190051 47:12.334002 48:12.511879 49:12.736513 50:12.986571 51:13.2241 52:13.431261 53:13.608362 54:1.9504806 55:1.1207108 56:4.0601801 57:3.0769371 58:0.66777603 59:0.64477737 60:0.22932138 61:0.24245396 
-1 2:6.9999755e-006 3:0.51710845 4:3.788004 5:16.333335 6:11.939271 7:12.958008 8:13.070811 9:13.191218 10:13.335963 11:13.526001 12:13.753922 13:13.984736 14:14.193164 15:14.371175 16:9.6547241 17:4.0942176 18:0.92497214 21:0.46208864 22:0.44948518 23:0.45056848 24:0.45033841 25:0.4519924 26:0.43744815 27:1.3549247 28:1.3756241 29:1.3745719 30:1.3764051 31:1.3716509 32:1.3989973 33:8.8768778 34:6.5170916 35:5.2310458 36:4.4126658 37:3.7132832 38:2.8912855 39:3.7296844 40:2.7346527 41:2.1599766 42:1.8180219 43:1.5343462 44:1.2035811 45:12.958008 46:13.070811 47:13.191218 48:13.335963 49:13.526001 50:13.753922 51:13.984736 52:14.193164 53:14.371175 54:2.0476078 55:1.1988808 56:4.0092813 57:2.6838479 58:0.5415762 59:0.54755421 60:0.31974108 61:0.31302315 
1 2:5.999982e-006 3:0.24764805 4:4.0666086 5:16.300596 6:11.982141 7:12.714702 8:12.848476 9:12.991051 10:13.155044 11:13.361248 12:13.604174 13:13.846727 14:14.061666 15:14.246651 16:10.002777 17:4.4727061 18:1.8092827 21:0.48085702 22:0.50132483 23:0.54726729 24:0.5778609 25:0.58315429 26:0.55828691 27:1.323863 28:1.2910288 29:1.2318977 30:1.1961881 31:1.1900596 32:1.2175573 33:8.6984604 34:6.30313 35:5.0200883 36:4.0515662 37:3.2387201 38:2.2236199 39:3.6474194 40:2.6954601 41:2.1350278 42:1.7499365 43:1.4387794 44:1.0386068 45:12.714702 46:12.848476 47:12.991051 48:13.155044 49:13.361248 50:13.604174 51:13.846727 52:14.061666 53:14.246651 54:2.0429177 55:1.2774006 56:4.088206 57:3.0916223 58:0.59437869 59:0.53921001 60:0.30324805 61:0.35239181 
-1 1:0.31237859 2:6.5997822e-005 3:0.2991078 4:3.794763 5:16.15613 6:11.688768 7:12.589362 8:12.708603 9:12.843564 10:13.002319 11:13.203021 12:13.440119 13:13.677045 14:13.889553 15:14.072176 16:10.056738 17:4.6100562 20:0.37797469 21:0.35633999 22:0.37765257 23:0.40942924 24:0.41924638 25:0.41708863 26:0.40522441 27:1.606656 28:1.5430006 29:1.4620549 30:1.4368437 31:1.4406568 32:1.4691146 33:8.7017444 34:6.1616759 35:4.8807284 36:3.95769 37:3.1742084 38:2.2571216 39:3.4534513 40:2.475222 41:1.9355385 42:1.5756577 43:1.2865771 44:0.94552482 45:12.222692 46:12.341932 47:12.476893 48:12.635648 49:12.83635 50:13.073448 51:13.310374 52:13.522882 53:13.705504 54:2.0174357 55:1.1816071 56:4.2160588 57:2.9308438 58:0.6503407 59:0.5722951 60:0.25103447 61:0.28813799 
-1 1:0.22842956 2:4.3999032e-005 3:0.28604173 4:3.3913403 5:15.134318 6:10.918664 7:11.262576 8:11.353747 9:11.445146 10:11.550429 11:11.693804 12:11.88575 13:12.099143 14:12.305454 15:12.490408 16:9.797438 17:4.6918544 19:0.029797609 20:0.22433085 21:0.37329723 22:0.46272596 23:0.52540227 24:0.54579558 25:0.54583093 26:0.57727101 27:1.57387 28:1.3757239 29:1.2662536 30:1.2350952 31:1.2333186 32:1.1981155 33:8.1696845 34:4.2296366 35:3.129452 36:2.3776124 37:1.7209929 38:0.90103414 39:2.8977318 40:1.7116428 41:1.3452015 42:1.0856658 43:0.85597751 44:0.5723718 45:11.005954 46:11.097125 47:11.188524 48:11.293807 49:11.437181 50:11.629127 51:11.84252 52:12.04883 53:12.233784 54:1.9868513 55:0.91951836 56:5.4842567 57:2.4468637 58:0.74549505 59:0.57820246 60:0.23211384 61:0.32453979 
-1 1:0.30690806 2:1.99998e-005 3:0.26794482 4:3.6996648 5:16.015879 6:11.611911 7:12.566103 8:12.680272 9:12.823079 10:12.986649 11:13.187874 12:13.418382 13:13.644459 14:13.845989 15:14.019329 16:9.9080316 17:4.6064959 19:0.10590567 20:0.32102352 21:0.36166716 22:0.38304293 23:0.41335656 24:0.42930532 25:0.42835512 26:0.41478554 27:1.5895137 28:1.5289512 29:1.4531337 30:1.4158918 31:1.4164227 32:1.4463513 33:8.4769901 34:6.1663163 35:4.9438608 36:4.0071988 37:3.2109341 38:2.2801582 39:3.3770971 40:2.4875867 41:1.9707095 42:1.6062053 43:1.3122508 44:0.96142661 45:12.206889 46:12.321057 47:12.463865 48:12.627434 49:12.828659 50:13.059167 51:13.285244 52:13.486774 53:13.660114 54:1.9311947 55:1.1894066 56:3.9744422 57:2.928845 58:0.64954406 59:0.57263302 60:0.25304687 61:0.29149132 
1 1:0.36360229 2:1.6999856e-005 3:0.28687675 4:3.3140258 5:15.605564 6:11.399454 7:12.464872 8:12.557118 9:12.656015 10:12.765138 11:12.904607 12:13.079166 13:13.263721 14:13.437248 15:13.589584 16:9.6565802 17:3.9969229 18:0.020382851 20:0.15960805 21:0.36913855 22:0.35482493 23:0.36015807 24:0.36631671 25:0.36722173 26:0.37064037 27:1.5771077 28:1.6156631 29:1.596121 30:1.5760675 31:1.5704284 32:1.5599476 33:8.071908 34:5.6795519 35:4.6898415 36:4.0003626 37:3.3051773 38:2.4044582 39:3.1591101 40:2.2293829 41:1.8049835 42:1.5388633 43:1.2770759 44:0.96024637 45:12.026372 46:12.118618 47:12.217515 48:12.326638 49:12.466106 50:12.640665 51:12.82522 52:12.998747 53:13.151082 54:1.8397687 55:1.056947 56:3.9026853 57:2.4703863 58:0.58508446 59:0.5988819 60:0.26965809 61:0.26332259 
1 1:0.64784851 2:1.99998e-005 3:0.15296312 4:3.8917036 5:16.182428 6:11.957079 7:12.991223 8:13.067149 9:13.16544 10:13.281241 11:13.433748 12:13.621186 13:13.818242 14:14.001692 15:14.162558 16:9.688752 17:4.1743005 20:0.43782193 21:0.51382851 22:0.49487123 23:0.49325007 24:0.50364994 25:0.51529363 26:0.51477621 27:1.2788431 28:1.3005248 29:1.302585 30:1.2869999 31:1.2699723 32:1.2702256 33:8.5901944 34:6.2004834 35:5.1623284 36:4.4277799 37:3.6599708 38:2.6820406 39:3.6163268 40:2.6586386 41:2.1803971 42:1.8746118 43:1.5671755 44:1.1852113 45:12.079803 46:12.155728 47:12.254019 48:12.369819 49:12.522326 50:12.709764 51:12.90682 52:13.090269 53:13.251136 54:1.95924 55:1.2017965 56:3.9453688 57:2.6705551 58:0.54270306 59:0.55348862 60:0.33934091 61:0.32892802 
1 1:0.44202138 2:0.00010799417 3:0.22238486 4:3.1792064 5:14.802088 6:10.879028 7:11.393709 8:11.546243 9:11.700044 10:11.809044 11:11.916104 12:12.060374 13:12.240857 14:12.428753 15:12.603772 16:9.6862477 17:3.9480536 20:0.39219073 21:0.45602577 22:0.42589107 23:0.43698186 24:0.45214575 25:0.47736956 26:0.5152769 27:1.3734441 28:1.4319864 29:1.4078773 30:1.3788787 31:1.3311933 32:1.2743377 33:7.5343822 34:4.4371201 35:3.3764174 36:2.6775894 37:1.8211199 38:1.0450754 39:2.8611202 40:1.7795976 41:1.3695922 42:1.1219134 43:0.85184522 44:0.60446404 45:10.837868 46:10.990401 47:11.144201 48:11.2532 49:11.360259 50:11.50453 51:11.685012 52:11.872907 53:12.047925 54:1.9220263 55:0.9322415 56:4.6400711 57:2.5237534 58:0.57530963 59:0.61029 60:0.30504893 61:0.29107619 
-1 1:0.20983296 2:8.9999595e-006 3:0.34397899 4:3.57525 5:15.58817 6:11.283475 7:13.402723 8:13.426405 9:13.461106 10:13.503988 11:13.57008 12:13.667696 13:13.782266 14:13.897801 15:14.007088 16:10.036809 17:5.159052 19:1.0982302 20:0.20477345 21:0.31026466 22:0.30717804 23:0.30599241 24:0.30726703 25:0.30926033 26:0.31647505 27:1.781463 28:1.7930979 29:1.7981157 30:1.7922823 31:1.783151 32:1.7510041 33:8.3158851 34:6.2553512 35:5.7094703 36:5.4007916 37:5.0223592 38:4.4275141 39:3.1187743 40:2.4017635 41:2.1566114 42:2.0259507 43:1.8657411 44:1.6311329 45:13.169251 46:13.192933 47:13.227634 48:13.270516 49:13.336608 50:13.434224 51:13.548795 52:13.66433 53:13.773616 54:1.4333879 55:0.89793253 56:3.1073227 57:1.5170856 58:0.60970885 59:0.62482073 60:0.23609547 61:0.23291781 
-1 1:0.30801471 2:1.999998e-006 3:0.66211307 4:2.9415413 5:14.990447 6:10.686887 7:12.630442 8:12.681275 9:12.709577 10:12.740661 11:12.792633 12:12.876705 13:12.981188 14:13.091238 15:13.196833 16:9.8391034 17:4.8842344 19:2.300557 20:0.44923571 21:0.32541779 22:0.32202625 23:0.31382704 24:0.31734184 25:0.32231825 26:0.32535568 27:1.7188097 28:1.7395103 29:1.7810623 30:1.7591261 31:1.734333 32:1.7179407 33:7.9447941 34:5.2972655 35:4.8596029 36:4.5443462 37:4.2018027 38:3.7726657 39:2.8389222 40:2.0093642 41:1.8013937 42:1.6810204 43:1.5527831 44:1.3908378 45:12.269723 46:12.320556 47:12.348857 48:12.379941 49:12.431913 50:12.515985 51:12.620468 52:12.730518 53:12.836113 54:1.4457436 55:0.79760261 56:3.555118 57:1.3327519 58:0.591534 59:0.61893426 60:0.24583652 61:0.24002376 
1 1:0.32147099 2:6.7997688e-005 3:0.22077355 4:3.5180702 5:16.218332 6:11.816232 7:12.868059 8:12.94838 9:13.057998 10:13.194156 11:13.363316 12:13.564376 13:13.774587 14:13.971833 15:14.143312 16:9.6153968 17:4.3891923 20:0.36209473 21:0.43557457 22:0.42410497 23:0.42076743 24:0.43561403 25:0.45668343 26:0.48897196 27:1.4085022 28:1.4311917 29:1.4384975 30:1.4085584 31:1.364151 32:1.3084869 33:8.8657885 34:6.2327172 35:5.0962986 36:4.2640995 37:3.4584199 38:2.3971676 39:3.6298608 40:2.5837655 41:2.0693259 42:1.731393 43:1.4327924 44:1.0576413 45:12.488905 46:12.569226 47:12.678844 48:12.815002 49:12.984162 50:13.185222 51:13.395432 52:13.592678 53:13.764157 54:2.0676 55:1.2073352 56:4.2508846 57:2.9202029 58:0.58343964 59:0.6085378 60:0.29556075 61:0.2879014 
1 1:0.28820294 2:0.00010899406 3:0.27435212 4:3.4987999 5:16.039558 6:11.73067 7:12.810009 8:12.897409 9:13.014782 10:13.149792 11:13.318944 12:13.518805 13:13.721826 14:13.907731 15:14.070631 16:9.8175047 17:4.6978672 20:0.32733274 21:0.3999868 22:0.38964327 23:0.38847289 24:0.39676067 25:0.41354637 26:0.44346264 27:1.4834546 28:1.5078051 29:1.5115263 30:1.4893197 31:1.4489149 32:1.3861689 33:8.5389951 34:6.260702 35:5.1738763 36:4.3472618 37:3.5739164 38:2.489591 39:3.4671652 40:2.5428406 41:2.0541401 42:1.7221166 43:1.4348481 44:1.0559309 45:12.475982 46:12.563382 47:12.680755 48:12.815764 49:12.984917 50:13.184777 51:13.387798 52:13.573703 53:13.736603 54:1.937356 55:1.190344 56:3.8806146 57:2.8779403 58:0.59226136 59:0.62006375 60:0.27986591 61:0.2722681 
1 1:0.19230159 2:0.00023297286 3:0.33534803 4:2.641154 5:14.712289 6:10.526588 7:11.086849 8:11.260732 9:11.422296 10:11.580959 11:11.740008 12:11.927702 13:12.150664 14:12.380248 15:12.593959 16:9.5082742 17:4.8884678 20:0.32138615 21:0.31012166 22:0.30436513 23:0.32043141 24:0.35259794 25:0.43501485 26:0.55276955 27:1.8108736 28:1.8454058 29:1.7985522 30:1.6635118 31:1.4504783 32:1.2382119 33:7.6317636 34:4.503779 35:3.2977371 36:2.3923078 37:1.44451 38:0.71965181 39:2.6354519 40:1.577325 41:1.1433546 42:0.90041254 43:0.67427216 44:0.49712317 45:10.874816 46:11.048699 47:11.210263 48:11.368925 49:11.527974 50:11.715668 51:11.938629 52:12.168213 53:12.381924 54:1.8654232 55:0.82319317 56:4.7718616 57:2.8125933 58:0.7636059 59:0.83219804 60:0.20691327 61:0.2188966 
-1 1:0.18086967 2:9.6995296e-005 3:0.28659673 4:3.2549885 5:15.418174 6:11.164715 7:12.907212 8:12.97803 9:13.05474 10:13.138418 11:13.247017 12:13.381508 13:13.523621 14:13.658519 15:13.78137 16:9.8953148 17:4.7025266 20:0.37935245 21:0.29942881 22:0.29860124 23:0.30277214 24:0.30905626 25:0.31869588 26:0.33844458 27:1.8334395 28:1.8345189 29:1.8149422 30:1.7851302 31:1.7429599 32:1.6672058 33:8.0903244 34:6.0437888 35:5.3222897 36:4.8032005 37:4.3371813 38:3.6847239 39:3.000352 40:2.2777441 41:1.9688957 42:1.7674494 43:1.6007735 44:1.3780679 45:12.708953 46:12.779772 47:12.856482 48:12.94016 49:13.048758 50:13.183249 51:13.325363 52:13.46026 53:13.583111 54:1.5048114 55:0.91444394 56:3.3147837 57:1.8166031 58:0.65688782 59:0.66655843 60:0.22532594 61:0.22830372 
-1 1:0.33326639 2:5.09987e-005 3:0.23501916 4:3.767778 5:16.335886 6:11.8044 7:13.476231 8:13.560121 9:13.660638 10:13.78082 11:13.935563 12:14.123772 13:14.315132 14:14.488628 15:14.639086 16:9.9550435 17:4.3715538 20:0.26128753 21:0.35775556 22:0.34456795 23:0.34927705 24:0.35197009 25:0.35678034 26:0.35822115 27:1.6043241 28:1.6444618 29:1.6276318 30:1.6173164 31:1.6016263 32:1.5968219 33:8.9129852 34:6.9117996 35:5.8558688 36:5.1270898 37:4.4104289 38:3.6864392 39:3.6338014 40:2.7757071 41:2.2958917 42:1.9890356 43:1.7004991 44:1.4132534 45:13.080713 46:13.164602 47:13.265119 48:13.385302 49:13.540045 50:13.728254 51:13.919613 52:14.093109 53:14.243568 54:1.8470317 55:1.1363018 56:3.5463363 57:2.4002057 58:0.58472829 59:0.60095617 60:0.26371161 61:0.25738846 
-1 1:0.2595372 2:2.999955e-005 3:0.23883814 4:3.4432858 5:15.643275 6:11.280085 7:12.719982 8:12.884753 9:12.998969 10:13.114277 11:13.251363 12:13.415574 13:13.584571 14:13.742036 15:13.882527 16:9.7147574 17:4.5271503 20:0.22341152 21:0.35125317 22:0.33499615 23:0.3423478 24:0.34866616 25:0.35107087 26:0.35250024 27:1.6387831 28:1.690303 29:1.6598352 30:1.634767 31:1.6224657 32:1.6185945 33:8.4519648 34:5.9452738 35:4.8581804 36:4.0729253 37:3.3682186 38:2.6798372 39:3.2696045 40:2.3137852 41:1.8550722 42:1.546831 43:1.2820108 44:1.0348361 45:12.423653 46:12.588424 47:12.70264 48:12.817947 49:12.955034 50:13.119244 51:13.288242 52:13.445706 53:13.586198 54:1.888959 55:1.0465976 56:4.0611624 57:2.4151695 58:0.59244819 59:0.60757835 60:0.26008456 61:0.25378496 
-1 1:0.28442527 2:5.6998376e-005 3:0.18102155 4:3.5802483 5:15.941051 6:11.512335 7:13.047414 8:13.146896 9:13.254152 10:13.378722 11:13.538241 12:13.727492 13:13.918239 14:14.090141 15:14.239178 16:9.8693283 17:4.1854392 20:0.22566996 21:0.33528582 22:0.31671112 23:0.31999436 24:0.32204002 25:0.32682947 26:0.32812031 27:1.6880058 28:1.7515368 29:1.7383086 30:1.728686 31:1.7085365 32:1.7037123 33:8.4618171 34:6.4878801 35:5.4404212 36:4.7039116 37:4.0008695 38:3.271485 39:3.3694454 40:2.5165632 41:2.0471659 42:1.749456 43:1.4826047 44:1.2090785 45:12.718417 46:12.817898 47:12.925154 48:13.049724 49:13.209244 50:13.398494 51:13.589241 52:13.761144 53:13.910181 54:1.8145864 55:1.0857095 56:3.516665 57:2.3932912 58:0.58283302 59:0.61333066 60:0.25299659 61:0.24139701 
-1 1:0.3168845 2:7.099748e-005 3:0.4413437 4:3.5019591 5:15.807349 6:11.479648 7:13.063832 8:13.15407 9:13.259864 10:13.375089 11:13.517924 12:13.688737 13:13.86162 14:14.018508 15:14.158414 16:10.032875 17:4.4435409 20:0.25945234 21:0.34639286 22:0.32703931 23:0.33240326 24:0.34900269 25:0.35628467 26:0.35905252 27:1.663635 28:1.7246899 29:1.7000847 30:1.6345934 31:1.6049836 32:1.5948334 33:8.4311797 34:6.4414022 35:5.3455832 36:4.4773825 37:3.7621515 38:3.0240331 39:3.3141727 40:2.4916764 41:2.0358383 42:1.7076308 43:1.4391327 44:1.1657777 45:12.690989 46:12.781226 47:12.887021 48:13.002245 49:13.145081 50:13.315894 51:13.488777 52:13.645664 53:13.78557 54:1.7935828 55:1.0935545 56:3.5817856 57:2.5426949 58:0.60805515 59:0.62709397 60:0.25592444 61:0.24999622 
-1 1:0.3869107 2:1.3999902e-005 3:0.40804511 4:4.1236905 5:16.434119 6:11.905278 7:13.618279 8:13.706895 9:13.811484 10:13.93344 11:14.088203 12:14.274491 13:14.463685 14:14.635633 15:14.785826 16:10.012576 17:4.1540407 19:0.62394232 20:0.253131 21:0.37486225 22:0.36841031 23:0.37291299 24:0.37519076 25:0.38063129 26:0.38720677 27:1.5498773 28:1.56652 29:1.55273 30:1.5466776 31:1.5306551 32:1.5124229 33:8.9324825 34:7.0666671 35:6.0134565 36:5.2988885 37:4.5587468 38:3.7960451 39:3.6987607 40:2.8952664 41:2.4095265 42:2.101844 43:1.7984701 44:1.4967493 45:13.145855 46:13.234471 47:13.33906 48:13.461015 49:13.615778 50:13.802067 51:13.99126 52:14.163208 53:14.313401 54:1.8149802 55:1.1653831 56:3.4172094 57:2.4436486 58:0.58930847 59:0.59725056 60:0.27061775 61:0.26866862 
1 1:0.32192841 2:9.7995198e-005 3:0.3312321 4:3.5651348 5:16.077835 6:11.710841 7:13.426937 8:13.517608 9:13.592324 10:13.680972 11:13.796648 12:13.936244 13:14.081242 14:14.217863 15:14.341606 16:9.8562262 17:4.6818315 20:0.50018845 21:0.42432481 22:0.43120173 23:0.43371626 24:0.43980985 25:0.45163279 26:0.4767893 27:1.4308279 28:1.4138799 29:1.4078066 30:1.3951679 31:1.371382 32:1.3276682 33:8.7301688 34:6.3512262 35:5.6492877 36:5.159709 37:4.65951 38:4.0170462 39:3.5241622 40:2.6647071 41:2.3516754 42:2.1396883 43:1.9337774 44:1.6846576 45:13.047152 46:13.137822 47:13.212539 48:13.301186 49:13.416863 50:13.556458 51:13.701457 52:13.838078 53:13.961821 54:1.6599992 55:0.98675776 56:3.6219434 57:1.8083118 58:0.59567856 59:0.59161384 60:0.28840207 61:0.29435426 
-1 1:0.23255195 2:6.899762e-005 3:0.2956309 4:3.5454403 5:15.933008 6:11.555525 7:13.679543 8:13.733632 9:13.788238 10:13.857875 11:13.957991 12:14.085038 13:14.21711 14:14.340313 15:14.450957 16:9.9958173 17:5.0261461 20:0.37805143 21:0.33005311 22:0.33044195 23:0.33456256 24:0.33382015 25:0.33635294 26:0.34440994 27:1.6982435 28:1.6953143 29:1.6791742 30:1.681405 31:1.6713763 32:1.6435734 33:8.5426881 34:6.5961143 35:5.9957396 36:5.6256715 37:5.2195641 38:4.6867402 39:3.3118169 40:2.6113101 41:2.3482743 42:2.1859056 43:2.0119785 44:1.7955073 45:13.417727 46:13.471817 47:13.526423 48:13.596059 49:13.696175 50:13.823223 51:13.955294 52:14.078498 53:14.189141 54:1.453052 55:0.92168909 56:3.0543157 57:1.5409154 58:0.61323209 59:0.61287782 60:0.24574841 61:0.2474884 
1 1:0.19006566 2:0.00013099142 3:0.37778554 4:3.4364327 5:15.641836 6:11.3682 7:13.21627 8:13.289817 9:13.347796 10:13.416839 11:13.514166 12:13.637525 13:13.767318 14:13.889513 15:14.000765 16:9.7911366 17:4.6197504 20:0.39620369 21:0.38630947 22:0.38836574 23:0.38673207 24:0.38554875 25:0.3871314 26:0.39495608 27:1.5175248 28:1.5111614 29:1.5161406 30:1.518195 31:1.5133155 32:1.4930151 33:8.3024104 34:6.0284789 35:5.3817454 36:4.9663786 37:4.4981523 38:3.8516139 39:3.2432182 40:2.4609542 41:2.1698016 42:1.9866648 43:1.7887296 44:1.5299831 45:13.006941 46:13.080489 47:13.138468 48:13.20751 49:13.304838 50:13.428196 51:13.557989 52:13.680184 53:13.791436 54:1.5626134 55:0.95945391 56:3.4532972 57:1.7187492 58:0.5830202 59:0.58624905 60:0.27683863 61:0.27635159 
1 1:0.2906033 2:2.5999662e-005 3:0.30741999 4:3.4970407 5:15.780529 6:11.47882 7:13.739456 8:13.778595 9:13.81601 10:13.864386 11:13.938945 12:14.039682 13:14.148705 14:14.253262 15:14.348822 16:9.8036255 17:4.2063218 20:0.37931619 21:0.36158915 22:0.35292683 23:0.35189835 24:0.35053926 25:0.35580487 26:0.36220333 27:1.599426 28:1.6198236 29:1.6202231 30:1.6231155 31:1.6051811 32:1.5848854 33:8.2449179 34:6.4386884 35:6.048283 36:5.799133 37:5.4655734 38:4.9903941 39:3.2548176 40:2.5898254 41:2.4131099 42:2.2977261 43:2.1576036 44:1.9576668 45:13.402222 46:13.441362 47:13.478777 48:13.527153 49:13.601712 50:13.702448 51:13.811471 52:13.916028 53:14.011588 54:1.3324836 55:0.86711592 56:2.696197 57:1.3192393 58:0.58591315 59:0.60310124 60:0.26595154 61:0.25812003 
-1 1:0.36595683 2:9.2995676e-005 3:0.35707286 4:3.5227612 5:15.742575 6:11.441612 7:13.632574 8:13.665919 9:13.712806 10:13.772587 11:13.859765 12:13.972996 13:14.092292 14:14.204654 15:14.305645 16:9.8760113 17:4.0203715 20:0.39495204 21:0.36081775 22:0.35118138 23:0.34655976 24:0.34490515 25:0.34622948 26:0.35271531 27:1.5947325 28:1.6210769 29:1.6370367 30:1.6417024 31:1.6371048 32:1.6150046 33:8.0487099 34:6.3870438 35:5.9447991 36:5.6866685 37:5.3234037 38:4.7969697 39:3.2163261 40:2.5631443 41:2.354469 42:2.235307 43:2.0769434 44:1.8580599 45:13.190681 46:13.224027 47:13.270913 48:13.330695 49:13.417872 50:13.531103 51:13.650399 52:13.762761 53:13.863753 54:1.3559044 55:0.89055032 56:2.6223239 57:1.3956084 58:0.57296771 59:0.59914031 60:0.26711976 61:0.25599345 
1 1:0.25628583 2:0.00014198992 3:0.23373922 4:3.2633775 5:15.394142 6:11.198228 7:12.841084 8:12.921168 9:12.980888 10:13.047731 11:13.137289 12:13.251956 13:13.37674 14:13.497939 15:13.610693 16:9.6267438 17:4.7320462 20:0.44635622 21:0.39021745 22:0.40405345 23:0.4104898 24:0.42228289 25:0.42879289 26:0.43555387 27:1.5126783 28:1.4746893 29:1.4599437 30:1.4309292 31:1.4156175 32:1.401464 33:8.2168615 34:5.6475648 35:5.0277215 36:4.5741148 37:4.1086539 38:3.4432042 39:3.1491629 40:2.3091176 41:2.0455591 42:1.8659745 43:1.6787242 44:1.4123933 45:12.548963 46:12.629047 47:12.688767 48:12.755609 49:12.845168 50:12.959835 51:13.084618 52:13.205818 53:13.318571 54:1.5846345 55:0.94000631 56:3.7419697 57:1.7429799 58:0.61636672 59:0.58714887 60:0.27133822 61:0.28831152 
1 1:0.23081961 2:0.0001469892 3:0.2139696 4:3.0617621 5:15.449013 6:11.223655 7:12.914108 8:12.996565 9:13.085361 10:13.178288 11:13.29109 12:13.423024 13:13.558781 14:13.686185 15:13.801262 16:9.7221391 17:4.7490377 20:0.51396609 21:0.32980218 22:0.33040242 23:0.33847737 24:0.3404294 25:0.33978389 26:0.3441151 27:1.7011378 28:1.697397 29:1.6671519 30:1.6594913 31:1.6595776 32:1.6442072 33:8.1518883 34:5.9481521 35:5.2831316 36:4.8648294 37:4.4803332 38:3.8982724 39:3.0683098 40:2.3136973 41:2.0337918 42:1.8626214 43:1.7040851 44:1.4736972 45:12.654477 46:12.736934 47:12.825729 48:12.918656 49:13.031458 50:13.163392 51:13.29915 52:13.426553 53:13.54163 54:1.4993932 55:0.90476237 56:3.3633192 57:1.6143619 58:0.61724419 59:0.60650862 60:0.24520868 61:0.25024671 
1 1:0.26285107 2:8.2996556e-005 3:0.30732439 4:3.3208057 5:15.401941 6:11.081742 7:12.866422 8:13.101136 9:13.197748 10:13.262626 11:13.322611 12:13.397477 13:13.48955 14:13.595236 15:13.714788 16:9.6468051 17:4.9569933 20:0.56264149 21:0.37036974 22:0.36474589 23:0.36122617 24:0.36115858 25:0.36387476 26:0.39465354 27:1.5644339 28:1.5827549 29:1.5974315 30:1.5942565 31:1.5842456 32:1.5005891 33:8.264309 34:5.8077451 35:5.1808947 36:4.7701836 37:4.278434 38:3.6949819 39:3.1630755 40:2.3147211 41:2.0329688 42:1.8555114 43:1.6593885 44:1.4627428 45:12.56579 46:12.800504 47:12.897116 48:12.961994 49:13.021979 50:13.096844 51:13.188918 52:13.294603 53:13.414155 54:1.585247 55:0.90471747 56:3.6118913 57:1.6730448 58:0.5907818 59:0.62604234 60:0.26766813 61:0.25827056 
1 1:0.35931436 2:0.00040291882 3:0.13199183 4:3.5787264 5:16.052617 6:11.730976 7:12.161714 8:12.243749 9:12.277007 10:12.357268 11:12.525897 12:12.79295 13:13.094461 14:13.371806 15:13.600638 16:9.3508821 17:4.7192156 20:0.45645666 21:0.48742966 22:0.52141357 23:0.5651638 24:0.60698126 25:0.6423243 26:0.63972953 27:1.3136003 28:1.2647 29:1.213493 30:1.1723883 31:1.1379846 32:1.1394768 33:8.823202 34:5.4735635 35:3.7222606 36:2.8369055 37:2.1776051 38:1.4357412 39:3.6549125 40:2.2969482 41:1.6139121 42:1.2992157 43:1.0673366 44:0.79248288 45:11.72937 46:11.811405 47:11.844663 48:11.924924 49:12.093552 50:12.360604 51:12.662115 52:12.93946 53:13.168291 54:2.3905527 55:1.0936679 56:5.1327305 57:2.9411622 58:0.61228692 59:0.55420805 60:0.29293841 61:0.35016411 
1 1:0.38496644 2:0.00042391014 3:0.30640986 4:3.6192224 5:15.447904 6:11.130009 7:11.5084 8:11.584758 9:11.6168 10:11.696232 11:11.863506 12:12.131349 13:12.434116 14:12.71147 15:12.941296 16:9.9116871 17:4.9854423 20:0.44240566 21:0.37326211 22:0.41678941 23:0.48513175 24:0.55211401 25:0.61099796 26:0.62202651 27:1.5570735 28:1.4508824 29:1.3265393 30:1.2378999 31:1.1667745 32:1.1547179 33:8.2949856 34:4.8880301 35:3.1920236 36:2.3283095 37:1.7168281 38:1.048945 39:3.2184239 40:1.9275319 41:1.3402996 42:1.0768495 43:0.88680136 44:0.64752357 45:11.038841 46:11.115198 47:11.14724 48:11.226672 49:11.393945 50:11.661787 51:11.964553 52:12.241907 53:12.471733 54:2.2080434 55:0.94673456 56:5.1634835 57:2.759247 58:0.73903351 59:0.61118315 60:0.22747277 61:0.31126469 
1 1:0.31846246 2:0.0016436485 3:0.51124694 4:2.8210474 5:14.545105 6:10.492246 7:10.358213 8:10.382716 9:10.413963 10:10.479668 11:10.624603 12:10.877433 13:11.189607 14:11.487303 15:11.735228 16:9.4692587 17:5.0067157 20:0.4635535 21:0.38385325 22:0.55250082 23:0.69985861 24:0.78508669 25:0.81819179 26:0.77223235 27:1.5611743 28:1.2669862 29:1.1181126 30:1.058684 31:1.0334524 32:1.0552068 33:7.6940538 34:3.3550274 35:1.9190775 36:1.3634305 37:1.0171904 38:0.60059046 39:2.6553774 40:1.3929924 41:0.97345715 42:0.80312427 43:0.68430167 44:0.50419912 45:9.983215 46:10.007718 47:10.038965 48:10.104668 49:10.249602 50:10.50243 51:10.814601 52:11.112296 53:11.36022 54:1.9522037 55:0.71304696 56:5.8753176 57:1.8292622 58:0.81789743 59:0.54381793 60:0.20042332 61:0.39625016 
1 1:0.20361082 2:4.5998942e-005 3:0.20348845 4:3.7139086 5:16.033436 6:11.81062 7:13.98076 8:14.004352 9:14.035024 10:14.079275 11:14.14957 12:14.248978 13:14.360324 14:14.469724 15:14.571561 16:9.6365071 17:4.553987 20:0.33937944 21:0.44999095 22:0.45908486 23:0.45400508 24:0.45250453 25:0.44756309 26:0.44010226 27:1.3767757 28:1.358313 29:1.3680372 30:1.3713046 31:1.3785391 32:1.3920913 33:8.501408 34:6.7701391 35:6.3364606 36:6.0870753 37:5.7858407 38:5.3701695 39:3.5177745 40:2.9025895 41:2.6967743 42:2.5796029 43:2.4352913 44:2.2361954 45:13.754939 46:13.778531 47:13.809203 48:13.853454 49:13.923749 50:14.023157 51:14.134504 52:14.243903 53:14.34574 54:1.3222156 55:0.88941063 56:2.6288472 57:1.2689256 58:0.5565933 59:0.54736477 60:0.31009353 61:0.31430875 
1 1:0.17551763 2:5.6998376e-005 3:0.31300254 4:3.6284589 5:15.943886 6:11.66453 7:13.654077 8:13.698933 9:13.742386 10:13.794889 11:13.872712 12:13.980032 13:14.100941 14:14.220066 15:14.329989 16:9.768187 17:4.5825914 20:0.33665936 21:0.44388358 22:0.46896747 23:0.4735162 24:0.48185438 25:0.4789708 26:0.47192304 27:1.390793 28:1.3429343 29:1.3368562 30:1.321642 31:1.3240591 32:1.3346202 33:8.5555959 34:6.4789863 35:5.9316563 36:5.5390952 37:5.0894285 38:4.4194454 39:3.4912994 40:2.7746677 41:2.5275682 42:2.3574903 43:2.1520719 44:1.8490822 45:13.462214 46:13.50707 47:13.550523 48:13.603027 49:13.68085 50:13.788169 51:13.909079 52:14.028203 53:14.138126 54:1.4999397 55:1.0007471 56:3.1940154 57:1.6747078 58:0.58544884 59:0.55016479 60:0.29852255 61:0.32217238 
0.4426133711785486 1:0.58988114 2:4.099916e-005 3:0.17810518 4:4.2302135 5:16.447689 6:12.071644 7:14.302619 8:14.343237 9:14.381198 10:14.433114 11:14.516071 12:14.629263 13:14.753672 14:14.873644 15:14.983434 16:9.8594685 17:4.2543618 20:0.50620959 21:0.5139619 22:0.52324814 23:0.5233471 24:0.52567837 25:0.53662319 26:0.53729188 27:1.2744076 28:1.2592533 29:1.2605693 30:1.2610151 31:1.2417173 32:1.2409688 33:8.9079518 34:7.2076149 35:6.653294 36:6.3633691 37:5.92782 38:5.4631247 39:3.8325278 40:3.1744769 41:2.9126932 42:2.769452 43:2.586459 44:2.3715352 45:13.498846 46:13.539464 47:13.577424 48:13.629341 49:13.712297 50:13.82549 51:13.949899 52:14.06987 53:14.17966 54:1.4253097 55:0.94635728 56:2.7531095 57:1.4495856 58:0.55355422 59:0.54563679 60:0.33259678 61:0.3405136 
-1 1:0.41348288 2:9.9995e-005 3:0.35472675 4:3.7030606 5:15.909256 6:11.490066 7:13.747457 8:13.793263 9:13.843407 10:13.907777 11:14.000611 12:14.121263 13:14.248686 14:14.368596 15:14.476473 16:9.8573828 17:4.1136538 20:0.49674719 21:0.3700866 22:0.37199794 23:0.37837958 24:0.38329175 25:0.3857344 26:0.39510631 27:1.567609 28:1.5594135 29:1.5392834 30:1.5243411 31:1.5167422 32:1.4927724 33:8.4332361 34:6.7621494 35:6.2060629 36:5.8934044 37:5.5370202 38:5.0515649 39:3.4058765 40:2.7718428 41:2.5282986 42:2.3959985 43:2.2385534 44:2.0358797 45:13.235383 46:13.281188 47:13.331333 48:13.395703 49:13.488537 50:13.609188 51:13.736611 52:13.856521 53:13.964398 54:1.3691078 55:0.90215843 56:2.7168426 57:1.4245876 58:0.6070006 59:0.59799251 60:0.26542211 61:0.27099272 
1 1:0.30816902 2:0.00012699194 3:0.1215838 4:3.6935137 5:15.574244 6:11.396335 7:13.252783 8:13.522653 9:13.615441 10:13.653326 11:13.691921 12:13.753011 13:13.839507 14:13.944974 15:14.067072 16:9.6050621 17:4.1125535 20:0.49171497 21:0.43378884 22:0.41292786 23:0.41634702 24:0.41137693 25:0.41392588 26:0.42422013 27:1.4095569 28:1.4576448 29:1.4463129 30:1.4567938 31:1.4498052 32:1.4262521 33:8.2769019 34:6.2681612 35:5.6362675 36:5.2047532 37:4.5607843 38:4.0481815 39:3.3008013 40:2.5810601 41:2.3051985 42:2.0978147 43:1.8463335 44:1.6456748 45:12.891853 46:13.161722 47:13.254511 48:13.292396 49:13.33099 50:13.39208 51:13.478577 52:13.584044 53:13.706141 54:1.5209046 55:0.96550141 56:3.2155436 57:1.743984 58:0.55010002 59:0.58028214 60:0.30543367 61:0.28908244 
0.1130691864943647 1:0.21118351 2:0.00027996081 3:1.0359813 4:1.8394002 5:13.133477 6:9.2774381 7:9.0754629 8:8.9769678 9:8.8403896 10:8.7437943 11:8.7514982 12:8.9221114 13:9.2402498 14:9.6036516 15:9.904381 16:7.5945101 17:2.3359422 20:0.14569993 21:0.39002858 22:0.46613051 23:0.54287879 24:0.64008601 25:0.73575206 26:0.83400765 27:1.5344426 28:1.3627811 29:1.2535801 30:1.147259 31:1.0819418 32:1.0295405 33:6.1861659 34:1.4357334 35:0.55880861 36:0.23480094 37:0.11620757 38:0.069634266 39:2.0414071 40:0.67771369 41:0.41546362 42:0.29438903 43:0.22235284 44:0.18206652 45:8.8403542 46:8.7418623 47:8.605289 48:8.5086976 49:8.5164012 50:8.6870078 51:9.0051365 52:9.3685305 53:9.6692552 54:1.7800248 55:0.35946341 56:5.730907 57:0.69904516 58:0.77845799 59:0.61473219 60:0.20795984 61:0.30611248 
1 1:0.24611371 2:0.0029346896 3:0.94556173 4:2.1243384 5:13.667564 6:9.7728092 7:9.760083 8:9.7708358 9:9.7245216 10:9.6656913 11:9.6417818 12:9.6937645 13:9.8983182 14:10.210964 15:10.495517 16:7.7580248 17:3.66587 20:0.25463602 21:0.51811499 22:0.81185379 23:0.84812109 24:0.944475 25:0.99068663 26:1.0608592 27:1.3864271 28:1.0650362 29:1.050566 30:0.9901399 31:0.97223127 32:0.95354914 33:6.3958539 34:1.9030174 35:0.89936957 36:0.43019349 37:0.22258179 38:0.11949268 39:2.2103945 40:0.97876174 41:0.59744432 42:0.43305758 43:0.32300843 44:0.24739197 45:9.4810565 46:9.4918091 47:9.4454959 48:9.3866667 49:9.3627577 50:9.4147393 51:9.6192894 52:9.9319313 53:10.216481 54:1.822314 55:0.50926895 56:5.6762035 57:1.0166325 58:0.75035996 59:0.52094341 60:0.22609363 61:0.40973542 
-1 1:0.24693039 2:0.0088626108 3:1.0040367 4:1.5749891 16:7.7438022 17:2.7421088 20:0.27923878 21:0.98888224 22:1.0758505 23:1.0726231 24:1.0758096 25:1.0893128 26:1.0972223 27:1.0523205 28:0.95004693 29:0.9520825 30:0.95012427 31:0.94686184 32:0.94503172 33:4.6517855 34:1.4547048 35:0.46738332 36:0.27473968 37:0.18154459 38:0.10748935 39:1.5287616 40:0.83324298 41:0.46057242 42:0.36812524 43:0.30099975 44:0.23741168 54:1.240906 55:0.42448126 56:4.1837906 57:0.68643079 58:0.54399032 59:0.48001148 60:0.45032572 61:0.49930521 
1 1:0.41669515 2:0.0031819323 3:0.86558169 4:2.1543639 5:13.928386 6:10.034516 7:10.677782 8:10.443933 9:10.215441 10:10.006344 11:9.8439723 12:9.8158715 13:10.10179 14:10.565563 15:10.919159 16:7.8314849 17:2.678248 20:0.2584968 21:0.53484113 22:0.78601985 23:0.90377959 24:0.97935417 25:1.0764076 26:1.0935656 27:1.3545384 28:1.1239648 29:1.0522088 30:0.98984747 31:0.94979088 32:0.94575594 33:6.3417487 34:1.0731399 35:0.64959751 36:0.3168 37:0.12081311 38:0.099535785 39:2.2624546 40:0.63317581 41:0.43015447 42:0.33327141 43:0.25330411 44:0.22940232 45:10.160857 46:9.9270128 47:9.6985254 48:9.489434 49:9.3270682 50:9.2989685 51:9.5848781 52:10.048641 53:10.402231 54:1.9716867 55:0.34949369 56:5.9573908 57:0.56303517 58:0.7270461 59:0.53106611 60:0.22700684 61:0.42156215 
1 1:0.18331856 2:0.00043290628 3:0.94408721 4:2.5886096 5:14.935078 6:10.915634 7:12.365066 8:12.352576 9:12.352313 10:12.312213 11:12.259994 12:12.282746 13:12.42694 14:12.652962 15:12.917682 16:7.5153868 17:2.6430809 20:0.29998014 21:0.34328257 22:0.37207446 23:0.40186263 24:0.44983919 25:0.49991067 26:0.54823643 27:1.6611757 28:1.566946 29:1.4933296 30:1.3813341 31:1.2932864 32:1.228588 33:7.2661766 34:4.7228238 35:3.4384648 36:2.2564965 37:1.5132957 38:0.95890798 39:2.6554527 40:1.6928689 41:1.2798038 42:0.96092408 43:0.76434675 44:0.59197787 45:12.16387 46:12.15138 47:12.151117 48:12.111018 49:12.058798 50:12.08155 51:12.225744 52:12.451766 53:12.716485 54:1.7975836 55:0.85628885 56:4.2346464 57:2.7555855 58:0.75026307 59:0.66356143 60:0.22350071 61:0.27184919 
1 1:0.20354801 2:0.0023432524 3:0.99731499 4:2.3593438 5:14.151135 6:10.327676 7:11.091678 8:11.102727 9:11.157104 10:11.154208 11:11.117732 12:11.166178 13:11.378761 14:11.686714 15:11.988882 16:8.1222884 17:3.0426398 20:0.52009949 21:0.37523611 22:0.49891598 23:0.66796218 24:0.86843993 25:1.0008105 26:1.0434762 27:1.5733536 28:1.3201121 29:1.1458543 30:1.0187726 31:0.96877616 32:0.95727834 33:6.5750247 34:3.7985736 35:2.5709972 36:1.7508144 37:1.3418917 38:0.9015758 39:2.351176 40:1.45015 41:1.1503353 42:0.96206836 43:0.83650612 44:0.66606988 45:10.865938 46:10.876987 47:10.931363 48:10.928467 49:10.891992 50:10.940437 51:11.15302 52:11.460972 53:11.763139 54:1.5631321 55:0.72860713 56:4.3206242 57:2.0047215 58:0.85294035 59:0.58558543 60:0.16688221 61:0.34638344 
1 1:0.15319908 2:0.00092756967 3:0.91903217 4:2.1723235 5:14.186137 6:10.296745 7:10.93534 8:11.030349 9:11.155085 10:11.25254 11:11.357273 12:11.537059 13:11.780894 14:12.041411 15:12.294153 16:7.5046299 17:2.5047473 20:0.34821022 21:0.29055694 22:0.33628365 23:0.40571841 24:0.4976419 25:0.55295595 26:0.6718597 27:1.885721 28:1.6859846 29:1.4936631 30:1.3227916 31:1.2341176 32:1.1207794 33:6.4444212 34:4.0935056 35:2.6299247 36:1.5208908 37:0.83552179 38:0.37976227 39:2.1901813 40:1.4071239 41:1.0244252 42:0.74078668 43:0.54113347 44:0.38232271 45:10.769787 46:10.864795 47:10.989531 48:11.086985 49:11.191718 50:11.371504 51:11.615339 52:11.875855 53:12.128597 54:1.5762963 55:0.76094135 56:4.0785974 57:2.6473775 58:0.92667446 59:0.72410009 60:0.17487906 61:0.25584939 
1 1:0.27855631 2:0.00078968811 3:0.91804679 4:2.7605733 5:14.859205 6:10.830164 7:12.85962 8:12.837909 9:12.813869 10:12.764065 11:12.704962 12:12.681469 13:12.730059 14:12.855981 15:13.048806 16:7.7961818 17:3.2988529 20:0.63112389 21:0.35300622 22:0.42194261 23:0.47278351 24:0.54946097 25:0.66539307 26:0.77245223 27:1.6406232 28:1.4555972 29:1.3738627 30:1.2523789 31:1.1267785 32:1.0553526 33:7.2154186 34:5.2011121 35:4.2343849 36:3.1572129 37:2.3885986 38:1.8278019 39:2.6580898 40:1.9268116 41:1.6229105 42:1.3325932 43:1.152871 44:0.97705125 45:12.5384 46:12.516689 47:12.492649 48:12.442846 49:12.383743 50:12.36025 51:12.408839 52:12.534761 53:12.727586 54:1.5251732 55:0.87611591 56:3.5863613 57:2.5087603 58:0.81723813 59:0.66356427 60:0.19799891 61:0.28074637 
1 1:0.13076156 2:0.00083465158 3:0.91141004 4:2.3432371 5:14.224498 6:10.347885 7:12.246952 8:12.202233 9:12.145836 10:12.062036 11:11.962705 12:11.903203 13:11.939765 14:12.082816 15:12.316467 16:8.1483886 17:2.8337657 20:0.36816192 21:0.30138895 22:0.3225363 23:0.34389533 24:0.39092795 25:0.47572784 26:0.67763854 27:1.8321971 28:1.7345584 29:1.6655082 30:1.5302388 31:1.3560941 32:1.1297314 33:6.6190771 34:4.6424064 35:3.7755283 36:2.429191 37:1.4999819 38:0.86024469 39:2.2879938 40:1.5221448 41:1.2357633 42:0.91869903 43:0.72989561 44:0.58324805 45:12.107257 46:12.062538 47:12.006141 48:11.922341 49:11.82301 50:11.763509 51:11.80007 52:11.943121 53:12.176772 54:1.5223591 55:0.78865158 56:3.5740658 57:2.8815867 58:0.84101753 59:0.81024587 60:0.1861179 61:0.21389638 
1 1:0.30261256 2:0.00067677094 3:0.91230279 4:2.8544471 5:15.010505 6:10.953662 7:13.228516 8:13.138686 9:13.073041 10:12.99366 11:12.903965 12:12.843491 13:12.856866 14:12.968132 15:13.164783 16:7.76621 17:3.1345314 20:0.68488212 21:0.36049354 22:0.42858445 23:0.46708249 24:0.53248359 25:0.62654253 26:0.75167832 27:1.6136174 28:1.4390882 29:1.381843 30:1.2716938 31:1.1595744 32:1.0677252 33:7.3803434 34:5.3192324 35:4.5362915 36:3.5244574 37:2.7926003 38:2.371653 39:2.7297815 40:1.9773292 41:1.7199654 42:1.4496761 43:1.2891833 44:1.1778845 45:12.875127 46:12.785297 47:12.719652 48:12.640271 49:12.550576 50:12.490103 51:12.503477 52:12.614743 53:12.811394 54:1.4822295 55:0.82660791 56:3.5212546 57:2.1996764 58:0.79289297 59:0.66346869 60:0.20590556 61:0.27677318 
1 1:0.23332356 2:0.00032994556 3:0.91581222 4:2.6635017 5:15.002433 6:10.930711 7:13.356534 8:13.250807 9:13.203174 10:13.150016 11:13.077883 12:13.014606 13:12.990027 14:13.028517 15:13.202601 16:7.8275558 17:3.2565641 20:0.30501253 21:0.33526222 22:0.33635009 23:0.32629852 24:0.32758356 25:0.34483007 26:0.3817665 27:1.6892357 28:1.6834591 29:1.7208761 30:1.7159874 31:1.6523434 32:1.5387566 33:7.380168 34:5.3776042 35:4.6236295 36:3.4061139 37:2.4758082 38:1.7404897 39:2.6890025 40:1.8467311 41:1.5426103 42:1.1814253 43:0.94730944 44:0.74222302 45:13.093744 46:12.988018 47:12.940385 48:12.887227 49:12.815094 50:12.751817 51:12.727237 52:12.765728 53:12.939812 54:1.6761503 55:0.92812296 56:3.5398605 57:2.8112948 58:0.6283627 59:0.669246 60:0.24563031 61:0.23941451 
1 1:0.23601871 2:0.00047688627 3:0.99477949 4:2.694193 5:14.896639 6:10.874551 7:12.617355 8:12.609994 9:12.625096 10:12.625231 11:12.637849 12:12.704333 13:12.836968 14:13.008572 15:13.20287 16:7.8723137 17:3.2820337 20:0.47354111 21:0.33014656 22:0.36798751 23:0.41314818 24:0.48961874 25:0.58284671 26:0.66410192 27:1.7139361 28:1.5944374 29:1.4845022 30:1.3237163 31:1.1969137 32:1.1240698 33:7.1539532 34:5.206557 35:4.0231432 36:2.8957089 37:2.1630113 38:1.4747175 39:2.6048488 40:1.8457054 41:1.5007539 42:1.2193802 43:1.0327495 44:0.81219608 45:12.351158 46:12.343797 47:12.358899 48:12.359034 49:12.371652 50:12.438136 51:12.57077 52:12.742375 53:12.936673 54:1.5793373 55:0.89359242 56:3.6157944 57:2.7688156 58:0.81882988 59:0.69704545 60:0.19979651 61:0.26709683 
1 1:0.13973846 2:0.00034394085 3:1.0261204 4:2.4930194 5:14.527351 6:10.565789 7:12.803219 8:12.751583 9:12.700733 10:12.633131 11:12.568316 12:12.544522 13:12.587567 14:12.697656 15:12.87494 16:7.5997268 17:2.1805951 20:0.38294475 21:0.28647209 22:0.30199244 23:0.31526027 24:0.33798894 25:0.36118715 26:0.40588169 27:1.9039144 28:1.8221395 29:1.7639013 30:1.6772836 31:1.5981691 32:1.480207 33:6.8721769 34:5.2360248 35:4.3015056 36:3.1366245 37:2.3367386 38:1.6421645 39:2.4017084 40:1.7338941 41:1.4447524 42:1.1238738 43:0.92708348 44:0.73636949 45:12.653247 46:12.601611 47:12.55076 48:12.483158 49:12.418343 50:12.39455 51:12.437594 52:12.547684 53:12.724968 54:1.4740496 55:0.86607915 56:3.2356911 57:2.7138108 58:0.76339858 59:0.71397487 60:0.20661461 61:0.23106862 
1 1:0.11775637 2:0.00017498469 3:1.0176188 4:2.5978193 5:14.944026 6:10.860882 7:13.291939 8:13.168105 9:13.096375 10:13.016371 11:12.930027 12:12.872556 13:12.88147 14:12.977812 15:13.169808 16:7.4496575 17:2.1837891 20:0.32237114 21:0.29381448 22:0.30440275 23:0.31078147 24:0.32954688 25:0.35895544 26:0.41189506 27:1.8690894 28:1.8096267 29:1.7877446 30:1.7156222 31:1.6109064 32:1.4660259 33:7.3309481 34:5.3537623 35:4.5629708 36:3.3015101 37:2.3649265 38:1.6719937 39:2.5924643 40:1.7691431 41:1.4796394 42:1.1455283 43:0.92900319 44:0.74943063 45:13.166969 46:13.043136 47:12.971406 48:12.891402 49:12.805058 50:12.747587 51:12.756501 52:12.852842 53:13.044838 54:1.6201643 55:0.87963602 56:3.5356949 57:2.8343446 58:0.74052641 59:0.73063044 60:0.21181897 61:0.22747957 
1 1:0.13545966 2:0.00025196825 3:0.92881517 4:2.8958369 5:15.472935 6:11.288806 7:13.718312 8:13.564743 9:13.486988 10:13.425623 11:13.366127 12:13.339408 13:13.377743 14:13.497799 15:13.699213 16:7.9930564 17:2.3444433 20:0.33774072 21:0.30631784 22:0.31492898 23:0.32962312 24:0.36874372 25:0.44282062 26:0.6156558 27:1.8048703 28:1.7632895 29:1.7157472 30:1.5868953 31:1.4088039 32:1.1769871 33:7.7992032 34:5.619039 35:4.8316389 36:3.4932957 37:2.5931445 38:1.795949 39:2.8426527 40:1.9516577 41:1.6423851 42:1.2876201 43:1.0853018 44:0.90522453 45:13.573249 46:13.41968 47:13.341925 48:13.28056 49:13.221064 50:13.194345 51:13.23268 52:13.352737 53:13.554151 54:1.7061395 55:0.91456592 56:3.7463975 57:2.9649579 58:0.79677789 59:0.81602334 60:0.19701592 61:0.21367039 
-1 1:0.28397672 2:6.099814e-005 3:0.25807817 4:2.452087 5:14.542637 6:10.358378 7:10.225507 8:10.248357 9:10.261404 10:10.286778 11:10.402062 12:10.658033 13:10.983675 14:11.295005 15:11.550617 16:9.3923649 17:3.468853 20:0.15441664 21:0.33638938 22:0.33145611 23:0.3464261 24:0.35756745 25:0.37910197 26:0.48848615 27:1.7140327 28:1.7310106 29:1.6580694 30:1.6171588 31:1.5589445 32:1.3483721 33:7.7586421 34:3.0024923 35:1.5750949 36:0.95059824 37:0.54158216 38:0.22412547 39:2.6453766 40:1.0527533 41:0.65309208 42:0.48289518 43:0.35677614 44:0.25379069 45:9.897119 46:9.9199689 47:9.9330157 48:9.9583888 49:10.073672 50:10.32964 51:10.65528 52:10.966608 53:11.222219 54:2.2038163 55:0.55625991 56:6.3049889 57:1.7999934 58:0.69753926 59:0.73396163 60:0.23257866 61:0.23144986 
1 1:0.28966885 2:0.00053285801 3:0.33527581 4:2.8344226 5:14.758261 6:10.510423 7:11.302983 8:11.239013 9:11.15037 10:11.061924 11:11.009219 12:11.069558 13:11.302585 14:11.5988 15:11.861901 16:9.8445792 17:4.6612204 20:0.23780672 21:0.37553634 22:0.4774012 23:0.54659481 24:0.58506686 25:0.71987479 26:0.94881174 27:1.5839667 28:1.3470633 29:1.2651694 30:1.2417419 31:1.1012694 32:0.99170243 33:7.7396827 34:3.3737429 35:1.663674 36:1.3257208 37:0.43133816 38:0.15086099 39:2.7940136 40:1.3340388 41:0.77488937 42:0.60654572 43:0.3917096 44:0.26473146 45:10.967003 46:10.903033 47:10.81439 48:10.725946 49:10.673241 50:10.733579 51:10.966605 52:11.262819 53:11.525919 54:2.2482712 55:0.69964576 56:6.0273735 57:2.1622137 58:0.81436247 59:0.6493653 60:0.18907036 61:0.26899621 
1 1:0.42573756 2:0.00050587203 3:0.27395529 4:2.7298879 5:14.859886 6:10.60428 7:11.053734 8:10.977723 9:10.829968 10:10.684878 11:10.558496 12:10.50937 13:10.717487 14:11.118909 15:11.438499 16:9.6174474 17:4.5569226 20:0.23468311 21:0.41616763 22:0.53727552 23:0.63766407 24:0.72952395 25:0.84295717 26:1.0381625 27:1.4770999 28:1.3115277 29:1.2449894 30:1.1306082 31:1.0354829 32:0.95983631 33:7.9238753 34:1.59047 35:0.83711548 36:0.52492851 37:0.16002397 38:0.10392749 39:2.7906059 40:0.74094209 41:0.47985804 42:0.38535287 43:0.27075054 44:0.23149657 45:10.523026 46:10.447016 47:10.299263 48:10.154175 49:10.027795 50:9.97867 51:10.186784 52:10.5882 53:10.907787 54:2.4512835 55:0.40200371 56:7.3282427 57:0.86283827 58:0.76480382 59:0.62652845 60:0.19390377 61:0.30318722 
1 1:0.27794987 2:5.899826e-005 3:0.16798089 4:3.3357089 5:15.16592 6:10.858306 7:12.185482 8:12.236934 9:12.327078 10:12.448003 11:12.599897 12:12.777709 13:12.956005 14:13.118143 15:13.264349 16:9.4748833 17:4.5790142 20:0.21988063 21:0.38949019 22:0.39869222 23:0.41054485 24:0.43911198 25:0.46710004 26:0.51734334 27:1.553101 28:1.5004769 29:1.4752121 30:1.4022656 31:1.3484154 32:1.2664757 33:8.1983368 34:5.7655245 35:4.7655524 36:3.9136844 37:3.075312 38:2.0059574 39:3.1699886 40:2.3382005 41:1.9153051 42:1.5977531 43:1.2923899 44:0.9426744 45:11.865064 46:11.916516 47:12.00666 48:12.127585 49:12.279478 50:12.45729 51:12.635586 52:12.797723 53:12.94393 54:1.8030195 55:1.1368398 56:4.0080276 57:2.8880971 58:0.67430471 59:0.64176251 60:0.25957684 61:0.27728404 
1 1:0.27396365 2:0.0001979804 3:0.39245214 4:3.4497251 5:15.157787 6:10.874702 7:12.020416 8:12.11786 9:12.225755 10:12.365023 11:12.54314 12:12.74353 13:12.938009 14:13.11121 15:13.262388 16:10.05819 17:4.8345124 20:0.36833905 21:0.40900949 22:0.43647011 23:0.46874972 24:0.50262812 25:0.52660606 26:0.56727155 27:1.4861196 28:1.4194356 29:1.3514736 30:1.2986843 31:1.2599085 32:1.2082293 33:8.0085203 34:5.7233374 35:4.6793306 36:3.8533536 37:3.0492306 38:1.9645888 39:3.1334075 40:2.3627603 41:1.9399329 42:1.6224394 43:1.3261948 44:0.94357939 45:11.705251 46:11.802695 47:11.91059 48:12.049858 49:12.227974 50:12.428365 51:12.622843 52:12.796043 53:12.947222 54:1.7555881 55:1.1571119 56:3.87344 57:2.876444 58:0.67159951 59:0.60731498 60:0.26117262 61:0.3024791 
-1 1:0.20614224 2:0.00019298138 3:0.34680015 4:3.0190146 5:14.412268 6:10.358663 7:11.868345 8:11.935999 9:11.996659 10:12.06368 11:12.152859 12:12.270913 13:12.4015 14:12.529179 15:12.646046 16:9.8134288 17:4.7050462 20:0.41614587 21:0.44186132 22:0.44944053 23:0.47443505 24:0.49240398 25:0.50060679 26:0.50923576 27:1.4057273 28:1.3997995 29:1.3366379 30:1.3078605 31:1.294737 32:1.278228 33:7.3545891 34:5.1382254 35:4.4802364 36:4.1187383 37:3.8011403 38:3.3849104 39:2.8400717 40:2.1169033 41:1.8795945 42:1.7445737 43:1.6205207 44:1.4602418 45:11.639419 46:11.707073 47:11.767733 48:11.834754 49:11.923933 50:12.041986 51:12.172573 52:12.300252 53:12.417119 54:1.3883086 55:0.81351707 56:3.2913619 57:1.4004203 58:0.60588266 59:0.57689703 60:0.29182502 61:0.31456505 
1 1:0.29460878 2:0.00019298138 3:0.16551529 4:3.4228651 5:15.192567 6:10.909893 7:12.627317 8:12.677246 9:12.7357 10:12.809843 11:12.90818 12:13.030478 13:13.161363 14:13.288293 15:13.406056 16:9.5683296 17:4.5516362 20:0.52038301 21:0.41783495 22:0.44687061 23:0.46361451 24:0.49022039 25:0.52306679 26:0.58350306 27:1.4868964 28:1.3945631 29:1.3738978 30:1.3256761 31:1.2687584 32:1.1928507 33:8.1888705 34:5.796213 35:5.063329 36:4.4400966 37:3.8455026 38:2.9543132 39:3.1943875 40:2.4198828 41:2.1097736 42:1.8653985 43:1.6459912 44:1.3238371 45:12.284717 46:12.334646 47:12.393101 48:12.467244 49:12.56558 50:12.687878 51:12.818762 52:12.945692 53:13.063456 54:1.6201865 55:1.0315023 56:3.7472867 57:2.1982362 58:0.6735791 59:0.61915886 60:0.26555427 61:0.29636391 
1 1:0.19108306 2:6.5997822e-005 3:0.16700993 4:3.607755 5:15.536994 6:11.254168 7:13.12805 8:13.19244 9:13.250883 10:13.317624 11:13.405094 12:13.517483 13:13.640722 14:13.761283 15:13.873818 16:9.7428024 17:4.6484487 20:0.36317189 21:0.4394033 22:0.43461023 23:0.43965202 24:0.46212518 25:0.4708745 26:0.49988519 27:1.418337 28:1.4372876 29:1.4125095 30:1.3690572 31:1.3468534 32:1.2942451 33:8.428825 34:6.3876985 35:5.6956809 36:5.0953606 37:4.4807754 38:3.5136497 39:3.3866648 40:2.6613564 41:2.3641706 42:2.1156275 43:1.8606526 44:1.4856955 45:12.917491 46:12.98188 47:13.040323 48:13.107065 49:13.194534 50:13.306923 51:13.430163 52:13.550723 53:13.663258 54:1.606484 55:1.1048049 56:3.3893753 57:2.2499054 58:0.59668406 59:0.60357797 60:0.29470827 61:0.29756502 
1 1:0.27253392 2:0.00013599075 3:0.19451854 4:3.4780843 5:15.172491 6:10.968353 7:12.801978 8:12.854763 9:12.896985 10:12.956227 11:13.041511 12:13.150467 13:13.268275 14:13.382364 15:13.488032 16:9.6145667 17:4.5309322 20:0.32679268 21:0.45509936 22:0.46564226 23:0.46986174 24:0.48091328 25:0.49501814 26:0.51351082 27:1.3974786 28:1.3637606 29:1.3486639 30:1.3290667 31:1.3041785 32:1.2737867 33:8.1352274 34:5.9070031 35:5.3231174 36:4.9179824 37:4.4348061 38:3.7080401 39:3.2159307 40:2.4890579 41:2.2427365 42:2.0744088 43:1.8760905 44:1.5829629 45:12.488691 46:12.541476 47:12.583698 48:12.64294 49:12.728224 50:12.83718 51:12.954988 52:13.069076 53:13.174745 54:1.493568 55:0.97104625 56:3.3852557 57:1.7650521 58:0.6016471 59:0.57949005 60:0.30084991 61:0.31236067 
0.00359792331922466 1:0.29794597 2:2.9999955e-006 3:0.63264796 4:3.3323892 5:15.206104 6:10.882302 7:12.543696 8:12.614012 9:12.695345 10:12.781377 11:12.891057 12:13.030741 13:13.179158 14:13.320241 15:13.44949 16:9.9961792 17:4.7309313 19:2.1112649 20:0.44428767 21:0.38308316 22:0.3909496 23:0.4075955 24:0.44468582 25:0.47936096 26:0.52916188 27:1.5692651 28:1.5324055 29:1.4902903 30:1.4039837 31:1.3325554 32:1.2549594 33:8.1622648 34:5.8404958 35:4.9659884 36:4.2601322 37:3.5214783 38:2.5074023 39:3.1432982 40:2.3591615 41:2.0006705 42:1.7464796 43:1.479026 44:1.1216619 45:12.196609 46:12.266925 47:12.348257 48:12.434289 49:12.543969 50:12.683653 51:12.83207 52:12.973152 53:13.102402 54:1.6853628 55:1.0860339 56:3.8007712 57:2.563302 58:0.68445926 59:0.65312173 60:0.25343609 61:0.27582415 
1 1:0.19354171 2:8.3996472e-005 3:0.22158153 4:3.4088974 5:15.225544 6:10.950263 7:12.692844 8:12.769655 9:12.838692 10:12.916475 11:13.018692 12:13.146149 13:13.280834 14:13.408082 15:13.52403 16:9.6276223 17:4.6528944 20:0.26193802 21:0.40588369 22:0.42380196 23:0.4304315 24:0.44809603 25:0.45418797 26:0.47312064 27:1.4965619 28:1.4404925 29:1.4329632 30:1.3926206 31:1.37303 32:1.3353686 33:8.194563 34:5.9679042 35:5.3076493 36:4.7825459 37:4.3008096 38:3.6051459 39:3.1968563 40:2.4731324 41:2.1825478 42:1.9732547 43:1.7792475 44:1.5098589 45:12.479304 46:12.556116 47:12.625153 48:12.702936 49:12.805152 50:12.93261 51:13.067294 52:13.194543 53:13.310491 54:1.5286315 55:0.97405205 56:3.4671581 57:1.8425358 58:0.63008191 59:0.59586799 60:0.27551392 61:0.29535233 
-1 1:0.30059706 2:0.00043490541 3:0.30397708 4:2.9329268 5:14.31362 6:10.266671 7:11.756755 8:11.858699 9:11.901889 10:11.958245 11:12.04291 12:12.154004 13:12.275563 14:12.397127 15:12.51306 16:9.5265046 17:4.6092054 20:0.43205446 21:0.42850888 22:0.42481077 23:0.42673398 24:0.45138831 25:0.49673258 26:0.57259745 27:1.4605991 28:1.4505899 29:1.4405259 30:1.3821134 31:1.3010191 32:1.2039766 33:7.2796434 34:4.8386103 35:4.1492031 36:3.6434577 37:3.0418446 38:2.3160119 39:2.7497988 40:1.9541318 41:1.6772298 42:1.5031826 43:1.3107831 44:1.0834618 45:11.406093 46:11.508037 47:11.551227 48:11.607582 49:11.692247 50:11.803341 51:11.9249 52:12.046464 53:12.162397 54:1.528444 55:0.87779847 56:3.7152854 57:1.9515346 58:0.64074396 59:0.64755532 60:0.27776468 61:0.27828441 
-1 1:0.26930779 2:0.00011499339 3:0.28318749 4:3.1987337 5:14.641084 6:10.486931 7:12.432174 8:12.486253 9:12.512437 10:12.542209 11:12.591761 12:12.667296 13:12.760332 14:12.859631 15:12.95739 16:9.8387662 17:4.4462703 19:0.13708619 20:0.41983142 21:0.39130668 22:0.38366725 23:0.37760527 24:0.391047 25:0.41141935 26:0.44341771 27:1.5555898 28:1.5565406 29:1.5779281 30:1.5325854 31:1.4756587 32:1.3950653 33:7.6999122 34:5.0948077 35:4.6657978 36:4.2461172 37:3.8069143 38:3.2593969 39:2.8503888 40:2.0073263 41:1.810917 42:1.6617622 43:1.5162859 44:1.3450746 45:12.123118 46:12.177196 47:12.203381 48:12.233152 49:12.282705 50:12.358239 51:12.451275 52:12.550574 53:12.648333 54:1.4736499 55:0.81644205 56:3.6150441 57:1.5372263 58:0.62109131 59:0.64395438 60:0.27416838 61:0.26781764 
1 1:0.15577992 2:0.00011299362 3:0.2243692 4:3.4016127 5:15.617815 6:11.366859 7:12.840297 8:12.92074 9:12.992243 10:13.07035 11:13.172134 12:13.304039 13:13.450462 14:13.593785 15:13.724997 16:9.4645394 17:4.3855539 20:0.33211131 21:0.42487223 22:0.42344123 23:0.43368061 24:0.44874616 25:0.46007892 26:0.51110359 27:1.4480875 28:1.4377374 29:1.4189655 30:1.3889197 31:1.3620278 32:1.2808127 33:8.2948898 34:5.863939 35:5.0748304 36:4.4999776 37:3.9237266 38:3.0195466 39:3.2939185 40:2.4245 41:2.0853207 42:1.8541842 43:1.6259294 44:1.3004309 45:12.671729 46:12.752171 47:12.823675 48:12.901781 49:13.003565 50:13.13547 51:13.281893 52:13.425216 53:13.556428 54:1.7160732 55:1.0388933 56:3.7974586 57:2.1880048 58:0.61485781 59:0.61593993 60:0.28411226 61:0.28743911 
1 1:0.12652075 2:0.0001009949 3:0.32631078 4:3.3767383 5:15.558899 6:11.180023 7:13.113265 8:13.165954 9:13.201498 10:13.256709 11:13.337741 12:13.445656 13:13.567806 14:13.691131 15:13.808259 16:9.576576 17:4.5219565 20:0.30570002 21:0.39422686 22:0.41889321 23:0.42740467 24:0.42889839 25:0.43214923 26:0.44218398 27:1.5153123 28:1.4476604 29:1.4246166 30:1.417631 31:1.4103856 32:1.3891877 33:8.3933892 34:5.7645406 35:5.0828598 36:4.6010898 37:4.0928628 38:3.4805749 39:3.2308162 40:2.3588713 41:2.0726064 42:1.8778763 43:1.6730135 44:1.4358718 45:12.978393 46:13.031081 47:13.066625 48:13.121836 49:13.202868 50:13.310783 51:13.432933 52:13.556258 53:13.673386 54:1.632805 55:0.9438026 56:3.848478 57:1.7735875 58:0.62552235 59:0.58074037 60:0.27225702 61:0.29427278 
-1 1:0.26686642 2:6.099814e-005 3:0.59478324 4:2.0686389 5:14.091901 6:10.090465 7:9.9560478 8:9.9862105 9:9.9566021 10:9.9362872 11:10.014656 12:10.227889 13:10.515164 14:10.806677 15:11.052053 16:7.8562683 17:4.5182359 20:0.13938709 21:0.3363858 22:0.34185487 23:0.35738629 24:0.38755569 25:0.46924209 26:0.6620816 27:1.7493567 28:1.7181513 29:1.6314051 30:1.5317455 31:1.3627706 32:1.136086 33:7.1120129 34:2.3525436 35:1.1464077 36:0.61574332 37:0.27655312 38:0.10649287 39:2.3013502 40:0.8412624 41:0.53439761 42:0.38890948 43:0.27806725 44:0.20488345 45:9.6501987 46:9.6803609 47:9.6507531 48:9.6304385 49:9.7088064 50:9.922036 51:10.209308 52:10.500818 53:10.746192 54:1.9641809 55:0.4540846 56:6.135122 57:1.3566602 58:0.78838764 59:0.79821163 60:0.21035085 61:0.22009345 
1 1:0.36236343 2:0.00072173948 3:0.55023017 4:2.494861 5:14.659299 6:10.55216 7:11.015262 8:10.993757 9:10.946754 10:10.903008 11:10.903247 12:11.016635 13:11.268396 14:11.562638 15:11.819258 16:8.8181394 17:4.760313 20:0.25181963 21:0.39329806 22:0.47728022 23:0.54929529 24:0.61995156 25:0.77422335 26:1.0047374 27:1.5252127 28:1.3379987 29:1.2481328 30:1.1875986 31:1.082866 32:0.97294097 33:7.359512 34:3.2685559 35:1.473998 36:1.0013474 37:0.40461274 38:0.13958714 39:2.6803791 40:1.3047922 41:0.74058929 42:0.5699683 43:0.37783831 44:0.25991203 45:10.57855 46:10.557045 47:10.510042 48:10.466297 49:10.466536 50:10.579923 51:10.831682 52:11.125922 53:11.382541 54:2.1584135 55:0.67605348 56:5.7661687 57:2.0425208 58:0.78536942 59:0.64200295 60:0.19119266 61:0.26896353 
1 1:0.48089968 2:0.0018922086 3:0.47626089 4:2.4265073 5:14.368843 6:10.351373 7:10.265552 8:10.197265 9:10.075187 10:9.9520095 11:9.8521254 12:9.8503278 13:10.103367 14:10.51937 15:10.844224 16:8.6690974 17:4.6810492 20:0.25406453 21:0.54307866 22:0.73688269 23:0.8446813 24:0.91971247 25:1.0342402 26:1.0904057 27:1.2907659 28:1.1275126 29:1.0502554 30:1.0110648 31:0.96088429 32:0.94649709 33:7.2975468 34:1.2482402 35:0.51615699 36:0.35481091 37:0.13558977 38:0.10436272 39:2.6096212 40:0.6868036 41:0.4382917 42:0.35995157 43:0.2642686 44:0.23439442 45:9.6480532 46:9.5797683 47:9.457694 48:9.3345212 49:9.2346414 50:9.2328439 51:9.4858727 52:9.9018645 53:10.226712 54:2.2917917 55:0.37124853 56:6.8782921 57:0.60992406 58:0.68078849 59:0.5359907 60:0.23637741 61:0.39347516 
1 1:0.27091911 2:0.00026596463 3:0.56916377 4:2.7395277 5:14.761676 6:10.630384 7:11.572367 8:11.699221 9:11.828622 10:11.968174 11:12.128319 12:12.310299 13:12.493052 14:12.659946 15:12.808459 16:8.6259332 17:4.8312125 20:0.29700795 21:0.33804885 22:0.32994958 23:0.33584061 24:0.35536689 25:0.37426129 26:0.41404883 27:1.6889658 28:1.7116605 29:1.6881256 30:1.6224906 31:1.5576129 32:1.4492572 33:7.4721373 34:5.0739561 35:4.1051525 36:3.3294292 37:2.5367146 38:1.5867441 39:2.7573658 40:1.9157896 41:1.5188517 42:1.2538661 43:1.0033213 44:0.73027002 45:11.261201 46:11.388055 47:11.517456 48:11.657007 49:11.817152 50:11.999132 51:12.181884 52:12.348779 53:12.497291 54:1.7155564 55:0.96960394 56:3.9339505 57:2.6494218 58:0.6596645 59:0.68492239 60:0.24254621 61:0.2437767 
1 1:0.28691953 2:0.0013720583 3:0.61901613 4:2.577753 5:14.089813 6:10.044553 7:10.32401 8:10.442097 9:10.563843 10:10.700234 11:10.869386 12:11.073654 13:11.287542 14:11.488494 15:11.664035 16:8.8716522 17:4.8871693 20:0.58267138 21:0.43015642 22:0.53335629 23:0.6378596 24:0.73714397 25:0.82845487 26:0.88858813 27:1.4483072 28:1.2588308 29:1.1510814 30:1.080674 31:1.029413 32:1.0033473 33:7.1029987 34:3.8675225 35:2.9216145 36:2.3189114 37:1.7979648 38:1.2019874 39:2.5566742 40:1.6499188 41:1.3348105 42:1.1471392 43:0.97875986 44:0.7661425 45:9.9917061 46:10.109791 47:10.231536 48:10.367925 49:10.537077 50:10.741343 51:10.95523 52:11.156181 53:11.331721 54:1.6217863 55:0.81396763 56:4.6280927 57:1.9324611 58:0.74955532 59:0.57246055 60:0.21743754 61:0.34277476 
-1 1:0.41528672 2:0.0014539425 3:0.35024341 4:2.6344288 5:14.932054 6:10.763589 7:10.7058 8:10.782994 9:10.853359 10:10.940078 11:11.096624 12:11.346495 13:11.643087 14:11.927061 15:12.160224 16:8.678457 17:4.3797246 20:0.30950692 21:0.44314939 22:0.54620107 23:0.51804411 24:0.55869994 25:0.59037609 26:0.67670474 27:1.4348943 28:1.2378463 29:1.2699737 30:1.2205007 31:1.1858329 32:1.1169475 33:7.6815477 34:3.5157411 35:1.9213482 36:1.2451069 37:0.86305619 38:0.52106205 39:2.7957064 40:1.483891 41:0.90217923 42:0.69629024 43:0.57139359 44:0.45077175 45:10.19101 46:10.268203 47:10.338567 48:10.425285 49:10.581829 50:10.831698 51:11.128288 52:11.412261 53:11.645423 54:2.1120005 55:0.72249661 56:5.792349 57:1.9854832 58:0.68734358 59:0.58293815 60:0.26300905 61:0.31913839 
0.3062358391913171 1:0.36131257 2:0.00046489192 3:0.56122364 4:2.7183658 5:14.509966 6:10.37474 7:11.198061 8:11.334419 9:11.487684 10:11.647365 11:11.828211 12:12.022271 13:12.210221 14:12.379884 15:12.528683 16:8.8111168 17:4.7755516 20:0.38982815 21:0.35744645 22:0.41062776 23:0.47168347 24:0.51170564 25:0.54282475 26:0.60035897 27:1.6204845 28:1.469994 29:1.3560148 30:1.290201 31:1.2405498 32:1.1745565 33:7.2584565 34:4.7907935 35:3.8915201 36:3.1921443 37:2.4992728 38:1.544647 39:2.6436589 40:1.9265772 41:1.5998957 42:1.360243 43:1.1286774 44:0.8103625 45:10.762857 46:10.899214 47:11.052477 48:11.212158 49:11.393003 50:11.587062 51:11.775012 52:11.944675 53:12.093473 54:1.5601021 55:0.9731162 56:3.9422818 57:2.4655985 58:0.76442053 59:0.62829811 60:0.22254916 61:0.29476339 
1 1:0.37659227 2:0.00027496219 3:0.43342717 4:3.2725878 5:14.971297 6:10.828996 7:12.119824 8:12.199243 9:12.28229 10:12.365537 11:12.474955 12:12.611978 13:12.7585 14:12.899281 15:13.028333 16:8.3219235 17:4.7260444 20:0.60301403 21:0.47556688 22:0.51478458 23:0.52966367 24:0.55307847 25:0.5840246 26:0.63016052 27:1.3505392 28:1.2758239 29:1.2561358 30:1.2289426 31:1.1948784 32:1.1498711 33:7.8644339 34:5.5038496 35:4.7982489 36:4.2561744 37:3.7501764 38:2.9944046 39:3.1099602 40:2.3564718 41:2.0528282 42:1.8332366 43:1.6433803 44:1.3632279 45:11.662517 46:11.741936 47:11.824983 48:11.90823 49:12.017647 50:12.15467 51:12.301191 52:12.441972 53:12.571025 54:1.5631897 55:0.97388986 56:3.6422825 57:1.9398816 58:0.62327698 59:0.57491974 60:0.29112908 61:0.32680419 
1 1:0.23673714 2:0.00021697646 3:0.51619399 4:2.9848528 5:14.606021 6:10.452418 7:11.970045 8:12.03781 9:12.100313 10:12.16735 11:12.257828 12:12.375987 13:12.506242 14:12.635001 15:12.75436 16:8.2859931 17:4.7701004 20:0.42359575 21:0.40119869 22:0.42287468 23:0.42847305 24:0.44523183 25:0.45272267 26:0.48556751 27:1.5009775 28:1.4394803 29:1.4243507 30:1.3928334 31:1.3750595 32:1.3171034 33:7.4818797 34:5.1767588 35:4.5481365 36:4.052605 37:3.5365274 38:2.7727705 39:2.8499887 40:2.1201084 41:1.8573941 42:1.665286 43:1.4632471 44:1.1946816 45:11.702939 46:11.770703 47:11.833207 48:11.900243 49:11.990721 50:12.10888 51:12.239135 52:12.367894 53:12.487253 54:1.4972726 55:0.93224669 56:3.5325394 57:1.8894186 58:0.63732742 59:0.602961 60:0.27083474 61:0.29089583 
1 1:0.36960854 2:0.00025596724 3:0.49309801 4:2.9744863 5:15.050826 6:10.817275 7:12.1932 8:12.292133 9:12.387575 10:12.490955 11:12.613899 12:12.761608 13:12.916464 14:13.062413 15:13.194992 16:8.5636192 17:4.8343355 20:0.47708661 21:0.35197924 22:0.36550108 23:0.3933021 24:0.42333515 25:0.45986554 26:0.52458592 27:1.630261 28:1.5846832 29:1.5051604 30:1.433349 31:1.3601016 32:1.2621658 33:7.7938048 34:5.3692886 35:4.5450299 36:3.9419576 37:3.2765278 38:2.345398 39:2.9186697 40:2.1216591 41:1.8052165 42:1.5985072 43:1.371416 44:1.0603024 45:11.746035 46:11.844967 47:11.940409 48:12.043789 49:12.166733 50:12.314442 51:12.469297 52:12.615246 53:12.747825 54:1.613365 55:0.98292259 56:3.8341069 57:2.3195165 58:0.7125356 59:0.66950737 60:0.23413708 61:0.26308079 
1 1:0.20016966 2:0.00019498099 3:0.49990218 4:2.8860711 5:14.770937 6:10.625465 7:12.177144 8:12.245125 9:12.317753 10:12.396125 11:12.498043 12:12.625628 13:12.759869 14:12.887932 15:13.004226 16:8.3483867 17:4.8011752 20:0.35635399 21:0.34451977 22:0.3557334 23:0.36387129 24:0.37157666 25:0.36858049 26:0.3702123 27:1.6695604 28:1.622163 29:1.5934439 30:1.569431 31:1.570964 32:1.5620737 33:7.529777 34:5.2471726 35:4.6091386 36:4.2033655 37:3.8037465 38:3.2362863 39:2.7710266 40:2.0476563 41:1.7878226 42:1.6333044 43:1.4741514 44:1.2577772 45:11.955535 46:12.023516 47:12.096144 48:12.174516 49:12.276434 50:12.404019 51:12.53826 52:12.666323 53:12.782616 54:1.4382052 55:0.86102365 56:3.4194579 57:1.591952 58:0.63737252 59:0.59764211 60:0.25059777 61:0.26556845 
-1 1:0.35425813 2:0.0010464523 3:0.7290031 4:2.3854716 5:13.443738 6:9.5755389 7:10.713365 8:10.829231 9:10.921086 10:11.008497 11:11.106088 12:11.220532 13:11.342211 14:11.462618 15:11.574381 16:8.2986534 17:4.8585319 20:0.55422931 21:0.42005614 22:0.45362015 23:0.45538035 24:0.47733482 25:0.50525433 26:0.57388155 27:1.4716678 28:1.3859213 29:1.3810823 30:1.3425718 31:1.2977011 32:1.2092018 33:6.4224569 34:3.8180117 35:3.2705462 36:2.8969507 37:2.5064917 38:1.9463536 39:2.299534 40:1.5719107 41:1.3607796 42:1.235915 43:1.1103458 44:0.94679317 45:10.288254 46:10.404119 47:10.495973 48:10.583383 49:10.680973 50:10.795416 51:10.917095 52:11.0375 53:11.149263 54:1.3386211 55:0.73504592 56:3.6570981 57:1.5054767 58:0.65755966 59:0.61819419 60:0.26918057 61:0.29327451 
1 1:0.29042456 2:0.00012999155 3:0.44633062 4:3.0608238 5:15.130181 6:10.911172 7:12.79663 8:12.873047 9:12.938849 10:13.00651 11:13.092133 12:13.199559 13:13.315007 14:13.427255 15:13.531309 16:8.6929052 17:4.7385064 20:0.34619199 21:0.35670824 22:0.36081984 23:0.35850627 24:0.36612119 25:0.36909223 26:0.38469557 27:1.6160095 28:1.5961042 29:1.603188 30:1.5791896 31:1.5686568 32:1.5223008 33:7.7809741 34:5.645769 35:5.1332512 36:4.7362752 37:4.3200624 38:3.632912 39:2.9524477 40:2.2398661 41:2.0116727 42:1.8530755 43:1.6818657 44:1.4227692 45:12.459636 46:12.536053 47:12.601855 48:12.669516 49:12.755139 50:12.862565 51:12.978013 52:13.09026 53:13.194314 54:1.4378558 55:0.90979309 56:3.2245686 57:1.6517525 58:0.61606401 59:0.61437343 60:0.25836677 61:0.26121769 
1 1:0.22286751 2:0.00017198521 3:0.4942681 4:2.9278726 5:14.522393 6:10.345927 7:12.173585 8:12.236969 9:12.281359 10:12.326223 11:12.396399 12:12.493322 13:12.603854 14:12.714612 15:12.817345 16:8.4007262 17:4.8160468 20:0.36469033 21:0.36530817 22:0.38747695 23:0.39577632 24:0.40999815 25:0.40986873 26:0.40886333 27:1.6044087 28:1.5276162 29:1.5031031 30:1.4678714 31:1.4647083 32:1.4608026 33:7.4709162 34:5.1371736 35:4.6999253 36:4.4081941 37:4.0927788 38:3.681377 39:2.7399476 40:2.0545466 41:1.8820641 42:1.777696 43:1.6477867 44:1.4818872 45:11.923932 46:11.987315 47:12.031705 48:12.076569 49:12.146746 50:12.243668 51:12.3542 52:12.464958 53:12.567691 54:1.3055344 55:0.79760832 56:3.2255742 57:1.2901781 58:0.64625349 59:0.58710745 60:0.25785569 61:0.28336531 
-1 1:0.3670631 2:5.6998376e-005 3:0.21973615 4:3.4084129 5:15.860329 6:11.709322 7:11.803859 8:11.897445 9:11.953254 10:12.020851 11:12.180324 12:12.449034 13:12.7559 14:13.041777 15:13.277267 16:9.3085589 17:3.7396049 20:0.17213906 21:0.55441141 22:0.54425789 23:0.53382549 24:0.5249504 25:0.50845061 26:0.51580481 27:1.2233009 28:1.233272 29:1.2469475 30:1.2581928 31:1.2798154 32:1.2718816 33:8.3899465 34:4.8937731 35:3.4071869 36:2.5880128 37:1.8770986 38:0.96604044 39:3.4849595 40:2.0470901 41:1.4523775 42:1.1553492 43:0.8928227 44:0.5698665 45:11.360374 46:11.45396 47:11.509768 48:11.577366 49:11.736838 50:12.005547 51:12.312412 52:12.59829 53:12.833779 54:2.419336 55:1.0743525 56:5.2068774 57:2.8946066 58:0.51763312 59:0.532194 60:0.36440273 61:0.34727553 
1 1:0.35444265 2:0.00023697192 3:0.24607227 4:3.4771825 5:16.00456 6:11.871201 7:12.47714 8:12.450541 9:12.404158 10:12.358709 11:12.362228 12:12.491042 13:12.759026 14:13.059737 15:13.318556 16:9.4293251 17:4.5905678 20:0.22308835 21:0.5475461 22:0.56960798 23:0.60876126 24:0.63248753 25:0.70308613 26:0.88976974 27:1.2315148 28:1.2063731 29:1.1699719 30:1.1503233 31:1.104373 32:1.0097964 33:8.3455401 34:4.7976174 35:2.7196259 36:2.0993466 37:1.0430594 38:0.26108653 39:3.4935814 40:2.0048997 41:1.2225323 42:0.96125377 43:0.60666621 44:0.33071857 45:12.051756 46:12.025157 47:11.978774 48:11.933326 49:11.936844 50:12.065658 51:12.333641 52:12.634352 53:12.893171 54:2.5838518 55:1.1066417 56:5.4015228 57:3.3537963 58:0.59793179 59:0.58554058 60:0.29129737 61:0.30765168 
-0.5513559426313216 1:0.32551962 2:0.0011593277 3:0.34543906 4:2.953965 5:14.9096 6:11.007303 7:9.9080204 8:9.9129377 9:9.9568237 10:10.010126 11:10.121651 12:10.34093 13:10.682894 14:11.066931 15:11.366063 16:9.5311463 17:4.5400275 20:0.26657079 21:0.67249131 22:0.74845463 23:0.78873914 24:0.82736859 25:0.86963383 26:1.0057928 27:1.1204439 28:1.0695353 29:1.0582902 30:1.0362055 31:1.0128677 32:0.97037505 33:7.6942847 34:2.531105 35:1.1034771 36:0.63599306 37:0.36694186 38:0.15758221 39:2.9589618 40:1.1704103 41:0.68882485 42:0.52875945 43:0.39768761 44:0.27655616 45:9.5232938 46:9.5282109 47:9.572096 48:9.6253971 49:9.7369197 50:9.9561953 51:10.298155 52:10.682188 53:10.981319 54:2.4590227 55:0.60661389 56:6.6134969 57:1.4314966 58:0.56188941 59:0.52942594 60:0.3257786 61:0.37573873 
1 1:0.53651033 2:0.0004738877 3:0.23178372 4:3.3289461 5:15.95321 6:11.848912 7:11.938846 8:11.857105 9:11.742086 10:11.627142 11:11.538063 12:11.546756 13:11.807844 14:12.225043 15:12.55132 16:9.3584105 17:4.4895479 20:0.26501306 21:0.62170381 22:0.66984529 23:0.73601604 24:0.78353161 25:0.84519637 26:1.0447068 27:1.1602801 28:1.1555284 29:1.1315298 30:1.0750072 31:1.035807 32:0.95953373 33:8.4400418 34:2.426001 35:1.1846854 36:0.85481482 37:0.24915588 38:0.12775625 39:3.3775389 40:1.0643831 41:0.65975998 42:0.52955886 43:0.32852287 44:0.2543507 45:11.228823 46:11.147083 47:11.032066 48:10.917123 49:10.828044 50:10.836737 51:11.097823 52:11.515019 53:11.841295 54:2.9074123 55:0.56531591 56:7.394781 57:1.4177932 58:0.57670337 59:0.57007095 60:0.29718211 61:0.33716666 
1 1:0.3280879 2:8.3996472e-005 3:0.18243655 4:3.9933908 5:16.478611 6:12.230863 7:13.484019 8:13.60749 9:13.737174 10:13.877739 11:14.042767 12:14.230406 13:14.416636 14:14.585066 15:14.733263 16:9.569262 17:4.6525589 20:0.28148265 21:0.64691108 22:0.63160895 23:0.62674506 24:0.64253839 25:0.6649951 26:0.69787001 27:1.1347854 28:1.1506568 29:1.1554166 30:1.1402448 31:1.1206921 32:1.0962137 33:8.8745988 34:7.1050714 35:6.1535909 36:5.3115362 37:4.4205116 38:3.1556092 39:3.9309346 40:3.1826656 41:2.7213208 42:2.3446361 43:1.9674557 44:1.4594493 45:13.095709 46:13.21918 47:13.348863 48:13.489429 49:13.654456 50:13.842095 51:14.028325 52:14.196756 53:14.344952 54:1.8551494 55:1.4042877 56:3.3549989 57:3.0905954 58:0.52419946 59:0.5379839 60:0.3821354 61:0.36992192 
1 1:0.30968228 2:0.00058382954 3:0.39104091 4:3.4845665 5:15.419366 6:11.425263 7:12.032025 8:12.13146 9:12.2413 10:12.369514 11:12.532612 12:12.727411 13:12.928478 14:13.11583 15:13.280608 16:9.8314431 17:4.7653546 20:0.61449351 21:0.55249392 22:0.577848 23:0.61535319 24:0.67382521 25:0.73297973 26:0.77729254 27:1.2260302 28:1.201303 29:1.1670585 30:1.1183992 31:1.0777298 32:1.0514854 33:7.8722942 34:5.410129 35:4.3766477 36:3.5860451 37:2.8492571 38:1.9889848 39:3.2702353 40:2.3518778 41:1.9157543 42:1.6183786 43:1.3499234 44:1.0396942 45:11.669035 46:11.768471 47:11.87831 48:12.006524 49:12.169622 50:12.36442 51:12.565487 52:12.752839 53:12.917617 54:1.8561781 55:1.0859383 56:4.0141811 57:2.5696956 58:0.58953132 59:0.55707839 60:0.30769291 61:0.35231805 
-1 1:0.60866551 2:0.00033994221 3:0.15218618 4:3.4448719 5:16.173022 6:11.981991 7:11.965474 8:12.008308 9:12.070834 10:12.162685 11:12.33458 12:12.60785 13:12.926667 14:13.226205 15:13.46798 16:9.1688756 17:4.1773092 20:0.30998965 21:0.62536126 22:0.67717073 23:0.68724329 24:0.7180227 25:0.73762712 26:0.78168173 27:1.1568972 28:1.1151504 29:1.1062715 30:1.0847848 31:1.0724647 32:1.0499121 33:8.5873384 34:4.6797198 35:2.9444482 36:2.1051609 37:1.5816372 38:0.99511966 39:3.5607304 40:2.0259924 41:1.3538133 42:1.0623829 43:0.87825735 44:0.6640211 45:11.127506 46:11.170339 47:11.232864 48:11.324715 49:11.496609 50:11.769878 51:12.088693 52:12.38823 53:12.630005 54:2.4974802 55:0.97138212 56:5.6552617 57:2.6065092 58:0.55722683 59:0.52824511 60:0.34559276 61:0.38446825 
1 1:0.53580893 2:0.0001019948 3:0.21778603 4:3.9417413 5:16.383122 6:12.151675 7:13.313302 8:13.428646 9:13.554539 10:13.698798 11:13.873522 12:14.070116 13:14.262228 14:14.433401 15:14.582656 16:9.6048882 17:4.7396971 20:0.68982316 21:0.5978008 22:0.60489995 23:0.6151905 24:0.63419569 25:0.64735033 26:0.68245118 27:1.1790306 28:1.17241 29:1.1650303 30:1.1478658 31:1.1343616 32:1.1067603 33:8.7503699 34:6.8322072 35:5.8540527 36:5.0484065 37:4.26422 38:3.0605955 39:3.8031334 40:3.0379259 41:2.5721134 42:2.2198683 43:1.8934715 44:1.4060972 45:12.604473 46:12.719817 47:12.845711 48:12.98997 49:13.164693 50:13.361287 51:13.553399 52:13.724572 53:13.873826 54:1.8412097 55:1.3367393 56:3.4903102 57:2.920897 58:0.54601408 59:0.54163917 60:0.35432464 61:0.36416081 
1 1:0.35719951 2:0.00010499449 3:0.13912 4:4.0229513 5:16.502949 6:12.216859 7:13.821008 8:13.888973 9:13.966475 10:14.060815 11:14.183815 12:14.333226 13:14.489442 14:14.636763 15:14.76933 16:9.4890333 17:4.623497 20:0.63138028 21:0.63357763 22:0.64467412 23:0.63933598 24:0.65952111 25:0.67478767 26:0.70564081 27:1.1456085 28:1.1392039 29:1.1465837 30:1.1299226 31:1.1150885 32:1.092289 33:8.9577826 34:7.0215869 35:6.2524623 36:5.6336655 37:5.0501876 38:4.0983929 39:3.9285674 40:3.1544315 41:2.7872261 42:2.5118972 43:2.2589131 44:1.8475525 45:13.391687 46:13.459653 47:13.537154 48:13.631494 49:13.754494 50:13.903905 51:14.060122 52:14.207442 53:14.340009 54:1.720064 55:1.1844357 56:3.3258585 57:2.2614249 58:0.53342543 59:0.53407077 60:0.37004894 61:0.37604961 
1 1:0.26831193 2:9.3995582e-005 3:0.22335313 4:3.8400462 5:16.027894 6:11.876144 7:13.634854 8:13.684348 9:13.739555 10:13.808244 11:13.903865 12:14.027932 13:14.162124 14:14.29136 15:14.409772 16:9.6239842 17:4.6640404 20:0.431153 21:0.53951628 22:0.52871996 23:0.52218031 24:0.53189627 25:0.53041058 26:0.53650448 27:1.2424826 28:1.2583897 29:1.2695484 30:1.2541326 31:1.2515783 32:1.2422308 33:8.4364919 34:6.7114374 35:6.0955544 36:5.5660464 37:4.9952187 38:4.1023657 39:3.6103498 40:2.9319609 41:2.6369351 42:2.4018837 43:2.147124 44:1.760008 45:13.327099 46:13.376593 47:13.4318 48:13.500489 49:13.59611 50:13.720177 51:13.854369 52:13.983605 53:14.102017 54:1.5702528 55:1.1246364 56:3.0080238 57:2.0675942 58:0.53400342 59:0.54673184 60:0.35061558 61:0.34149449 
